{"learner":{"attributes":{"scikit_learn":"{\"_estimator_type\": \"classifier\"}"},"feature_names":["ortho_h","surface_h","qtrees","cshelph","medianfilter","bathypathfinder","openoceans","openoceanspp","coastnet","pointnet"],"feature_types":["float","float","int","float","float","int","int","int","int","int"],"gradient_booster":{"model":{"gbtree_model_param":{"num_parallel_tree":"1","num_trees":"300"},"iteration_indptr":[0,3,6,9,12,15,18,21,24,27,30,33,36,39,42,45,48,51,54,57,60,63,66,69,72,75,78,81,84,87,90,93,96,99,102,105,108,111,114,117,120,123,126,129,132,135,138,141,144,147,150,153,156,159,162,165,168,171,174,177,180,183,186,189,192,195,198,201,204,207,210,213,216,219,222,225,228,231,234,237,240,243,246,249,252,255,258,261,264,267,270,273,276,279,282,285,288,291,294,297,300],"tree_info":[0,1,2,0,1,2,0,1,2,0,1,2,0,1,2,0,1,2,0,1,2,0,1,2,0,1,2,0,1,2,0,1,2,0,1,2,0,1,2,0,1,2,0,1,2,0,1,2,0,1,2,0,1,2,0,1,2,0,1,2,0,1,2,0,1,2,0,1,2,0,1,2,0,1,2,0,1,2,0,1,2,0,1,2,0,1,2,0,1,2,0,1,2,0,1,2,0,1,2,0,1,2,0,1,2,0,1,2,0,1,2,0,1,2,0,1,2,0,1,2,0,1,2,0,1,2,0,1,2,0,1,2,0,1,2,0,1,2,0,1,2,0,1,2,0,1,2,0,1,2,0,1,2,0,1,2,0,1,2,0,1,2,0,1,2,0,1,2,0,1,2,0,1,2,0,1,2,0,1,2,0,1,2,0,1,2,0,1,2,0,1,2,0,1,2,0,1,2,0,1,2,0,1,2,0,1,2,0,1,2,0,1,2,0,1,2,0,1,2,0,1,2,0,1,2,0,1,2,0,1,2,0,1,2,0,1,2,0,1,2,0,1,2,0,1,2,0,1,2,0,1,2,0,1,2,0,1,2,0,1,2,0,1,2,0,1,2,0,1,2,0,1,2,0,1,2,0,1,2,0,1,2,0,1,2,0,1,2,0,1,2,0,1,2,0,1,2,0,1,2],"trees":[{"base_weights":[-1.8284523E-1,1.2462517E0,-6.729861E-1,1.4159207E0,-2.6484734E-1,5.7039686E-2,-6.902153E-1,1.4576247E0,7.663657E-1,2.4529454E-1,-3.412743E-1,3.6721247E-1,-3.3284587E-1,-4.4649935E-1,-7.141443E-1,1.4146246E0,1.4865712E0,6.759807E-1,1.288881E0,3.172304E-1,-5.5005753E-1,-2.9661325E-1,-6.82169E-1,7.1666086E-1,8.714334E-2,-1.6064079E-1,-3.8680768E-1,1.2127467E-1,-5.119377E-1,-5.9869975E-1,-7.1871847E-1,1.4600183E0,1.3078845E0,1.4966961E0,1.4688642E0,3.419218E-1,7.26653E-1,1.1637235E0,1.457147E0,-8.6471395E-5,3.9245275E-1,1.0162772E0,-6.555304E-1,-5.188406E-1,-2.0408987E-1,-5.902172E-1,-7.2542083E-1,7.552804E-1,1.17004484E-1,7.544802E-3,5.708768E-1,-3.8108593E-1,-5.7557877E-2,-4.254846E-1,-1.6444999E-1,-3.1061092E-1,6.820105E-1,-5.2673024E-1,-6.433072E-2,-6.268616E-1,-4.3723002E-1,-7.317983E-1,-7.124534E-1,4.4096613E-1,3.149773E-1,3.9624164E-1,1.576626E-1,4.4968513E-1,3.9892605E-1,3.994009E-1,4.4440332E-1,3.477155E-1,7.778096E-2,2.8751934E-1,2.0133801E-1,4.0926313E-1,3.0938098E-1,4.445059E-1,4.317628E-1,2.692629E-1,-6.780412E-2,9.174637E-2,1.7354408E-1,4.2775878E-1,1.7207207E-1,-1.6849399E-1,-2.1929887E-1,-1.938643E-1,-1.3566518E-1,-3.5012558E-2,-1.2360144E-1,-1.7988917E-1,1.4605108E-1,-1.9609891E-1,-2.2297268E-1,2.5899217E-1,1.9955531E-1,-1.3181059E-1,1.5316088E-1,6.628791E-2,-4.9398664E-2,1.7978466E-1,-1.7650406E-1,-9.373022E-2,-2.0894931E-1,6.1111476E-2,-8.037013E-2,-1.2398086E-1,-1.8471408E-1,-1.5775883E-1,-3.2626934E-2,-2.037873E-1,-3.7864666E-2,8.936697E-2,2.66542E-1,-2.194001E-1,-1.535202E-1,1.8914584E-2,-8.1677824E-2,-1.6460069E-1,-2.0341925E-1,6.857882E-2,-1.3748752E-1,1.0893066E-1,-2.1955098E-1,-2.1300603E-1,-2.194437E-1],"categories":[],"categories_nodes":[],"categories_segments":[],"categories_sizes":[],"default_left":[0,0,0,0,0,0,0,0,0,0,0,0,0,0,0,0,0,0,0,0,0,0,0,0,0,0,0,0,0,0,0,0,0,0,0,0,0,0,0,0,0,0,0,0,0,0,0,0,0,0,0,0,0,0,0,0,0,0,0,0,0,0,0,0,0,0,0,0,0,0,0,0,0,0,0,0,0,0,0,0,0,0,0,0,0,0,0,0,0,0,0,0,0,0,0,0,0,0,0,0,0,0,0,0,0,0,0,0,0,0,0,0,0,0,0,0,0,0,0,0,0,0,0,0,0,0,0],"id":0,"left_children":[1,3,5,7,9,11,13,15,17,19,21,23,25,27,29,31,33,35,37,39,41,43,45,47,49,51,53,55,57,59,61,63,65,67,69,71,73,75,77,79,81,83,85,87,89,91,93,95,97,99,101,103,105,107,109,111,113,115,117,119,121,123,125,-1,-1,-1,-1,-1,-1,-1,-1,-1,-1,-1,-1,-1,-1,-1,-1,-1,-1,-1,-1,-1,-1,-1,-1,-1,-1,-1,-1,-1,-1,-1,-1,-1,-1,-1,-1,-1,-1,-1,-1,-1,-1,-1,-1,-1,-1,-1,-1,-1,-1,-1,-1,-1,-1,-1,-1,-1,-1,-1,-1,-1,-1,-1,-1],"loss_changes":[2.7457892E7,2.566682E6,3.67132E5,2.4381E5,3.9401258E4,8.138713E4,1.66301E5,1.0524E4,2.5643688E4,7.533832E3,1.3380953E4,3.668303E4,2.7708125E3,9.472419E4,1.3713E4,1.64855E4,9.04E2,7.835953E3,1.6846875E3,2.8823018E3,1.8050264E3,1.597807E4,4.0447266E2,3.8616562E3,8.0113604E3,1.6167163E3,1.9524883E3,6.3806547E4,1.51361875E4,4.4999375E3,2.046E3,9.6605E3,1.026275E4,1.208E3,3.1545E3,4.1176562E3,5.1716406E3,1.2181406E3,1.28984375E1,4.693174E3,1.5729482E3,1.2419562E2,7.209375E1,1.9382188E3,9.968102E3,3.3054785E2,8.805469E1,1.5242031E3,2.2096052E3,6.5662505E3,9.6841406E2,4.9063867E2,2.66419E3,4.4914062E2,6.7708984E2,1.0118342E4,9.091164E3,6.7894375E3,1.9369927E3,3.3734062E3,2.061168E3,3.395E2,7.82E2,0E0,0E0,0E0,0E0,0E0,0E0,0E0,0E0,0E0,0E0,0E0,0E0,0E0,0E0,0E0,0E0,0E0,0E0,0E0,0E0,0E0,0E0,0E0,0E0,0E0,0E0,0E0,0E0,0E0,0E0,0E0,0E0,0E0,0E0,0E0,0E0,0E0,0E0,0E0,0E0,0E0,0E0,0E0,0E0,0E0,0E0,0E0,0E0,0E0,0E0,0E0,0E0,0E0,0E0,0E0,0E0,0E0,0E0,0E0,0E0,0E0,0E0,0E0,0E0],"parents":[2147483647,0,0,1,1,2,2,3,3,4,4,5,5,6,6,7,7,8,8,9,9,10,10,11,11,12,12,13,13,14,14,15,15,16,16,17,17,18,18,19,19,20,20,21,21,22,22,23,23,24,24,25,25,26,26,27,27,28,28,29,29,30,30,31,31,32,32,33,33,34,34,35,35,36,36,37,37,38,38,39,39,40,40,41,41,42,42,43,43,44,44,45,45,46,46,47,47,48,48,49,49,50,50,51,51,52,52,53,53,54,54,55,55,56,56,57,57,58,58,59,59,60,60,61,61,62,62],"right_children":[2,4,6,8,10,12,14,16,18,20,22,24,26,28,30,32,34,36,38,40,42,44,46,48,50,52,54,56,58,60,62,64,66,68,70,72,74,76,78,80,82,84,86,88,90,92,94,96,98,100,102,104,106,108,110,112,114,116,118,120,122,124,126,-1,-1,-1,-1,-1,-1,-1,-1,-1,-1,-1,-1,-1,-1,-1,-1,-1,-1,-1,-1,-1,-1,-1,-1,-1,-1,-1,-1,-1,-1,-1,-1,-1,-1,-1,-1,-1,-1,-1,-1,-1,-1,-1,-1,-1,-1,-1,-1,-1,-1,-1,-1,-1,-1,-1,-1,-1,-1,-1,-1,-1,-1,-1,-1],"split_conditions":[4E1,4.1E1,4E1,4E1,4.1E1,4E1,4E1,4.137417E0,2.023581E0,2.813942E0,1.695732E0,4E1,4E1,4.1E1,4.1E1,-1.437878E0,6.735909E1,-4.0434E-1,2.565955E0,-4.97837E-1,2.307487E0,-4.23786E-1,2.307487E0,4E1,1.59012E-1,-1.0137974E1,1.14183E-1,-8.28433E-1,1.930395E0,3.9167E-1,-3.8155E-2,4E1,2.813942E0,2.813942E0,7.612448E1,4.1E1,-4.01371E-1,1.728961E0,2.041577E0,-6.33457E-1,1.288629E0,2.137491E0,3.407911E0,-7.69469E-1,9.49217E-1,2.813942E0,2.561942E0,-1.92269E0,-6.858882E0,1.42105E-1,4E1,4E1,-1.285034E0,4E1,4.1E1,-1.653492E0,2.26644E-1,-9.91339E-1,2.023581E0,4E1,4E1,4.1E1,1.4706E0,4.4096613E-1,3.149773E-1,3.9624164E-1,1.576626E-1,4.4968513E-1,3.9892605E-1,3.994009E-1,4.4440332E-1,3.477155E-1,7.778096E-2,2.8751934E-1,2.0133801E-1,4.0926313E-1,3.0938098E-1,4.445059E-1,4.317628E-1,2.692629E-1,-6.780412E-2,9.174637E-2,1.7354408E-1,4.2775878E-1,1.7207207E-1,-1.6849399E-1,-2.1929887E-1,-1.938643E-1,-1.3566518E-1,-3.5012558E-2,-1.2360144E-1,-1.7988917E-1,1.4605108E-1,-1.9609891E-1,-2.2297268E-1,2.5899217E-1,1.9955531E-1,-1.3181059E-1,1.5316088E-1,6.628791E-2,-4.9398664E-2,1.7978466E-1,-1.7650406E-1,-9.373022E-2,-2.0894931E-1,6.1111476E-2,-8.037013E-2,-1.2398086E-1,-1.8471408E-1,-1.5775883E-1,-3.2626934E-2,-2.037873E-1,-3.7864666E-2,8.936697E-2,2.66542E-1,-2.194001E-1,-1.535202E-1,1.8914584E-2,-8.1677824E-2,-1.6460069E-1,-2.0341925E-1,6.857882E-2,-1.3748752E-1,1.0893066E-1,-2.1955098E-1,-2.1300603E-1,-2.194437E-1],"split_indices":[8,2,4,7,7,2,2,0,0,1,1,7,7,7,7,0,0,1,0,0,0,0,0,3,0,0,0,0,1,0,1,2,1,1,0,7,0,1,1,1,0,0,0,1,0,1,1,0,0,1,3,3,0,3,7,1,0,1,0,3,3,3,0,0,0,0,0,0,0,0,0,0,0,0,0,0,0,0,0,0,0,0,0,0,0,0,0,0,0,0,0,0,0,0,0,0,0,0,0,0,0,0,0,0,0,0,0,0,0,0,0,0,0,0,0,0,0,0,0,0,0,0,0,0,0,0,0],"split_type":[0,0,0,0,0,0,0,0,0,0,0,0,0,0,0,0,0,0,0,0,0,0,0,0,0,0,0,0,0,0,0,0,0,0,0,0,0,0,0,0,0,0,0,0,0,0,0,0,0,0,0,0,0,0,0,0,0,0,0,0,0,0,0,0,0,0,0,0,0,0,0,0,0,0,0,0,0,0,0,0,0,0,0,0,0,0,0,0,0,0,0,0,0,0,0,0,0,0,0,0,0,0,0,0,0,0,0,0,0,0,0,0,0,0,0,0,0,0,0,0,0,0,0,0,0,0,0],"sum_hessian":[3.9199864E7,1.0010982E7,2.9188884E7,9.0004E6,1.01058125E6,6.7299775E5,2.8515886E7,8.457401E6,5.4299906E5,1.3167333E5,8.7890794E5,3.7481466E5,2.981831E5,2.5494848E6,2.59664E7,3.402715E6,5.0546865E6,4.629244E5,8.0074664E4,1.2075244E5,1.0920889E4,7.771008E5,1.018071E5,1.6675244E5,2.080622E5,7.114533E4,2.2703777E5,2.6347244E5,2.2860122E6,9.896382E5,2.4976762E7,2.3874025E6,1.0153124E6,3.2157928E6,1.8388936E6,6.0971996E4,4.019524E5,4.5923996E4,3.4150664E4,2.3139998E4,9.761244E4,6.884444E2,1.0232443E4,2.2843331E5,5.486675E5,3.2572887E4,6.923422E4,1.5666266E5,1.0089777E4,1.7866398E5,2.939822E4,2.2667555E4,4.8477773E4,1.9339733E5,3.364044E4,1.4883688E5,1.1463555E5,2.2128808E6,7.3131555E4,8.426662E5,1.4697198E5,8.0889115E6,1.688785E7,2.3312985E6,5.6103996E4,9.988155E5,1.6496889E4,3.1729412E6,4.2851555E4,1.5299866E5,1.685895E6,5.599555E3,5.537244E4,7.768977E4,3.2426266E5,1.826622E4,2.7657775E4,1.438711E4,1.9763555E4,4.6524443E3,1.8487555E4,6.659999E4,3.1012443E4,3.5644443E2,3.3199997E2,4.563555E3,5.6688887E3,7.8446664E4,1.4998666E5,3.8631197E5,1.6235555E5,3.229111E4,2.8177777E2,1.3781332E4,5.5452887E4,7.123822E4,8.542444E4,4.1799995E3,5.9097773E3,7.978577E4,9.887822E4,2.8695555E4,7.026666E2,1.8617332E4,4.050222E3,2.1621777E4,2.6855998E4,1.817311E5,1.1666222E4,4.4906665E3,2.9149775E4,4.9621332E4,9.921555E4,4.007644E4,7.455911E4,1.5111244E5,2.0617684E6,4.535022E4,2.7781332E4,3.334533E5,5.0921284E5,4.506222E3,1.4246577E5,2.8266666E2,8.088629E6,1.4972862E7,1.9149888E6],"tree_param":{"num_deleted":"0","num_feature":"10","num_nodes":"127","size_leaf_vector":"1"}},{"base_weights":[-6.980088E-1,-4.0966576E-1,-7.3202205E-1,-7.098001E-1,1.1912653E-1,-6.7269987E-1,-7.491731E-1,-7.1995246E-1,-5.0759566E-1,-6.190075E-1,1.0398654E0,-7.470776E-1,4.429196E-1,-7.466944E-1,-7.4939185E-1,-7.225805E-1,-5.365605E-1,-2.8322902E-1,-7.441898E-1,3.343309E-3,-2.2481288E-1,5.0885963E-1,1.2406213E0,-7.47174E-1,-1.2817791E-1,7.4721694E-1,7.129435E-2,-7.4530053E-1,-2.2496612E-1,-7.4848264E-1,-7.4948955E-1,-7.240314E-1,-4.7670823E-1,-2.4937217E-1,-5.836154E-1,-3.1506607E-1,5.9805125E-1,-2.249083E-1,-7.3249936E-1,-3.4863493E-1,7.685616E-1,6.7420445E-2,9.8037785E-1,1.2740164E0,-2.2410837E-1,-7.3550504E-1,-7.4981743E-1,-4.9331135E-1,5.285058E-1,-7.5587615E-2,1.1402026E0,2.4576487E-1,-2.4836285E-1,-7.4766815E-1,-7.331533E-1,-2.248345E-1,-7.470748E-1,-7.493852E-1,-2.2496298E-1,-2.2466707E-1,-2.1550757E-1,-1.02640726E-1,-1.9483632E-1,-8.896248E-2,8.6896546E-2,-1.8239295E-1,-1.0532763E-1,4.16343E-2,-1.0984796E-1,3.548998E-1,4.1838426E-2,-2.2381812E-1,-2.1625488E-1,1.2273987E-1,-1.4703935E-1,-1.5759082E-1,3.2018048E-1,-2.7642956E-3,1.7845728E-1,3.1041858E-1,-2.2491649E-1,2.83158E-1,3.960225E-1,-2.2085266E-1,-1.6092905E-1,-2.2333927E-1,-2.2498876E-1,-2.0663904E-1,-1.19385734E-1,2.5768822E-1,-1.6140752E-1,-7.324411E-2,1.1095656E-1,3.8634107E-1,1.023278E-1,-9.954E-2,1.1181521E-1,2.5199196E-1,-9.667408E-2,-2.2360438E-1,-2.2471926E-1,-1.992627E-1,-2.2180541E-1,-2.2439086E-1,-2.2382683E-1,-2.248458E-1,-2.2448295E-1],"categories":[],"categories_nodes":[],"categories_segments":[],"categories_sizes":[],"default_left":[0,0,0,0,0,0,0,0,0,0,0,0,0,0,0,0,0,0,0,0,0,0,0,0,0,0,0,0,0,0,0,0,0,0,0,0,0,0,0,0,0,0,0,0,0,0,0,0,0,0,0,0,0,0,0,0,0,0,0,0,0,0,0,0,0,0,0,0,0,0,0,0,0,0,0,0,0,0,0,0,0,0,0,0,0,0,0,0,0,0,0,0,0,0,0,0,0,0,0,0,0,0,0,0,0,0,0],"id":1,"left_children":[1,3,5,7,9,11,13,15,17,19,21,23,25,27,29,31,33,35,37,39,-1,41,43,45,47,49,51,53,-1,55,57,59,61,63,65,67,69,-1,71,73,75,77,79,81,-1,83,85,87,89,91,93,95,97,99,101,-1,103,105,-1,-1,-1,-1,-1,-1,-1,-1,-1,-1,-1,-1,-1,-1,-1,-1,-1,-1,-1,-1,-1,-1,-1,-1,-1,-1,-1,-1,-1,-1,-1,-1,-1,-1,-1,-1,-1,-1,-1,-1,-1,-1,-1,-1,-1,-1,-1,-1,-1],"loss_changes":[3.84452E5,6.5644406E5,3.5676E4,5.416375E3,1.0178147E6,6.52529E5,1.5E1,1.210375E3,6.6961914E3,6.744178E4,7.103669E4,4.3975E2,5.5582883E4,9.25E0,3E0,8.83125E2,4.7956543E2,1.8168608E3,3.3984375E0,3.877642E4,0E0,3.805313E4,3.2098438E4,2.2675E2,2.7587125E2,8.738159E4,1.2340995E4,4.3625E1,0E0,2.875E0,2E0,3.4675E2,3.376245E2,1.2719415E2,1.7255469E2,1.4491548E3,6.0551636E2,0E0,2.5742188E0,1.0573326E4,1.7530742E4,3.816558E3,8.313023E3,7.2305E3,0E0,1.81375E2,4.25E0,1.3505936E1,1.4539346E2,6.558731E3,2.1571047E4,1.0496279E4,6.282889E3,3.625E0,1.06578125E2,0E0,3.75E-1,3E0,0E0,0E0,0E0,0E0,0E0,0E0,0E0,0E0,0E0,0E0,0E0,0E0,0E0,0E0,0E0,0E0,0E0,0E0,0E0,0E0,0E0,0E0,0E0,0E0,0E0,0E0,0E0,0E0,0E0,0E0,0E0,0E0,0E0,0E0,0E0,0E0,0E0,0E0,0E0,0E0,0E0,0E0,0E0,0E0,0E0,0E0,0E0,0E0,0E0],"parents":[2147483647,0,0,1,1,2,2,3,3,4,4,5,5,6,6,7,7,8,8,9,9,10,10,11,11,12,12,13,13,14,14,15,15,16,16,17,17,18,18,19,19,21,21,22,22,23,23,24,24,25,25,26,26,27,27,29,29,30,30,31,31,32,32,33,33,34,34,35,35,36,36,38,38,39,39,40,40,41,41,42,42,43,43,45,45,46,46,47,47,48,48,49,49,50,50,51,51,52,52,53,53,54,54,56,56,57,57],"right_children":[2,4,6,8,10,12,14,16,18,20,22,24,26,28,30,32,34,36,38,40,-1,42,44,46,48,50,52,54,-1,56,58,60,62,64,66,68,70,-1,72,74,76,78,80,82,-1,84,86,88,90,92,94,96,98,100,102,-1,104,106,-1,-1,-1,-1,-1,-1,-1,-1,-1,-1,-1,-1,-1,-1,-1,-1,-1,-1,-1,-1,-1,-1,-1,-1,-1,-1,-1,-1,-1,-1,-1,-1,-1,-1,-1,-1,-1,-1,-1,-1,-1,-1,-1,-1,-1,-1,-1,-1,-1],"split_conditions":[-8.28433E-1,4E1,4.1E1,4E1,-3.75164E-1,4E1,4E1,4E1,4.1E1,4.1E1,4E1,4E1,4.1E1,1.202209E0,-4.23786E-1,4E1,-3.896427E0,4E1,-6.70075E-1,4E1,-2.2481288E-1,4E1,4.1E1,1.11058E0,4.1E1,4E1,-5.26E-3,9.62431E-1,-2.2496612E-1,-4.62372E-1,1.063656E0,-3.829898E1,-3.21862E0,4E1,3.34159E-1,-1.7511265E1,-4.704835E0,-2.249083E-1,-1.015438E0,-3.21862E0,-1.460008E0,4E1,4.1E1,4E1,-2.2410837E-1,4E1,1.420485E0,2.20797E-1,7.60258E-1,4E1,2.70701E-1,-2.73679E-1,1.35075E-1,7.9825E-2,9.0097E-1,-2.248345E-1,-3.90511E-1,8.30115E-1,-2.2496298E-1,-2.2466707E-1,-2.1550757E-1,-1.02640726E-1,-1.9483632E-1,-8.896248E-2,8.6896546E-2,-1.8239295E-1,-1.0532763E-1,4.16343E-2,-1.0984796E-1,3.548998E-1,4.1838426E-2,-2.2381812E-1,-2.1625488E-1,1.2273987E-1,-1.4703935E-1,-1.5759082E-1,3.2018048E-1,-2.7642956E-3,1.7845728E-1,3.1041858E-1,-2.2491649E-1,2.83158E-1,3.960225E-1,-2.2085266E-1,-1.6092905E-1,-2.2333927E-1,-2.2498876E-1,-2.0663904E-1,-1.19385734E-1,2.5768822E-1,-1.6140752E-1,-7.324411E-2,1.1095656E-1,3.8634107E-1,1.023278E-1,-9.954E-2,1.1181521E-1,2.5199196E-1,-9.667408E-2,-2.2360438E-1,-2.2471926E-1,-1.992627E-1,-2.2180541E-1,-2.2439086E-1,-2.2382683E-1,-2.248458E-1,-2.2448295E-1],"split_indices":[0,8,3,2,1,8,2,7,2,3,7,9,7,0,0,3,0,3,1,4,0,2,3,0,2,7,0,1,0,1,0,0,0,3,1,0,0,0,0,0,1,3,3,4,0,3,0,1,0,2,0,1,1,0,0,0,1,1,0,0,0,0,0,0,0,0,0,0,0,0,0,0,0,0,0,0,0,0,0,0,0,0,0,0,0,0,0,0,0,0,0,0,0,0,0,0,0,0,0,0,0,0,0,0,0,0,0],"split_type":[0,0,0,0,0,0,0,0,0,0,0,0,0,0,0,0,0,0,0,0,0,0,0,0,0,0,0,0,0,0,0,0,0,0,0,0,0,0,0,0,0,0,0,0,0,0,0,0,0,0,0,0,0,0,0,0,0,0,0,0,0,0,0,0,0,0,0,0,0,0,0,0,0,0,0,0,0,0,0,0,0,0,0,0,0,0,0,0,0,0,0,0,0,0,0,0,0,0,0,0,0,0,0,0,0,0,0],"sum_hessian":[3.9199864E7,4.1361548E6,3.5063708E7,2.6385528E6,1.4976021E6,7.8639445E6,2.7199766E7,2.512406E6,1.2614666E5,8.312275E5,6.663746E5,7.372429E6,4.9151553E5,2.2058372E6,2.4993928E7,2.4769088E6,3.5497332E4,6.474755E4,6.139911E4,1.4396622E5,6.872613E5,1.8281822E5,4.835564E5,7.3712805E6,1.1484443E3,2.7023688E5,2.2127866E5,1.5356208E6,6.702164E5,2.4256545E6,2.2568274E7,2.4623768E6,1.4531999E4,4.998222E3,3.049911E4,6.2490664E4,2.2568887E3,4.1700887E4,1.969822E4,9.860933E4,4.5356887E4,9.442133E4,8.839688E4,4.7556662E5,7.9897773E3,1.3614826E6,6.009798E6,7.3822217E2,4.102222E2,8.735022E4,1.8288666E5,1.4314798E5,7.8130664E4,1.2850844E6,2.5053642E5,1.4384861E6,9.871684E5,1.7777396E7,4.790878E6,4.5749197E5,2.0048848E6,8.1702217E3,6.3617773E3,4.5964443E3,4.0177774E2,2.7605332E4,2.8937776E3,6.323111E3,5.616755E4,9.91111E2,1.2657777E3,9.073333E3,1.0624889E4,1.5515555E4,8.309377E4,8.50711E3,3.6849777E4,8.244355E4,1.1977777E4,8.570488E4,2.6919998E3,5.822444E4,4.173422E5,1.3569101E6,4.5724443E3,1.5873688E5,5.851061E6,2.3999998E2,4.982222E2,3.133333E2,9.6888885E1,6.3370664E4,2.3979555E4,1.5437244E5,2.851422E4,2.5794666E4,1.1735333E5,4.966222E3,7.316444E4,4.829502E5,8.021342E5,2.067422E4,2.298622E5,5.1698175E5,4.7018662E5,1.6295747E7,1.4816484E6],"tree_param":{"num_deleted":"0","num_feature":"10","num_nodes":"107","size_leaf_vector":"1"}},{"base_weights":[8.808539E-1,-5.0867E-1,1.4437186E0,-6.767326E-1,8.522239E-1,1.2099992E0,1.4660743E0,-7.177753E-1,-5.9777945E-2,1.0057636E0,1.8236436E-1,4.6305212E-1,1.2591134E0,1.352711E0,1.4680953E0,-7.200345E-1,-4.1013217E-1,1.0383103E-2,-5.3963447E-1,4.9216118E-1,1.0827082E0,8.165703E-1,-3.8888738E-2,1.4924853E0,9.239792E-3,1.2738171E0,8.143204E-1,1.4212692E0,1.1517955E0,1.4810017E0,1.4618998E0,1.9213758E-1,-7.207523E-1,6.79794E-2,-6.0147035E-1,9.043108E-2,-2.7097327E-1,-4.1492867E-1,-7.0716906E-1,4.1909084E-1,1.2999887E0,1.0369391E0,1.4320536E0,1.7914172E-1,1.0848976E0,-4.6351337E-1,1.7684557E-1,4.4948193E-1,1.4039629E0,1.877653E-1,-1.751959E-1,1.4812174E0,1.2586209E0,6.8693477E-1,1.0222323E0,1.3017128E0,1.4438314E0,1.1908398E0,1.04636E0,1.4752692E0,1.4863447E0,1.4593059E0,1.480787E0,-2.1232112E-1,1.831031E-1,-2.2494662E-1,-2.1250854E-1,-1.9473155E-1,2.3824885E-1,-1.1905608E-1,-2.1530786E-1,1.328904E-1,1.1334509E-2,3.5144728E-1,-9.5746875E-2,-1.8427543E-1,-8.4924124E-2,-2.1952154E-1,-2.0677422E-1,2.1811774E-1,1.04337595E-1,-8.020952E-2,4.2163712E-1,3.811014E-1,2.843238E-1,4.0195695E-1,4.42623E-1,2.870603E-1,-1.396639E-1,3.5844517E-1,2.0217496E-1,-1.3075964E-2,-2.0093133E-1,-5.272102E-2,1.5023842E-1,4.219996E-1,-1.7560977E-1,-5.9638754E-2,1.09341934E-1,-1.03311665E-1,1.1000828E-1,4.445385E-1,-1.586902E-1,3.2647112E-1,3.8797468E-1,2.7529922E-1,1.577278E-1,3.3625233E-1,9.640877E-2,4.1248325E-1,-7.197664E-2,4.3527573E-1,3.7238574E-1,3.5066566E-1,3.8402075E-1,1.2486395E-1,3.2694578E-1,4.430089E-1,4.211807E-1,1.2069481E-1,4.4592634E-1,4.3786892E-1,4.0006593E-1,4.4120649E-1,4.455953E-1],"categories":[],"categories_nodes":[],"categories_segments":[],"categories_sizes":[],"default_left":[0,0,0,0,0,0,0,0,0,0,0,0,0,0,0,0,0,0,0,0,0,0,0,0,0,0,0,0,0,0,0,0,0,0,0,0,0,0,0,0,0,0,0,0,0,0,0,0,0,0,0,0,0,0,0,0,0,0,0,0,0,0,0,0,0,0,0,0,0,0,0,0,0,0,0,0,0,0,0,0,0,0,0,0,0,0,0,0,0,0,0,0,0,0,0,0,0,0,0,0,0,0,0,0,0,0,0,0,0,0,0,0,0,0,0,0,0,0,0,0,0,0,0,0,0],"id":2,"left_children":[1,3,5,7,9,11,13,15,17,19,21,23,25,27,29,31,33,35,37,39,41,43,45,47,49,51,53,55,57,59,61,63,65,67,69,71,73,75,77,79,81,83,85,87,89,91,93,-1,95,97,99,101,103,105,107,109,111,113,115,117,119,121,123,-1,-1,-1,-1,-1,-1,-1,-1,-1,-1,-1,-1,-1,-1,-1,-1,-1,-1,-1,-1,-1,-1,-1,-1,-1,-1,-1,-1,-1,-1,-1,-1,-1,-1,-1,-1,-1,-1,-1,-1,-1,-1,-1,-1,-1,-1,-1,-1,-1,-1,-1,-1,-1,-1,-1,-1,-1,-1,-1,-1,-1,-1],"loss_changes":[3.065876E7,2.5847462E6,1.45772E5,2.54707E5,1.2776225E5,8.93515E4,5.828E3,6.555E3,2.1123773E4,3.9936625E4,3.250359E4,7.020169E4,1.494525E4,6.1415625E3,1.996E3,6.131E3,6.29012E3,1.2328424E4,1.6718555E3,7.771959E3,1.4051625E4,1.0246836E4,1.5731546E4,2.1453125E1,3.4340925E3,6.9705E3,1.9362148E3,8.95125E2,4.6585938E2,2.48E2,8.28E2,2.7712886E3,3.369E3,1.0234518E4,1.1675176E3,7.909714E3,8.427045E3,1.2057007E3,1.4535156E1,2.6512246E3,1.805832E3,1.6176125E4,4.0498438E2,8.89985E3,1.9038516E3,5.010992E3,1.30067705E4,0E0,1.6077637E1,3.6202104E3,4.70294E3,1.7609375E2,1.216E4,1.6860332E3,1.9197305E3,5.9611953E3,3.9975E2,1.6071094E2,8.395469E2,3.96E2,3.48E2,4.8E2,9.15E1,0E0,0E0,0E0,0E0,0E0,0E0,0E0,0E0,0E0,0E0,0E0,0E0,0E0,0E0,0E0,0E0,0E0,0E0,0E0,0E0,0E0,0E0,0E0,0E0,0E0,0E0,0E0,0E0,0E0,0E0,0E0,0E0,0E0,0E0,0E0,0E0,0E0,0E0,0E0,0E0,0E0,0E0,0E0,0E0,0E0,0E0,0E0,0E0,0E0,0E0,0E0,0E0,0E0,0E0,0E0,0E0,0E0,0E0,0E0,0E0,0E0,0E0],"parents":[2147483647,0,0,1,1,2,2,3,3,4,4,5,5,6,6,7,7,8,8,9,9,10,10,11,11,12,12,13,13,14,14,15,15,16,16,17,17,18,18,19,19,20,20,21,21,22,22,23,23,24,24,25,25,26,26,27,27,28,28,29,29,30,30,31,31,32,32,33,33,34,34,35,35,36,36,37,37,38,38,39,39,40,40,41,41,42,42,43,43,44,44,45,45,46,46,48,48,49,49,50,50,51,51,52,52,53,53,54,54,55,55,56,56,57,57,58,58,59,59,60,60,61,61,62,62],"right_children":[2,4,6,8,10,12,14,16,18,20,22,24,26,28,30,32,34,36,38,40,42,44,46,48,50,52,54,56,58,60,62,64,66,68,70,72,74,76,78,80,82,84,86,88,90,92,94,-1,96,98,100,102,104,106,108,110,112,114,116,118,120,122,124,-1,-1,-1,-1,-1,-1,-1,-1,-1,-1,-1,-1,-1,-1,-1,-1,-1,-1,-1,-1,-1,-1,-1,-1,-1,-1,-1,-1,-1,-1,-1,-1,-1,-1,-1,-1,-1,-1,-1,-1,-1,-1,-1,-1,-1,-1,-1,-1,-1,-1,-1,-1,-1,-1,-1,-1,-1,-1,-1,-1,-1,-1],"split_conditions":[4.1E1,4.1E1,4E1,4.1E1,4E1,4.1E1,4E1,2.813942E0,2.023581E0,4.1E1,-3.9741E-1,-1.92269E0,1.930395E0,5.38176E-1,-3.8155E-2,-1.653492E0,4.137417E0,4E1,2.565955E0,2.813942E0,1.695732E0,4.1E1,4.1E1,-2.344512E0,1.031593E0,-9.91339E-1,2.023581E0,-9.91339E-1,1.403322E0,-3.26473E-1,1.445312E0,4E1,-1.92269E0,2.894327E0,1.0363609E1,-4.0434E-1,-9.91339E-1,1.728961E0,2.041577E0,-5.11814E-1,2.307487E0,-5.11814E-1,2.307487E0,4E1,-7.89252E-1,4E1,1.42105E-1,4.4948193E-1,4E1,-6.502E-1,2.137491E0,-6.502E-1,-6.8007E-2,2.041577E0,2.325772E0,-1.92269E0,7.94329E-1,1.420485E0,1.170939E0,-1.82798E-1,-9.91339E-1,1.573058E0,1.505423E0,-2.1232112E-1,1.831031E-1,-2.2494662E-1,-2.1250854E-1,-1.9473155E-1,2.3824885E-1,-1.1905608E-1,-2.1530786E-1,1.328904E-1,1.1334509E-2,3.5144728E-1,-9.5746875E-2,-1.8427543E-1,-8.4924124E-2,-2.1952154E-1,-2.0677422E-1,2.1811774E-1,1.04337595E-1,-8.020952E-2,4.2163712E-1,3.811014E-1,2.843238E-1,4.0195695E-1,4.42623E-1,2.870603E-1,-1.396639E-1,3.5844517E-1,2.0217496E-1,-1.3075964E-2,-2.0093133E-1,-5.272102E-2,1.5023842E-1,4.219996E-1,-1.7560977E-1,-5.9638754E-2,1.09341934E-1,-1.03311665E-1,1.1000828E-1,4.445385E-1,-1.586902E-1,3.2647112E-1,3.8797468E-1,2.7529922E-1,1.577278E-1,3.3625233E-1,9.640877E-2,4.1248325E-1,-7.197664E-2,4.3527573E-1,3.7238574E-1,3.5066566E-1,3.8402075E-1,1.2486395E-1,3.2694578E-1,4.430089E-1,4.211807E-1,1.2069481E-1,4.4592634E-1,4.3786892E-1,4.0006593E-1,4.4120649E-1,4.455953E-1],"split_indices":[3,2,2,7,8,7,7,1,0,7,1,0,1,1,1,1,0,8,0,1,1,7,7,0,0,1,0,1,1,0,0,8,0,0,0,1,1,1,1,0,0,0,0,7,0,7,1,0,7,0,0,0,0,1,1,0,0,0,0,1,1,1,1,0,0,0,0,0,0,0,0,0,0,0,0,0,0,0,0,0,0,0,0,0,0,0,0,0,0,0,0,0,0,0,0,0,0,0,0,0,0,0,0,0,0,0,0,0,0,0,0,0,0,0,0,0,0,0,0,0,0,0,0,0,0],"split_type":[0,0,0,0,0,0,0,0,0,0,0,0,0,0,0,0,0,0,0,0,0,0,0,0,0,0,0,0,0,0,0,0,0,0,0,0,0,0,0,0,0,0,0,0,0,0,0,0,0,0,0,0,0,0,0,0,0,0,0,0,0,0,0,0,0,0,0,0,0,0,0,0,0,0,0,0,0,0,0,0,0,0,0,0,0,0,0,0,0,0,0,0,0,0,0,0,0,0,0,0,0,0,0,0,0,0,0,0,0,0,0,0,0,0,0,0,0,0,0,0,0,0,0,0,0],"sum_hessian":[3.9199864E7,1.1301142E7,2.7898724E7,1.0058923E7,1.242219E6,2.435611E6,2.5463112E7,9.431495E6,6.2742706E5,1.01058125E6,2.3163777E5,1.5026933E5,2.2853418E6,4.459893E5,2.5017122E7,9.362738E6,6.875733E4,5.4739244E5,8.0034664E4,1.3167333E5,8.7890794E5,5.990933E4,1.7172844E5,4.5975555E4,1.0429377E5,2.21221E6,7.3131555E4,3.325182E5,1.134711E5,8.1139165E6,1.6903206E7,7.3617773E3,9.355376E6,1.9651998E4,4.9105332E4,4.261502E5,1.2124222E5,4.5883996E4,3.4150664E4,1.2075244E5,1.0920889E4,7.771008E5,1.018071E5,1.7748443E4,4.2160887E4,5.785422E4,1.1387422E5,4.313911E4,2.8364443E3,5.2995996E4,5.1297773E4,1.5101644E5,2.0611936E6,4.535022E4,2.7781332E4,5.2798664E4,2.7971953E5,8.279911E4,3.0671998E4,3.9144032E6,4.199513E6,1.486216E7,2.0410461E6,2.3355554E3,5.0262217E3,2.7958595E6,6.559517E6,9.887999E3,9.763999E3,1.7789777E4,3.1315553E4,5.537244E4,3.7077775E5,3.918222E3,1.1732399E5,1.826622E4,2.7617775E4,1.438711E4,1.9763555E4,2.2698666E4,9.805377E4,6.884444E2,1.0232443E4,2.1485598E5,5.622449E5,3.2572887E4,6.923422E4,8.0439995E3,9.704444E3,3.3262664E4,8.898222E3,1.9056889E4,3.8797332E4,5.452755E4,5.9346664E4,2.8328887E3,3.5555553E0,1.6625777E4,3.637022E4,3.9093332E4,1.2204443E4,1.5097333E5,4.3111107E1,3.4815688E5,1.7130368E6,1.8648889E4,2.6701332E4,2.435422E4,3.4271108E3,5.040444E4,2.3942222E3,2.7025644E5,9.46311E3,6.646088E4,1.6338222E4,1.9795554E3,2.8692443E4,3.837607E6,7.679644E4,2.9644443E2,4.1992165E6,1.4831824E7,3.0335998E4,6.321862E5,1.4088599E6],"tree_param":{"num_deleted":"0","num_feature":"10","num_nodes":"125","size_leaf_vector":"1"}},{"base_weights":[-1.4781588E-1,8.5604596E-1,-5.8768195E-1,9.559461E-1,-2.0347406E-1,-2.7272433E-1,-6.2547696E-1,9.8173624E-1,5.4020596E-1,1.9132507E-1,-2.6867506E-1,3.6009908E-1,-3.662114E-1,-3.5742405E-1,-6.323292E-1,9.5071554E-1,1.0025997E0,4.686568E-1,8.324211E-1,2.4208272E-1,-4.6799877E-1,-2.2923866E-1,-5.961113E-1,-5.960463E-1,4.9522576E-1,3.8601365E-2,-4.213592E-1,-1.0021295E-1,-4.0489042E-1,-5.153514E-1,-6.3460463E-1,9.824156E-1,8.723999E-1,1.0100788E0,9.8951846E-1,4.436931E-1,8.533011E-1,7.5888103E-1,9.8102194E-1,1.176907E0,2.2520386E-1,7.0140344E-1,-5.6815726E-1,-4.308051E-1,-1.4859375E-1,-5.0161314E-1,-6.420077E-1,-8.4528774E-2,-6.498267E-1,4.576646E-1,6.575074E-1,-4.9761046E-2,5.875864E-1,-4.351044E-1,-3.7548676E-2,-3.3287993E-1,-5.057776E-2,-4.8074794E-1,-2.9020137E-1,-5.827796E-1,-3.3419982E-1,-6.486988E-1,-6.279108E-1,2.96567E-1,2.1692744E-1,2.0638452E-1,2.7023217E-1,3.0347627E-1,2.6942915E-1,2.6664558E-1,2.9959378E-1,1.384513E-1,-3.8544122E-2,3.4861276E-1,2.0993961E-1,2.6219338E-1,2.1069254E-1,3.011092E-1,2.9161546E-1,5.361442E-2,3.5754022E-1,-3.7691906E-2,8.7203145E-2,2.988803E-1,1.1191418E-1,-1.4036267E-1,-1.9522518E-1,-1.6828662E-1,-1.09842785E-1,-2.0762723E-2,-1.0500037E-1,-1.5341797E-1,1.4423811E-1,-1.6885738E-1,-1.9857766E-1,-2.9682057E-2,2.2254854E-1,-1.9943535E-1,3.8534987E-1,1.5448199E-1,8.8329405E-2,2.469527E-1,8.315302E-2,-5.9392188E-2,4.625369E-2,1.3220379E-1,2.9006776E-1,-1.9352993E-1,-1.2618746E-1,1.8104648E-2,-6.219108E-2,-8.272838E-2,-1.5593933E-1,8.297242E-3,-5.6449596E-2,-1.1602501E-1,-1.5568899E-1,-1.0305473E-1,4.739671E-3,-1.3576543E-1,-1.817889E-1,-1.4184369E-1,-8.986788E-2,-1.9157586E-1,-1.9571558E-1,-1.873889E-1,-1.933841E-1],"categories":[],"categories_nodes":[],"categories_segments":[],"categories_sizes":[],"default_left":[0,0,0,0,0,0,0,0,0,0,0,0,0,0,0,0,0,0,0,0,0,0,0,0,0,0,0,0,0,0,0,0,0,0,0,0,0,0,0,0,0,0,0,0,0,0,0,0,0,0,0,0,0,0,0,0,0,0,0,0,0,0,0,0,0,0,0,0,0,0,0,0,0,0,0,0,0,0,0,0,0,0,0,0,0,0,0,0,0,0,0,0,0,0,0,0,0,0,0,0,0,0,0,0,0,0,0,0,0,0,0,0,0,0,0,0,0,0,0,0,0,0,0,0,0,0,0],"id":3,"left_children":[1,3,5,7,9,11,13,15,17,19,21,23,25,27,29,31,33,35,37,39,41,43,45,47,49,51,53,55,57,59,61,63,65,67,69,71,73,75,77,79,81,83,85,87,89,91,93,95,97,99,101,103,105,107,109,111,113,115,117,119,121,123,125,-1,-1,-1,-1,-1,-1,-1,-1,-1,-1,-1,-1,-1,-1,-1,-1,-1,-1,-1,-1,-1,-1,-1,-1,-1,-1,-1,-1,-1,-1,-1,-1,-1,-1,-1,-1,-1,-1,-1,-1,-1,-1,-1,-1,-1,-1,-1,-1,-1,-1,-1,-1,-1,-1,-1,-1,-1,-1,-1,-1,-1,-1,-1,-1],"loss_changes":[1.6016226E7,1.1697055E6,3.0022E5,1.08278E5,2.4510805E4,1.5986497E5,4.1361E4,6.154E3,1.2332703E4,4.5168486E3,1.0552691E4,4.49383E4,5.256078E4,6.852703E3,5.844E3,9.492E3,5.555E2,4.5496953E3,1.2671641E3,1.9771152E3,1.1304146E3,1.185632E4,3.806836E2,1.184748E3,1.8572812E3,1.369358E4,1.09314375E4,1.0098538E3,4.1223516E3,5.1172266E3,2.031E3,4.334E3,5.765625E3,6.1025E2,1.9E3,4.5349062E3,1.3678066E3,5.0478125E2,6.8359375E0,3.2826416E1,2.8276997E3,7.336612E1,7.3305664E1,1.7538984E3,8.329388E3,2.762124E2,9.283594E1,4.8882854E1,1.1284141E3,2.3135273E3,3.608666E3,7.3496074E3,2.1803594E3,6.0824375E3,1.1906111E3,1.6400635E2,7.758066E2,1.0242969E3,3.0775732E3,9.215E2,5.455371E2,2.5825E2,8E2,0E0,0E0,0E0,0E0,0E0,0E0,0E0,0E0,0E0,0E0,0E0,0E0,0E0,0E0,0E0,0E0,0E0,0E0,0E0,0E0,0E0,0E0,0E0,0E0,0E0,0E0,0E0,0E0,0E0,0E0,0E0,0E0,0E0,0E0,0E0,0E0,0E0,0E0,0E0,0E0,0E0,0E0,0E0,0E0,0E0,0E0,0E0,0E0,0E0,0E0,0E0,0E0,0E0,0E0,0E0,0E0,0E0,0E0,0E0,0E0,0E0,0E0,0E0,0E0],"parents":[2147483647,0,0,1,1,2,2,3,3,4,4,5,5,6,6,7,7,8,8,9,9,10,10,11,11,12,12,13,13,14,14,15,15,16,16,17,17,18,18,19,19,20,20,21,21,22,22,23,23,24,24,25,25,26,26,27,27,28,28,29,29,30,30,31,31,32,32,33,33,34,34,35,35,36,36,37,37,38,38,39,39,40,40,41,41,42,42,43,43,44,44,45,45,46,46,47,47,48,48,49,49,50,50,51,51,52,52,53,53,54,54,55,55,56,56,57,57,58,58,59,59,60,60,61,61,62,62],"right_children":[2,4,6,8,10,12,14,16,18,20,22,24,26,28,30,32,34,36,38,40,42,44,46,48,50,52,54,56,58,60,62,64,66,68,70,72,74,76,78,80,82,84,86,88,90,92,94,96,98,100,102,104,106,108,110,112,114,116,118,120,122,124,126,-1,-1,-1,-1,-1,-1,-1,-1,-1,-1,-1,-1,-1,-1,-1,-1,-1,-1,-1,-1,-1,-1,-1,-1,-1,-1,-1,-1,-1,-1,-1,-1,-1,-1,-1,-1,-1,-1,-1,-1,-1,-1,-1,-1,-1,-1,-1,-1,-1,-1,-1,-1,-1,-1,-1,-1,-1,-1,-1,-1,-1,-1,-1,-1],"split_conditions":[4E1,4.1E1,4E1,4E1,4.1E1,4E1,4E1,4.137417E0,1.871006E0,2.813942E0,1.695732E0,-1.653492E0,4E1,4E1,4E1,-1.285034E0,6.735909E1,1.728961E0,2.565955E0,-8.66055E-1,2.307487E0,-1.98122E-1,2.307487E0,4.1E1,1.063656E0,2.26644E-1,1.930395E0,-1.2223874E1,4.1E1,5.38176E-1,-3.8155E-2,4E1,-3.8155E-2,2.813942E0,7.612448E1,1.669297E0,1.395882E0,1.544155E0,1.873877E0,-1.92269E0,-5.41359E-1,2.137491E0,3.407911E0,-7.69469E-1,9.65708E-1,2.813942E0,2.561942E0,4E1,-1.92269E0,4E1,2.023581E0,4.1E1,4E1,-9.91339E-1,2.023581E0,4E1,-1.137556E0,3.28913E-1,1.59012E-1,-9.91339E-1,5.20602E-1,-4.62372E-1,1.308289E0,2.96567E-1,2.1692744E-1,2.0638452E-1,2.7023217E-1,3.0347627E-1,2.6942915E-1,2.6664558E-1,2.9959378E-1,1.384513E-1,-3.8544122E-2,3.4861276E-1,2.0993961E-1,2.6219338E-1,2.1069254E-1,3.011092E-1,2.9161546E-1,5.361442E-2,3.5754022E-1,-3.7691906E-2,8.7203145E-2,2.988803E-1,1.1191418E-1,-1.4036267E-1,-1.9522518E-1,-1.6828662E-1,-1.09842785E-1,-2.0762723E-2,-1.0500037E-1,-1.5341797E-1,1.4423811E-1,-1.6885738E-1,-1.9857766E-1,-2.9682057E-2,2.2254854E-1,-1.9943535E-1,3.8534987E-1,1.5448199E-1,8.8329405E-2,2.469527E-1,8.315302E-2,-5.9392188E-2,4.625369E-2,1.3220379E-1,2.9006776E-1,-1.9352993E-1,-1.2618746E-1,1.8104648E-2,-6.219108E-2,-8.272838E-2,-1.5593933E-1,8.297242E-3,-5.6449596E-2,-1.1602501E-1,-1.5568899E-1,-1.0305473E-1,4.739671E-3,-1.3576543E-1,-1.817889E-1,-1.4184369E-1,-8.986788E-2,-1.9157586E-1,-1.9571558E-1,-1.873889E-1,-1.933841E-1],"split_indices":[8,2,2,7,7,7,3,0,0,1,1,1,5,7,7,0,0,1,0,1,0,1,0,3,0,0,1,0,2,1,1,2,1,1,0,1,0,1,1,0,0,0,0,1,0,1,1,5,0,3,0,7,4,1,0,5,0,1,0,1,0,1,0,0,0,0,0,0,0,0,0,0,0,0,0,0,0,0,0,0,0,0,0,0,0,0,0,0,0,0,0,0,0,0,0,0,0,0,0,0,0,0,0,0,0,0,0,0,0,0,0,0,0,0,0,0,0,0,0,0,0,0,0,0,0,0,0],"split_type":[0,0,0,0,0,0,0,0,0,0,0,0,0,0,0,0,0,0,0,0,0,0,0,0,0,0,0,0,0,0,0,0,0,0,0,0,0,0,0,0,0,0,0,0,0,0,0,0,0,0,0,0,0,0,0,0,0,0,0,0,0,0,0,0,0,0,0,0,0,0,0,0,0,0,0,0,0,0,0,0,0,0,0,0,0,0,0,0,0,0,0,0,0,0,0,0,0,0,0,0,0,0,0,0,0,0,0,0,0,0,0,0,0,0,0,0,0,0,0,0,0,0,0,0,0,0,0],"sum_hessian":[3.627152E7,1.1050981E7,2.5220538E7,1.0098786E7,9.521948E5,2.7022062E6,2.2518332E7,9.508907E6,5.898798E5,1.3496502E5,8.172298E5,3.4781428E5,2.354392E6,5.612914E5,2.195704E7,3.8237135E6,5.685193E6,4.7385788E5,1.16021945E5,1.2531811E5,9.646906E3,7.293845E5,8.784531E4,4.3067652E4,3.0474662E5,2.8228412E5,2.072108E6,8.744528E4,4.738461E5,4.189551E5,2.1538086E7,2.721936E6,1.1017776E6,3.6171062E6,2.0680866E6,4.4498044E5,2.8877422E4,7.761679E4,3.8405156E4,2.2213508E3,1.2309676E5,7.605924E2,8.886313E3,2.0842817E5,5.209563E5,2.8721436E4,5.912388E4,4.0975425E3,3.897011E4,2.4747152E5,5.7275105E4,2.431488E5,3.9135336E4,2.0004664E6,7.164161E4,1.5373881E4,7.20714E4,2.852037E5,1.8864239E5,3.053103E5,1.1364477E5,6.935338E6,1.4602748E7,2.6589662E6,6.296966E4,1.4689267E5,9.5488494E5,3.5690132E6,4.8093105E4,1.7188158E5,1.896205E6,4.31547E5,1.3433444E4,9.587462E3,1.928996E4,2.5573377E4,5.2043406E4,1.0855109E4,2.7550047E4,3.284812E1,2.1885027E3,1.935903E4,1.0373773E5,3.9966165E2,3.6093076E2,4.016408E3,4.8699053E3,6.917915E4,1.3924903E5,3.7367412E5,1.4728219E5,2.8438799E4,2.826365E2,1.1892874E4,4.7231008E4,4.0281726E3,6.9369835E1,3.8671727E4,2.9838513E2,1.8319117E5,6.428036E4,3.9895754E4,1.7379354E4,1.4081319E5,1.0233561E5,2.8211168E4,1.0924167E4,1.2903561E5,1.8714308E6,4.5438125E4,2.620348E4,1.1777398E4,3.5964824E3,4.5946203E4,2.61252E4,8.2439414E4,2.027643E5,1.6065192E5,2.7990477E4,4.6141258E4,2.5916905E5,2.2719662E4,9.092511E4,1.8528455E6,5.0824925E6,1.2205165E7,2.3975828E6],"tree_param":{"num_deleted":"0","num_feature":"10","num_nodes":"127","size_leaf_vector":"1"}},{"base_weights":[-6.1738926E-1,-3.4438902E-1,-6.5132743E-1,-6.259941E-1,9.26492E-2,-5.925883E-1,-6.685963E-1,-6.3659E-1,-4.2546725E-1,6.191608E-1,-6.6979456E-1,-6.6728014E-1,3.2509974E-1,-6.683723E-1,-6.6961956E-1,-6.38415E-1,-3.6379436E-1,-2.1593085E-1,-6.6677696E-1,1.5680836E-1,8.462879E-1,-6.749151E-1,-2.0061405E-1,-6.673847E-1,-5.557851E-2,5.3803635E-1,4.9362063E-2,-6.686412E-1,-6.6494995E-1,-6.755932E-1,-6.6947496E-1,-6.408898E-1,-4.6886963E-1,-2.1049021E-1,-5.512129E-1,-2.455909E-1,5.3374493E-1,-6.7280924E-1,-6.551936E-1,-3.1368417E-1,3.7368762E-1,-4.7206607E-1,8.6471266E-1,-2.0091075E-1,-6.9454974E-1,-6.6752636E-1,-4.605696E-1,-4.0564454E-1,5.0738007E-1,-6.935135E-2,7.9819006E-1,2.5781325E-1,-1.19314194E-1,-6.7069685E-1,-6.685054E-1,-6.497181E-1,-6.672332E-1,-6.7699105E-1,-6.6909873E-1,-6.713131E-1,-2.007505E-1,-2.005351E-1,-1.903901E-1,-7.011236E-2,-1.5225667E-1,-1.882282E-1,2.9832039E-3,2.6700097E-1,-1.6618416E-1,2.4868267E-2,-9.196874E-2,2.8946286E-1,4.918411E-2,-1.967126E-1,-2.0220643E-1,-2.0115231E-1,-1.926075E-1,8.809704E-2,-1.3217355E-1,5.2098867E-2,1.9626154E-1,-1.6643731E-1,3.9224246E-1,1.931601E-1,2.7310333E-1,-2.1626012E-1,-2.0357968E-1,-1.9772296E-1,-2.0077786E-1,-4.553938E-2,-1.7512289E-1,-9.74623E-2,-2.0796378E-1,2.2813185E-1,-1.3456142E-1,-6.2409308E-2,8.076281E-2,2.626575E-1,3.0459693E-2,-8.270823E-2,1.3603564E-1,4.755517E-2,-7.672333E-2,-2.0304637E-1,-2.0068926E-1,-2.0043579E-1,-2.0071433E-1,-1.8028502E-1,-1.9726177E-1,-1.9974793E-1,-2.0078075E-1,-2.04246E-1,-2.0230421E-1,-1.9944167E-1,-2.025273E-1,-2.0119736E-1,-2.0381053E-1],"categories":[],"categories_nodes":[],"categories_segments":[],"categories_sizes":[],"default_left":[0,0,0,0,0,0,0,0,0,0,0,0,0,0,0,0,0,0,0,0,0,0,0,0,0,0,0,0,0,0,0,0,0,0,0,0,0,0,0,0,0,0,0,0,0,0,0,0,0,0,0,0,0,0,0,0,0,0,0,0,0,0,0,0,0,0,0,0,0,0,0,0,0,0,0,0,0,0,0,0,0,0,0,0,0,0,0,0,0,0,0,0,0,0,0,0,0,0,0,0,0,0,0,0,0,0,0,0,0,0,0,0,0,0,0,0,0],"id":4,"left_children":[1,3,5,7,9,11,13,15,17,19,21,23,25,27,29,31,33,35,37,39,41,43,-1,45,47,49,51,53,55,57,59,61,63,65,67,69,71,73,75,77,79,81,83,-1,85,87,89,91,93,95,97,99,101,103,105,107,109,111,113,115,-1,-1,-1,-1,-1,-1,-1,-1,-1,-1,-1,-1,-1,-1,-1,-1,-1,-1,-1,-1,-1,-1,-1,-1,-1,-1,-1,-1,-1,-1,-1,-1,-1,-1,-1,-1,-1,-1,-1,-1,-1,-1,-1,-1,-1,-1,-1,-1,-1,-1,-1,-1,-1,-1,-1,-1,-1],"loss_changes":[3.12E5,4.5824894E5,3.0382E4,4.8109375E3,5.85713E5,4.6643425E5,6E0,1.0705E3,5.74625E3,9.063178E4,2.875E0,4.025E2,3.0072105E4,1.7E1,3.25E0,8.96125E2,4.106078E2,1.3527124E3,3.2519531E0,2.9010893E4,1.40584375E4,1.01640625E1,0E0,1.8425E2,2.1241695E2,4.5665758E4,7.8471274E3,5E0,4.76875E1,4.375E-1,1.875E0,3.62625E2,2.793042E2,7.228323E2,2.5836304E1,1.1719912E3,3.6898804E2,2.763672E-1,3.2250977E0,6.913538E3,1.0919176E4,1.1751146E3,5.7514375E3,0E0,8.639648E0,9.175E1,1.6378754E2,1.5209236E1,1.00322556E2,4.0690588E3,1.0900875E4,1.0418821E4,4.6758984E3,1.115625E1,3E0,6.841406E1,3.0625E0,3.5546875E-1,4.8828125E-4,2.625E0,0E0,0E0,0E0,0E0,0E0,0E0,0E0,0E0,0E0,0E0,0E0,0E0,0E0,0E0,0E0,0E0,0E0,0E0,0E0,0E0,0E0,0E0,0E0,0E0,0E0,0E0,0E0,0E0,0E0,0E0,0E0,0E0,0E0,0E0,0E0,0E0,0E0,0E0,0E0,0E0,0E0,0E0,0E0,0E0,0E0,0E0,0E0,0E0,0E0,0E0,0E0,0E0,0E0,0E0,0E0,0E0,0E0],"parents":[2147483647,0,0,1,1,2,2,3,3,4,4,5,5,6,6,7,7,8,8,9,9,10,10,11,11,12,12,13,13,14,14,15,15,16,16,17,17,18,18,19,19,20,20,21,21,23,23,24,24,25,25,26,26,27,27,28,28,29,29,30,30,31,31,32,32,33,33,34,34,35,35,36,36,37,37,38,38,39,39,40,40,41,41,42,42,44,44,45,45,46,46,47,47,48,48,49,49,50,50,51,51,52,52,53,53,54,54,55,55,56,56,57,57,58,58,59,59],"right_children":[2,4,6,8,10,12,14,16,18,20,22,24,26,28,30,32,34,36,38,40,42,44,-1,46,48,50,52,54,56,58,60,62,64,66,68,70,72,74,76,78,80,82,84,-1,86,88,90,92,94,96,98,100,102,104,106,108,110,112,114,116,-1,-1,-1,-1,-1,-1,-1,-1,-1,-1,-1,-1,-1,-1,-1,-1,-1,-1,-1,-1,-1,-1,-1,-1,-1,-1,-1,-1,-1,-1,-1,-1,-1,-1,-1,-1,-1,-1,-1,-1,-1,-1,-1,-1,-1,-1,-1,-1,-1,-1,-1,-1,-1,-1,-1,-1,-1],"split_conditions":[-8.28433E-1,4E1,4.1E1,4E1,4.1E1,4E1,1.140816E0,4E1,4.1E1,4E1,4E1,4E1,4.1E1,9.2453E-1,4E1,4E1,-3.21862E0,4E1,-6.92293E-1,-3.90511E-1,-1.460008E0,-1.92269E0,-2.0061405E-1,4E1,4.1E1,4E1,1.55542E-1,4.1E1,4.1E1,2.137491E0,4E1,-3.829898E1,-3.896427E0,-2.5102448E1,-1.460008E0,-1.4632204E1,-4.704835E0,4.1E1,-1.015438E0,-2.710181E0,4E1,4E1,4E1,-2.0091075E-1,4E1,9.1654E-1,3.3961E-1,6.35094E-1,7.60258E-1,4E1,3.81014E-1,-2.59446E-1,-7.9861E-2,-2.29236E-1,2.81303E-1,9.0097E-1,1.111326E0,4E1,4E1,2.041577E0,-2.007505E-1,-2.005351E-1,-1.903901E-1,-7.011236E-2,-1.5225667E-1,-1.882282E-1,2.9832039E-3,2.6700097E-1,-1.6618416E-1,2.4868267E-2,-9.196874E-2,2.8946286E-1,4.918411E-2,-1.967126E-1,-2.0220643E-1,-2.0115231E-1,-1.926075E-1,8.809704E-2,-1.3217355E-1,5.2098867E-2,1.9626154E-1,-1.6643731E-1,3.9224246E-1,1.931601E-1,2.7310333E-1,-2.1626012E-1,-2.0357968E-1,-1.9772296E-1,-2.0077786E-1,-4.553938E-2,-1.7512289E-1,-9.74623E-2,-2.0796378E-1,2.2813185E-1,-1.3456142E-1,-6.2409308E-2,8.076281E-2,2.626575E-1,3.0459693E-2,-8.270823E-2,1.3603564E-1,4.755517E-2,-7.672333E-2,-2.0304637E-1,-2.0068926E-1,-2.0043579E-1,-2.0071433E-1,-1.8028502E-1,-1.9726177E-1,-1.9974793E-1,-2.0078075E-1,-2.04246E-1,-2.0230421E-1,-1.9944167E-1,-2.025273E-1,-2.0119736E-1,-2.0381053E-1],"split_indices":[0,8,3,2,3,8,0,3,2,4,7,9,7,1,7,7,0,3,1,1,1,0,0,3,2,7,1,2,2,0,2,0,0,0,1,0,0,7,0,0,2,3,2,0,2,0,1,0,0,2,0,1,0,1,0,0,1,2,2,1,0,0,0,0,0,0,0,0,0,0,0,0,0,0,0,0,0,0,0,0,0,0,0,0,0,0,0,0,0,0,0,0,0,0,0,0,0,0,0,0,0,0,0,0,0,0,0,0,0,0,0,0,0,0,0,0,0],"split_type":[0,0,0,0,0,0,0,0,0,0,0,0,0,0,0,0,0,0,0,0,0,0,0,0,0,0,0,0,0,0,0,0,0,0,0,0,0,0,0,0,0,0,0,0,0,0,0,0,0,0,0,0,0,0,0,0,0,0,0,0,0,0,0,0,0,0,0,0,0,0,0,0,0,0,0,0,0,0,0,0,0,0,0,0,0,0,0,0,0,0,0,0,0,0,0,0,0,0,0,0,0,0,0,0,0,0,0,0,0,0,0,0,0,0,0,0,0],"sum_hessian":[3.367473E7,3.723414E6,2.9951316E7,2.2643695E6,1.4590445E6,6.8049015E6,2.3146414E7,2.1507228E6,1.13646805E5,8.630551E5,5.959894E5,6.2927285E6,5.1217322E5,1.8989114E7,4.1573E6,2.1364288E6,1.4293974E4,6.0829035E4,5.281777E4,2.8430666E5,5.787485E5,1.03789375E5,4.9219997E5,6.2916525E6,1.0758167E3,2.8899656E5,2.2317664E5,1.7605442E7,1.3836718E6,9.814321E4,4.0591568E6,2.105689E6,3.0739812E4,7.8637363E3,6.430237E3,5.8514645E4,2.314391E3,3.4693418E4,1.8124352E4,8.970418E4,1.9460248E5,7.9765107E3,5.7077194E5,8.20435E4,2.1745875E4,6.2873445E6,4.307853E3,6.635063E2,4.123104E2,8.6662984E4,2.023336E5,9.981907E4,1.2335756E5,1.0911191E6,1.6514323E7,1.8041073E5,1.2032611E6,8.06757E4,1.7467508E4,5.80061E5,3.4790958E6,3.8954247E5,1.7161465E6,4.3403384E3,2.6399473E4,2.7190266E3,5.14471E3,1.1561776E1,6.418675E3,9.1607295E3,4.9353918E4,1.0678372E3,1.246554E3,2.332382E3,3.2361037E4,8.356508E3,9.767844E3,1.5502909E4,7.4201266E4,1.1360053E5,8.100195E4,7.6228384E3,3.5367233E2,9.774185E4,4.7303012E5,8.189642E3,1.3556232E4,1.0701636E6,5.217181E6,1.2290631E3,3.0787898E3,5.196735E2,1.4383272E2,3.2616855E2,8.614184E1,6.1480152E4,2.5182828E4,1.8211683E5,2.0216758E4,2.678257E4,7.30365E4,4.0625723E4,8.273184E4,2.4053945E5,8.505796E5,9.648141E6,6.8661815E6,2.4945047E4,1.5546569E5,7.117833E5,4.9147778E5,3.2846793E4,4.782891E4,1.0241635E4,7.225874E3,5.365014E5,4.3559613E4],"tree_param":{"num_deleted":"0","num_feature":"10","num_nodes":"117","size_leaf_vector":"1"}},{"base_weights":[6.3170654E-1,-4.325355E-1,9.7277E-1,-5.9249604E-1,5.987441E-1,8.240845E-1,9.8686403E-1,-6.3467205E-1,-3.896626E-2,6.948395E-1,1.4025408E-1,3.418419E-1,8.534203E-1,9.134574E-1,9.881694E-1,-6.3701344E-1,-3.351109E-1,1.0363078E-2,-4.9501255E-1,3.6248755E-1,7.4219906E-1,5.7602525E-1,-3.6155064E-2,1.010109E0,9.45826E-3,8.625001E-1,5.715449E-1,9.594043E-1,7.7802473E-1,9.967032E-1,9.841339E-1,1.253537E-1,-6.3772416E-1,5.97707E-2,-5.133039E-1,7.295158E-2,-2.2627054E-1,-3.738851E-1,-6.224193E-1,3.0953273E-1,8.6087203E-1,6.8253976E-1,8.835953E-1,1.2082295E-1,7.555516E-1,-3.9217165E-1,1.2316556E-1,1.0140828E0,9.4930595E-1,1.0638974E-1,-1.8188392E-1,9.960839E-1,8.523419E-1,4.890244E-1,7.030998E-1,8.995198E-1,9.8407006E-1,7.96839E-1,6.46957E-1,9.89415E-1,9.992104E-1,9.8188204E-1,9.949097E-1,-1.8660927E-1,1.1950858E-1,-2.0102246E-1,-1.8720731E-1,-1.763771E-1,1.8532649E-1,-9.126855E-2,-1.9133532E-1,3.462465E-2,-8.409371E-2,6.309599E-2,-1.041589E-1,-1.505876E-1,-1.9505592E-2,-1.946468E-1,-1.8100774E-1,-2.055582E-1,9.812685E-2,-9.700645E-2,2.7483493E-1,2.5722754E-1,1.729749E-1,2.4972066E-1,2.909246E-1,2.092643E-1,-1.2795597E-1,2.514982E-1,1.3996375E-1,-1.2290969E-2,-1.7581028E-1,-5.4328464E-2,1.1139194E-1,3.0402684E-1,3.1725907E-1,2.853716E-1,-1.7840381E-1,-7.420187E-2,6.001299E-2,-1.6740298E-1,7.94816E-2,2.9907027E-1,-1.970342E-1,2.1782307E-1,2.6333624E-1,2.087429E-1,1.1250921E-1,2.3215516E-1,5.4122005E-2,3.0450255E-1,2.4778163E-1,2.9736128E-1,2.59668E-1,2.3027743E-1,2.532795E-1,1.5954895E-1,2.833884E-1,2.978862E-1,2.9190868E-1,2.9597235E-1,3.0021015E-1,2.9635715E-1,2.938018E-1,2.9796055E-1,3.011494E-1],"categories":[],"categories_nodes":[],"categories_segments":[],"categories_sizes":[],"default_left":[0,0,0,0,0,0,0,0,0,0,0,0,0,0,0,0,0,0,0,0,0,0,0,0,0,0,0,0,0,0,0,0,0,0,0,0,0,0,0,0,0,0,0,0,0,0,0,0,0,0,0,0,0,0,0,0,0,0,0,0,0,0,0,0,0,0,0,0,0,0,0,0,0,0,0,0,0,0,0,0,0,0,0,0,0,0,0,0,0,0,0,0,0,0,0,0,0,0,0,0,0,0,0,0,0,0,0,0,0,0,0,0,0,0,0,0,0,0,0,0,0,0,0,0,0,0,0],"id":5,"left_children":[1,3,5,7,9,11,13,15,17,19,21,23,25,27,29,31,33,35,37,39,41,43,45,47,49,51,53,55,57,59,61,63,65,67,69,71,73,75,77,79,81,83,85,87,89,91,93,95,97,99,101,103,105,107,109,111,113,115,117,119,121,123,125,-1,-1,-1,-1,-1,-1,-1,-1,-1,-1,-1,-1,-1,-1,-1,-1,-1,-1,-1,-1,-1,-1,-1,-1,-1,-1,-1,-1,-1,-1,-1,-1,-1,-1,-1,-1,-1,-1,-1,-1,-1,-1,-1,-1,-1,-1,-1,-1,-1,-1,-1,-1,-1,-1,-1,-1,-1,-1,-1,-1,-1,-1,-1,-1],"loss_changes":[1.5026711E7,1.6574562E6,6.57E4,2.0306575E5,5.9442594E4,3.8402125E4,2.742E3,5.669E3,1.3854109E4,1.7556E4,1.7971441E4,3.457614E4,6.548625E3,3.1126875E3,9.7E2,4.34525E3,4.4108535E3,8.2306E3,9.2743066E2,3.6713535E3,8.234875E3,5.505162E3,9.439063E3,1.153125E1,1.9281403E3,3.363E3,8.665801E2,5.509375E2,3.1204688E2,1.65E2,4.64E2,1.5244478E3,3.5505E3,7.044918E3,1.1239531E3,6.5927197E3,6.13705E3,1.2190337E3,1.4350586E1,2.196498E3,8.7443164E2,1.27221875E4,1.2768281E3,6.0153594E3,1.1553711E3,3.502794E3,8.679869E3,3.2421875E-1,1.0077393E1,2.285984E3,5.8749287E3,2.3721875E2,7.4015E3,1.1566025E3,1.1381494E3,9.2539844E2,2.22875E2,1.5308594E2,5.449331E2,1.3325E2,1.255E2,2.39E2,4.975E1,0E0,0E0,0E0,0E0,0E0,0E0,0E0,0E0,0E0,0E0,0E0,0E0,0E0,0E0,0E0,0E0,0E0,0E0,0E0,0E0,0E0,0E0,0E0,0E0,0E0,0E0,0E0,0E0,0E0,0E0,0E0,0E0,0E0,0E0,0E0,0E0,0E0,0E0,0E0,0E0,0E0,0E0,0E0,0E0,0E0,0E0,0E0,0E0,0E0,0E0,0E0,0E0,0E0,0E0,0E0,0E0,0E0,0E0,0E0,0E0,0E0,0E0,0E0,0E0],"parents":[2147483647,0,0,1,1,2,2,3,3,4,4,5,5,6,6,7,7,8,8,9,9,10,10,11,11,12,12,13,13,14,14,15,15,16,16,17,17,18,18,19,19,20,20,21,21,22,22,23,23,24,24,25,25,26,26,27,27,28,28,29,29,30,30,31,31,32,32,33,33,34,34,35,35,36,36,37,37,38,38,39,39,40,40,41,41,42,42,43,43,44,44,45,45,46,46,47,47,48,48,49,49,50,50,51,51,52,52,53,53,54,54,55,55,56,56,57,57,58,58,59,59,60,60,61,61,62,62],"right_children":[2,4,6,8,10,12,14,16,18,20,22,24,26,28,30,32,34,36,38,40,42,44,46,48,50,52,54,56,58,60,62,64,66,68,70,72,74,76,78,80,82,84,86,88,90,92,94,96,98,100,102,104,106,108,110,112,114,116,118,120,122,124,126,-1,-1,-1,-1,-1,-1,-1,-1,-1,-1,-1,-1,-1,-1,-1,-1,-1,-1,-1,-1,-1,-1,-1,-1,-1,-1,-1,-1,-1,-1,-1,-1,-1,-1,-1,-1,-1,-1,-1,-1,-1,-1,-1,-1,-1,-1,-1,-1,-1,-1,-1,-1,-1,-1,-1,-1,-1,-1,-1,-1,-1,-1,-1,-1],"split_conditions":[4.1E1,4.1E1,4.1E1,4.1E1,4E1,4.1E1,4E1,2.813942E0,2.137491E0,4.1E1,-3.83025E-1,-1.92269E0,1.930395E0,5.38176E-1,-5.0543E-2,-1.653492E0,4.137417E0,4E1,2.565955E0,2.561942E0,9.65708E-1,4.1E1,4.1E1,-2.344512E0,1.543972E0,-8.66055E-1,2.023581E0,-5.3704E-1,1.588459E0,-4.74068E-1,1.288629E0,4E1,-1.92269E0,2.894327E0,1.0363609E1,1.728961E0,-2.87749E-1,2.198333E0,2.041577E0,-8.66055E-1,2.137491E0,-1.98122E-1,1.807464E0,4E1,-7.89252E-1,4E1,1.35075E-1,-1.653492E0,4E1,-4.25266E-1,2.023581E0,-4.97837E-1,-5.5737E-2,1.871006E0,2.325772E0,-2.344512E0,6.85493E-1,1.25227E0,2.198333E0,-4.35165E-1,-4.71577E-1,3.28913E-1,1.760398E0,-1.8660927E-1,1.1950858E-1,-2.0102246E-1,-1.8720731E-1,-1.763771E-1,1.8532649E-1,-9.126855E-2,-1.9133532E-1,3.462465E-2,-8.409371E-2,6.309599E-2,-1.041589E-1,-1.505876E-1,-1.9505592E-2,-1.946468E-1,-1.8100774E-1,-2.055582E-1,9.812685E-2,-9.700645E-2,2.7483493E-1,2.5722754E-1,1.729749E-1,2.4972066E-1,2.909246E-1,2.092643E-1,-1.2795597E-1,2.514982E-1,1.3996375E-1,-1.2290969E-2,-1.7581028E-1,-5.4328464E-2,1.1139194E-1,3.0402684E-1,3.1725907E-1,2.853716E-1,-1.7840381E-1,-7.420187E-2,6.001299E-2,-1.6740298E-1,7.94816E-2,2.9907027E-1,-1.970342E-1,2.1782307E-1,2.6333624E-1,2.087429E-1,1.1250921E-1,2.3215516E-1,5.4122005E-2,3.0450255E-1,2.4778163E-1,2.9736128E-1,2.59668E-1,2.3027743E-1,2.532795E-1,1.5954895E-1,2.833884E-1,2.978862E-1,2.9190868E-1,2.9597235E-1,3.0021015E-1,2.9635715E-1,2.938018E-1,2.9796055E-1,3.011494E-1],"split_indices":[3,2,2,7,8,7,7,1,0,7,1,0,1,1,1,1,0,8,0,1,0,7,7,0,0,1,0,1,1,1,0,8,0,0,0,1,1,1,1,1,0,1,1,7,0,7,1,1,7,1,0,0,0,0,1,0,0,0,1,0,0,1,1,0,0,0,0,0,0,0,0,0,0,0,0,0,0,0,0,0,0,0,0,0,0,0,0,0,0,0,0,0,0,0,0,0,0,0,0,0,0,0,0,0,0,0,0,0,0,0,0,0,0,0,0,0,0,0,0,0,0,0,0,0,0,0,0],"split_type":[0,0,0,0,0,0,0,0,0,0,0,0,0,0,0,0,0,0,0,0,0,0,0,0,0,0,0,0,0,0,0,0,0,0,0,0,0,0,0,0,0,0,0,0,0,0,0,0,0,0,0,0,0,0,0,0,0,0,0,0,0,0,0,0,0,0,0,0,0,0,0,0,0,0,0,0,0,0,0,0,0,0,0,0,0,0,0,0,0,0,0,0,0,0,0,0,0,0,0,0,0,0,0,0,0,0,0,0,0,0,0,0,0,0,0,0,0,0,0,0,0,0,0,0,0,0,0],"sum_hessian":[4.139885E7,1.0047377E7,3.135147E7,8.698209E6,1.3491681E6,2.7145385E6,2.8636932E7,8.082375E6,6.1583375E5,1.1153916E6,2.3377658E5,1.5566256E5,2.558876E6,5.003325E5,2.81366E7,8.019691E6,6.268378E4,5.5572356E5,6.011019E4,1.3911842E5,9.762732E5,6.736565E4,1.6641092E5,5.1705367E4,1.03957195E5,2.47902E6,7.9855875E4,3.735841E5,1.2674841E5,9.03333E6,1.910327E7,7.469026E3,8.012222E6,1.9491229E4,4.319255E4,4.3948303E5,1.1624053E5,3.0816467E4,2.9293725E4,1.2575789E5,1.3360524E4,6.865874E5,2.8968584E5,1.9054139E4,4.831151E4,5.1446816E4,1.1496411E5,4.8518758E4,3.1866062E3,6.900208E4,3.4955117E4,1.7518433E5,2.3038358E6,4.9076414E4,3.0779457E4,1.0899607E5,2.6458803E5,1.1083359E5,1.5914814E4,2.3122128E6,6.7211175E6,1.580129E7,3.301979E6,1.9980115E3,5.4710146E3,2.3835832E6,5.628639E6,9.020454E3,1.0470774E4,1.6120414E4,2.7072137E4,3.9232453E5,4.7158508E4,2.5212512E4,9.1028016E4,2.1783262E4,9.033205E3,1.2267285E4,1.7026441E4,2.180449E3,1.23577445E5,5.952742E2,1.2765251E4,2.5903462E5,4.2755272E5,1.8171803E5,1.0796782E5,9.277909E3,9.7762295E3,3.7553668E4,1.0757844E4,1.8298477E4,3.314834E4,5.164246E4,6.332165E4,4.7816652E4,7.0210724E2,3.1830059E3,3.600442E0,1.4444309E4,5.455777E4,1.897886E4,1.597626E4,1.7509817E5,8.614612E1,3.8641494E5,1.9174209E6,1.7438242E4,3.1638172E4,2.710949E4,3.669967E3,4.2413445E4,6.6582625E4,2.4955758E5,1.5030437E4,6.8566055E4,4.226754E4,1.1478269E4,4.4365454E3,1.9014838E6,4.10729E5,7.0904894E5,6.0120685E6,4.716868E6,1.1084422E7,2.7715168E6,5.304622E5],"tree_param":{"num_deleted":"0","num_feature":"10","num_nodes":"127","size_leaf_vector":"1"}},{"base_weights":[-1.24917224E-1,6.7963994E-1,-5.256751E-1,7.563009E-1,-1.4959884E-1,-2.4264959E-1,-5.7085145E-1,7.797203E-1,4.0478128E-1,1.5635999E-1,-2.04688E-1,1.9585294E-1,-3.1907308E-1,-2.2092752E-1,-5.7474E-1,7.479512E-1,8.0126375E-1,3.5285714E-1,6.5904015E-1,1.9276261E-1,-4.0383402E-1,-1.6925333E-1,-5.328568E-1,-5.356021E-1,2.6252016E-1,1.0101966E-2,-3.545629E-1,-2.739786E-1,2.9397385E-2,-4.4328022E-1,-5.772424E-1,7.8116983E-1,6.7113495E-1,8.091374E-1,7.8753734E-1,1.4774697E-1,3.8408715E-1,5.9243506E-1,7.786739E-1,1.2662129E-1,3.7728107E-1,5.840957E-1,-5.0250965E-1,-3.8409716E-1,-1.07396774E-1,-4.2635602E-1,-5.8657175E-1,-6.04724E-2,-5.952549E-1,3.7142378E-1,-1.4541247E-1,-1.4215283E-1,1.5046123E-1,-3.6346456E-1,4.3909725E-2,3.2019563E-2,-2.9310396E-1,-3.827909E-2,8.480405E-1,-5.2082914E-1,-2.4339202E-1,-5.9385014E-1,-5.6936246E-1,2.3613136E-1,1.6381554E-1,1.5264557E-1,2.0935933E-1,2.4320453E-1,2.0926374E-1,2.0534225E-1,2.3911318E-1,2.9744187E-2,3.261252E-1,1.6372362E-1,1.0304467E-1,1.8966986E-1,1.24098495E-1,2.386739E-1,2.299257E-1,3.108949E-2,2.3606825E-1,1.64474E-1,1.9479709E-2,2.3835757E-1,1.06825575E-1,-1.17355704E-1,-1.7931636E-1,1.0287138E-1,-1.20303266E-1,-1.4838628E-2,-8.154308E-2,-1.4576097E-1,-7.846644E-2,-1.4830746E-1,-1.8308334E-1,7.686381E-2,-2.9506853E-2,-1.8332289E-1,2.6584375E-1,1.09093525E-1,2.8201362E-1,-5.776103E-3,-1.3867833E-1,1.2404831E-1,-7.021209E-2,-9.728242E-2,5.78847E-2,-1.7156583E-1,-1.05748E-1,1.154766E-1,-4.0328708E-2,-1.1174516E-1,8.5347906E-2,-1.00629225E-1,-5.8226995E-2,4.5730744E-2,-3.3276383E-2,3.9621803E-1,-3.078458E-2,-1.1201945E-1,-1.6493812E-1,-8.554615E-2,-4.016968E-2,-1.742207E-1,-1.7930843E-1,-1.698867E-1,-1.7811415E-1],"categories":[],"categories_nodes":[],"categories_segments":[],"categories_sizes":[],"default_left":[0,0,0,0,0,0,0,0,0,0,0,0,0,0,0,0,0,0,0,0,0,0,0,0,0,0,0,0,0,0,0,0,0,0,0,0,0,0,0,0,0,0,0,0,0,0,0,0,0,0,0,0,0,0,0,0,0,0,0,0,0,0,0,0,0,0,0,0,0,0,0,0,0,0,0,0,0,0,0,0,0,0,0,0,0,0,0,0,0,0,0,0,0,0,0,0,0,0,0,0,0,0,0,0,0,0,0,0,0,0,0,0,0,0,0,0,0,0,0,0,0,0,0,0,0,0,0],"id":6,"left_children":[1,3,5,7,9,11,13,15,17,19,21,23,25,27,29,31,33,35,37,39,41,43,45,47,49,51,53,55,57,59,61,63,65,67,69,71,73,75,77,79,81,83,85,87,89,91,93,95,97,99,101,103,105,107,109,111,113,115,117,119,121,123,125,-1,-1,-1,-1,-1,-1,-1,-1,-1,-1,-1,-1,-1,-1,-1,-1,-1,-1,-1,-1,-1,-1,-1,-1,-1,-1,-1,-1,-1,-1,-1,-1,-1,-1,-1,-1,-1,-1,-1,-1,-1,-1,-1,-1,-1,-1,-1,-1,-1,-1,-1,-1,-1,-1,-1,-1,-1,-1,-1,-1,-1,-1,-1,-1],"loss_changes":[1.0217554E7,6.697975E5,2.70458E5,7.93985E4,1.5028451E4,9.757389E4,2.48195E4,6.188E3,7.953117E3,2.7744097E3,8.786254E3,2.1072682E4,2.8966281E4,2.6623516E3,5.9345E3,9.3235E3,5.815E2,3.2044492E3,8.1358984E2,1.559001E3,8.095604E2,9.062736E3,4.2099023E2,1.0230381E3,1.759414E4,5.1568867E3,7.939E3,9.6810645E2,1.9423596E3,5.223797E3,2.3165E3,3.558875E3,4.7855938E3,5.895E2,1.92375E3,3.017772E3,2.8497031E3,4.666797E2,6.9589844E0,1.4273833E3,1.7999839E3,3.590985E1,7.977161E1,1.8747129E3,5.0436143E3,2.4203857E2,1.0669531E2,4.834426E1,7.5218945E2,1.3822773E3,3.3357786E3,5.909952E3,2.5326675E3,5.005875E3,2.9744229E3,9.939752E2,6.524219E2,4.4863898E2,1.2030664E3,1.0366406E3,4.3070557E2,2.86875E2,8.985E2,0E0,0E0,0E0,0E0,0E0,0E0,0E0,0E0,0E0,0E0,0E0,0E0,0E0,0E0,0E0,0E0,0E0,0E0,0E0,0E0,0E0,0E0,0E0,0E0,0E0,0E0,0E0,0E0,0E0,0E0,0E0,0E0,0E0,0E0,0E0,0E0,0E0,0E0,0E0,0E0,0E0,0E0,0E0,0E0,0E0,0E0,0E0,0E0,0E0,0E0,0E0,0E0,0E0,0E0,0E0,0E0,0E0,0E0,0E0,0E0,0E0,0E0,0E0,0E0],"parents":[2147483647,0,0,1,1,2,2,3,3,4,4,5,5,6,6,7,7,8,8,9,9,10,10,11,11,12,12,13,13,14,14,15,15,16,16,17,17,18,18,19,19,20,20,21,21,22,22,23,23,24,24,25,25,26,26,27,27,28,28,29,29,30,30,31,31,32,32,33,33,34,34,35,35,36,36,37,37,38,38,39,39,40,40,41,41,42,42,43,43,44,44,45,45,46,46,47,47,48,48,49,49,50,50,51,51,52,52,53,53,54,54,55,55,56,56,57,57,58,58,59,59,60,60,61,61,62,62],"right_children":[2,4,6,8,10,12,14,16,18,20,22,24,26,28,30,32,34,36,38,40,42,44,46,48,50,52,54,56,58,60,62,64,66,68,70,72,74,76,78,80,82,84,86,88,90,92,94,96,98,100,102,104,106,108,110,112,114,116,118,120,122,124,126,-1,-1,-1,-1,-1,-1,-1,-1,-1,-1,-1,-1,-1,-1,-1,-1,-1,-1,-1,-1,-1,-1,-1,-1,-1,-1,-1,-1,-1,-1,-1,-1,-1,-1,-1,-1,-1,-1,-1,-1,-1,-1,-1,-1,-1,-1,-1,-1,-1,-1,-1,-1,-1,-1,-1,-1,-1,-1,-1,-1,-1,-1,-1,-1],"split_conditions":[4E1,4.1E1,4.1E1,4E1,4.1E1,4E1,4E1,4.137417E0,1.938511E0,2.813942E0,1.695732E0,-1.653492E0,4E1,1.36502E-1,4E1,-1.437878E0,6.735909E1,-4.0434E-1,2.565955E0,1.288629E0,2.307487E0,-4.25266E-1,2.307487E0,4.1E1,4E1,4.1E1,2.041577E0,-7.69469E-1,4E1,5.38176E-1,-3.8155E-2,4E1,-3.8155E-2,2.813942E0,7.612448E1,-2.38972E-1,-4.01371E-1,2.198333E0,2.041577E0,1.573058E0,1.728961E0,2.137491E0,3.407911E0,-1.137556E0,9.49217E-1,2.096086E0,2.561942E0,-3.21862E0,-1.92269E0,2.325772E0,4E1,-3.03889E-1,-6.33457E-1,-9.91339E-1,2.096086E0,-1.92269E0,1.35075E-1,5.05361E-1,9.2453E-1,-9.91339E-1,1.403322E0,-4.97441E-1,1.4706E0,2.3613136E-1,1.6381554E-1,1.5264557E-1,2.0935933E-1,2.4320453E-1,2.0926374E-1,2.0534225E-1,2.3911318E-1,2.9744187E-2,3.261252E-1,1.6372362E-1,1.0304467E-1,1.8966986E-1,1.24098495E-1,2.386739E-1,2.299257E-1,3.108949E-2,2.3606825E-1,1.64474E-1,1.9479709E-2,2.3835757E-1,1.06825575E-1,-1.17355704E-1,-1.7931636E-1,1.0287138E-1,-1.20303266E-1,-1.4838628E-2,-8.154308E-2,-1.4576097E-1,-7.846644E-2,-1.4830746E-1,-1.8308334E-1,7.686381E-2,-2.9506853E-2,-1.8332289E-1,2.6584375E-1,1.09093525E-1,2.8201362E-1,-5.776103E-3,-1.3867833E-1,1.2404831E-1,-7.021209E-2,-9.728242E-2,5.78847E-2,-1.7156583E-1,-1.05748E-1,1.154766E-1,-4.0328708E-2,-1.1174516E-1,8.5347906E-2,-1.00629225E-1,-5.8226995E-2,4.5730744E-2,-3.3276383E-2,3.9621803E-1,-3.078458E-2,-1.1201945E-1,-1.6493812E-1,-8.554615E-2,-4.016968E-2,-1.742207E-1,-1.7930843E-1,-1.698867E-1,-1.7811415E-1],"split_indices":[8,2,2,7,7,7,5,0,0,1,1,1,4,0,7,0,0,1,0,0,0,1,0,3,2,7,1,1,4,1,1,2,1,1,0,0,0,1,1,1,1,0,0,0,0,1,1,0,0,1,3,1,1,1,1,0,1,1,1,1,1,1,0,0,0,0,0,0,0,0,0,0,0,0,0,0,0,0,0,0,0,0,0,0,0,0,0,0,0,0,0,0,0,0,0,0,0,0,0,0,0,0,0,0,0,0,0,0,0,0,0,0,0,0,0,0,0,0,0,0,0,0,0,0,0,0,0],"split_type":[0,0,0,0,0,0,0,0,0,0,0,0,0,0,0,0,0,0,0,0,0,0,0,0,0,0,0,0,0,0,0,0,0,0,0,0,0,0,0,0,0,0,0,0,0,0,0,0,0,0,0,0,0,0,0,0,0,0,0,0,0,0,0,0,0,0,0,0,0,0,0,0,0,0,0,0,0,0,0,0,0,0,0,0,0,0,0,0,0,0,0,0,0,0,0,0,0,0,0,0,0,0,0,0,0,0,0,0,0,0,0,0,0,0,0,0,0,0,0,0,0,0,0,0,0,0,0],"sum_hessian":[3.1688956E7,1.0536331E7,2.1152624E7,9.644703E6,8.9162794E5,2.9116172E6,1.8241008E7,9.042276E6,6.0242706E5,1.3604545E5,7.555825E5,4.321316E5,2.4794855E6,2.0047666E5,1.804053E7,3.6539685E6,5.3883075E6,5.002663E5,1.0216078E5,1.2774496E5,8.30049E3,6.8194925E5,7.363327E4,3.60954E4,3.960362E5,2.4130814E5,2.2381775E6,1.6541942E5,3.5057234E4,3.3700147E5,1.770353E7,2.550859E6,1.1031095E6,3.4241268E6,1.964181E6,6.610595E4,4.3416034E5,6.562859E4,3.6532188E4,9.403827E4,3.370668E4,7.5332825E2,7.5471616E3,1.5244906E5,5.295002E5,2.4689734E4,4.8943535E4,4.0265195E3,3.2068877E4,3.1258666E5,8.344953E4,1.1574915E5,1.25558984E5,2.1892705E6,4.890694E4,9.73076E3,1.5568866E5,3.2381258E4,2.6759756E3,2.4280203E5,9.419943E4,5.696822E6,1.2006707E7,2.4880552E6,6.280371E4,1.5597281E5,9.471366E5,3.3773792E6,4.6747523E4,1.6588188E5,1.7982991E6,6.2855047E4,3.250906E3,8.715651E4,3.4700384E5,5.3676777E4,1.1951817E4,1.5325997E4,2.1206191E4,9.08753E4,3.162979E3,2.1782932E4,1.1923749E4,3.904758E2,3.6285242E2,3.4815483E3,4.0656133E3,3.4656572E3,1.489834E5,3.9153544E5,1.3796475E5,1.8137781E4,6.5519546E3,1.0013617E4,3.8929918E4,4.2959616E2,3.5969233E3,3.1730582E4,3.3829584E2,3.083698E5,4.2168364E3,5.968569E4,2.376384E4,1.6424715E4,9.932444E4,1.0313604E4,1.15245375E5,1.0947695E5,2.0797935E6,1.6793645E4,3.2113297E4,3.7393074E3,5.991452E3,1.090635E5,4.6625164E4,8.931469E3,2.344979E4,1.7870348E3,8.889408E2,3.987095E4,2.0293108E5,6.81896E4,2.600983E4,1.2915056E6,4.405316E6,1.0661137E7,1.3455702E6],"tree_param":{"num_deleted":"0","num_feature":"10","num_nodes":"127","size_leaf_vector":"1"}},{"base_weights":[-5.6536084E-1,-3.0066034E-1,-5.9985924E-1,-5.6797093E-1,7.561234E-2,-5.396103E-1,-6.1793876E-1,-5.798625E-1,-3.5915643E-1,4.7671425E-1,-6.1908054E-1,-6.1691254E-1,2.513285E-1,-6.1999327E-1,-6.17752E-1,-5.8198684E-1,-2.8147283E-1,-1.5699396E-1,-6.1848575E-1,1.1643607E-1,6.55022E-1,-6.246408E-1,-1.8534553E-1,-6.170318E-1,-9.92901E-4,4.183515E-1,3.651377E-2,-6.3049144E-1,-6.1843234E-1,-6.171489E-1,-6.1825293E-1,-5.8469135E-1,-4.1369733E-1,-1.2425189E-1,-4.846339E-1,-2.0815042E-1,2.042789E-1,-1.8745741E-1,-6.064018E-1,-2.759881E-1,2.7953556E-1,-4.165454E-1,6.6891295E-1,-1.85505E-1,-6.430148E-1,-6.171988E-1,-3.8762522E-1,-4.4965485E-1,3.6156622E-1,-5.5783223E-2,6.193115E-1,1.9543676E-1,-9.747287E-2,-6.5789264E-1,-6.294636E-1,-6.157353E-1,-6.23499E-1,-6.1638117E-1,-6.173725E-1,-6.24164E-1,-6.1818224E-1,-1.8525597E-1,-1.7319146E-1,-5.8422253E-2,-1.3560611E-1,-1.6791125E-1,2.4761254E-2,2.36916E-1,-1.4628549E-1,2.098805E-2,-9.115512E-2,2.5882933E-1,1.0781689E-2,-1.8752688E-1,-1.7707479E-1,6.765891E-2,-1.1677127E-1,6.1871305E-2,2.0221408E-1,-1.4929841E-1,2.9650354E-1,1.4712174E-1,2.1211837E-1,-2.0179866E-1,-1.8751481E-1,-1.8282989E-1,-1.8559688E-1,-2.4818208E-2,-1.5568584E-1,-1.0784594E-1,-1.8810295E-1,2.0813447E-1,-1.3579756E-1,-2.8666764E-2,2.5014815E-1,2.089972E-1,5.8105245E-2,-6.9106646E-2,1.0418043E-1,3.598901E-2,-6.574879E-2,-1.9358267E-1,-2.0248225E-1,-1.872829E-1,-1.8907148E-1,-1.8590397E-1,-1.7995387E-1,-1.86667E-1,-1.8927665E-1,-1.8516546E-1,-1.8405433E-1,-1.8529277E-1,-1.8488985E-1,-1.8566683E-1,-1.8794268E-1,-1.8553115E-1,-1.8536215E-1],"categories":[],"categories_nodes":[],"categories_segments":[],"categories_sizes":[],"default_left":[0,0,0,0,0,0,0,0,0,0,0,0,0,0,0,0,0,0,0,0,0,0,0,0,0,0,0,0,0,0,0,0,0,0,0,0,0,0,0,0,0,0,0,0,0,0,0,0,0,0,0,0,0,0,0,0,0,0,0,0,0,0,0,0,0,0,0,0,0,0,0,0,0,0,0,0,0,0,0,0,0,0,0,0,0,0,0,0,0,0,0,0,0,0,0,0,0,0,0,0,0,0,0,0,0,0,0,0,0,0,0,0,0,0,0,0,0],"id":7,"left_children":[1,3,5,7,9,11,13,15,17,19,21,23,25,27,29,31,33,35,37,39,41,43,-1,45,47,49,51,53,55,57,59,61,63,65,67,69,71,-1,73,75,77,79,81,-1,83,85,87,89,91,93,95,97,99,101,103,105,107,109,111,113,115,-1,-1,-1,-1,-1,-1,-1,-1,-1,-1,-1,-1,-1,-1,-1,-1,-1,-1,-1,-1,-1,-1,-1,-1,-1,-1,-1,-1,-1,-1,-1,-1,-1,-1,-1,-1,-1,-1,-1,-1,-1,-1,-1,-1,-1,-1,-1,-1,-1,-1,-1,-1,-1,-1,-1,-1],"loss_changes":[2.55163E5,3.2405806E5,2.6927E4,4.6771875E3,3.7287525E5,3.48868E5,7.5E0,1.129625E3,5.3208623E3,5.449883E4,3.046875E0,3.82E2,1.8227137E4,2.55625E1,5.5E0,8.050625E2,4.0240997E2,1.0541178E3,3.046875E0,1.7976576E4,8.447469E3,1.0066406E1,0E0,1.98875E2,1.6407547E2,2.7231758E4,4.731819E3,5.359375E0,1.85E1,1E0,3.5E0,4.219375E2,2.3478906E2,6.397978E2,2.1290405E1,1.3297258E3,7.8421277E2,0E0,4.2749023E0,4.683603E3,5.737086E3,8.2817957E2,3.8147031E3,0E0,1.1864258E1,5.8375E1,1.5141364E2,6.9837112E0,1.5121457E2,3.0102957E3,6.6078203E3,6.5716104E3,3.1902378E3,1.1533203E0,3.984375E-1,5.603125E1,4.140625E0,3.9375E0,1.5E0,9.84375E-1,5E-1,0E0,0E0,0E0,0E0,0E0,0E0,0E0,0E0,0E0,0E0,0E0,0E0,0E0,0E0,0E0,0E0,0E0,0E0,0E0,0E0,0E0,0E0,0E0,0E0,0E0,0E0,0E0,0E0,0E0,0E0,0E0,0E0,0E0,0E0,0E0,0E0,0E0,0E0,0E0,0E0,0E0,0E0,0E0,0E0,0E0,0E0,0E0,0E0,0E0,0E0,0E0,0E0,0E0,0E0,0E0,0E0],"parents":[2147483647,0,0,1,1,2,2,3,3,4,4,5,5,6,6,7,7,8,8,9,9,10,10,11,11,12,12,13,13,14,14,15,15,16,16,17,17,18,18,19,19,20,20,21,21,23,23,24,24,25,25,26,26,27,27,28,28,29,29,30,30,31,31,32,32,33,33,34,34,35,35,36,36,38,38,39,39,40,40,41,41,42,42,44,44,45,45,46,46,47,47,48,48,49,49,50,50,51,51,52,52,53,53,54,54,55,55,56,56,57,57,58,58,59,59,60,60],"right_children":[2,4,6,8,10,12,14,16,18,20,22,24,26,28,30,32,34,36,38,40,42,44,-1,46,48,50,52,54,56,58,60,62,64,66,68,70,72,-1,74,76,78,80,82,-1,84,86,88,90,92,94,96,98,100,102,104,106,108,110,112,114,116,-1,-1,-1,-1,-1,-1,-1,-1,-1,-1,-1,-1,-1,-1,-1,-1,-1,-1,-1,-1,-1,-1,-1,-1,-1,-1,-1,-1,-1,-1,-1,-1,-1,-1,-1,-1,-1,-1,-1,-1,-1,-1,-1,-1,-1,-1,-1,-1,-1,-1,-1,-1,-1,-1,-1,-1],"split_conditions":[-8.28433E-1,4E1,4.1E1,4E1,4.1E1,4E1,4E1,4E1,4.1E1,4E1,4.1E1,4E1,4.1E1,-2.37073E-1,2.81303E-1,4E1,-3.21862E0,4E1,-6.92293E-1,-3.9741E-1,-1.460008E0,-1.92269E0,-1.8534553E-1,4E1,4E1,4E1,1.55542E-1,4.1E1,1.202209E0,-4.12572E-1,4E1,-3.829898E1,-3.896427E0,-2.5102448E1,-1.460008E0,-1.2223874E1,-4.704835E0,-1.8745741E-1,-1.015438E0,-2.710181E0,4E1,4E1,4E1,-1.85505E-1,4E1,7.27516E-1,3.3961E-1,1.235215E0,7.16942E-1,4E1,2.59914E-1,-2.51681E-1,-6.8007E-2,4E1,-7.24998E-1,9.62431E-1,1.930395E0,-3.9741E-1,1.83911E-1,5.38176E-1,8.129E-1,-1.8525597E-1,-1.7319146E-1,-5.8422253E-2,-1.3560611E-1,-1.6791125E-1,2.4761254E-2,2.36916E-1,-1.4628549E-1,2.098805E-2,-9.115512E-2,2.5882933E-1,1.0781689E-2,-1.8752688E-1,-1.7707479E-1,6.765891E-2,-1.1677127E-1,6.1871305E-2,2.0221408E-1,-1.4929841E-1,2.9650354E-1,1.4712174E-1,2.1211837E-1,-2.0179866E-1,-1.8751481E-1,-1.8282989E-1,-1.8559688E-1,-2.4818208E-2,-1.5568584E-1,-1.0784594E-1,-1.8810295E-1,2.0813447E-1,-1.3579756E-1,-2.8666764E-2,2.5014815E-1,2.089972E-1,5.8105245E-2,-6.9106646E-2,1.0418043E-1,3.598901E-2,-6.574879E-2,-1.9358267E-1,-2.0248225E-1,-1.872829E-1,-1.8907148E-1,-1.8590397E-1,-1.7995387E-1,-1.86667E-1,-1.8927665E-1,-1.8516546E-1,-1.8405433E-1,-1.8529277E-1,-1.8488985E-1,-1.8566683E-1,-1.8794268E-1,-1.8553115E-1,-1.8536215E-1],"split_indices":[0,8,3,2,3,8,2,3,2,4,7,9,7,1,0,7,0,4,1,1,1,0,0,3,7,7,1,7,0,0,7,0,0,0,1,0,0,0,0,0,3,3,2,0,2,0,1,1,0,3,0,1,0,7,0,1,1,1,1,1,1,0,0,0,0,0,0,0,0,0,0,0,0,0,0,0,0,0,0,0,0,0,0,0,0,0,0,0,0,0,0,0,0,0,0,0,0,0,0,0,0,0,0,0,0,0,0,0,0,0,0,0,0,0,0,0,0],"split_type":[0,0,0,0,0,0,0,0,0,0,0,0,0,0,0,0,0,0,0,0,0,0,0,0,0,0,0,0,0,0,0,0,0,0,0,0,0,0,0,0,0,0,0,0,0,0,0,0,0,0,0,0,0,0,0,0,0,0,0,0,0,0,0,0,0,0,0,0,0,0,0,0,0,0,0,0,0,0,0,0,0,0,0,0,0,0,0,0,0,0,0,0,0,0,0,0,0,0,0,0,0,0,0,0,0,0,0,0,0,0,0,0,0,0,0,0,0],"sum_hessian":[2.7942458E7,3.2218388E6,2.4720618E7,1.8836565E6,1.3381824E6,5.7059275E6,1.901469E7,1.782164E6,1.0149244E5,8.4835775E5,4.8982462E5,5.1979115E6,5.080163E5,1.5836011E6,1.743109E7,1.7695646E6,1.2599359E4,5.7033254E4,4.445918E4,2.808634E5,5.674943E5,9.052447E4,3.9930016E5,5.1969045E6,1.0066623E3,2.857999E5,2.2221642E5,2.0492958E5,1.3786715E6,7.9088665E6,9.522223E6,1.7415744E6,2.7990305E4,7.103647E3,5.495712E3,4.9959395E4,7.0738584E3,2.9075758E4,1.5383421E4,8.246016E4,1.9840327E5,7.262025E3,5.602323E5,6.746175E4,2.3062717E4,5.193123E6,3.7814893E3,4.4980032E2,5.56862E2,8.50762E4,2.0072369E5,1.0164899E5,1.2056742E5,7.385902E3,1.9754369E5,8.998039E5,4.7886766E5,1.784737E6,6.1241295E6,1.1244107E5,9.409782E6,3.198686E5,1.4217058E6,4.170196E3,2.3820107E4,2.2866875E3,4.8169595E3,1.2224463E1,5.4834873E3,1.27902705E4,3.7169125E4,1.439383E3,5.6344756E3,7.1145156E3,8.268906E3,1.5190228E4,6.726992E4,1.6731806E5,3.10852E4,6.866226E3,3.9579846E2,9.864704E4,4.6158525E5,8.688368E3,1.4374349E4,8.206778E5,4.3724455E6,1.1389244E3,2.6425647E3,3.0020245E2,1.4959787E2,3.955996E2,1.6126237E2,8.143625E4,3.6399558E3,1.6985644E5,3.0867252E4,2.6718828E4,7.4930164E4,4.3263633E4,7.730379E4,4.2668936E3,3.1190085E3,2.5771021E4,1.7177266E5,7.208181E5,1.7898573E5,4.0871678E5,7.0150875E4,1.3812491E6,4.034878E5,4.892349E6,1.2317804E6,3.4343863E4,7.809721E4,5.1504875E6,4.2592945E6],"tree_param":{"num_deleted":"0","num_feature":"10","num_nodes":"117","size_leaf_vector":"1"}},{"base_weights":[5.129001E-1,-3.7802076E-1,7.7130836E-1,-5.318168E-1,4.5606202E-1,6.347733E-1,7.8468573E-1,-5.7798153E-1,-1.7215017E-2,5.2640873E-1,1.1260991E-1,2.671831E-1,6.5699947E-1,7.134135E-1,7.859772E-1,-5.80643E-1,-2.595929E-1,2.1551749E-2,-4.2502618E-1,2.7887473E-1,5.6238276E-1,4.0640634E-1,-5.2917335E-2,8.0676466E-1,1.0383841E-2,6.633995E-1,3.7412354E-1,7.565557E-1,5.909895E-1,7.9473865E-1,7.8178614E-1,-5.539464E-1,-6.041536E-1,-3.7300505E-2,-5.819492E-1,2.6133722E-1,-2.6973017E-2,-3.049548E-1,-5.627921E-1,2.3913498E-1,6.741749E-1,5.155542E-1,6.790232E-1,8.486916E-3,5.676554E-1,-3.2300133E-1,1.0992708E-1,8.1069285E-1,7.4757594E-1,3.193907E-2,-6.0625917E-1,7.529818E-1,6.490819E-1,6.142822E-2,5.3119373E-1,6.6642946E-1,7.737216E-1,6.182085E-1,5.1789623E-1,7.9002136E-1,7.985933E-1,7.7954257E-1,7.9249185E-1,-1.8335016E-1,-1.2538321E-1,-1.85773E-1,-1.7346497E-1,-1.9195442E-1,2.9986953E-2,-1.5863103E-1,-1.8760999E-1,9.106442E-2,-1.9178574E-1,-8.003575E-2,1.2409555E-2,-1.644029E-1,-4.4056524E-2,-1.7819406E-1,-1.6218147E-1,9.222532E-2,9.23036E-3,-1.9959629E-1,2.1196173E-1,1.820761E-1,1.117783E-1,1.8827237E-1,2.3018955E-1,1.4853103E-1,-1.2620232E-1,1.9825429E-1,1.009218E-1,-3.2689504E-3,-1.19731806E-1,-9.443631E-2,8.377193E-2,2.4282779E-1,2.6755783E-1,2.2481008E-1,-1.7977703E-1,-9.097304E-3,1.841422E-1,-2.187921E-1,2.726544E-1,2.2789267E-1,7.563921E-2,5.422008E-2,2.0055008E-1,1.665099E-1,-1.5236158E-2,1.77222E-1,3.5312813E-2,2.1684767E-1,-1.4443699E-1,2.3364763E-1,1.8934494E-1,1.806269E-1,2.0522384E-1,4.507467E-3,1.6473345E-1,2.3741722E-1,2.192996E-1,4.99235E-2,2.396035E-1,2.338898E-1,1.8265972E-1,2.3629405E-1,2.3886414E-1],"categories":[],"categories_nodes":[],"categories_segments":[],"categories_sizes":[],"default_left":[0,0,0,0,0,0,0,0,0,0,0,0,0,0,0,0,0,0,0,0,0,0,0,0,0,0,0,0,0,0,0,0,0,0,0,0,0,0,0,0,0,0,0,0,0,0,0,0,0,0,0,0,0,0,0,0,0,0,0,0,0,0,0,0,0,0,0,0,0,0,0,0,0,0,0,0,0,0,0,0,0,0,0,0,0,0,0,0,0,0,0,0,0,0,0,0,0,0,0,0,0,0,0,0,0,0,0,0,0,0,0,0,0,0,0,0,0,0,0,0,0,0,0,0,0,0,0],"id":8,"left_children":[1,3,5,7,9,11,13,15,17,19,21,23,25,27,29,31,33,35,37,39,41,43,45,47,49,51,53,55,57,59,61,63,65,67,69,71,73,75,77,79,81,83,85,87,89,91,93,95,97,99,101,103,105,107,109,111,113,115,117,119,121,123,125,-1,-1,-1,-1,-1,-1,-1,-1,-1,-1,-1,-1,-1,-1,-1,-1,-1,-1,-1,-1,-1,-1,-1,-1,-1,-1,-1,-1,-1,-1,-1,-1,-1,-1,-1,-1,-1,-1,-1,-1,-1,-1,-1,-1,-1,-1,-1,-1,-1,-1,-1,-1,-1,-1,-1,-1,-1,-1,-1,-1,-1,-1,-1,-1],"loss_changes":[8.867748E6,1.1109235E6,5.4534E4,1.7370675E5,3.2574719E4,2.1768125E4,2.503E3,5.68575E3,9.516641E3,9.9646875E3,1.1146673E4,2.105014E4,4.54825E3,2.5558906E3,9.79E2,4.17625E3,3.9860203E3,6.396081E3,8.642168E2,2.2304785E3,5.3364062E3,5.2999453E3,6.4481167E3,1.078125E1,1.3681621E3,3.15075E3,2.7302095E3,5.5315625E2,2.5060938E2,1.565E2,4.34E2,2.4249625E4,1.3845E3,2.723021E3,5.2088867E1,3.5174033E3,7.4925117E3,1.0729026E3,1.6516602E1,1.835771E3,5.627612E2,9.105891E3,1.2706875E3,4.974829E3,1.2665312E3,1.3098691E3,6.577149E3,4E0,7.8338623E0,3.60319E3,6.487976E2,1.1291875E3,1.9265062E4,1.0296006E3,9.109717E2,3.7075059E3,2.1826562E2,9.716406E1,5.37291E2,3.135E2,2.56E2,2.3E2,5.6E1,0E0,0E0,0E0,0E0,0E0,0E0,0E0,0E0,0E0,0E0,0E0,0E0,0E0,0E0,0E0,0E0,0E0,0E0,0E0,0E0,0E0,0E0,0E0,0E0,0E0,0E0,0E0,0E0,0E0,0E0,0E0,0E0,0E0,0E0,0E0,0E0,0E0,0E0,0E0,0E0,0E0,0E0,0E0,0E0,0E0,0E0,0E0,0E0,0E0,0E0,0E0,0E0,0E0,0E0,0E0,0E0,0E0,0E0,0E0,0E0,0E0,0E0,0E0,0E0],"parents":[2147483647,0,0,1,1,2,2,3,3,4,4,5,5,6,6,7,7,8,8,9,9,10,10,11,11,12,12,13,13,14,14,15,15,16,16,17,17,18,18,19,19,20,20,21,21,22,22,23,23,24,24,25,25,26,26,27,27,28,28,29,29,30,30,31,31,32,32,33,33,34,34,35,35,36,36,37,37,38,38,39,39,40,40,41,41,42,42,43,43,44,44,45,45,46,46,47,47,48,48,49,49,50,50,51,51,52,52,53,53,54,54,55,55,56,56,57,57,58,58,59,59,60,60,61,61,62,62],"right_children":[2,4,6,8,10,12,14,16,18,20,22,24,26,28,30,32,34,36,38,40,42,44,46,48,50,52,54,56,58,60,62,64,66,68,70,72,74,76,78,80,82,84,86,88,90,92,94,96,98,100,102,104,106,108,110,112,114,116,118,120,122,124,126,-1,-1,-1,-1,-1,-1,-1,-1,-1,-1,-1,-1,-1,-1,-1,-1,-1,-1,-1,-1,-1,-1,-1,-1,-1,-1,-1,-1,-1,-1,-1,-1,-1,-1,-1,-1,-1,-1,-1,-1,-1,-1,-1,-1,-1,-1,-1,-1,-1,-1,-1,-1,-1,-1,-1,-1,-1,-1,-1,-1,-1,-1,-1,-1],"split_conditions":[4.1E1,4.1E1,4E1,4.1E1,4E1,4.1E1,4E1,2.813942E0,2.137491E0,4.1E1,-2.66968E-1,-1.92269E0,2.041577E0,5.38176E-1,-3.8155E-2,4.137417E0,1.0363609E1,-3.13336E-1,2.565955E0,2.561942E0,9.82267E-1,4.1E1,1.35075E-1,-2.344512E0,2.325772E0,-5.23503E-1,2.096086E0,-9.91339E-1,1.403322E0,-3.47261E-1,1.288629E0,-1.137556E0,6.735909E1,2.137491E0,1.76903E1,-1.92599E-1,-1.64391E-1,1.760398E0,2.041577E0,1.288629E0,2.023581E0,3.62775E-1,1.807464E0,4E1,-7.55291E-1,-1.82798E-1,4.1E1,-1.653492E0,4E1,2.198333E0,2.894327E0,-2.96349E-1,-4.71577E-1,1.871006E0,2.325772E0,-1.92269E0,7.94329E-1,1.420485E0,1.155805E0,-1.98122E-1,-8.66055E-1,1.544155E0,1.519848E0,-1.8335016E-1,-1.2538321E-1,-1.85773E-1,-1.7346497E-1,-1.9195442E-1,2.9986953E-2,-1.5863103E-1,-1.8760999E-1,9.106442E-2,-1.9178574E-1,-8.003575E-2,1.2409555E-2,-1.644029E-1,-4.4056524E-2,-1.7819406E-1,-1.6218147E-1,9.222532E-2,9.23036E-3,-1.9959629E-1,2.1196173E-1,1.820761E-1,1.117783E-1,1.8827237E-1,2.3018955E-1,1.4853103E-1,-1.2620232E-1,1.9825429E-1,1.009218E-1,-3.2689504E-3,-1.19731806E-1,-9.443631E-2,8.377193E-2,2.4282779E-1,2.6755783E-1,2.2481008E-1,-1.7977703E-1,-9.097304E-3,1.841422E-1,-2.187921E-1,2.726544E-1,2.2789267E-1,7.563921E-2,5.422008E-2,2.0055008E-1,1.665099E-1,-1.5236158E-2,1.77222E-1,3.5312813E-2,2.1684767E-1,-1.4443699E-1,2.3364763E-1,1.8934494E-1,1.806269E-1,2.0522384E-1,4.507467E-3,1.6473345E-1,2.3741722E-1,2.192996E-1,4.99235E-2,2.396035E-1,2.338898E-1,1.8265972E-1,2.3629405E-1,2.3886414E-1],"split_indices":[3,2,2,7,8,7,7,1,0,7,1,0,1,1,1,0,0,1,0,1,0,7,1,0,1,1,1,1,1,0,0,0,0,0,0,0,0,1,1,0,0,1,1,7,0,1,7,1,7,1,0,0,0,0,1,0,0,0,0,1,1,1,0,0,0,0,0,0,0,0,0,0,0,0,0,0,0,0,0,0,0,0,0,0,0,0,0,0,0,0,0,0,0,0,0,0,0,0,0,0,0,0,0,0,0,0,0,0,0,0,0,0,0,0,0,0,0,0,0,0,0,0,0,0,0,0,0],"split_type":[0,0,0,0,0,0,0,0,0,0,0,0,0,0,0,0,0,0,0,0,0,0,0,0,0,0,0,0,0,0,0,0,0,0,0,0,0,0,0,0,0,0,0,0,0,0,0,0,0,0,0,0,0,0,0,0,0,0,0,0,0,0,0,0,0,0,0,0,0,0,0,0,0,0,0,0,0,0,0,0,0,0,0,0,0,0,0,0,0,0,0,0,0,0,0,0,0,0,0,0,0,0,0,0,0,0,0,0,0,0,0,0,0,0,0,0,0,0,0,0,0,0,0,0,0,0,0],"sum_hessian":[3.8518356E7,8.660236E6,2.985812E7,7.311984E6,1.3482519E6,2.6643725E6,2.7193746E7,6.7100295E6,6.0195475E5,1.1190456E6,2.292063E5,1.5191528E5,2.5124572E6,4.8400328E5,2.6709744E7,6.654404E6,5.5625426E4,5.497008E5,5.2253938E4,1.4199542E5,9.770502E5,8.259893E4,1.4660738E5,4.8985586E4,1.02929695E5,2.4568695E6,5.5587625E4,3.5788094E5,1.26122336E5,8.642445E6,1.8067298E7,3.1160805E6,3.5383232E6,3.2923176E4,2.2702248E4,9.251802E4,4.571828E5,2.7921697E4,2.433224E4,1.2902598E5,1.2969451E4,6.9716106E5,2.798891E5,2.3819598E4,5.8779336E4,5.514545E4,9.146192E4,4.5924977E4,3.0606096E3,9.945415E4,3.475548E3,3.3855412E5,2.1183155E6,1.8586674E4,3.7000953E4,5.7264562E4,3.0061638E5,9.189446E4,3.4227875E4,3.8864452E6,4.7559995E6,1.4937082E7,3.1302172E6,2.1932868E6,9.227938E5,2.2369048E6,1.3014186E6,6.107605E3,2.6815572E4,1.0209945E4,1.2492302E4,8.83766E4,4.1414175E3,1.0138812E5,3.5579472E5,1.1003297E4,1.69184E4,1.010378E4,1.422846E4,9.7179414E4,3.1846557E4,3.055071E2,1.2663943E4,4.2532884E5,2.7183225E5,1.7683439E5,1.03054695E5,1.1162515E4,1.2657083E4,4.1894305E4,1.688503E4,1.0810951E4,4.4334496E4,2.6068688E4,6.539323E4,4.5229965E4,6.950127E2,3.0569883E3,3.621415E0,8.984151E4,9.612637E3,3.2149668E3,2.605813E2,3.3411056E5,4.443572E3,8.4332055E4,2.0339834E6,3.4420586E3,1.5144616E4,3.2342809E4,4.6581445E3,5.458324E4,2.6813242E3,2.902225E5,1.0393895E4,7.383647E4,1.8057992E4,2.0005706E3,3.2227305E4,3.798311E6,8.813422E4,6.4012964E2,4.755359E6,1.4929203E7,7.878413E3,1.3600114E6,1.7702059E6],"tree_param":{"num_deleted":"0","num_feature":"10","num_nodes":"127","size_leaf_vector":"1"}},{"base_weights":[-1.07249305E-1,5.7572305E-1,-4.7455406E-1,6.4218444E-1,-1.0237491E-1,-1.8716864E-1,-5.2568704E-1,6.672375E-1,3.0912024E-1,1.3098627E-1,-1.4776808E-1,1.6231278E-1,-2.539886E-1,-1.7546637E-1,-5.302042E-1,6.325116E-1,6.9121385E-1,2.4438937E-1,4.7502816E-1,1.571233E-1,-3.4735602E-1,-1.1624452E-1,-4.8024887E-1,-4.9561444E-1,2.1252568E-1,1.9511163E-2,-2.8675824E-1,-2.2160427E-1,3.917295E-2,-3.801536E-1,-5.332116E-1,6.692399E-1,5.5061364E-1,7.001329E-1,6.757831E-1,5.011701E-1,2.2360207E-1,6.2821895E-1,3.9265823E-1,6.5356857E-1,1.4026217E-1,5.1960194E-1,-4.4658569E-1,-3.115879E-1,-5.7371E-2,-3.5779995E-1,-5.451349E-1,-1.252118E-1,-5.570104E-1,2.9147422E-1,-1.0136836E-1,7.1220465E-2,-3.1052068E-1,-2.9724482E-1,-8.798039E-3,4.083649E-2,-2.411522E-1,-2.0369412E-2,6.9398016E-1,-4.663284E-1,-1.8096755E-1,-5.536803E-1,-5.235931E-1,2.0278792E-1,1.2846088E-1,1.16872214E-1,1.7371157E-1,2.1054967E-1,1.7515244E-1,1.6744329E-1,2.0608068E-1,7.252328E-2,1.6740064E-1,1.07145365E-2,7.87381E-2,2.1610929E-1,1.7589554E-1,-6.510993E-3,1.5196896E-1,2.4866308E-1,1.3229217E-1,-5.38935E-2,5.7704855E-2,2.0779769E-1,1.0403677E-1,-9.646414E-2,-1.6771404E-1,-1.3670947E-1,-7.010186E-2,-1.8907104E-3,-6.1743345E-2,-1.1109177E-1,1.9126955E-1,-1.304198E-1,-1.7231056E-1,-4.5791555E-2,6.679159E-2,-1.7220144E-1,2.1056022E-1,8.043402E-2,1.376387E-1,9.54985E-4,-1.1931272E-1,7.394113E-3,8.4723264E-2,-6.623312E-2,-1.4597552E-1,-1.5852137E-1,-8.575845E-2,7.477738E-3,-1.7057586E-1,8.810169E-2,-6.763011E-2,-8.511559E-2,-4.454522E-2,4.975333E-2,-2.6560718E-2,2.9050654E-1,-1.1236934E-1,-9.2313185E-2,-1.4984755E-1,-6.1296955E-2,-2.3181369E-3,-1.61786E-1,-1.6769241E-1,-1.5596093E-1,-1.6602376E-1],"categories":[],"categories_nodes":[],"categories_segments":[],"categories_sizes":[],"default_left":[0,0,0,0,0,0,0,0,0,0,0,0,0,0,0,0,0,0,0,0,0,0,0,0,0,0,0,0,0,0,0,0,0,0,0,0,0,0,0,0,0,0,0,0,0,0,0,0,0,0,0,0,0,0,0,0,0,0,0,0,0,0,0,0,0,0,0,0,0,0,0,0,0,0,0,0,0,0,0,0,0,0,0,0,0,0,0,0,0,0,0,0,0,0,0,0,0,0,0,0,0,0,0,0,0,0,0,0,0,0,0,0,0,0,0,0,0,0,0,0,0,0,0,0,0,0,0],"id":9,"left_children":[1,3,5,7,9,11,13,15,17,19,21,23,25,27,29,31,33,35,37,39,41,43,45,47,49,51,53,55,57,59,61,63,65,67,69,71,73,75,77,79,81,83,85,87,89,91,93,95,97,99,101,103,105,107,109,111,113,115,117,119,121,123,125,-1,-1,-1,-1,-1,-1,-1,-1,-1,-1,-1,-1,-1,-1,-1,-1,-1,-1,-1,-1,-1,-1,-1,-1,-1,-1,-1,-1,-1,-1,-1,-1,-1,-1,-1,-1,-1,-1,-1,-1,-1,-1,-1,-1,-1,-1,-1,-1,-1,-1,-1,-1,-1,-1,-1,-1,-1,-1,-1,-1,-1,-1,-1,-1],"loss_changes":[6.7209005E6,4.222625E5,2.5601325E5,7.12035E4,8.859537E3,6.145346E4,2.339825E4,6.6075E3,6.4109336E3,1.7028267E3,7.338323E3,1.3954403E4,1.9799844E4,1.8651304E3,6.58925E3,9.749875E3,6.455E2,2.2920645E3,2.113871E3,1.0808875E3,6.072943E2,7.3549014E3,4.8156445E2,6.810596E2,9.725293E3,4.0339368E3,5.750422E3,7.952749E2,1.299223E3,4.9248164E3,2.818E3,3.6244375E3,4.5939062E3,5.875E2,2.2558125E3,4.7401025E2,2.9004219E3,2.2576562E2,5.1426895E3,1.5772144E2,2.0812388E3,2.1447586E1,8.886609E1,1.6628857E3,3.7252896E3,2.6170264E2,1.276582E2,4.0675674E1,5.5006006E2,1.2255645E3,2.4435786E3,2.0100261E3,5.058098E2,5.002297E3,1.3540181E3,7.23577E2,5.6904395E2,3.8775214E2,8.146847E2,1.0533398E3,3.505835E2,3.485E2,1.081E3,0E0,0E0,0E0,0E0,0E0,0E0,0E0,0E0,0E0,0E0,0E0,0E0,0E0,0E0,0E0,0E0,0E0,0E0,0E0,0E0,0E0,0E0,0E0,0E0,0E0,0E0,0E0,0E0,0E0,0E0,0E0,0E0,0E0,0E0,0E0,0E0,0E0,0E0,0E0,0E0,0E0,0E0,0E0,0E0,0E0,0E0,0E0,0E0,0E0,0E0,0E0,0E0,0E0,0E0,0E0,0E0,0E0,0E0,0E0,0E0,0E0,0E0,0E0,0E0],"parents":[2147483647,0,0,1,1,2,2,3,3,4,4,5,5,6,6,7,7,8,8,9,9,10,10,11,11,12,12,13,13,14,14,15,15,16,16,17,17,18,18,19,19,20,20,21,21,22,22,23,23,24,24,25,25,26,26,27,27,28,28,29,29,30,30,31,31,32,32,33,33,34,34,35,35,36,36,37,37,38,38,39,39,40,40,41,41,42,42,43,43,44,44,45,45,46,46,47,47,48,48,49,49,50,50,51,51,52,52,53,53,54,54,55,55,56,56,57,57,58,58,59,59,60,60,61,61,62,62],"right_children":[2,4,6,8,10,12,14,16,18,20,22,24,26,28,30,32,34,36,38,40,42,44,46,48,50,52,54,56,58,60,62,64,66,68,70,72,74,76,78,80,82,84,86,88,90,92,94,96,98,100,102,104,106,108,110,112,114,116,118,120,122,124,126,-1,-1,-1,-1,-1,-1,-1,-1,-1,-1,-1,-1,-1,-1,-1,-1,-1,-1,-1,-1,-1,-1,-1,-1,-1,-1,-1,-1,-1,-1,-1,-1,-1,-1,-1,-1,-1,-1,-1,-1,-1,-1,-1,-1,-1,-1,-1,-1,-1,-1,-1,-1,-1,-1,-1,-1,-1,-1,-1,-1,-1,-1,-1,-1],"split_conditions":[4E1,4.1E1,4.1E1,4E1,4.1E1,4E1,4E1,4.137417E0,1.593697E0,2.813942E0,1.695732E0,-1.653492E0,4E1,1.47683E-1,4E1,-1.437878E0,6.735909E1,-1.137556E0,1.588459E0,-6.92293E-1,2.307487E0,-5.26185E-1,2.307487E0,4.1E1,4E1,4E1,1.930395E0,-7.22554E-1,4E1,5.32131E-1,-3.8155E-2,4E1,-1.2375E-2,2.813942E0,7.612448E1,-4.704835E0,-5.73895E-1,1.772762E0,1.728961E0,-8.66055E-1,-5.41359E-1,2.137491E0,3.407911E0,-7.69469E-1,9.49217E-1,2.813942E0,2.561942E0,-2.344512E0,-1.92269E0,1.568911E0,4E1,9.1449E-2,-1.285034E0,-9.91339E-1,4E1,4.1E1,1.35075E-1,5.05361E-1,9.44064E-1,-9.91339E-1,1.6227E0,-4.62372E-1,1.4706E0,2.0278792E-1,1.2846088E-1,1.16872214E-1,1.7371157E-1,2.1054967E-1,1.7515244E-1,1.6744329E-1,2.0608068E-1,7.252328E-2,1.6740064E-1,1.07145365E-2,7.87381E-2,2.1610929E-1,1.7589554E-1,-6.510993E-3,1.5196896E-1,2.4866308E-1,1.3229217E-1,-5.38935E-2,5.7704855E-2,2.0779769E-1,1.0403677E-1,-9.646414E-2,-1.6771404E-1,-1.3670947E-1,-7.010186E-2,-1.8907104E-3,-6.1743345E-2,-1.1109177E-1,1.9126955E-1,-1.304198E-1,-1.7231056E-1,-4.5791555E-2,6.679159E-2,-1.7220144E-1,2.1056022E-1,8.043402E-2,1.376387E-1,9.54985E-4,-1.1931272E-1,7.394113E-3,8.4723264E-2,-6.623312E-2,-1.4597552E-1,-1.5852137E-1,-8.575845E-2,7.477738E-3,-1.7057586E-1,8.810169E-2,-6.763011E-2,-8.511559E-2,-4.454522E-2,4.975333E-2,-2.6560718E-2,2.9050654E-1,-1.1236934E-1,-9.2313185E-2,-1.4984755E-1,-6.1296955E-2,-2.3181369E-3,-1.61786E-1,-1.6769241E-1,-1.5596093E-1,-1.6602376E-1],"split_indices":[8,2,2,7,7,7,5,0,0,1,1,1,4,0,7,0,0,0,1,1,0,0,0,3,2,2,1,1,4,1,1,2,1,1,0,0,0,0,1,1,0,0,0,1,0,1,1,0,0,0,3,0,0,1,2,7,1,1,1,1,1,1,0,0,0,0,0,0,0,0,0,0,0,0,0,0,0,0,0,0,0,0,0,0,0,0,0,0,0,0,0,0,0,0,0,0,0,0,0,0,0,0,0,0,0,0,0,0,0,0,0,0,0,0,0,0,0,0,0,0,0,0,0,0,0,0,0],"split_type":[0,0,0,0,0,0,0,0,0,0,0,0,0,0,0,0,0,0,0,0,0,0,0,0,0,0,0,0,0,0,0,0,0,0,0,0,0,0,0,0,0,0,0,0,0,0,0,0,0,0,0,0,0,0,0,0,0,0,0,0,0,0,0,0,0,0,0,0,0,0,0,0,0,0,0,0,0,0,0,0,0,0,0,0,0,0,0,0,0,0,0,0,0,0,0,0,0,0,0,0,0,0,0,0,0,0,0,0,0,0,0,0,0,0,0,0,0,0,0,0,0,0,0,0,0,0,0],"sum_hessian":[2.6791544E7,9.369585E6,1.7421958E7,8.533231E6,8.363548E5,2.631575E6,1.4790383E7,7.936264E6,5.969665E5,1.3619414E5,7.001607E5,4.223902E5,2.2091848E6,1.8833802E5,1.4602045E7,3.241494E6,4.69477E6,4.2942422E5,1.6754231E5,1.2913857E5,7.0555693E3,6.395265E5,6.063418E4,2.9950275E4,3.9243994E5,2.3637438E5,1.9728104E6,1.5501638E5,3.3321645E4,2.869174E5,1.4315127E7,2.2378792E6,1.0036147E6,2.9751E6,1.7196702E6,3.2158195E4,3.97266E5,5.8583195E4,1.0895912E5,4.2407124E3,1.2489786E5,7.24188E2,6.3313813E3,1.4810552E5,4.91421E5,2.100374E4,3.963044E4,4.258961E3,2.5691314E4,3.1357238E5,7.886756E4,2.0435662E5,3.2017758E4,1.9010882E6,7.172215E4,1.0745917E4,1.4427045E5,3.0545113E4,2.776533E3,2.0027162E5,8.66458E4,4.576339E6,9.738788E6,2.1771802E6,6.069904E4,1.5057216E5,8.530425E5,2.9322485E6,4.285152E4,1.489162E5,1.570754E6,5.779819E3,2.6378377E4,6.8081445E4,3.2918456E5,1.8307086E4,4.027611E4,2.3493963E4,8.546516E4,2.3225823E3,1.9181304E3,1.748808E4,1.0740977E5,3.6033524E2,3.6385278E2,2.99987E3,3.331511E3,5.197276E4,9.613275E4,3.656318E5,1.2578917E5,2.074374E4,2.600003E2,8.3002E3,3.133024E4,3.9482197E3,3.1074118E2,2.5349648E4,3.4166592E2,2.751583E5,3.8414043E4,5.8299844E4,2.0567719E4,1.6743388E5,3.6922758E4,2.120923E4,1.0808527E4,8.9222055E4,1.8118662E6,6.7647734E4,4.0744094E3,5.511957E3,5.23396E3,9.88585E4,4.5411953E4,8.1847974E3,2.2360314E4,2.209328E3,5.6720514E2,3.4633363E4,1.6563827E5,7.635211E4,1.0293682E4,1.230672E6,3.345667E6,8.657756E6,1.0810322E6],"tree_param":{"num_deleted":"0","num_feature":"10","num_nodes":"127","size_leaf_vector":"1"}},{"base_weights":[-5.282951E-1,-2.6548287E-1,-5.642627E-1,-5.226958E-1,6.504564E-2,-5.0041944E-1,-5.839349E-1,-5.366782E-1,-2.9954338E-1,3.842633E-1,-5.852786E-1,-5.8289444E-1,2.0195884E-1,-5.8676654E-1,-5.8367014E-1,-5.392405E-1,-2.0437026E-1,-1.0293925E-1,-5.850591E-1,9.232207E-2,5.364569E-1,-5.917482E-1,-5.837881E-1,-5.8303463E-1,4.1213978E-2,3.1166616E-1,-2.1303155E-2,-5.975905E-1,-5.85123E-1,-5.82927E-1,-5.842727E-1,-5.4244304E-1,-3.6086383E-1,-4.322628E-2,-4.267459E-1,-1.3191703E-1,5.537955E-1,-1.7774934E-1,-5.697455E-1,-2.2710982E-1,2.1936962E-1,-2.4596637E-1,5.522036E-1,-1.7544468E-1,-6.109144E-1,-1.7531969E-1,-5.818918E-1,-5.832405E-1,-3.196823E-1,-2.7888054E-1,4.5789152E-1,1.104072E-1,5.8116007E-1,-1.1498424E-1,5.267817E-1,-6.293679E-1,-5.962982E-1,-5.8182454E-1,-5.9130883E-1,-5.818972E-1,-5.832114E-1,-5.91522E-1,-5.84182E-1,-1.7493173E-1,-1.600231E-1,-1.2214357E-1,-4.6141904E-2,-5.025571E-2,2.2735669E-1,-1.3970429E-1,-9.507131E-2,6.787767E-2,-5.3734463E-2,2.4146636E-1,3.5695866E-2,-1.7762277E-1,-1.6517971E-1,6.0377147E-2,-9.869227E-2,2.9163618E-2,1.1854169E-1,-1.7007196E-1,4.0269315E-2,1.154409E-1,1.7686564E-1,-1.9036177E-1,-1.7869574E-1,-1.7205751E-1,-1.7484015E-1,-1.7201608E-1,-1.7545816E-1,-5.2139484E-3,-1.3890073E-1,-1.6237256E-1,-4.6311956E-2,-1.9488679E-1,1.8107727E-1,-1.06320634E-1,4.774735E-2,1.9348931E-1,8.915053E-2,-4.176846E-2,1.988627E-1,2.2834434E-1,-6.598602E-2,-1.8370843E-1,-1.9541255E-1,-1.7771566E-1,-1.8012702E-1,-1.7597422E-1,-1.6882135E-1,-1.7695361E-1,-1.7988242E-1,-1.7505845E-1,-1.7385736E-1,-1.7504948E-1,-1.7449588E-1,-1.7582518E-1,-1.7815983E-1,-1.7534754E-1,-1.7515466E-1],"categories":[],"categories_nodes":[],"categories_segments":[],"categories_sizes":[],"default_left":[0,0,0,0,0,0,0,0,0,0,0,0,0,0,0,0,0,0,0,0,0,0,0,0,0,0,0,0,0,0,0,0,0,0,0,0,0,0,0,0,0,0,0,0,0,0,0,0,0,0,0,0,0,0,0,0,0,0,0,0,0,0,0,0,0,0,0,0,0,0,0,0,0,0,0,0,0,0,0,0,0,0,0,0,0,0,0,0,0,0,0,0,0,0,0,0,0,0,0,0,0,0,0,0,0,0,0,0,0,0,0,0,0,0,0,0,0,0,0,0,0],"id":10,"left_children":[1,3,5,7,9,11,13,15,17,19,21,23,25,27,29,31,33,35,37,39,41,43,45,47,49,51,53,55,57,59,61,63,65,67,69,71,73,-1,75,77,79,81,83,-1,85,-1,87,89,91,93,95,97,99,101,103,105,107,109,111,113,115,117,119,-1,-1,-1,-1,-1,-1,-1,-1,-1,-1,-1,-1,-1,-1,-1,-1,-1,-1,-1,-1,-1,-1,-1,-1,-1,-1,-1,-1,-1,-1,-1,-1,-1,-1,-1,-1,-1,-1,-1,-1,-1,-1,-1,-1,-1,-1,-1,-1,-1,-1,-1,-1,-1,-1,-1,-1,-1,-1],"loss_changes":[2.142635E5,2.3198211E5,2.50415E4,4.7879062E3,2.4790016E5,2.7206238E5,1.1E1,1.2294688E3,5.079142E3,3.5588883E4,3.453125E0,3.67875E2,1.2088152E4,2.284375E1,6E0,8.18375E2,3.9598157E2,1.01986816E3,3.866211E0,1.1139178E4,6.4870312E3,9.416016E0,3.125E-2,2.275E2,1.2617681E2,1.7948277E4,8.349224E3,6.6757812E0,2.275E1,1.5E0,4.75E0,5.1671875E2,2.421648E2,6.382312E2,1.9709595E1,8.676629E2,2.4716199E2,0E0,4.8432617E0,3.4081675E3,4.216423E3,1.2676115E3,3.2266406E3,0E0,6.6572266E0,0E0,2.5976562E-1,6.675E1,1.4228506E2,1.73959E1,6.670738E1,4.292789E3,2.563336E3,2.6190093E3,4.154326E3,2.1062012E0,2.3085938E0,6.6671875E1,4.421875E0,4.84375E0,1.875E0,8.59375E-1,7.5E-1,0E0,0E0,0E0,0E0,0E0,0E0,0E0,0E0,0E0,0E0,0E0,0E0,0E0,0E0,0E0,0E0,0E0,0E0,0E0,0E0,0E0,0E0,0E0,0E0,0E0,0E0,0E0,0E0,0E0,0E0,0E0,0E0,0E0,0E0,0E0,0E0,0E0,0E0,0E0,0E0,0E0,0E0,0E0,0E0,0E0,0E0,0E0,0E0,0E0,0E0,0E0,0E0,0E0,0E0,0E0,0E0,0E0,0E0],"parents":[2147483647,0,0,1,1,2,2,3,3,4,4,5,5,6,6,7,7,8,8,9,9,10,10,11,11,12,12,13,13,14,14,15,15,16,16,17,17,18,18,19,19,20,20,21,21,22,22,23,23,24,24,25,25,26,26,27,27,28,28,29,29,30,30,31,31,32,32,33,33,34,34,35,35,36,36,38,38,39,39,40,40,41,41,42,42,44,44,46,46,47,47,48,48,49,49,50,50,51,51,52,52,53,53,54,54,55,55,56,56,57,57,58,58,59,59,60,60,61,61,62,62],"right_children":[2,4,6,8,10,12,14,16,18,20,22,24,26,28,30,32,34,36,38,40,42,44,46,48,50,52,54,56,58,60,62,64,66,68,70,72,74,-1,76,78,80,82,84,-1,86,-1,88,90,92,94,96,98,100,102,104,106,108,110,112,114,116,118,120,-1,-1,-1,-1,-1,-1,-1,-1,-1,-1,-1,-1,-1,-1,-1,-1,-1,-1,-1,-1,-1,-1,-1,-1,-1,-1,-1,-1,-1,-1,-1,-1,-1,-1,-1,-1,-1,-1,-1,-1,-1,-1,-1,-1,-1,-1,-1,-1,-1,-1,-1,-1,-1,-1,-1,-1,-1,-1],"split_conditions":[-8.28433E-1,4E1,4.1E1,4E1,4.1E1,4E1,4E1,4E1,4.1E1,4E1,4.1E1,4E1,-4.3274E-2,-2.29236E-1,2.70701E-1,4E1,-3.21862E0,4E1,-6.70075E-1,-3.90511E-1,-9.91339E-1,-1.92269E0,-7.22554E-1,4E1,4.1E1,2.86235E-1,1.301677E0,4.1E1,1.202209E0,-4.23786E-1,4.1E1,-3.829898E1,2.79033E-1,4E1,4E1,-1.7511265E1,-3.21862E0,-1.7774934E-1,-1.015438E0,-3.21862E0,4E1,4E1,4E1,-1.7544468E-1,4E1,-1.7531969E-1,4.1E1,5.41874E-1,3.3961E-1,2.20797E-1,2.04208E-1,-3.9741E-1,4.1E1,4E1,7.94329E-1,4E1,-5.23503E-1,9.62431E-1,1.930395E0,-4.62372E-1,2.20797E-1,5.38176E-1,7.64388E-1,-1.7493173E-1,-1.600231E-1,-1.2214357E-1,-4.6141904E-2,-5.025571E-2,2.2735669E-1,-1.3970429E-1,-9.507131E-2,6.787767E-2,-5.3734463E-2,2.4146636E-1,3.5695866E-2,-1.7762277E-1,-1.6517971E-1,6.0377147E-2,-9.869227E-2,2.9163618E-2,1.1854169E-1,-1.7007196E-1,4.0269315E-2,1.154409E-1,1.7686564E-1,-1.9036177E-1,-1.7869574E-1,-1.7205751E-1,-1.7484015E-1,-1.7201608E-1,-1.7545816E-1,-5.2139484E-3,-1.3890073E-1,-1.6237256E-1,-4.6311956E-2,-1.9488679E-1,1.8107727E-1,-1.06320634E-1,4.774735E-2,1.9348931E-1,8.915053E-2,-4.176846E-2,1.988627E-1,2.2834434E-1,-6.598602E-2,-1.8370843E-1,-1.9541255E-1,-1.7771566E-1,-1.8012702E-1,-1.7597422E-1,-1.6882135E-1,-1.7695361E-1,-1.7988242E-1,-1.7505845E-1,-1.7385736E-1,-1.7504948E-1,-1.7449588E-1,-1.7582518E-1,-1.7815983E-1,-1.7534754E-1,-1.7515466E-1],"split_indices":[0,8,3,2,3,8,2,3,2,4,7,9,0,1,0,7,0,3,1,1,1,0,1,3,2,1,1,7,0,0,7,0,1,5,4,0,0,0,0,0,2,7,2,0,2,0,2,0,1,1,0,1,7,3,0,7,1,1,1,1,1,1,1,0,0,0,0,0,0,0,0,0,0,0,0,0,0,0,0,0,0,0,0,0,0,0,0,0,0,0,0,0,0,0,0,0,0,0,0,0,0,0,0,0,0,0,0,0,0,0,0,0,0,0,0,0,0,0,0,0,0],"split_type":[0,0,0,0,0,0,0,0,0,0,0,0,0,0,0,0,0,0,0,0,0,0,0,0,0,0,0,0,0,0,0,0,0,0,0,0,0,0,0,0,0,0,0,0,0,0,0,0,0,0,0,0,0,0,0,0,0,0,0,0,0,0,0,0,0,0,0,0,0,0,0,0,0,0,0,0,0,0,0,0,0,0,0,0,0,0,0,0,0,0,0,0,0,0,0,0,0,0,0,0,0,0,0,0,0,0,0,0,0,0,0,0,0,0,0,0,0,0,0,0,0],"sum_hessian":[2.266693E7,2.72868E6,1.993825E7,1.5345291E6,1.1941508E6,4.696507E6,1.5241743E7,1.4440459E6,9.048323E4,8.009819E5,3.9316897E5,4.2029825E6,4.9352422E5,1.3030972E6,1.3938646E7,1.432996E6,1.1049805E4,5.3585785E4,3.6897438E4,2.744764E5,5.2650544E5,7.35439E4,3.1962506E5,4.2020385E6,9.440645E2,3.3091672E5,1.6260748E5,1.7173361E5,1.1313636E6,6.2413415E6,7.6973045E6,1.40772E6,2.5276088E4,6.407685E3,4.642119E3,5.132205E4,2.2637366E3,2.480873E4,1.2088706E4,7.8103164E4,1.9637327E5,1.0386879E4,5.1611856E5,5.4031664E4,1.9512234E4,2.415205E5,7.8104555E4,4.1987555E6,3.2832432E3,5.340977E2,4.099668E2,1.8944212E5,1.414746E5,1.3887172E5,2.3735777E4,6.691947E3,1.6504166E5,7.3795825E5,3.9340538E5,1.3512229E6,4.8901185E6,9.494383E4,7.602361E6,2.558573E5,1.1518626E6,2.0657723E4,4.618366E3,5.5477144E3,8.599709E2,3.4248787E3,1.2172402E3,5.9750044E3,4.5347047E4,1.4344968E3,8.2923987E2,5.566544E3,6.522162E3,1.5004453E4,6.309871E4,1.1585618E5,8.051708E4,5.6321016E3,4.754778E3,9.414786E4,4.219707E5,7.6420767E3,1.1870158E4,7.7140923E3,7.039047E4,5.928941E5,3.6058612E6,1.0563097E3,2.2269336E3,1.7081343E2,3.632843E2,4.7260883E1,3.627059E2,1.7982547E4,1.7145958E5,1.15519586E5,2.5955E4,1.3467505E5,4.196664E3,1.8065744E4,5.670032E3,3.791117E3,2.9008298E3,8.4776484E4,8.026517E4,5.907272E5,1.4723108E5,3.3449472E5,5.891066E4,8.006306E5,5.505922E5,4.1298092E6,7.603094E5,2.8673998E4,6.626983E4,3.9390782E6,3.6632825E6],"tree_param":{"num_deleted":"0","num_feature":"10","num_nodes":"121","size_leaf_vector":"1"}},{"base_weights":[4.41488E-1,-3.339413E-1,6.580888E-1,-5.119524E-1,2.636837E-1,5.143622E-1,6.729878E-1,-5.3481597E-1,1.0395498E-1,-2.7493713E-4,4.054803E-1,2.1729147E-1,5.3287023E-1,5.937093E-1,6.744693E-1,-5.3800416E-1,-1.8729778E-1,2.150681E-1,-3.5757905E-1,2.9833604E-2,-3.634791E-1,4.437328E-1,1.8532896E-1,6.981959E-1,1.6371667E-2,5.4057205E-1,3.1852815E-1,6.4272296E-1,4.7477216E-1,6.8491244E-1,6.695036E-1,-5.835918E-1,-5.1897985E-1,1.9451344E-1,-3.8911477E-1,1.8980463E-1,5.804788E-1,7.956177E-2,-4.436984E-1,8.163822E-2,-1.7727457E-1,-2.4443893E-1,-5.1565915E-1,4.201563E-1,6.475818E-1,5.2801293E-1,5.914753E-2,7.0272785E-1,6.316399E-1,-2.3914233E-1,6.748965E-2,6.861556E-1,5.304461E-1,2.5145763E-1,4.308583E-1,5.512973E-1,6.6119725E-1,4.9000552E-1,3.4918135E-1,6.7963964E-1,6.895298E-1,6.6694045E-1,6.824846E-1,5.7887398E-2,-1.7603517E-1,-1.066058E-1,-1.6823712E-1,-1.4004241E-1,1.8466128E-1,-5.5623945E-2,-1.617896E-1,1.1622501E-1,4.168574E-2,-7.29385E-2,1.8975982E-1,-2.1237187E-1,7.120838E-2,3.742455E-1,-1.387916E-1,3.3775102E-2,-5.9043184E-2,2.1441162E-1,-6.447587E-2,-1.4961179E-1,-2.8806016E-2,-1.6613603E-1,-1.4672951E-1,1.6834578E-1,1.1300715E-1,1.7241488E-1,2.0505108E-1,1.7992091E-1,1.261062E-1,-4.1378252E-2,6.5029696E-2,2.1031599E-1,2.4021511E-1,1.9004795E-1,-1.796759E-1,-8.2651466E-2,3.4461087E-1,9.187974E-2,-1.9344332E-2,2.061159E-1,-2.3294175E-1,1.20424226E-1,1.6716921E-1,1.1931053E-1,5.1405076E-2,1.473745E-1,5.143473E-3,2.128192E-1,5.1160485E-2,1.9970687E-1,1.4839895E-1,1.692096E-1,1.426272E-1,5.2988093E-2,1.7282228E-1,2.0437759E-1,1.851779E-1,5.8592983E-2,2.0689617E-1,2.0208736E-1,1.9925721E-1,2.0407788E-1,2.0806722E-1],"categories":[],"categories_nodes":[],"categories_segments":[],"categories_sizes":[],"default_left":[0,0,0,0,0,0,0,0,0,0,0,0,0,0,0,0,0,0,0,0,0,0,0,0,0,0,0,0,0,0,0,0,0,0,0,0,0,0,0,0,0,0,0,0,0,0,0,0,0,0,0,0,0,0,0,0,0,0,0,0,0,0,0,0,0,0,0,0,0,0,0,0,0,0,0,0,0,0,0,0,0,0,0,0,0,0,0,0,0,0,0,0,0,0,0,0,0,0,0,0,0,0,0,0,0,0,0,0,0,0,0,0,0,0,0,0,0,0,0,0,0,0,0,0,0,0,0],"id":11,"left_children":[1,3,5,7,9,11,13,15,17,19,21,23,25,27,29,31,33,35,37,39,41,43,45,47,49,51,53,55,57,59,61,63,65,67,69,71,73,75,77,79,81,83,85,87,89,91,93,95,97,99,101,103,105,107,109,111,113,115,117,119,121,123,125,-1,-1,-1,-1,-1,-1,-1,-1,-1,-1,-1,-1,-1,-1,-1,-1,-1,-1,-1,-1,-1,-1,-1,-1,-1,-1,-1,-1,-1,-1,-1,-1,-1,-1,-1,-1,-1,-1,-1,-1,-1,-1,-1,-1,-1,-1,-1,-1,-1,-1,-1,-1,-1,-1,-1,-1,-1,-1,-1,-1,-1,-1,-1,-1],"loss_changes":[5.6488125E6,7.8120706E5,5.6294E4,7.9674875E4,6.3078445E4,1.3576125E4,2.797E3,6.04425E3,1.0385668E4,6.4405522E3,9.232703E3,1.3992546E4,3.8370625E3,2.5469375E3,1.212E3,4.688125E3,3.821733E3,1.506687E3,1.4793716E3,5.835286E3,8.166167E2,4.488828E3,7.0178486E3,1.2427734E1,1.3341353E3,3.307375E3,6.073335E2,5.2227344E2,2.4380078E2,1.8275E2,5.265E2,3.9456875E3,2.6093875E4,4.775616E3,9.925127E2,1.5341182E3,4.5264722E2,8.03922E2,1.0521172E3,3.748734E3,3.6541963E3,9.546846E2,1.9767578E1,5.1307656E3,2.530586E2,3.3701367E2,3.6847473E3,5.9921875E0,6.606201E0,8.596539E2,2.682127E3,1.9204688E2,7.2501875E3,5.913862E2,7.530503E2,3.1315312E3,1.9223438E2,1.2248828E2,5.4010364E2,3.54875E2,2.46125E2,2.43E2,6.3875E1,0E0,0E0,0E0,0E0,0E0,0E0,0E0,0E0,0E0,0E0,0E0,0E0,0E0,0E0,0E0,0E0,0E0,0E0,0E0,0E0,0E0,0E0,0E0,0E0,0E0,0E0,0E0,0E0,0E0,0E0,0E0,0E0,0E0,0E0,0E0,0E0,0E0,0E0,0E0,0E0,0E0,0E0,0E0,0E0,0E0,0E0,0E0,0E0,0E0,0E0,0E0,0E0,0E0,0E0,0E0,0E0,0E0,0E0,0E0,0E0,0E0,0E0,0E0,0E0],"parents":[2147483647,0,0,1,1,2,2,3,3,4,4,5,5,6,6,7,7,8,8,9,9,10,10,11,11,12,12,13,13,14,14,15,15,16,16,17,17,18,18,19,19,20,20,21,21,22,22,23,23,24,24,25,25,26,26,27,27,28,28,29,29,30,30,31,31,32,32,33,33,34,34,35,35,36,36,37,37,38,38,39,39,40,40,41,41,42,42,43,43,44,44,45,45,46,46,47,47,48,48,49,49,50,50,51,51,52,52,53,53,54,54,55,55,56,56,57,57,58,58,59,59,60,60,61,61,62,62],"right_children":[2,4,6,8,10,12,14,16,18,20,22,24,26,28,30,32,34,36,38,40,42,44,46,48,50,52,54,56,58,60,62,64,66,68,70,72,74,76,78,80,82,84,86,88,90,92,94,96,98,100,102,104,106,108,110,112,114,116,118,120,122,124,126,-1,-1,-1,-1,-1,-1,-1,-1,-1,-1,-1,-1,-1,-1,-1,-1,-1,-1,-1,-1,-1,-1,-1,-1,-1,-1,-1,-1,-1,-1,-1,-1,-1,-1,-1,-1,-1,-1,-1,-1,-1,-1,-1,-1,-1,-1,-1,-1,-1,-1,-1,-1,-1,-1,-1,-1,-1,-1,-1,-1,-1,-1,-1,-1],"split_conditions":[4.1E1,4.1E1,4E1,4.1E1,4.1E1,4.1E1,4E1,2.813942E0,4E1,2.137491E0,4E1,-1.92269E0,1.930395E0,4.66409E-1,-3.8155E-2,-1.92269E0,4.137417E0,2.813942E0,4E1,4E1,2.565955E0,1.695732E0,-7.24998E-1,-2.344512E0,-6.502E-1,-8.66055E-1,2.023581E0,-9.91339E-1,1.6227E0,-3.36866E-1,1.308289E0,-1.653492E0,2.307487E0,2.894327E0,1.0363609E1,-5.91366E-1,2.307487E0,-5.23503E-1,-1.653492E0,1.728961E0,-9.91339E-1,1.760398E0,2.041577E0,-4.25266E-1,2.307487E0,-5.3704E-1,1.42105E-1,-1.653492E0,4E1,-8.9523E-2,5.52564E-1,-4.97837E-1,-6.8007E-2,1.871006E0,2.325772E0,-2.344512E0,7.94329E-1,5.20602E-1,2.137491E0,-1.98122E-1,-8.03238E-1,3.28913E-1,1.760398E0,5.7887398E-2,-1.7603517E-1,-1.066058E-1,-1.6823712E-1,-1.4004241E-1,1.8466128E-1,-5.5623945E-2,-1.617896E-1,1.1622501E-1,4.168574E-2,-7.29385E-2,1.8975982E-1,-2.1237187E-1,7.120838E-2,3.742455E-1,-1.387916E-1,3.3775102E-2,-5.9043184E-2,2.1441162E-1,-6.447587E-2,-1.4961179E-1,-2.8806016E-2,-1.6613603E-1,-1.4672951E-1,1.6834578E-1,1.1300715E-1,1.7241488E-1,2.0505108E-1,1.7992091E-1,1.261062E-1,-4.1378252E-2,6.5029696E-2,2.1031599E-1,2.4021511E-1,1.9004795E-1,-1.796759E-1,-8.2651466E-2,3.4461087E-1,9.187974E-2,-1.9344332E-2,2.061159E-1,-2.3294175E-1,1.20424226E-1,1.6716921E-1,1.1931053E-1,5.1405076E-2,1.473745E-1,5.143473E-3,2.128192E-1,5.1160485E-2,1.9970687E-1,1.4839895E-1,1.692096E-1,1.426272E-1,5.2988093E-2,1.7282228E-1,2.0437759E-1,1.851779E-1,5.8592983E-2,2.0689617E-1,2.0208736E-1,1.9925721E-1,2.0407788E-1,2.0806722E-1],"split_indices":[3,7,2,2,2,7,7,1,7,0,8,0,1,1,1,0,0,1,8,8,0,1,0,0,0,1,0,1,1,0,0,1,0,0,0,0,0,1,1,1,1,1,1,1,0,1,1,1,7,1,0,0,0,0,1,0,0,0,0,1,1,1,1,0,0,0,0,0,0,0,0,0,0,0,0,0,0,0,0,0,0,0,0,0,0,0,0,0,0,0,0,0,0,0,0,0,0,0,0,0,0,0,0,0,0,0,0,0,0,0,0,0,0,0,0,0,0,0,0,0,0,0,0,0,0,0,0],"split_type":[0,0,0,0,0,0,0,0,0,0,0,0,0,0,0,0,0,0,0,0,0,0,0,0,0,0,0,0,0,0,0,0,0,0,0,0,0,0,0,0,0,0,0,0,0,0,0,0,0,0,0,0,0,0,0,0,0,0,0,0,0,0,0,0,0,0,0,0,0,0,0,0,0,0,0,0,0,0,0,0,0,0,0,0,0,0,0,0,0,0,0,0,0,0,0,0,0,0,0,0,0,0,0,0,0,0,0,0,0,0,0,0,0,0,0,0,0,0,0,0,0,0,0,0,0,0,0],"sum_hessian":[3.363218E7,7.343282E6,2.6288896E7,5.6579745E6,1.6853076E6,2.4692088E6,2.3819688E7,5.455458E6,2.025163E5,5.889536E5,1.096354E6,1.4481469E5,2.324394E6,4.3695312E5,2.3382734E7,5.4058635E6,4.9594844E4,1.6322164E5,3.9294656E4,5.438694E5,4.5084227E4,9.340556E5,1.6229833E5,4.2673234E4,1.0214145E5,2.2437685E6,8.0625375E4,3.0943244E5,1.2752067E5,7.5353405E6,1.5847394E7,1.5916906E6,3.8141728E6,1.714977E4,3.2445072E4,1.5266811E5,1.0553529E4,6.467218E3,3.2827438E4,4.3504966E5,1.0881972E5,2.5297953E4,1.9786275E4,8.3722775E5,9.682787E4,4.3676996E4,1.1862133E5,3.9943785E4,2.7294478E3,1.7027176E4,8.511428E4,1.459098E5,2.0978588E6,5.048491E4,3.0140467E4,5.2021066E4,2.5741138E5,1.137238E5,1.3796872E4,3.518047E6,4.0172938E6,1.3234271E7,2.6131232E6,6.515808E3,1.5851748E6,7.762595E5,3.0379132E6,6.671087E3,1.0478683E4,1.3770169E4,1.8674904E4,3.1244605E4,1.2142351E5,6.2713947E2,9.926391E3,1.0790316E3,5.388186E3,3.6285706E2,3.2464582E4,3.9153678E5,4.3512902E4,4.4059043E3,1.0441381E5,9.323256E3,1.5974696E4,8.1160127E3,1.1670264E4,1.9727777E5,6.3995E5,3.1978371E4,6.4849492E4,2.6210646E4,1.746635E4,5.2712863E4,6.590847E4,3.9280656E4,6.6312976E2,2.725828E3,3.619894E0,1.6593223E4,4.339532E2,3.0296734E4,5.4817543E4,1.4582086E5,8.8935616E1,3.6062072E5,1.7372381E6,1.7865562E4,3.2619346E4,2.6301094E4,3.8393745E3,3.6757688E4,1.5263379E4,2.5064712E5,6.7642524E3,1.8708492E4,9.5015305E4,7.83787E3,5.9590024E3,3.4290402E6,8.9006734E4,1.0088063E3,4.0162848E6,3.857472E6,9.376799E6,2.1759412E6,4.3718194E5],"tree_param":{"num_deleted":"0","num_feature":"10","num_nodes":"127","size_leaf_vector":"1"}},{"base_weights":[-9.190901E-2,5.041667E-1,-4.28427E-1,5.8359706E-1,5.2084822E-2,-1.378186E-1,-4.870694E-1,5.959422E-1,1.841468E-1,2.3229674E-1,-9.861471E-2,1.4014451E-1,-1.953816E-1,-1.3961153E-1,-4.923932E-1,5.565391E-1,6.2352663E-1,3.3142987E-1,1.09134555E-1,1.9823922E-1,5.077672E-1,-7.128228E-2,-4.3237913E-1,-4.5774433E-1,1.7805435E-1,1.8013725E-2,-2.2386011E-1,-1.6527538E-1,1.5027665E-1,-3.2059675E-1,-4.9606848E-1,6.0306764E-1,4.5616928E-1,6.349096E-1,6.0398155E-1,3.5306934E-1,-2.0233953E-1,1.2280707E-1,-5.0084144E-1,1.1850301E-1,2.67609E-1,4.2595294E-1,6.02997E-1,-2.523229E-1,-2.3243034E-2,-2.9591665E-1,-5.1045007E-1,-1.1755789E-1,-5.2889246E-1,2.3248535E-1,-5.0824102E-2,5.7759892E-2,-2.5906658E-1,-2.0129272E-1,-3.5885674E-1,7.1169816E-2,-1.811073E-1,3.864431E-2,6.95623E-1,-4.1971344E-1,-1.305968E-1,-5.217243E-1,-4.841651E-1,1.8145499E-1,1.0451497E-1,1.19310856E-1,1.6604349E-1,1.9113114E-1,1.482299E-1,1.3915807E-1,1.8532664E-1,1.3110141E-2,1.1670614E-1,-1.8206225E-1,2.2337688E-2,1.6361657E-1,3.2274816E-2,1.6597533E-1,-1.6040227E-1,5.9887026E-2,3.3062338E-3,1.4365406E-1,6.733793E-2,1.5709783E-1,6.2661126E-2,1.921343E-1,1.7651553E-1,1.3871443E-1,-8.13113E-2,6.471288E-3,-4.67104E-2,-1.1183288E-1,-2.8204588E-2,-1.1284861E-1,-1.6422172E-1,4.8140246E-2,-4.5420915E-2,-1.6405922E-1,1.6957779E-1,7.332974E-2,-8.47797E-3,1.246803E-2,-1.0231213E-1,1.5001158E-2,2.817258E-1,-5.3535208E-2,-1.2990299E-1,3.6941547E-2,-6.5782785E-2,-9.045431E-2,-1.4433315E-1,-9.6207425E-2,8.1722975E-2,-7.237992E-2,-2.6864834E-2,1.7714769E-1,-4.1324094E-2,2.5402036E-1,-1.3653645E-1,-8.858816E-2,-1.4375713E-1,-3.6853436E-2,-1.8533432E-1,-1.511094E-1,-1.5851963E-1,-1.438753E-1,-1.5640846E-1],"categories":[],"categories_nodes":[],"categories_segments":[],"categories_sizes":[],"default_left":[0,0,0,0,0,0,0,0,0,0,0,0,0,0,0,0,0,0,0,0,0,0,0,0,0,0,0,0,0,0,0,0,0,0,0,0,0,0,0,0,0,0,0,0,0,0,0,0,0,0,0,0,0,0,0,0,0,0,0,0,0,0,0,0,0,0,0,0,0,0,0,0,0,0,0,0,0,0,0,0,0,0,0,0,0,0,0,0,0,0,0,0,0,0,0,0,0,0,0,0,0,0,0,0,0,0,0,0,0,0,0,0,0,0,0,0,0,0,0,0,0,0,0,0,0,0,0],"id":12,"left_children":[1,3,5,7,9,11,13,15,17,19,21,23,25,27,29,31,33,35,37,39,41,43,45,47,49,51,53,55,57,59,61,63,65,67,69,71,73,75,77,79,81,83,85,87,89,91,93,95,97,99,101,103,105,107,109,111,113,115,117,119,121,123,125,-1,-1,-1,-1,-1,-1,-1,-1,-1,-1,-1,-1,-1,-1,-1,-1,-1,-1,-1,-1,-1,-1,-1,-1,-1,-1,-1,-1,-1,-1,-1,-1,-1,-1,-1,-1,-1,-1,-1,-1,-1,-1,-1,-1,-1,-1,-1,-1,-1,-1,-1,-1,-1,-1,-1,-1,-1,-1,-1,-1,-1,-1,-1,-1],"loss_changes":[4.464152E6,2.88369E5,2.42414E5,3.368275E4,3.2592258E4,3.8215848E4,2.189425E4,7.20125E3,2.262269E3,5.127416E3,5.9622036E3,9.287666E3,1.2024758E4,1.3288882E3,7.3605E3,1.2741375E4,8.6675E2,7.9818555E2,1.1315614E3,2.6903965E3,4.6826465E2,5.2538755E3,5.268916E2,5.9129346E2,4.8004766E3,2.5657085E3,5.318242E3,6.142744E2,8.8439014E2,4.5981797E3,3.48525E3,8.46E2,4.916375E3,7.605625E2,2.7681562E3,7.385635E2,3.0156818E2,8.5366736E2,1.0637915E2,1.9730615E3,2.3707188E3,6.8603125E2,1.4829102E1,1.6945708E3,2.8339458E3,2.793689E2,1.5595117E2,3.980284E1,3.9763525E2,9.6974805E2,1.9849282E3,1.3926794E3,4.0975732E2,8.72625E3,1.7526445E3,8.122102E2,8.470874E2,1.1740336E3,4.296245E2,1.1872871E3,3.160642E2,4.35E2,1.328125E3,0E0,0E0,0E0,0E0,0E0,0E0,0E0,0E0,0E0,0E0,0E0,0E0,0E0,0E0,0E0,0E0,0E0,0E0,0E0,0E0,0E0,0E0,0E0,0E0,0E0,0E0,0E0,0E0,0E0,0E0,0E0,0E0,0E0,0E0,0E0,0E0,0E0,0E0,0E0,0E0,0E0,0E0,0E0,0E0,0E0,0E0,0E0,0E0,0E0,0E0,0E0,0E0,0E0,0E0,0E0,0E0,0E0,0E0,0E0,0E0,0E0,0E0,0E0,0E0],"parents":[2147483647,0,0,1,1,2,2,3,3,4,4,5,5,6,6,7,7,8,8,9,9,10,10,11,11,12,12,13,13,14,14,15,15,16,16,17,17,18,18,19,19,20,20,21,21,22,22,23,23,24,24,25,25,26,26,27,27,28,28,29,29,30,30,31,31,32,32,33,33,34,34,35,35,36,36,37,37,38,38,39,39,40,40,41,41,42,42,43,43,44,44,45,45,46,46,47,47,48,48,49,49,50,50,51,51,52,52,53,53,54,54,55,55,56,56,57,57,58,58,59,59,60,60,61,61,62,62],"right_children":[2,4,6,8,10,12,14,16,18,20,22,24,26,28,30,32,34,36,38,40,42,44,46,48,50,52,54,56,58,60,62,64,66,68,70,72,74,76,78,80,82,84,86,88,90,92,94,96,98,100,102,104,106,108,110,112,114,116,118,120,122,124,126,-1,-1,-1,-1,-1,-1,-1,-1,-1,-1,-1,-1,-1,-1,-1,-1,-1,-1,-1,-1,-1,-1,-1,-1,-1,-1,-1,-1,-1,-1,-1,-1,-1,-1,-1,-1,-1,-1,-1,-1,-1,-1,-1,-1,-1,-1,-1,-1,-1,-1,-1,-1,-1,-1,-1,-1,-1,-1,-1,-1,-1,-1,-1,-1],"split_conditions":[4E1,4.1E1,4.1E1,4E1,4E1,4E1,4E1,4.137417E0,4.1E1,2.137491E0,1.695732E0,-1.653492E0,4E1,3.49804E-1,4E1,-1.285034E0,6.735909E1,4E1,3.407911E0,7.06394E-1,2.565955E0,-5.41359E-1,2.307487E0,4.1E1,4E1,4E1,4E1,-7.22554E-1,4E1,4.66409E-1,-3.8155E-2,4E1,2.023581E0,2.813942E0,7.612448E1,-1.7511265E1,-4.704835E0,-6.70075E-1,2.325772E0,1.62296E-1,7.94308E-1,2.198333E0,1.873877E0,-1.137556E0,9.32696E-1,2.096086E0,2.561942E0,-3.21862E0,-1.92269E0,2.137491E0,4E1,1.760398E0,-1.285034E0,4.1E1,4E1,-1.92269E0,1.35075E-1,6.56733E-1,9.62431E-1,-5.3704E-1,2.813942E0,-4.62372E-1,1.4706E0,1.8145499E-1,1.0451497E-1,1.19310856E-1,1.6604349E-1,1.9113114E-1,1.482299E-1,1.3915807E-1,1.8532664E-1,1.3110141E-2,1.1670614E-1,-1.8206225E-1,2.2337688E-2,1.6361657E-1,3.2274816E-2,1.6597533E-1,-1.6040227E-1,5.9887026E-2,3.3062338E-3,1.4365406E-1,6.733793E-2,1.5709783E-1,6.2661126E-2,1.921343E-1,1.7651553E-1,1.3871443E-1,-8.13113E-2,6.471288E-3,-4.67104E-2,-1.1183288E-1,-2.8204588E-2,-1.1284861E-1,-1.6422172E-1,4.8140246E-2,-4.5420915E-2,-1.6405922E-1,1.6957779E-1,7.332974E-2,-8.47797E-3,1.246803E-2,-1.0231213E-1,1.5001158E-2,2.817258E-1,-5.3535208E-2,-1.2990299E-1,3.6941547E-2,-6.5782785E-2,-9.045431E-2,-1.4433315E-1,-9.6207425E-2,8.1722975E-2,-7.237992E-2,-2.6864834E-2,1.7714769E-1,-4.1324094E-2,2.5402036E-1,-1.3653645E-1,-8.858816E-2,-1.4375713E-1,-3.6853436E-2,-1.8533432E-1,-1.511094E-1,-1.5851963E-1,-1.438753E-1,-1.5640846E-1],"split_indices":[8,7,2,2,2,7,5,0,2,0,1,1,4,0,7,0,0,3,0,0,0,0,0,3,2,2,2,1,4,1,1,3,0,1,0,0,0,1,1,1,1,1,1,0,0,1,1,0,0,0,3,1,0,7,3,0,1,1,1,1,1,1,0,0,0,0,0,0,0,0,0,0,0,0,0,0,0,0,0,0,0,0,0,0,0,0,0,0,0,0,0,0,0,0,0,0,0,0,0,0,0,0,0,0,0,0,0,0,0,0,0,0,0,0,0,0,0,0,0,0,0,0,0,0,0,0,0],"split_type":[0,0,0,0,0,0,0,0,0,0,0,0,0,0,0,0,0,0,0,0,0,0,0,0,0,0,0,0,0,0,0,0,0,0,0,0,0,0,0,0,0,0,0,0,0,0,0,0,0,0,0,0,0,0,0,0,0,0,0,0,0,0,0,0,0,0,0,0,0,0,0,0,0,0,0,0,0,0,0,0,0,0,0,0,0,0,0,0,0,0,0,0,0,0,0,0,0,0,0,0,0,0,0,0,0,0,0,0,0,0,0,0,0,0,0,0,0,0,0,0,0,0,0,0,0,0,0],"sum_hessian":[2.225508E7,8.030544E6,1.4224536E7,6.8304415E6,1.2001025E6,2.38843E6,1.1836106E7,6.6256725E6,2.0476892E5,5.465353E5,6.535672E5,4.0975978E5,1.9786702E6,1.7861817E5,1.1657488E7,2.7283565E6,3.897316E6,6.9096914E4,1.35672E5,4.864013E5,6.013402E4,6.0409794E5,4.946919E4,2.4431488E4,3.853283E5,2.3297106E5,1.7456991E6,1.6409155E5,1.4526625E4,2.4416816E5,1.141332E7,1.8641742E6,8.6418225E5,2.4629032E6,1.4344128E6,6.640513E4,2.691781E3,1.3269839E5,2.9736145E3,2.2629362E5,2.6010769E5,3.2348291E4,2.7785729E4,1.2668161E5,4.7741634E5,1.8004092E4,3.14651E4,4.2263496E3,2.0205139E4,3.1129684E5,7.403145E4,2.0374533E5,2.9225736E4,1.4956704E6,2.500288E5,1.0297522E4,1.5379402E5,1.2059183E4,2.4674424E3,1.6046019E5,8.370796E4,3.6171295E6,7.7961905E6,1.8512182E6,1.2956074E4,5.3983625E5,3.2434606E5,2.4251092E6,3.7794098E4,1.28385266E5,1.3060275E6,6.9136436E3,5.9491492E4,1.0930789E3,1.5987021E3,4.6132744E3,1.2808511E5,9.1997345E1,2.8816172E3,1.2896136E5,9.7332266E4,4.411785E4,2.1598984E5,2.230682E4,1.0041472E4,7.786324E3,1.9999404E4,3.231948E3,1.23449664E5,3.567273E5,1.2068904E5,1.3039415E4,4.964677E3,6.7928145E3,2.4672285E4,4.5825043E2,3.7680994E3,1.9879123E4,3.2601685E2,2.9765847E5,1.3638377E4,5.6156184E4,1.7875271E4,2.0196897E5,1.7763529E3,1.9971676E4,9.254061E3,7.8550625E4,1.4171198E6,1.7020069E5,7.982811E4,3.4937622E3,6.8037603E3,9.281034E4,6.098368E4,2.9203599E3,9.138823E3,2.1812703E3,2.861721E2,5.1898984E4,1.085612E5,8.239811E4,1.3098555E3,9.774175E5,2.639712E6,6.9413665E6,8.5482425E5],"tree_param":{"num_deleted":"0","num_feature":"10","num_nodes":"127","size_leaf_vector":"1"}},{"base_weights":[-4.9983662E-1,-2.397385E-1,-5.38888E-1,-4.8458987E-1,3.4306545E-2,-4.714243E-1,-5.6029195E-1,-5.007382E-1,-2.7579436E-1,3.1262252E-1,-5.6154066E-1,-5.589332E-1,1.614603E-1,-5.598244E-1,-5.623325E-1,-5.038789E-1,-1.314516E-1,-5.5920836E-2,-5.595891E-1,6.9397755E-2,4.529412E-1,-5.6970114E-1,-5.598244E-1,-5.591029E-1,8.057102E-2,2.5912085E-1,-1.7895797E-2,