{"learner":{"attributes":{"scikit_learn":"{\"_estimator_type\": \"classifier\"}"},"feature_names":["geoid_corr_h","surface_h","qtrees","cshelph","medianfilter","bathypathfinder","openoceanspp","coastnet"],"feature_types":["float","float","int","int","int","int","int","int"],"gradient_booster":{"model":{"gbtree_model_param":{"num_parallel_tree":"1","num_trees":"300"},"iteration_indptr":[0,3,6,9,12,15,18,21,24,27,30,33,36,39,42,45,48,51,54,57,60,63,66,69,72,75,78,81,84,87,90,93,96,99,102,105,108,111,114,117,120,123,126,129,132,135,138,141,144,147,150,153,156,159,162,165,168,171,174,177,180,183,186,189,192,195,198,201,204,207,210,213,216,219,222,225,228,231,234,237,240,243,246,249,252,255,258,261,264,267,270,273,276,279,282,285,288,291,294,297,300],"tree_info":[0,1,2,0,1,2,0,1,2,0,1,2,0,1,2,0,1,2,0,1,2,0,1,2,0,1,2,0,1,2,0,1,2,0,1,2,0,1,2,0,1,2,0,1,2,0,1,2,0,1,2,0,1,2,0,1,2,0,1,2,0,1,2,0,1,2,0,1,2,0,1,2,0,1,2,0,1,2,0,1,2,0,1,2,0,1,2,0,1,2,0,1,2,0,1,2,0,1,2,0,1,2,0,1,2,0,1,2,0,1,2,0,1,2,0,1,2,0,1,2,0,1,2,0,1,2,0,1,2,0,1,2,0,1,2,0,1,2,0,1,2,0,1,2,0,1,2,0,1,2,0,1,2,0,1,2,0,1,2,0,1,2,0,1,2,0,1,2,0,1,2,0,1,2,0,1,2,0,1,2,0,1,2,0,1,2,0,1,2,0,1,2,0,1,2,0,1,2,0,1,2,0,1,2,0,1,2,0,1,2,0,1,2,0,1,2,0,1,2,0,1,2,0,1,2,0,1,2,0,1,2,0,1,2,0,1,2,0,1,2,0,1,2,0,1,2,0,1,2,0,1,2,0,1,2,0,1,2,0,1,2,0,1,2,0,1,2,0,1,2,0,1,2,0,1,2,0,1,2,0,1,2,0,1,2,0,1,2,0,1,2,0,1,2,0,1,2,0,1,2],"trees":[{"base_weights":[-1.9150661E-1,1.2554691E0,-6.795527E-1,1.4134017E0,-9.510191E-2,-1.9217679E-1,-7.0625126E-1,1.4626563E0,8.189449E-1,6.766546E-1,-2.2767866E-1,2.739356E-1,-3.6867929E-1,-2.0330742E-1,-7.1172917E-1,1.467541E0,1.1732318E0,7.4028075E-1,1.1632975E0,3.3559677E-1,7.8127724E-1,-1.837186E-1,-5.874547E-1,8.177472E-1,7.2482295E-2,-4.866673E-1,1.12529166E-1,2.43261E-1,-2.6860088E-1,-5.609755E-1,-7.166971E-1,1.4317064E0,1.488381E0,3.9295444E-1,4.4939673E-1,3.16287E-2,7.7644056E-1,1.0626065E0,1.4643081E0,4.116399E-1,-6.915763E-1,7.551498E-1,1.1511314E0,-4.0904278E-1,-1.3862179E-1,-4.6822017E-1,-7.232772E-1,3.0353248E-1,1.2835587E0,-1.6333995E-2,8.515787E-1,-3.811842E-2,-5.118138E-1,5.608966E-1,-3.0096796E-1,4.7003362E-1,-1.064363E-1,-3.0345613E-1,-1.6982723E-2,-6.153595E-1,1.457898E-1,-7.295779E-1,-7.0905805E-1,4.359921E-1,3.8266724E-1,4.493331E-1,4.406428E-1,3.9086396E-1,7.4149616E-2,2.562127E-1,-5.4369237E-2,3.224544E-1,2.1527447E-1,3.6989367E-1,3.0129915E-1,4.4134936E-1,4.3126765E-1,9.224577E-2,3.1738538E-1,4.422265E-1,-2.2144252E-1,3.2622197E-1,2.1716799E-1,4.4200915E-1,1.267864E-1,-1.2789546E-1,1.8315315E-1,-4.278442E-2,3.4179166E-1,-1.5281E-1,-6.8751425E-2,3.3528462E-2,-2.2015274E-1,1.9814228E-1,3.6020158E-3,2.3995404E-1,4.0922937E-1,1.0371648E-1,-4.633285E-2,1.9104654E-1,4.2094377E-1,-1.2329964E-1,1.0576837E-1,-2.1039367E-1,-1.4431992E-1,-1.08979955E-1,1.9074585E-1,2.510104E-1,-1.3378334E-1,2.3742421E-1,7.041603E-2,1.1419773E-2,-1.2511036E-1,-6.481039E-2,-1.2593308E-1,4.5112856E-2,-5.5192612E-2,-1.550387E-1,-1.986923E-1,7.804019E-2,-2.1658942E-1,-2.1384597E-1,-2.215234E-1,-1.8678632E-1,-2.1328624E-1],"categories":[],"categories_nodes":[],"categories_segments":[],"categories_sizes":[],"default_left":[0,0,0,0,0,0,0,0,0,0,0,0,0,0,0,0,0,0,0,0,0,0,0,0,0,0,0,0,0,0,0,0,0,0,0,0,0,0,0,0,0,0,0,0,0,0,0,0,0,0,0,0,0,0,0,0,0,0,0,0,0,0,0,0,0,0,0,0,0,0,0,0,0,0,0,0,0,0,0,0,0,0,0,0,0,0,0,0,0,0,0,0,0,0,0,0,0,0,0,0,0,0,0,0,0,0,0,0,0,0,0,0,0,0,0,0,0,0,0,0,0,0,0,0,0],"id":0,"left_children":[1,3,5,7,9,11,13,15,17,19,21,23,25,27,29,31,33,35,37,39,41,43,45,47,49,51,53,55,57,59,61,63,65,67,-1,69,71,73,75,77,79,81,83,85,87,89,91,93,95,97,99,101,103,105,107,109,111,113,115,117,119,121,123,-1,-1,-1,-1,-1,-1,-1,-1,-1,-1,-1,-1,-1,-1,-1,-1,-1,-1,-1,-1,-1,-1,-1,-1,-1,-1,-1,-1,-1,-1,-1,-1,-1,-1,-1,-1,-1,-1,-1,-1,-1,-1,-1,-1,-1,-1,-1,-1,-1,-1,-1,-1,-1,-1,-1,-1,-1,-1,-1,-1,-1,-1],"loss_changes":[3.0821458E7,2.347986E6,4.24676E5,2.88564E5,1.17918055E5,1.3944747E5,8.5247E4,1.2866E4,2.0426531E4,6.028461E3,1.5555059E4,5.100253E4,6.980403E4,9.720673E3,2.2924E4,6.682E3,3.8278812E4,1.5730406E4,4.2487656E3,3.0983916E3,1.2485391E3,8.90575E3,1.7339336E3,3.0142688E4,2.3506764E4,1.1136797E4,4.488355E4,3.3724636E3,2.5508242E3,3.7533594E4,2.916E3,1.1099E4,1.039E3,5.88926E3,0E0,5.2176187E3,1.0257906E4,1.0421094E3,4.328125E0,2.4856738E3,2.7683215E2,1.253375E3,2.0015566E3,2.5745723E3,3.7265215E3,5.608252E2,4.4173242E2,6.2242744E3,2.5712656E3,1.5248373E4,4.116963E3,7.635889E3,5.447172E3,8.042461E3,2.0772926E4,1.95075E3,7.5088885E2,2.597705E3,9.89069E2,4.1954375E3,6.9231167E3,1.633E3,3.048E3,0E0,0E0,0E0,0E0,0E0,0E0,0E0,0E0,0E0,0E0,0E0,0E0,0E0,0E0,0E0,0E0,0E0,0E0,0E0,0E0,0E0,0E0,0E0,0E0,0E0,0E0,0E0,0E0,0E0,0E0,0E0,0E0,0E0,0E0,0E0,0E0,0E0,0E0,0E0,0E0,0E0,0E0,0E0,0E0,0E0,0E0,0E0,0E0,0E0,0E0,0E0,0E0,0E0,0E0,0E0,0E0,0E0,0E0,0E0,0E0,0E0,0E0],"parents":[2147483647,0,0,1,1,2,2,3,3,4,4,5,5,6,6,7,7,8,8,9,9,10,10,11,11,12,12,13,13,14,14,15,15,16,16,17,17,18,18,19,19,20,20,21,21,22,22,23,23,24,24,25,25,26,26,27,27,28,28,29,29,30,30,31,31,32,32,33,33,35,35,36,36,37,37,38,38,39,39,40,40,41,41,42,42,43,43,44,44,45,45,46,46,47,47,48,48,49,49,50,50,51,51,52,52,53,53,54,54,55,55,56,56,57,57,58,58,59,59,60,60,61,61,62,62],"right_children":[2,4,6,8,10,12,14,16,18,20,22,24,26,28,30,32,34,36,38,40,42,44,46,48,50,52,54,56,58,60,62,64,66,68,-1,70,72,74,76,78,80,82,84,86,88,90,92,94,96,98,100,102,104,106,108,110,112,114,116,118,120,122,124,-1,-1,-1,-1,-1,-1,-1,-1,-1,-1,-1,-1,-1,-1,-1,-1,-1,-1,-1,-1,-1,-1,-1,-1,-1,-1,-1,-1,-1,-1,-1,-1,-1,-1,-1,-1,-1,-1,-1,-1,-1,-1,-1,-1,-1,-1,-1,-1,-1,-1,-1,-1,-1,-1,-1,-1,-1,-1,-1,-1,-1,-1],"split_conditions":[4E1,4.1E1,4E1,4E1,4.1E1,4E1,4E1,3.0806067E0,1.839508E0,-4.9207613E-2,1.839508E0,-1.3538343E-1,9.0346146E-1,4E1,4.1E1,2.5828478E0,4.3836555E0,-7.232253E-1,2.5803332E0,8.78573E0,2.2655241E0,-4.1661036E-1,2.5803332E0,-1.2554321E0,-5.381775E-2,4E1,1.6784198E0,6.545327E-1,6.504822E-2,7.757168E-1,-3.8394246E-2,-1.3954926E0,6.9234116E1,2.5828478E0,4.4939673E-1,-9.595337E-1,4.1E1,1.5703301E0,3.0806067E0,7.6491356E-2,-2.8316885E-1,-5.2121353E-1,1.839508E0,-3.348999E-1,2.128117E0,2.128117E0,1.9974937E0,4E1,-3.1799826E-1,4E1,4E1,-2.6342459E0,-9.464708E-1,4.570923E-1,4E1,-1.8150063E0,1.4809582E0,3.0806014E-1,7.7181405E-1,4E1,2.128117E0,-3.939743E-1,-1.557579E-1,4.359921E-1,3.8266724E-1,4.493331E-1,4.406428E-1,3.9086396E-1,7.4149616E-2,2.562127E-1,-5.4369237E-2,3.224544E-1,2.1527447E-1,3.6989367E-1,3.0129915E-1,4.4134936E-1,4.3126765E-1,9.224577E-2,3.1738538E-1,4.422265E-1,-2.2144252E-1,3.2622197E-1,2.1716799E-1,4.4200915E-1,1.267864E-1,-1.2789546E-1,1.8315315E-1,-4.278442E-2,3.4179166E-1,-1.5281E-1,-6.8751425E-2,3.3528462E-2,-2.2015274E-1,1.9814228E-1,3.6020158E-3,2.3995404E-1,4.0922937E-1,1.0371648E-1,-4.633285E-2,1.9104654E-1,4.2094377E-1,-1.2329964E-1,1.0576837E-1,-2.1039367E-1,-1.4431992E-1,-1.08979955E-1,1.9074585E-1,2.510104E-1,-1.3378334E-1,2.3742421E-1,7.041603E-2,1.1419773E-2,-1.2511036E-1,-6.481039E-2,-1.2593308E-1,4.5112856E-2,-5.5192612E-2,-1.550387E-1,-1.986923E-1,7.804019E-2,-2.1658942E-1,-2.1384597E-1,-2.215234E-1,-1.8678632E-1,-2.1328624E-1],"split_indices":[7,2,2,6,6,3,4,1,0,1,0,1,1,6,6,0,0,1,1,0,1,1,1,0,0,6,1,1,0,0,1,0,0,0,0,0,6,1,1,0,1,0,0,0,1,1,0,6,1,6,4,0,1,0,6,0,1,1,1,3,1,0,0,0,0,0,0,0,0,0,0,0,0,0,0,0,0,0,0,0,0,0,0,0,0,0,0,0,0,0,0,0,0,0,0,0,0,0,0,0,0,0,0,0,0,0,0,0,0,0,0,0,0,0,0,0,0,0,0,0,0,0,0,0,0],"split_type":[0,0,0,0,0,0,0,0,0,0,0,0,0,0,0,0,0,0,0,0,0,0,0,0,0,0,0,0,0,0,0,0,0,0,0,0,0,0,0,0,0,0,0,0,0,0,0,0,0,0,0,0,0,0,0,0,0,0,0,0,0,0,0,0,0,0,0,0,0,0,0,0,0,0,0,0,0,0,0,0,0,0,0,0,0,0,0,0,0,0,0,0,0,0,0,0,0,0,0,0,0,0,0,0,0,0,0,0,0,0,0,0,0,0,0,0,0,0,0,0,0,0,0,0,0],"sum_hessian":[4.364466E7,1.1007941E7,3.263672E7,9.855465E6,1.1524755E6,1.6949959E6,3.0941724E7,9.101358E6,7.541075E5,1.6895422E5,9.8352125E5,4.655524E5,1.2294435E6,3.3337597E5,3.0608348E7,8.950296E6,1.5106177E5,6.1387644E5,1.4023111E5,3.9662664E4,1.2929155E5,8.7643375E5,1.0708755E5,1.258431E5,3.397093E5,9.8735325E5,2.420902E5,4.2525332E4,2.9085066E5,9.765004E5,2.9631848E7,3.2911642E6,5.6591315E6,4.4395996E4,1.0666577E5,2.980311E4,5.840733E5,1.0508399E5,3.514711E4,3.6929332E4,2.7333333E3,1.2076355E5,8.527999E3,1.4615733E5,7.302764E5,5.702844E4,5.005911E4,5.9814664E4,6.602844E4,3.0494666E5,3.4762664E4,5.2414664E4,9.349386E5,1.1614755E5,1.2594266E5,2.5796443E4,1.6728889E4,2.5546266E5,3.5387996E4,9.0672975E5,6.9770664E4,1.103123E7,1.8600618E7,2.8912078E6,3.999564E5,3.823477E6,1.8356545E6,6.1297773E3,3.826622E4,6.127111E3,2.3675998E4,9.622222E4,4.878511E5,2.6777775E4,7.830622E4,2.7933332E4,7.2137773E3,3.1805332E4,5.1239995E3,5.6888885E1,2.6764443E3,1.0380889E4,1.1038266E5,5.9119995E3,2.6159998E3,1.4372266E5,2.4346665E3,7.280026E5,2.2737776E3,4.8652887E4,8.375555E3,6.253333E2,4.9433773E4,2.6889775E4,3.2924887E4,9.426222E3,5.660222E4,8.420355E4,2.207431E5,2.502222E4,9.740444E3,2.681822E4,2.5596443E4,1.305191E5,8.044195E5,8.709777E3,1.0743777E5,1.4234666E4,1.1170799E5,1.090311E4,1.4893332E4,1.1417777E4,5.311111E3,1.4585066E5,1.0961199E5,1.7674666E4,1.7713332E4,2.9255244E5,6.141773E5,6.1647996E4,8.122666E3,3.8076895E6,7.223541E6,3.992622E5,1.8201354E7],"tree_param":{"num_deleted":"0","num_feature":"8","num_nodes":"125","size_leaf_vector":"1"}},{"base_weights":[-7.021588E-1,-4.062142E-1,-7.3851264E-1,-7.006272E-1,1.7188239E-1,-6.986433E-1,-7.4929E-1,-7.0766884E-1,-2.1288179E-1,-5.9303975E-1,1.1021923E0,-7.4760306E-1,2.0077845E-1,-7.4845576E-1,-7.493688E-1,-7.1320146E-1,-5.990661E-1,6.252647E-2,-5.226488E-1,8.303588E-1,-6.808357E-1,1.1339235E0,-2.2395463E-1,-7.3616236E-1,-7.49758E-1,-3.131931E-1,5.056565E-1,-2.2487286E-1,-7.4039435E-1,-7.495311E-1,-7.489255E-1,-7.454688E-1,-7.036956E-1,-2.2094132E-1,-6.771187E-1,-6.3239366E-1,4.874738E-1,-5.849883E-1,-3.1613216E-1,-5.347344E-1,1.0121622E0,-3.4230137E-1,-2.2474127E-1,7.25275E-1,1.2858953E0,-7.36545E-1,-5.7706475E-1,-7.4395174E-1,-2.2498931E-1,-4.9122226E-1,1.9012056E-2,1.0209347E0,-1.3874306E-2,-7.3304117E-1,-7.4605256E-1,-7.493678E-1,-2.2493435E-1,-7.464336E-1,-7.4968773E-1,-2.2486709E-1,-2.1993677E-1,-2.0596342E-1,-2.1723491E-1,-1.8387803E-1,-3.8946517E-2,-2.1719764E-1,-1.6077411E-1,-2.1453728E-1,-6.007792E-2,9.096231E-2,3.364528E-1,-1.3988255E-1,-1.9167803E-1,-1.2584932E-1,1.6523212E-1,-1.9825642E-1,3.7447816E-1,1.873666E-1,3.8307393E-1,-1.6534603E-1,1.189311E-1,1.3460724E-1,2.7752048E-1,2.6743963E-1,3.9575806E-1,-2.2177364E-1,-2.1657284E-1,-1.9334774E-1,-1.2427543E-1,-2.2426793E-1,-2.139932E-1,-1.8138772E-1,-9.648929E-2,1.8619438E-1,-7.280283E-2,3.701373E-1,1.9212039E-1,-3.765418E-2,3.0196536E-1,-2.22468E-1,-2.1920575E-1,-2.2383009E-1,-1.8908598E-1,-2.2489224E-1,-2.2421728E-1,-2.24795E-1,-2.2306871E-1,-2.2448404E-1,-2.2496289E-1],"categories":[],"categories_nodes":[],"categories_segments":[],"categories_sizes":[],"default_left":[0,0,0,0,0,0,0,0,0,0,0,0,0,0,0,0,0,0,0,0,0,0,0,0,0,0,0,0,0,0,0,0,0,0,0,0,0,0,0,0,0,0,0,0,0,0,0,0,0,0,0,0,0,0,0,0,0,0,0,0,0,0,0,0,0,0,0,0,0,0,0,0,0,0,0,0,0,0,0,0,0,0,0,0,0,0,0,0,0,0,0,0,0,0,0,0,0,0,0,0,0,0,0,0,0,0,0,0,0],"id":1,"left_children":[1,3,5,7,9,11,13,15,17,19,21,23,25,27,29,31,33,35,37,39,41,43,-1,45,47,49,51,-1,53,55,57,59,61,63,65,67,69,71,73,75,77,79,-1,81,83,85,87,89,-1,91,93,95,97,99,101,103,-1,105,107,-1,-1,-1,-1,-1,-1,-1,-1,-1,-1,-1,-1,-1,-1,-1,-1,-1,-1,-1,-1,-1,-1,-1,-1,-1,-1,-1,-1,-1,-1,-1,-1,-1,-1,-1,-1,-1,-1,-1,-1,-1,-1,-1,-1,-1,-1,-1,-1,-1,-1],"loss_changes":[4.6956E5,8.1266425E5,1.6702E4,1.08655E4,1.1465309E6,3.642325E5,2E0,1.873375E3,3.8412227E3,1.10495E5,4.2647375E4,1.93E2,6.691119E4,2.3375E1,3E0,9.0975E2,4.461633E3,7.0389546E3,2.7262744E2,1.2749117E4,1.9256375E4,4.4385562E4,0E0,7.53125E1,7.75E0,9.402731E3,7.174988E4,0E0,1.2859375E1,1E0,1.4E1,3.35625E1,8.0225E2,9.238661E2,8.290078E2,3.2322217E2,1.7277366E3,1.0392139E2,4.407151E2,1.3585762E3,4.6511016E3,2.1572367E4,0E0,1.0706031E4,6.84125E3,4.85625E1,3.2536865E1,2.4523438E1,0E0,1.9905859E3,8.733942E3,1.0898531E4,1.5203938E4,2.2734375E0,5.3125E-1,6E0,0E0,1.40625E1,1E0,0E0,0E0,0E0,0E0,0E0,0E0,0E0,0E0,0E0,0E0,0E0,0E0,0E0,0E0,0E0,0E0,0E0,0E0,0E0,0E0,0E0,0E0,0E0,0E0,0E0,0E0,0E0,0E0,0E0,0E0,0E0,0E0,0E0,0E0,0E0,0E0,0E0,0E0,0E0,0E0,0E0,0E0,0E0,0E0,0E0,0E0,0E0,0E0,0E0,0E0],"parents":[2147483647,0,0,1,1,2,2,3,3,4,4,5,5,6,6,7,7,8,8,9,9,10,10,11,11,12,12,13,13,14,14,15,15,16,16,17,17,18,18,19,19,20,20,21,21,23,23,24,24,25,25,26,26,28,28,29,29,30,30,31,31,32,32,33,33,34,34,35,35,36,36,37,37,38,38,39,39,40,40,41,41,43,43,44,44,45,45,46,46,47,47,49,49,50,50,51,51,52,52,53,53,54,54,55,55,57,57,58,58],"right_children":[2,4,6,8,10,12,14,16,18,20,22,24,26,28,30,32,34,36,38,40,42,44,-1,46,48,50,52,-1,54,56,58,60,62,64,66,68,70,72,74,76,78,80,-1,82,84,86,88,90,-1,92,94,96,98,100,102,104,-1,106,108,-1,-1,-1,-1,-1,-1,-1,-1,-1,-1,-1,-1,-1,-1,-1,-1,-1,-1,-1,-1,-1,-1,-1,-1,-1,-1,-1,-1,-1,-1,-1,-1,-1,-1,-1,-1,-1,-1,-1,-1,-1,-1,-1,-1,-1,-1,-1,-1,-1,-1],"split_conditions":[-9.0265656E-1,4E1,4.1E1,4E1,-2.1302271E-1,4E1,-4.7851408E-1,4E1,-5.870034E0,-3.149063E0,4.1E1,8.9087677E-1,3.0806014E-1,-3.267971E-1,7.994429E-1,-4.572505E1,-4.8319335E0,-3.101907E1,4E1,-1.311039E0,4.1E1,4E1,-2.2395463E-1,4E1,1.3334305E0,1.10221714E-1,-1.9640923E-1,-2.2487286E-1,-2.4723972E-1,2.4333954E-1,9.955859E-1,-5.4892433E1,-1.0476173E1,-3.101907E1,-1.6388609E-1,-3.771296E1,4E1,-3.149063E0,8.483551E-1,4E1,4E1,4E1,-2.2474127E-1,4E1,4E1,8.889695E-1,4E1,1.6444105E0,-2.2498931E-1,-1.4112575E-1,-5.688362E-1,4.1E1,1.4555305E0,-6.413803E-1,9.1849303E-1,2.2154765E-1,-2.2493435E-1,9.0346146E-1,1.086276E0,-2.2486709E-1,-2.1993677E-1,-2.0596342E-1,-2.1723491E-1,-1.8387803E-1,-3.8946517E-2,-2.1719764E-1,-1.6077411E-1,-2.1453728E-1,-6.007792E-2,9.096231E-2,3.364528E-1,-1.3988255E-1,-1.9167803E-1,-1.2584932E-1,1.6523212E-1,-1.9825642E-1,3.7447816E-1,1.873666E-1,3.8307393E-1,-1.6534603E-1,1.189311E-1,1.3460724E-1,2.7752048E-1,2.6743963E-1,3.9575806E-1,-2.2177364E-1,-2.1657284E-1,-1.9334774E-1,-1.2427543E-1,-2.2426793E-1,-2.139932E-1,-1.8138772E-1,-9.648929E-2,1.8619438E-1,-7.280283E-2,3.701373E-1,1.9212039E-1,-3.765418E-2,3.0196536E-1,-2.22468E-1,-2.1920575E-1,-2.2383009E-1,-1.8908598E-1,-2.2489224E-1,-2.2421728E-1,-2.24795E-1,-2.2306871E-1,-2.2448404E-1,-2.2496289E-1],"split_indices":[0,7,3,3,1,7,0,6,0,0,3,0,1,1,1,0,0,0,6,1,3,4,0,3,0,1,0,0,1,0,0,0,0,0,1,0,6,0,1,6,6,4,0,6,6,1,6,1,0,1,0,6,1,0,1,1,0,1,0,0,0,0,0,0,0,0,0,0,0,0,0,0,0,0,0,0,0,0,0,0,0,0,0,0,0,0,0,0,0,0,0,0,0,0,0,0,0,0,0,0,0,0,0,0,0,0,0,0,0],"split_type":[0,0,0,0,0,0,0,0,0,0,0,0,0,0,0,0,0,0,0,0,0,0,0,0,0,0,0,0,0,0,0,0,0,0,0,0,0,0,0,0,0,0,0,0,0,0,0,0,0,0,0,0,0,0,0,0,0,0,0,0,0,0,0,0,0,0,0,0,0,0,0,0,0,0,0,0,0,0,0,0,0,0,0,0,0,0,0,0,0,0,0,0,0,0,0,0,0,0,0,0,0,0,0,0,0,0,0,0,0],"sum_hessian":[4.364466E7,4.7747815E6,3.886988E7,3.1636152E6,1.6111661E6,8.271329E6,3.059855E7,3.1185912E6,4.5023996E4,8.841764E5,7.2698975E5,7.8443255E6,4.2700353E5,2.6405042E6,2.7958046E7,2.9674155E6,1.5117598E5,2.383422E4,2.1189777E4,5.136755E4,8.328088E5,7.147226E5,1.226711E4,1.2433941E6,6.600931E6,1.5898398E5,2.6801953E5,2.3182225E6,3.2228175E5,2.0462274E7,7.495772E6,6.7524706E5,2.2921682E6,2.586711E4,1.2530888E5,9.043999E3,1.4790222E4,1.627511E4,4.9146665E3,6.0368887E3,4.5330664E4,1.3981733E5,6.929915E5,1.937471E5,5.2097553E5,1.240407E6,2.9871108E3,2.2663198E5,6.374299E6,1.0351155E5,5.547244E4,1.3455998E5,1.3345955E5,1.4020577E5,1.8207598E5,1.2378845E7,8.083429E6,1.7560079E6,5.739764E6,5.0722884E5,1.6801822E5,1.2458475E6,1.0463208E6,4.8777773E3,2.0989332E4,9.407599E4,3.1232887E4,7.5902217E3,1.4537777E3,1.1460889E4,3.3293333E3,5.087555E3,1.1187555E4,4.391555E3,5.231111E2,5.6386665E3,3.982222E2,1.839822E4,2.6932443E4,1.0900133E5,3.0815998E4,8.125911E4,1.1248799E5,4.0559555E4,4.8041597E5,1.0471497E6,1.9325733E5,2.1102222E3,8.7688885E2,2.0273644E5,2.3895555E4,6.203022E4,4.1481332E4,1.681422E4,3.865822E4,8.629022E4,4.8269773E4,1.202991E5,1.3160443E4,3.0300887E4,1.0990488E5,1.8199555E5,8.044444E1,1.0876517E7,1.5023284E6,8.760804E5,8.799275E5,6.783684E5,5.0613955E6],"tree_param":{"num_deleted":"0","num_feature":"8","num_nodes":"109","size_leaf_vector":"1"}},{"base_weights":[8.9366525E-1,-5.180632E-1,1.4502028E0,-6.816376E-1,7.2146E-1,1.1129535E0,1.4630905E0,-7.261536E-1,-1.0500573E-1,-1.9518418E-2,8.662543E-1,1.2398586E0,6.176314E-1,1.2771417E0,1.465765E0,-7.3074335E-1,-4.232763E-1,7.26475E-1,-1.4368734E-1,4.1179028E-1,-1.7573947E-1,9.706114E-1,3.9970997E-1,6.093079E-1,1.2710636E0,1.2522699E-1,1.0495394E0,1.414935E0,6.667541E-1,1.4787734E0,1.4580135E0,-7.485587E-1,-7.2189176E-1,3.5657442E-1,-7.4799615E-1,2.931635E-1,9.289687E-1,-7.958373E-2,-4.829781E-1,3.6470944E-1,1.441302E0,-3.7522648E-2,-5.824219E-1,9.25789E-1,1.3374382E0,9.6969086E-1,9.764636E-2,2.5808844E-1,1.0265753E0,1.4433838E0,1.2307464E0,-5.8718294E-1,2.0437348E-1,-1.05513334E-1,1.1950144E0,1.3133922E0,1.4549266E0,5.740835E-1,1.4724803E0,1.460678E0,1.4883765E0,1.374878E0,1.4599987E0,-1.21991344E-1,-2.2494282E-1,-1.8732029E-1,-2.214204E-1,-1.6607581E-1,1.5084448E-1,-2.219466E-1,-2.249974E-1,2.3364751E-1,-7.8908265E-2,3.2995826E-1,1.5232435E-1,4.9113114E-3,-1.2411413E-1,-1.7793842E-1,-1.02379054E-1,3.5007614E-1,9.1419265E-2,-2.2111328E-1,4.4635847E-1,-3.522894E-3,-1.20365836E-1,2.085788E-2,-1.9224282E-1,3.4577367E-1,2.6411936E-1,3.6545685E-1,4.4197866E-1,3.22614E-1,2.1014754E-1,8.024247E-2,-6.109011E-2,3.4472573E-1,-5.4781295E-2,3.7444863E-1,-8.686091E-3,4.4052413E-1,4.063512E-1,2.4519204E-1,3.8485405E-1,4.0758106E-1,-1.8822621E-1,-9.067954E-3,1.1504327E-1,-1.3000643E-1,4.469217E-1,3.8959327E-1,3.134239E-1,4.358471E-1,1.4217123E-1,4.3870026E-1,3.6003393E-1,2.3107271E-1,6.89574E-2,-1.914895E-2,4.425803E-1,4.396828E-1,4.0553227E-1,-1.5290447E-1,4.465276E-1,4.070606E-1,4.2739224E-1,2.991515E-1,4.3808421E-1],"categories":[],"categories_nodes":[],"categories_segments":[],"categories_sizes":[],"default_left":[0,0,0,0,0,0,0,0,0,0,0,0,0,0,0,0,0,0,0,0,0,0,0,0,0,0,0,0,0,0,0,0,0,0,0,0,0,0,0,0,0,0,0,0,0,0,0,0,0,0,0,0,0,0,0,0,0,0,0,0,0,0,0,0,0,0,0,0,0,0,0,0,0,0,0,0,0,0,0,0,0,0,0,0,0,0,0,0,0,0,0,0,0,0,0,0,0,0,0,0,0,0,0,0,0,0,0,0,0,0,0,0,0,0,0,0,0,0,0,0,0,0,0,0,0,0,0],"id":2,"left_children":[1,3,5,7,9,11,13,15,17,19,21,23,25,27,29,31,33,35,37,39,41,43,45,47,49,51,53,55,57,59,61,63,65,67,69,71,73,75,77,79,81,83,85,87,89,91,93,95,97,99,101,103,105,107,109,111,113,115,117,119,121,123,125,-1,-1,-1,-1,-1,-1,-1,-1,-1,-1,-1,-1,-1,-1,-1,-1,-1,-1,-1,-1,-1,-1,-1,-1,-1,-1,-1,-1,-1,-1,-1,-1,-1,-1,-1,-1,-1,-1,-1,-1,-1,-1,-1,-1,-1,-1,-1,-1,-1,-1,-1,-1,-1,-1,-1,-1,-1,-1,-1,-1,-1,-1,-1,-1],"loss_changes":[3.4290732E7,2.502142E6,1.3606E5,2.79849E5,1.5435719E5,7.2426625E4,1.4992E4,1.4069E4,2.5129793E4,1.5846388E4,5.8595562E4,1.8046875E4,4.997833E4,3.5957062E4,2.996E3,1.5715E3,3.825896E4,3.0472617E3,1.62381455E4,3.0304863E3,9.704563E3,1.61699375E4,3.787689E4,6.338633E3,6.070125E3,6.1917983E3,2.1036078E4,1.4144375E3,5.878418E3,1.928E3,3.072E3,1.414875E3,1.050325E4,5.9120503E3,1.1835938E0,2.9886084E3,1.7033086E3,2.0132979E4,1.8517676E3,2.8769546E3,2.784204E2,1.2081438E3,1.6670508E3,9.02125E3,1.7327188E3,2.1673516E3,7.3574277E3,9.222436E3,4.6235195E3,3.666875E2,1.5255375E4,8.6052905E2,4.152719E3,7.3248843E3,1.7300781E3,1.1536141E4,4.705625E2,4.7682344E3,3.4871094E1,2.0645E3,7.08E2,3.87375E2,2.372E3,0E0,0E0,0E0,0E0,0E0,0E0,0E0,0E0,0E0,0E0,0E0,0E0,0E0,0E0,0E0,0E0,0E0,0E0,0E0,0E0,0E0,0E0,0E0,0E0,0E0,0E0,0E0,0E0,0E0,0E0,0E0,0E0,0E0,0E0,0E0,0E0,0E0,0E0,0E0,0E0,0E0,0E0,0E0,0E0,0E0,0E0,0E0,0E0,0E0,0E0,0E0,0E0,0E0,0E0,0E0,0E0,0E0,0E0,0E0,0E0,0E0,0E0,0E0,0E0],"parents":[2147483647,0,0,1,1,2,2,3,3,4,4,5,5,6,6,7,7,8,8,9,9,10,10,11,11,12,12,13,13,14,14,15,15,16,16,17,17,18,18,19,19,20,20,21,21,22,22,23,23,24,24,25,25,26,26,27,27,28,28,29,29,30,30,31,31,32,32,33,33,34,34,35,35,36,36,37,37,38,38,39,39,40,40,41,41,42,42,43,43,44,44,45,45,46,46,47,47,48,48,49,49,50,50,51,51,52,52,53,53,54,54,55,55,56,56,57,57,58,58,59,59,60,60,61,61,62,62],"right_children":[2,4,6,8,10,12,14,16,18,20,22,24,26,28,30,32,34,36,38,40,42,44,46,48,50,52,54,56,58,60,62,64,66,68,70,72,74,76,78,80,82,84,86,88,90,92,94,96,98,100,102,104,106,108,110,112,114,116,118,120,122,124,126,-1,-1,-1,-1,-1,-1,-1,-1,-1,-1,-1,-1,-1,-1,-1,-1,-1,-1,-1,-1,-1,-1,-1,-1,-1,-1,-1,-1,-1,-1,-1,-1,-1,-1,-1,-1,-1,-1,-1,-1,-1,-1,-1,-1,-1,-1,-1,-1,-1,-1,-1,-1,-1,-1,-1,-1,-1,-1,-1,-1,-1,-1,-1,-1],"split_conditions":[4.1E1,4.1E1,4E1,4.1E1,4.1E1,9.0346146E-1,4E1,3.0806067E0,-7.232253E-1,-2.4456374E-2,4E1,4.1E1,1.6784198E0,5.1639056E-1,-3.8394246E-2,-2.2332277E0,4.3836555E0,-9.595337E-1,4E1,8.78573E0,4E1,1.839508E0,-1.7395124E-1,-4.9284294E-1,-7.9182833E-1,4.1E1,4E1,-7.9182833E-1,2.128117E0,-3.939743E-1,-1.4897537E-1,-1.5621285E0,2.3038177E0,2.5828478E0,5.568161E0,-9.464708E-1,-7.9182833E-1,1.839508E0,-5.2121353E-1,-2.6342459E0,-2.8316885E-1,2.2655241E0,3.1441537E-1,-4.1661036E-1,2.5803332E0,-3.953305E-1,5.836667E-1,-1.5621285E0,5.635109E-1,-9.464708E-1,-5.2450246E-1,5.3619385E-2,1.1653986E0,3.0806067E0,1.8237691E0,-2.2332277E0,6.7923844E-1,1.3237584E0,1.839508E0,-2.203634E-1,-9.464708E-1,2.7261075E-1,4.1E1,-1.21991344E-1,-2.2494282E-1,-1.8732029E-1,-2.214204E-1,-1.6607581E-1,1.5084448E-1,-2.219466E-1,-2.249974E-1,2.3364751E-1,-7.8908265E-2,3.2995826E-1,1.5232435E-1,4.9113114E-3,-1.2411413E-1,-1.7793842E-1,-1.02379054E-1,3.5007614E-1,9.1419265E-2,-2.2111328E-1,4.4635847E-1,-3.522894E-3,-1.20365836E-1,2.085788E-2,-1.9224282E-1,3.4577367E-1,2.6411936E-1,3.6545685E-1,4.4197866E-1,3.22614E-1,2.1014754E-1,8.024247E-2,-6.109011E-2,3.4472573E-1,-5.4781295E-2,3.7444863E-1,-8.686091E-3,4.4052413E-1,4.063512E-1,2.4519204E-1,3.8485405E-1,4.0758106E-1,-1.8822621E-1,-9.067954E-3,1.1504327E-1,-1.3000643E-1,4.469217E-1,3.8959327E-1,3.134239E-1,4.358471E-1,1.4217123E-1,4.3870026E-1,3.6003393E-1,2.3107271E-1,6.89574E-2,-1.914895E-2,4.425803E-1,4.396828E-1,4.0553227E-1,-1.5290447E-1,4.465276E-1,4.070606E-1,4.2739224E-1,2.991515E-1,4.3808421E-1],"split_indices":[3,2,2,6,6,1,6,1,1,1,7,6,1,1,1,0,0,0,7,0,7,0,1,1,1,6,6,1,1,0,0,1,0,0,0,1,1,0,0,0,1,1,1,1,1,1,1,1,0,1,1,0,1,1,1,0,0,1,0,1,1,1,6,0,0,0,0,0,0,0,0,0,0,0,0,0,0,0,0,0,0,0,0,0,0,0,0,0,0,0,0,0,0,0,0,0,0,0,0,0,0,0,0,0,0,0,0,0,0,0,0,0,0,0,0,0,0,0,0,0,0,0,0,0,0,0,0],"split_type":[0,0,0,0,0,0,0,0,0,0,0,0,0,0,0,0,0,0,0,0,0,0,0,0,0,0,0,0,0,0,0,0,0,0,0,0,0,0,0,0,0,0,0,0,0,0,0,0,0,0,0,0,0,0,0,0,0,0,0,0,0,0,0,0,0,0,0,0,0,0,0,0,0,0,0,0,0,0,0,0,0,0,0,0,0,0,0,0,0,0,0,0,0,0,0,0,0,0,0,0,0,0,0,0,0,0,0,0,0,0,0,0,0,0,0,0,0,0,0,0,0,0,0,0,0,0,0],"sum_hessian":[4.364466E7,1.2340757E7,3.1303904E7,1.0902061E7,1.4386964E6,1.1522212E6,3.0151682E7,1.0120739E7,7.8132175E5,2.351791E5,1.2035172E6,9.1722125E5,2.3499998E5,4.2752397E5,2.9724158E7,9.969659E6,1.5107998E5,3.4731555E4,7.465902E5,6.253244E4,1.7264666E5,9.8352125E5,2.1999598E5,4.325244E4,8.739688E5,1.0981022E5,1.2518977E5,3.487853E5,7.8738664E4,1.1098513E7,1.8625646E7,3.3092208E6,6.6604385E6,4.441422E4,1.0666577E5,1.1062222E4,2.3669332E4,6.279502E5,1.1863999E5,5.979911E4,2.7333333E3,1.2885466E5,4.3791996E4,8.7643375E5,1.0708755E5,7.6202664E4,1.4379333E5,2.3485777E4,1.9766666E4,1.6570266E5,7.082662E5,1.097911E4,9.88311E4,1.4003555E4,1.1118622E5,9.856133E4,2.5022398E5,7.061822E4,8.120444E3,3.847927E6,7.250586E6,4.343951E5,1.819125E7,1.2061333E4,3.2971592E6,9.478702E5,5.7125685E6,6.1479995E3,3.826622E4,2.0999998E4,8.566577E4,5.905333E3,5.1568887E3,1.6836889E4,6.832444E3,4.878511E5,1.4009911E5,6.675244E4,5.188755E4,4.1586665E3,5.564044E4,5.6888885E1,2.6764443E3,1.2032666E5,8.527999E3,3.5995554E3,4.019244E4,1.4615733E5,7.302764E5,5.702844E4,5.005911E4,5.471733E4,2.1485332E4,9.195777E4,5.183555E4,7.771555E3,1.5714222E4,1.6336888E4,3.4297776E3,1.2927999E5,3.6422664E4,7.9266664E4,6.289995E5,2.2177777E2,1.0757333E4,4.278711E4,5.6043996E4,1.1616889E4,2.3866665E3,6.580044E4,4.5385773E4,8.452222E4,1.403911E4,2.4315066E5,7.073333E3,4.498311E4,2.563511E4,1.4666666E1,8.1057773E3,3.6812192E6,1.6670755E5,1.7688889E2,7.250409E6,3.1898222E5,1.1541288E5,1.1077333E4,1.8180172E7],"tree_param":{"num_deleted":"0","num_feature":"8","num_nodes":"127","size_leaf_vector":"1"}},{"base_weights":[-1.5522996E-1,8.6069685E-1,-5.9450555E-1,9.541584E-1,-6.38358E-2,-1.4369328E-1,-6.2176085E-1,9.8473316E-1,5.7398164E-1,4.8334733E-1,-1.7039223E-1,2.230888E-1,-2.9674384E-1,-2.739583E-1,-6.293485E-1,9.876231E-1,8.097741E-1,5.3599226E-1,9.3192136E-1,2.4215394E-1,5.4768217E-1,-1.3721372E-1,-5.4740244E-1,5.050454E-1,2.5403455E-2,-4.0244552E-1,9.381012E-2,1.7695008E-1,-3.2413742E-1,-4.3958366E-1,-6.322447E-1,9.8896676E-1,6.7222387E-1,2.962234E-1,1.0078368E0,-8.018847E-2,5.5389196E-1,8.419038E-1,1.0161811E0,2.9761192E-1,-6.102099E-1,4.8136836E-1,6.4948684E-1,-3.2832932E-1,-1.0189588E-1,-4.0512553E-1,-6.521136E-1,2.137321E-1,7.9238504E-1,-1.01472475E-1,5.0272524E-1,-3.6284737E-2,-4.251261E-1,4.061244E-1,-2.3629697E-1,2.2416545E-1,-2.684082E-1,-2.0030148E-1,-4.5866215E-1,-5.760658E-1,5.90035E-2,-6.461097E-1,-6.240824E-1,2.899406E-1,3.004685E-1,1.508096E-1,2.5892457E-1,3.1771237E-1,6.294958E-2,3.0035588E-1,3.02837E-1,1.8190183E-1,-8.803585E-2,2.3730287E-1,1.5453206E-1,3.2859576E-1,2.3502092E-1,3.5912624E-1,3.0305982E-1,6.0632695E-2,2.1733624E-1,2.99558E-1,-1.9674163E-1,1.3094434E-1,2.2680469E-1,2.3821723E-1,1.2443754E-1,4.838652E-2,-1.0817731E-1,-4.7455702E-2,-1.0334406E-2,-1.3921562E-1,-8.330882E-3,-1.6201387E-1,-1.9754575E-1,1.2139157E-1,1.711147E-2,2.735156E-1,1.6543826E-1,6.356062E-2,-6.629435E-2,1.1701485E-1,2.9508373E-1,-1.069286E-1,8.048302E-2,-1.7682514E-1,-1.1720818E-1,-9.434202E-2,1.3732846E-1,1.7662023E-1,-1.0870096E-1,-5.3378645E-2,7.738736E-2,-3.4885857E-2,-1.6141878E-1,-6.801815E-2,1.1229225E-3,-1.0827977E-1,-1.4931183E-1,-1.4007375E-1,-1.8744627E-1,3.8411707E-2,-1.9104539E-1,-1.8840592E-1,-1.9692357E-1,-1.6911536E-1,-1.8792474E-1],"categories":[],"categories_nodes":[],"categories_segments":[],"categories_sizes":[],"default_left":[0,0,0,0,0,0,0,0,0,0,0,0,0,0,0,0,0,0,0,0,0,0,0,0,0,0,0,0,0,0,0,0,0,0,0,0,0,0,0,0,0,0,0,0,0,0,0,0,0,0,0,0,0,0,0,0,0,0,0,0,0,0,0,0,0,0,0,0,0,0,0,0,0,0,0,0,0,0,0,0,0,0,0,0,0,0,0,0,0,0,0,0,0,0,0,0,0,0,0,0,0,0,0,0,0,0,0,0,0,0,0,0,0,0,0,0,0,0,0,0,0,0,0,0,0,0,0],"id":3,"left_children":[1,3,5,7,9,11,13,15,17,19,21,23,25,27,29,31,33,35,37,39,41,43,45,47,49,51,53,55,57,59,61,63,65,67,69,71,73,75,77,79,81,83,85,87,89,91,93,95,97,99,101,103,105,107,109,111,113,115,117,119,121,123,125,-1,-1,-1,-1,-1,-1,-1,-1,-1,-1,-1,-1,-1,-1,-1,-1,-1,-1,-1,-1,-1,-1,-1,-1,-1,-1,-1,-1,-1,-1,-1,-1,-1,-1,-1,-1,-1,-1,-1,-1,-1,-1,-1,-1,-1,-1,-1,-1,-1,-1,-1,-1,-1,-1,-1,-1,-1,-1,-1,-1,-1,-1,-1,-1],"loss_changes":[1.7995172E7,1.051783E6,3.45893E5,1.28497E5,6.5158523E4,9.009508E4,7.0056E4,5.173E3,1.11888125E4,2.8263516E3,1.1700213E4,2.6338207E4,4.6748312E4,1.2823887E4,1.4279E4,4.265E3,1.6911516E4,8.205094E3,5.979922E2,1.8133503E3,9.7045703E2,5.8028916E3,1.1268945E3,1.6301898E4,1.6822408E4,7.4012188E3,2.4867309E4,1.1935365E3,8.496215E3,2.6575727E4,2.895E3,2.839E3,1.3812422E3,3.0495515E3,2.890625E-1,3.0750132E3,6.6480156E3,5.6513086E2,4.291797E1,1.467988E3,1.725567E2,1.0732051E3,1.9240723E3,2.1181904E3,2.7549268E3,7.132871E2,3.0767578E1,2.8929395E3,2.818336E3,8.217689E3,3.1602305E3,5.0687095E3,4.747172E3,4.611955E3,1.2193808E4,6.973325E2,2.2312445E2,1.4318965E3,9.3260156E2,1.6314297E3,4.0318677E3,1.7665E3,2.2685E3,0E0,0E0,0E0,0E0,0E0,0E0,0E0,0E0,0E0,0E0,0E0,0E0,0E0,0E0,0E0,0E0,0E0,0E0,0E0,0E0,0E0,0E0,0E0,0E0,0E0,0E0,0E0,0E0,0E0,0E0,0E0,0E0,0E0,0E0,0E0,0E0,0E0,0E0,0E0,0E0,0E0,0E0,0E0,0E0,0E0,0E0,0E0,0E0,0E0,0E0,0E0,0E0,0E0,0E0,0E0,0E0,0E0,0E0,0E0,0E0,0E0,0E0,0E0,0E0],"parents":[2147483647,0,0,1,1,2,2,3,3,4,4,5,5,6,6,7,7,8,8,9,9,10,10,11,11,12,12,13,13,14,14,15,15,16,16,17,17,18,18,19,19,20,20,21,21,22,22,23,23,24,24,25,25,26,26,27,27,28,28,29,29,30,30,31,31,32,32,33,33,34,34,35,35,36,36,37,37,38,38,39,39,40,40,41,41,42,42,43,43,44,44,45,45,46,46,47,47,48,48,49,49,50,50,51,51,52,52,53,53,54,54,55,55,56,56,57,57,58,58,59,59,60,60,61,61,62,62],"right_children":[2,4,6,8,10,12,14,16,18,20,22,24,26,28,30,32,34,36,38,40,42,44,46,48,50,52,54,56,58,60,62,64,66,68,70,72,74,76,78,80,82,84,86,88,90,92,94,96,98,100,102,104,106,108,110,112,114,116,118,120,122,124,126,-1,-1,-1,-1,-1,-1,-1,-1,-1,-1,-1,-1,-1,-1,-1,-1,-1,-1,-1,-1,-1,-1,-1,-1,-1,-1,-1,-1,-1,-1,-1,-1,-1,-1,-1,-1,-1,-1,-1,-1,-1,-1,-1,-1,-1,-1,-1,-1,-1,-1,-1,-1,-1,-1,-1,-1,-1,-1,-1,-1,-1,-1,-1,-1],"split_conditions":[4E1,4.1E1,4E1,4E1,4.1E1,4E1,4E1,3.0806067E0,2.046632E0,-1.604134E-1,2.120625E0,1.3407189E-1,9.0346146E-1,4E1,4E1,4E1,4.3836555E0,-7.9182833E-1,2.5803332E0,8.78573E0,1.3237584E0,-4.1661036E-1,2.2655241E0,-1.1329343E0,-2.8528214E-1,4E1,1.6784198E0,1.4809582E0,4E1,5.007947E-1,-3.8394246E-2,2.3038177E0,-5.870034E0,1.7430992E0,5.568161E0,-9.595337E-1,-2.770192E-1,1.839508E0,1.839508E0,-5.2121353E-1,-2.8316885E-1,1.3577356E0,1.6712227E0,-1.2554321E0,4.570923E-1,2.128117E0,2.5803332E0,4E1,-1.3538343E-1,4E1,4E1,-2.6342459E0,-7.9182833E-1,4.570923E-1,4E1,-1.5621285E0,-1.4897537E-1,9.978485E-2,3.4296823E-1,-9.0265656E-1,2.128117E0,-3.8319778E-1,-1.2088966E-1,2.899406E-1,3.004685E-1,1.508096E-1,2.5892457E-1,3.1771237E-1,6.294958E-2,3.0035588E-1,3.02837E-1,1.8190183E-1,-8.803585E-2,2.3730287E-1,1.5453206E-1,3.2859576E-1,2.3502092E-1,3.5912624E-1,3.0305982E-1,6.0632695E-2,2.1733624E-1,2.99558E-1,-1.9674163E-1,1.3094434E-1,2.2680469E-1,2.3821723E-1,1.2443754E-1,4.838652E-2,-1.0817731E-1,-4.7455702E-2,-1.0334406E-2,-1.3921562E-1,-8.330882E-3,-1.6201387E-1,-1.9754575E-1,1.2139157E-1,1.711147E-2,2.735156E-1,1.6543826E-1,6.356062E-2,-6.629435E-2,1.1701485E-1,2.9508373E-1,-1.069286E-1,8.048302E-2,-1.7682514E-1,-1.1720818E-1,-9.434202E-2,1.3732846E-1,1.7662023E-1,-1.0870096E-1,-5.3378645E-2,7.738736E-2,-3.4885857E-2,-1.6141878E-1,-6.801815E-2,1.1229225E-3,-1.0827977E-1,-1.4931183E-1,-1.4007375E-1,-1.8744627E-1,3.8411707E-2,-1.9104539E-1,-1.8840592E-1,-1.9692357E-1,-1.6911536E-1,-1.8792474E-1],"split_indices":[7,2,2,6,6,3,3,1,1,1,0,1,1,6,6,3,0,1,1,0,1,1,1,0,0,6,1,1,4,1,1,0,0,0,0,0,1,0,0,0,1,0,0,0,0,1,1,6,1,6,4,0,1,0,6,1,0,0,1,0,1,0,0,0,0,0,0,0,0,0,0,0,0,0,0,0,0,0,0,0,0,0,0,0,0,0,0,0,0,0,0,0,0,0,0,0,0,0,0,0,0,0,0,0,0,0,0,0,0,0,0,0,0,0,0,0,0,0,0,0,0,0,0,0,0,0,0],"split_type":[0,0,0,0,0,0,0,0,0,0,0,0,0,0,0,0,0,0,0,0,0,0,0,0,0,0,0,0,0,0,0,0,0,0,0,0,0,0,0,0,0,0,0,0,0,0,0,0,0,0,0,0,0,0,0,0,0,0,0,0,0,0,0,0,0,0,0,0,0,0,0,0,0,0,0,0,0,0,0,0,0,0,0,0,0,0,0,0,0,0,0,0,0,0,0,0,0,0,0,0,0,0,0,0,0,0,0,0,0,0,0,0,0,0,0,0,0,0,0,0,0,0,0,0,0,0,0],"sum_hessian":[4.032334E7,1.217223E7,2.815111E7,1.1054703E7,1.1175269E6,1.604935E6,2.6546174E7,1.0231834E7,8.228695E5,1.8215097E5,9.353759E5,4.7252925E5,1.1324058E6,5.667683E5,2.5979406E7,1.0065568E7,1.6626523E5,7.4391744E5,7.895209E4,3.83564E4,1.4379456E5,8.597184E5,7.5657516E4,1.9475319E5,2.7777606E5,8.91205E5,2.4120072E5,5.6756184E4,5.1001216E5,3.905411E5,2.5588866E7,1.0022866E7,4.2702324E4,4.627715E4,1.1998809E5,2.100026E4,7.229171E5,3.817714E4,4.077495E4,3.601385E4,2.342545E3,8.707873E4,5.671584E4,1.3409283E5,7.256255E5,3.2077236E4,4.3580277E4,9.670876E4,9.804443E4,2.194463E5,5.8329785E4,5.1982914E4,8.392221E5,1.23940445E5,1.1726027E5,5.13163E4,5.439883E3,2.6555734E5,2.444548E5,3.066102E5,8.3930914E4,9.482068E6,1.6106797E7,3.5972405E6,6.4256255E6,2.2616963E4,2.008536E4,4.7067065E3,4.157044E4,2.362257E4,9.636552E4,4.9769424E3,1.6023317E4,1.01621625E5,6.212955E5,7.156905E3,3.1020236E4,1.2987389E3,3.947621E4,2.9430467E4,6.5833867E3,6.398757E1,2.2785574E3,7.484839E4,1.2230337E4,3.509511E4,2.1620729E4,8.289143E3,1.2580369E5,3.9552878E5,3.3009675E5,2.7744523E4,4.332713E3,2.3492915E3,4.1230984E4,4.359438E4,5.311438E4,6.556584E4,3.2478586E4,6.0588316E4,1.5885797E5,4.725854E4,1.1071246E4,2.534305E4,2.6639863E4,1.4540681E5,6.938153E5,8.287194E3,1.1565325E5,1.5539298E4,1.0172098E5,3.9780037E3,4.7338297E4,3.4787964E3,1.9610864E3,2.3510848E5,3.0448873E4,6.978595E4,1.7466883E5,9.467089E4,2.1193931E5,7.63561E4,7.5748105E3,3.440624E6,6.0414435E6,5.9945294E5,1.5507344E7],"tree_param":{"num_deleted":"0","num_feature":"8","num_nodes":"127","size_leaf_vector":"1"}},{"base_weights":[-6.2134457E-1,-3.3969218E-1,-6.5786827E-1,-6.1613524E-1,1.362873E-1,-6.1864144E-1,-6.686181E-1,-6.2372804E-1,-1.246717E-1,-5.1478934E-1,7.6659256E-1,-6.681187E-1,1.4655107E-1,-6.715196E-1,-6.6852134E-1,-6.292904E-1,-5.186378E-1,1.5172634E-1,-4.0992707E-1,5.966202E-1,-5.9994304E-1,7.8553915E-1,-2.000114E-1,-6.6818917E-1,-4.9026212E-1,-2.7120474E-1,3.7153792E-1,-6.833034E-1,-6.7009914E-1,-6.683586E-1,-6.693065E-1,-6.651742E-1,-6.1878556E-1,-1.24600604E-1,-5.939191E-1,-5.4194325E-1,5.652357E-1,-4.6757782E-1,-2.2328678E-1,-5.064133E-1,7.141889E-1,-2.8657025E-1,-6.694271E-1,4.315113E-1,8.552443E-1,-6.56634E-1,-6.690976E-1,-5.5869424E-1,-3.322938E-1,-4.26003E-1,-7.822971E-3,7.108017E-1,-5.1777758E-2,-6.6981846E-1,-6.87963E-1,-6.6451937E-1,-6.714327E-1,-6.685917E-1,-6.645717E-1,-6.771166E-1,-2.007676E-1,-2.0092645E-1,-1.9541244E-1,-1.7993839E-1,-1.9245382E-1,-1.6163245E-1,-5.6795715E-3,-1.8330722E-1,-3.2387387E-2,-1.8950385E-1,-3.1815812E-2,1.1894196E-1,3.3856836E-1,-1.00647196E-1,-1.6427329E-1,-1.1262271E-1,1.0000762E-1,-1.8195988E-1,2.5589085E-1,1.3966532E-1,2.630379E-1,-1.424802E-1,8.5723735E-2,-2.0225191E-1,-2.0053431E-1,9.5065475E-2,2.5095874E-1,7.181238E-2,2.6290613E-1,-2.0121811E-1,-1.9388945E-1,-1.9971785E-1,-2.0082386E-1,-1.8103136E-1,-1.3132393E-1,-5.499745E-2,-2.0308518E-1,-2.0099474E-1,-1.119717E-1,8.639965E-2,-1.03268616E-1,2.577161E-1,1.371093E-1,-5.8783356E-2,1.4978068E-1,-2.0884155E-1,-2.0060758E-1,-2.125545E-1,-2.0584968E-1,-2.0000422E-1,-1.9674648E-1,-2.054262E-1,-2.0124733E-1,-2.0051618E-1,-2.007788E-1,-1.978623E-1,-2.0048474E-1,-2.0083193E-1,-2.0444183E-1],"categories":[],"categories_nodes":[],"categories_segments":[],"categories_sizes":[],"default_left":[0,0,0,0,0,0,0,0,0,0,0,0,0,0,0,0,0,0,0,0,0,0,0,0,0,0,0,0,0,0,0,0,0,0,0,0,0,0,0,0,0,0,0,0,0,0,0,0,0,0,0,0,0,0,0,0,0,0,0,0,0,0,0,0,0,0,0,0,0,0,0,0,0,0,0,0,0,0,0,0,0,0,0,0,0,0,0,0,0,0,0,0,0,0,0,0,0,0,0,0,0,0,0,0,0,0,0,0,0,0,0,0,0,0,0,0,0,0,0],"id":4,"left_children":[1,3,5,7,9,11,13,15,17,19,21,23,25,27,29,31,33,35,37,39,41,43,-1,45,47,49,51,53,55,57,59,61,63,65,67,69,71,73,75,77,79,81,83,85,87,89,91,93,95,97,99,101,103,105,107,109,111,113,115,117,-1,-1,-1,-1,-1,-1,-1,-1,-1,-1,-1,-1,-1,-1,-1,-1,-1,-1,-1,-1,-1,-1,-1,-1,-1,-1,-1,-1,-1,-1,-1,-1,-1,-1,-1,-1,-1,-1,-1,-1,-1,-1,-1,-1,-1,-1,-1,-1,-1,-1,-1,-1,-1,-1,-1,-1,-1,-1,-1],"loss_changes":[3.85384E5,5.6585994E5,1.3984E4,1.01515E4,6.4839906E5,2.70063E5,7E0,1.565625E3,3.263498E3,7.355495E4,2.1801688E4,8.375E1,4.0718695E4,1.359375E1,4E0,9.5875E2,3.9950156E3,6.030411E3,2.1906958E2,7.173084E3,1.57185E4,1.95525E4,0E0,7E1,2.8532593E1,6.1828174E3,4.04391E4,5.2109375E0,5.15625E0,1.8E1,2.375E0,3.6E1,8.49125E2,9.455221E2,9.398633E2,3.070669E2,1.251751E3,1.6425366E2,4.0733704E2,7.256714E2,2.0203789E3,1.4124152E4,2.3125E0,6.0510254E3,8.606219E3,7.06875E1,6.5E0,9.758972E0,4.1230644E1,1.2293066E3,5.58659E3,5.8801953E3,9.952052E3,2.2363281E-1,1.9921875E0,2.2890625E0,4.4375E0,3E0,2.21875E1,1.0292969E0,0E0,0E0,0E0,0E0,0E0,0E0,0E0,0E0,0E0,0E0,0E0,0E0,0E0,0E0,0E0,0E0,0E0,0E0,0E0,0E0,0E0,0E0,0E0,0E0,0E0,0E0,0E0,0E0,0E0,0E0,0E0,0E0,0E0,0E0,0E0,0E0,0E0,0E0,0E0,0E0,0E0,0E0,0E0,0E0,0E0,0E0,0E0,0E0,0E0,0E0,0E0,0E0,0E0,0E0,0E0,0E0,0E0,0E0,0E0],"parents":[2147483647,0,0,1,1,2,2,3,3,4,4,5,5,6,6,7,7,8,8,9,9,10,10,11,11,12,12,13,13,14,14,15,15,16,16,17,17,18,18,19,19,20,20,21,21,23,23,24,24,25,25,26,26,27,27,28,28,29,29,30,30,31,31,32,32,33,33,34,34,35,35,36,36,37,37,38,38,39,39,40,40,41,41,42,42,43,43,44,44,45,45,46,46,47,47,48,48,49,49,50,50,51,51,52,52,53,53,54,54,55,55,56,56,57,57,58,58,59,59],"right_children":[2,4,6,8,10,12,14,16,18,20,22,24,26,28,30,32,34,36,38,40,42,44,-1,46,48,50,52,54,56,58,60,62,64,66,68,70,72,74,76,78,80,82,84,86,88,90,92,94,96,98,100,102,104,106,108,110,112,114,116,118,-1,-1,-1,-1,-1,-1,-1,-1,-1,-1,-1,-1,-1,-1,-1,-1,-1,-1,-1,-1,-1,-1,-1,-1,-1,-1,-1,-1,-1,-1,-1,-1,-1,-1,-1,-1,-1,-1,-1,-1,-1,-1,-1,-1,-1,-1,-1,-1,-1,-1,-1,-1,-1,-1,-1,-1,-1,-1,-1],"split_conditions":[-9.0265656E-1,4E1,4.1E1,4E1,-2.1302271E-1,4E1,4.1E1,4E1,-7.1165123E0,-3.149063E0,4.1E1,4E1,3.0806014E-1,-5.2450246E-1,1.086276E0,-4.572505E1,-5.870034E0,-3.101907E1,4E1,-1.5621285E0,4.1E1,4E1,-2.000114E-1,-1.2088966E-1,4E1,1.10221714E-1,-1.6246796E-1,-7.9182833E-1,3.2648087E-1,9.0346146E-1,4E1,-5.4892433E1,-1.0476173E1,-3.101907E1,8.107472E-1,-3.771296E1,4E1,-3.149063E0,4.8398745E-1,4E1,4E1,4E1,4E1,4E1,-1.3538343E-1,-2.7011076E-1,7.757168E-1,4E1,4.1E1,-3.267971E-1,-3.939743E-1,4.1E1,1.2004462E0,4.1E1,4.1E1,-2.3967743E-1,4.1E1,4.690323E-1,1.0413519E0,1.3237584E0,-2.007676E-1,-2.0092645E-1,-1.9541244E-1,-1.7993839E-1,-1.9245382E-1,-1.6163245E-1,-5.6795715E-3,-1.8330722E-1,-3.2387387E-2,-1.8950385E-1,-3.1815812E-2,1.1894196E-1,3.3856836E-1,-1.00647196E-1,-1.6427329E-1,-1.1262271E-1,1.0000762E-1,-1.8195988E-1,2.5589085E-1,1.3966532E-1,2.630379E-1,-1.424802E-1,8.5723735E-2,-2.0225191E-1,-2.0053431E-1,9.5065475E-2,2.5095874E-1,7.181238E-2,2.6290613E-1,-2.0121811E-1,-1.9388945E-1,-1.9971785E-1,-2.0082386E-1,-1.8103136E-1,-1.3132393E-1,-5.499745E-2,-2.0308518E-1,-2.0099474E-1,-1.119717E-1,8.639965E-2,-1.03268616E-1,2.577161E-1,1.371093E-1,-5.8783356E-2,1.4978068E-1,-2.0884155E-1,-2.0060758E-1,-2.125545E-1,-2.0584968E-1,-2.0000422E-1,-1.9674648E-1,-2.054262E-1,-2.0124733E-1,-2.0051618E-1,-2.007788E-1,-1.978623E-1,-2.0048474E-1,-2.0083193E-1,-2.0444183E-1],"split_indices":[0,7,3,3,1,7,2,6,0,0,3,3,1,1,0,0,0,0,6,1,3,6,0,0,6,1,0,1,0,1,6,0,0,0,1,0,5,0,1,6,6,4,6,3,1,1,0,2,6,1,0,6,1,6,6,0,6,0,1,1,0,0,0,0,0,0,0,0,0,0,0,0,0,0,0,0,0,0,0,0,0,0,0,0,0,0,0,0,0,0,0,0,0,0,0,0,0,0,0,0,0,0,0,0,0,0,0,0,0,0,0,0,0,0,0,0,0,0,0],"split_type":[0,0,0,0,0,0,0,0,0,0,0,0,0,0,0,0,0,0,0,0,0,0,0,0,0,0,0,0,0,0,0,0,0,0,0,0,0,0,0,0,0,0,0,0,0,0,0,0,0,0,0,0,0,0,0,0,0,0,0,0,0,0,0,0,0,0,0,0,0,0,0,0,0,0,0,0,0,0,0,0,0,0,0,0,0,0,0,0,0,0,0,0,0,0,0,0,0,0,0,0,0,0,0,0,0,0,0,0,0,0,0,0,0,0,0,0,0,0,0],"sum_hessian":[3.746343E7,4.3004595E6,3.3162972E7,2.7204532E6,1.5800062E6,7.1332595E6,2.6029712E7,2.6790632E6,4.1390043E4,7.771972E5,8.0280906E5,6.7000355E6,4.3322366E5,8.395248E5,2.5190188E7,2.5443845E6,1.3467867E5,2.1021621E4,2.036842E4,5.5309016E4,7.218882E5,7.9233575E5,1.0473328E4,6.69738E6,2.6556077E3,1.5164634E5,2.815773E5,9.0258664E4,7.492661E5,2.0867176E7,4.32301E6,5.7617094E5,1.9682135E6,2.1603639E4,1.1307503E5,7.8510425E3,1.3170579E4,1.5560483E4,4.807937E3,5.327059E3,4.9981957E4,1.3101524E5,5.9087294E5,1.3034239E5,6.619934E5,4.882049E5,6.209175E6,1.85115E3,8.044577E2,9.551083E4,5.613552E4,1.5630606E5,1.2527124E5,2.3215832E4,6.704283E4,1.4462455E5,6.0464156E5,1.965722E7,1.2099574E6,4.4365875E4,4.278644E6,4.3254384E5,1.4362712E5,1.0722572E6,8.959562E5,4.390549E3,1.7213092E4,1.0923007E5,3.8449604E3,6.510322E3,1.3407208E3,1.0135779E4,3.0347996E3,5.871417E3,9.689066E3,3.7762693E3,1.0316677E3,4.9621465E3,3.6491235E2,1.976427E4,3.0217686E4,9.857266E4,3.2442584E4,1.0096444E5,4.899085E5,1.0159203E5,2.8750357E4,2.1938832E4,6.400545E5,2.0653247E5,2.8167244E5,5.311177E5,5.6780575E6,1.3483503E3,5.0279962E2,5.627538E2,2.417039E2,1.6980727E4,7.85301E4,2.9869562E4,2.6265959E4,9.866434E4,5.764172E4,9.929419E4,2.5977047E4,9.2753687E2,2.2288295E4,5.360256E3,6.1682574E4,1.1577933E5,2.884522E4,2.635443E4,5.782872E5,1.5067008E7,4.5902115E6,5.137074E5,6.9624994E5,1.6117255E4,2.824862E4],"tree_param":{"num_deleted":"0","num_feature":"8","num_nodes":"119","size_leaf_vector":"1"}},{"base_weights":[6.401183E-1,-4.4100714E-1,9.770359E-1,-5.978848E-1,5.130281E-1,7.652416E-1,9.849922E-1,-6.4383525E-1,-7.511022E-2,-6.147499E-3,6.042701E-1,8.421387E-1,4.4839603E-1,8.6875015E-1,9.866491E-1,-6.485439E-1,-3.505031E-1,5.171026E-1,-1.0578607E-1,2.8750637E-1,-1.4011754E-1,6.708251E-1,2.904406E-1,4.255468E-1,8.617946E-1,1.0491399E-1,7.249022E-1,9.5636487E-1,4.706004E-1,9.9529713E-1,9.815922E-1,-6.686528E-1,-6.385832E-1,2.698551E-1,-6.6649926E-1,2.252035E-1,6.463753E-1,-5.0342746E-2,-4.163788E-1,8.432642E-1,2.4921891E-1,-1.9926203E-2,-5.3447515E-1,6.4466393E-1,9.382561E-1,6.8567383E-1,6.397186E-2,1.4711428E-1,7.3717064E-1,9.75476E-1,8.3507556E-1,-5.3817093E-1,1.7047565E-1,-7.578266E-2,8.1209254E-1,8.7771505E-1,9.863662E-1,4.0869215E-1,9.9122113E-1,9.823775E-1,1.0014689E0,9.185868E-1,9.828116E-1,-9.8609425E-2,-2.0099825E-1,-1.6148716E-1,-1.9672234E-1,-2.0555615E-1,1.0625136E-1,-1.9719191E-1,-2.0062417E-1,1.751259E-1,-6.661091E-2,2.0459945E-1,-2.566776E-1,-3.3678755E-4,-1.6654542E-1,-1.5559043E-1,-8.767405E-2,2.810816E-1,-2.3928605E-1,-4.253203E-2,1.1174538E-1,-9.709917E-2,3.9100926E-3,-9.993542E-2,-1.8797465E-1,2.0970492E-1,1.669384E-1,2.5335586E-1,3.0096915E-1,2.285949E-1,1.4635226E-1,-5.4469194E-2,6.484176E-2,2.3563688E-1,-6.147267E-2,2.649714E-1,-1.9829234E-2,2.9301757E-1,-8.5459486E-2,1.6010848E-1,2.6176342E-1,1.5752691E-1,-1.7813045E-1,-8.010045E-3,9.4659284E-2,-1.459819E-1,2.515534E-1,2.6610577E-1,2.1083163E-1,2.9442492E-1,3.2616973E-2,2.970935E-1,2.6122576E-1,1.6291495E-1,4.6865206E-2,-4.578484E-2,2.979563E-1,2.9572648E-1,2.656025E-1,-1.5719205E-1,3.0045152E-1,2.6840177E-1,2.8582582E-1,2.0266488E-1,2.949001E-1],"categories":[],"categories_nodes":[],"categories_segments":[],"categories_sizes":[],"default_left":[0,0,0,0,0,0,0,0,0,0,0,0,0,0,0,0,0,0,0,0,0,0,0,0,0,0,0,0,0,0,0,0,0,0,0,0,0,0,0,0,0,0,0,0,0,0,0,0,0,0,0,0,0,0,0,0,0,0,0,0,0,0,0,0,0,0,0,0,0,0,0,0,0,0,0,0,0,0,0,0,0,0,0,0,0,0,0,0,0,0,0,0,0,0,0,0,0,0,0,0,0,0,0,0,0,0,0,0,0,0,0,0,0,0,0,0,0,0,0,0,0,0,0,0,0,0,0],"id":5,"left_children":[1,3,5,7,9,11,13,15,17,19,21,23,25,27,29,31,33,35,37,39,41,43,45,47,49,51,53,55,57,59,61,63,65,67,69,71,73,75,77,79,81,83,85,87,89,91,93,95,97,99,101,103,105,107,109,111,113,115,117,119,121,123,125,-1,-1,-1,-1,-1,-1,-1,-1,-1,-1,-1,-1,-1,-1,-1,-1,-1,-1,-1,-1,-1,-1,-1,-1,-1,-1,-1,-1,-1,-1,-1,-1,-1,-1,-1,-1,-1,-1,-1,-1,-1,-1,-1,-1,-1,-1,-1,-1,-1,-1,-1,-1,-1,-1,-1,-1,-1,-1,-1,-1,-1,-1,-1,-1],"loss_changes":[1.6807662E7,1.6408442E6,5.928E4,2.26168E5,7.333847E4,3.1033375E4,6.528E3,1.1953E4,1.3819445E4,9.10412E3,2.7503062E4,8.392625E3,2.3625723E4,1.6622312E4,1.462E3,1.70575E3,2.6803367E4,1.4135049E3,1.2454381E4,1.5424937E3,7.532358E3,7.6000625E3,2.0622076E4,4.007087E3,2.97225E3,4.677678E3,9.621227E3,9.2075E2,2.769789E3,9.83E2,1.618E3,1.286375E3,9.8015E3,3.7159668E3,1.4335938E0,1.8442856E3,1.3897568E3,1.5248251E4,1.390375E3,7.1893335E2,3.2691348E3,1.2193285E3,6.8824414E2,4.7436875E3,5.8871875E2,1.2666133E3,5.472497E3,5.4813384E3,2.5570244E3,2.9353125E2,8.949125E3,6.070852E2,2.879611E3,5.084163E3,1.0173672E3,8.600875E3,1.28125E2,2.6056777E3,2.0697266E1,1.306E3,4.595E2,3.2640625E2,1.2E3,0E0,0E0,0E0,0E0,0E0,0E0,0E0,0E0,0E0,0E0,0E0,0E0,0E0,0E0,0E0,0E0,0E0,0E0,0E0,0E0,0E0,0E0,0E0,0E0,0E0,0E0,0E0,0E0,0E0,0E0,0E0,0E0,0E0,0E0,0E0,0E0,0E0,0E0,0E0,0E0,0E0,0E0,0E0,0E0,0E0,0E0,0E0,0E0,0E0,0E0,0E0,0E0,0E0,0E0,0E0,0E0,0E0,0E0,0E0,0E0,0E0,0E0,0E0,0E0],"parents":[2147483647,0,0,1,1,2,2,3,3,4,4,5,5,6,6,7,7,8,8,9,9,10,10,11,11,12,12,13,13,14,14,15,15,16,16,17,17,18,18,19,19,20,20,21,21,22,22,23,23,24,24,25,25,26,26,27,27,28,28,29,29,30,30,31,31,32,32,33,33,34,34,35,35,36,36,37,37,38,38,39,39,40,40,41,41,42,42,43,43,44,44,45,45,46,46,47,47,48,48,49,49,50,50,51,51,52,52,53,53,54,54,55,55,56,56,57,57,58,58,59,59,60,60,61,61,62,62],"right_children":[2,4,6,8,10,12,14,16,18,20,22,24,26,28,30,32,34,36,38,40,42,44,46,48,50,52,54,56,58,60,62,64,66,68,70,72,74,76,78,80,82,84,86,88,90,92,94,96,98,100,102,104,106,108,110,112,114,116,118,120,122,124,126,-1,-1,-1,-1,-1,-1,-1,-1,-1,-1,-1,-1,-1,-1,-1,-1,-1,-1,-1,-1,-1,-1,-1,-1,-1,-1,-1,-1,-1,-1,-1,-1,-1,-1,-1,-1,-1,-1,-1,-1,-1,-1,-1,-1,-1,-1,-1,-1,-1,-1,-1,-1,-1,-1,-1,-1,-1,-1,-1,-1,-1,-1,-1,-1],"split_conditions":[4.1E1,4.1E1,4E1,4.1E1,4.1E1,9.0346146E-1,4E1,3.0806067E0,-7.232253E-1,2.2154765E-1,4E1,4.1E1,1.6784198E0,5.007947E-1,-4.9207613E-2,-2.2332277E0,4.3836555E0,-9.0265656E-1,4E1,-2.6342459E0,4E1,2.120625E0,-1.7395124E-1,-5.080335E-1,-7.9182833E-1,4.1E1,4E1,-8.3407927E-1,2.128117E0,-4.1611195E-1,-1.8270874E-1,-1.5621285E0,2.3038177E0,1.7430992E0,5.568161E0,-9.464708E-1,-4.9222183E-1,2.128117E0,-5.2121353E-1,-1.5621285E0,-1.2554321E0,-3.939743E-1,4E1,4.570923E-1,2.2655241E0,-3.953305E-1,-2.3967743E-1,-1.5621285E0,5.868292E-1,-4.9222183E-1,-5.2450246E-1,5.868292E-1,1.1653986E0,2.128117E0,1.8237691E0,-2.2332277E0,6.448097E-1,1.3237584E0,1.839508E0,-2.1302271E-1,-9.464708E-1,1.6947255E-1,4.1E1,-9.8609425E-2,-2.0099825E-1,-1.6148716E-1,-1.9672234E-1,-2.0555615E-1,1.0625136E-1,-1.9719191E-1,-2.0062417E-1,1.751259E-1,-6.661091E-2,2.0459945E-1,-2.566776E-1,-3.3678755E-4,-1.6654542E-1,-1.5559043E-1,-8.767405E-2,2.810816E-1,-2.3928605E-1,-4.253203E-2,1.1174538E-1,-9.709917E-2,3.9100926E-3,-9.993542E-2,-1.8797465E-1,2.0970492E-1,1.669384E-1,2.5335586E-1,3.0096915E-1,2.285949E-1,1.4635226E-1,-5.4469194E-2,6.484176E-2,2.3563688E-1,-6.147267E-2,2.649714E-1,-1.9829234E-2,2.9301757E-1,-8.5459486E-2,1.6010848E-1,2.6176342E-1,1.5752691E-1,-1.7813045E-1,-8.010045E-3,9.4659284E-2,-1.459819E-1,2.515534E-1,2.6610577E-1,2.1083163E-1,2.9442492E-1,3.2616973E-2,2.970935E-1,2.6122576E-1,1.6291495E-1,4.6865206E-2,-4.578484E-2,2.979563E-1,2.9572648E-1,2.656025E-1,-1.5719205E-1,3.0045152E-1,2.6840177E-1,2.8582582E-1,2.0266488E-1,2.949001E-1],"split_indices":[3,2,2,6,6,1,6,1,1,1,7,6,1,1,1,0,0,0,7,0,7,0,1,1,1,6,6,1,1,0,0,1,0,0,0,1,0,1,0,1,0,0,6,0,1,1,0,1,0,0,1,0,1,1,1,0,0,1,0,1,1,1,6,0,0,0,0,0,0,0,0,0,0,0,0,0,0,0,0,0,0,0,0,0,0,0,0,0,0,0,0,0,0,0,0,0,0,0,0,0,0,0,0,0,0,0,0,0,0,0,0,0,0,0,0,0,0,0,0,0,0,0,0,0,0,0,0],"split_type":[0,0,0,0,0,0,0,0,0,0,0,0,0,0,0,0,0,0,0,0,0,0,0,0,0,0,0,0,0,0,0,0,0,0,0,0,0,0,0,0,0,0,0,0,0,0,0,0,0,0,0,0,0,0,0,0,0,0,0,0,0,0,0,0,0,0,0,0,0,0,0,0,0,0,0,0,0,0,0,0,0,0,0,0,0,0,0,0,0,0,0,0,0,0,0,0,0,0,0,0,0,0,0,0,0,0,0,0,0,0,0,0,0,0,0,0,0,0,0,0,0,0,0,0,0,0,0],"sum_hessian":[4.6143176E7,1.0963311E7,3.5179864E7,9.415126E6,1.5481845E6,1.2737266E6,3.390614E7,8.654425E6,7.607008E5,2.3141458E5,1.31677E6,1.0249694E6,2.487573E5,4.7651706E5,3.342962E7,8.517697E6,1.3672847E5,3.7462004E4,7.232388E5,7.2499375E4,1.589152E5,1.0863768E6,2.3039325E5,4.6182812E4,9.7878656E5,1.1094293E5,1.3781436E5,3.9056912E5,8.594795E4,1.2334943E7,2.1094678E7,2.8215018E6,5.696195E6,4.614249E4,9.0585984E4,1.14992705E4,2.5962732E4,6.136911E5,1.0954769E5,4.6713813E3,6.782799E4,1.2179567E5,3.711953E4,9.8957575E5,9.680098E4,8.392511E4,1.4646814E5,2.43911E4,2.1791713E4,1.862622E5,7.925243E5,1.026341E4,1.0067952E5,1.3533535E4,1.2428083E5,1.078544E5,2.8271472E5,7.681543E4,9.132519E3,3.9876505E6,8.3472925E6,4.0054353E5,2.0694134E7,1.1090014E4,2.8104118E6,8.321403E5,4.8640545E6,3.7426487E3,4.239984E4,1.7855893E4,7.273009E4,6.3823076E3,5.1169624E3,2.5361762E4,6.009704E2,5.591715E5,5.4519637E4,6.006493E4,4.9482758E4,4.4195103E3,2.5187077E2,1.6258074E4,5.156992E4,1.1921904E4,1.09873766E5,1.1651833E4,2.5467701E4,6.1227275E5,3.77303E5,3.9634863E4,5.7166113E4,6.0561992E4,2.3363115E4,5.6040887E4,9.042726E4,8.669327E3,1.5721773E4,1.8438695E4,3.3530173E3,1.86078E5,1.8420117E2,8.763705E4,7.048873E5,5.095797E2,9.753831E3,4.2673547E4,5.8005977E4,9.338083E3,4.1954526E3,7.373607E4,5.0544754E4,9.5037914E4,1.2816482E4,2.7337778E5,9.336933E3,5.0134547E4,2.6680887E4,1.5542195E1,9.116976E3,3.853519E6,1.3413167E5,1.9687823E2,8.3470955E6,2.356377E5,1.6490584E5,1.2694417E4,2.068144E7],"tree_param":{"num_deleted":"0","num_feature":"8","num_nodes":"127","size_leaf_vector":"1"}},{"base_weights":[-1.317192E-1,6.819371E-1,-5.334028E-1,7.549254E-1,-3.4635507E-2,-1.0234953E-1,-5.6260514E-1,7.8305554E-1,4.2922673E-1,3.6448526E-1,-1.1852476E-1,2.351446E-1,-2.1790537E-1,-2.1565917E-1,-5.710717E-1,7.5834614E-1,7.997146E-1,3.465207E-1,5.525262E-1,-1.4789404E-1,3.8553852E-1,-9.408839E-2,-5.443376E-1,5.346102E-1,1.0250665E-1,-3.1278363E-1,1.14145614E-1,1.5731177E-1,-2.610692E-1,-3.7136987E-1,-5.7429487E-1,7.647008E-1,2.3455124E-1,8.0809253E-1,7.837466E-1,3.1398988E-1,7.7390397E-1,5.0561213E-1,7.4502856E-1,1.1146634E0,-3.9907992E-1,3.9701423E-1,-5.530239E-1,-4.1167432E-1,-7.8003E-2,-4.339195E-1,-6.0472107E-1,2.1359281E-1,7.3136735E-1,1.3743697E-1,-3.0147249E-1,7.947561E-2,-3.4515646E-1,3.258789E-1,-2.0133948E-1,2.4673839E-1,-2.70743E-2,-1.5671816E-1,-3.845298E-1,-5.1075906E-1,5.8660727E-2,-5.906619E-1,-5.647325E-1,2.338691E-1,2.1362527E-1,1.8787463E-1,3.6787607E-2,2.4100389E-1,2.4279396E-1,2.0049043E-1,2.3853596E-1,1.7015558E-1,7.450454E-2,2.7128935E-1,2.0423193E-1,2.048093E-1,1.3842359E-1,1.9746614E-1,2.4120063E-1,3.5619652E-1,3.0384892E-1,-1.7044148E-1,2.6036906E-1,1.10879056E-1,1.733293E-1,2.566028E-1,-1.785917E-1,2.0328546E-1,-1.3611715E-1,-3.62181E-2,-6.0852724E-3,-1.4185576E-1,-9.168765E-2,-1.7765567E-1,-1.8565431E-1,-3.58206E-2,9.753565E-2,1.04642905E-1,2.3857528E-1,8.506643E-2,1.8669138E-2,-1.3078062E-1,-2.8383361E-2,-1.35076E-1,6.1281398E-2,-8.64499E-2,-1.3726057E-1,-8.718153E-2,1.081176E-1,1.2333522E-1,-9.12591E-2,5.303864E-2,1.6228013E-1,-1.9197173E-2,1.9657205E-1,-5.3826988E-2,3.2660193E-3,-1.071393E-1,-1.68037E-1,-1.1719683E-1,-1.6889215E-1,3.3161197E-2,-1.7373988E-1,-1.7060807E-1,-1.807675E-1,-1.4890628E-1,-1.7023212E-1],"categories":[],"categories_nodes":[],"categories_segments":[],"categories_sizes":[],"default_left":[0,0,0,0,0,0,0,0,0,0,0,0,0,0,0,0,0,0,0,0,0,0,0,0,0,0,0,0,0,0,0,0,0,0,0,0,0,0,0,0,0,0,0,0,0,0,0,0,0,0,0,0,0,0,0,0,0,0,0,0,0,0,0,0,0,0,0,0,0,0,0,0,0,0,0,0,0,0,0,0,0,0,0,0,0,0,0,0,0,0,0,0,0,0,0,0,0,0,0,0,0,0,0,0,0,0,0,0,0,0,0,0,0,0,0,0,0,0,0,0,0,0,0,0,0,0,0],"id":6,"left_children":[1,3,5,7,9,11,13,15,17,19,21,23,25,27,29,31,33,35,37,39,41,43,45,47,49,51,53,55,57,59,61,63,65,67,69,71,73,75,77,79,81,83,85,87,89,91,93,95,97,99,101,103,105,107,109,111,113,115,117,119,121,123,125,-1,-1,-1,-1,-1,-1,-1,-1,-1,-1,-1,-1,-1,-1,-1,-1,-1,-1,-1,-1,-1,-1,-1,-1,-1,-1,-1,-1,-1,-1,-1,-1,-1,-1,-1,-1,-1,-1,-1,-1,-1,-1,-1,-1,-1,-1,-1,-1,-1,-1,-1,-1,-1,-1,-1,-1,-1,-1,-1,-1,-1,-1,-1,-1],"loss_changes":[1.149658E7,6.080555E5,2.964385E5,9.66695E4,3.5983973E4,5.827248E4,6.4786E4,3.997E3,8.554078E3,2.0135918E3,9.240585E3,1.5137861E4,3.506689E4,8.898615E3,1.3858E4,1.301825E4,7.7525E2,6.9801836E3,3.0410625E3,2.3370078E3,1.9313145E3,4.2904487E3,3.2109375E2,7.38891E3,3.727166E3,1.0993328E4,1.6523693E4,9.4032117E2,6.034172E3,2.0499035E4,3.316E3,3.0215E3,2.055334E3,2.175E1,2.6205E3,7.754215E3,4.3063477E2,2.1191953E3,3.3729688E2,7.845215E0,1.3168912E3,8.7757227E2,1.2949817E2,1.8548159E3,1.9712612E3,8.4983154E1,5.1503906E0,1.6510406E3,1.7722852E3,2.6714897E3,5.846521E2,4.3632495E3,5.121617E3,3.14954E3,6.258336E3,7.900979E2,4.691955E2,9.659697E2,1.0319824E3,1.6194219E3,2.7699204E3,2.042E3,2.476E3,0E0,0E0,0E0,0E0,0E0,0E0,0E0,0E0,0E0,0E0,0E0,0E0,0E0,0E0,0E0,0E0,0E0,0E0,0E0,0E0,0E0,0E0,0E0,0E0,0E0,0E0,0E0,0E0,0E0,0E0,0E0,0E0,0E0,0E0,0E0,0E0,0E0,0E0,0E0,0E0,0E0,0E0,0E0,0E0,0E0,0E0,0E0,0E0,0E0,0E0,0E0,0E0,0E0,0E0,0E0,0E0,0E0,0E0,0E0,0E0,0E0,0E0,0E0,0E0],"parents":[2147483647,0,0,1,1,2,2,3,3,4,4,5,5,6,6,7,7,8,8,9,9,10,10,11,11,12,12,13,13,14,14,15,15,16,16,17,17,18,18,19,19,20,20,21,21,22,22,23,23,24,24,25,25,26,26,27,27,28,28,29,29,30,30,31,31,32,32,33,33,34,34,35,35,36,36,37,37,38,38,39,39,40,40,41,41,42,42,43,43,44,44,45,45,46,46,47,47,48,48,49,49,50,50,51,51,52,52,53,53,54,54,55,55,56,56,57,57,58,58,59,59,60,60,61,61,62,62],"right_children":[2,4,6,8,10,12,14,16,18,20,22,24,26,28,30,32,34,36,38,40,42,44,46,48,50,52,54,56,58,60,62,64,66,68,70,72,74,76,78,80,82,84,86,88,90,92,94,96,98,100,102,104,106,108,110,112,114,116,118,120,122,124,126,-1,-1,-1,-1,-1,-1,-1,-1,-1,-1,-1,-1,-1,-1,-1,-1,-1,-1,-1,-1,-1,-1,-1,-1,-1,-1,-1,-1,-1,-1,-1,-1,-1,-1,-1,-1,-1,-1,-1,-1,-1,-1,-1,-1,-1,-1,-1,-1,-1,-1,-1,-1,-1,-1,-1,-1,-1,-1,-1,-1,-1,-1,-1,-1],"split_conditions":[4E1,4.1E1,4E1,4E1,4.1E1,4E1,4E1,4.3836555E0,9.0346146E-1,-7.232253E-1,2.3038177E0,-1.3538343E-1,9.0346146E-1,4E1,4E1,3.0806067E0,6.9234116E1,1.0503273E0,2.128117E0,-1.3954926E0,3.534027E0,-7.9182833E-1,2.5803332E0,-1.2554321E0,4E1,4E1,1.720311E0,6.545327E-1,4E1,4.927457E-1,-3.8394246E-2,-1.8150063E0,2.9522972E0,1.604751E-1,7.804912E1,4.1E1,4.533192E-1,1.1289884E0,2.5803332E0,-8.3407927E-1,-7.8858566E-1,1.8800356E0,-2.8316885E-1,-1.2554321E0,4.570923E-1,2.128117E0,2.871674E0,-8.586998E0,-3.1799826E-1,4E1,-4.8319335E0,-7.1165123E0,6.1006546E-1,-3.396225E-2,4E1,4.533192E-1,4.3345833E-1,9.978485E-2,4E1,-1.0347681E0,2.128117E0,-3.939743E-1,-1.2088966E-1,2.338691E-1,2.1362527E-1,1.8787463E-1,3.6787607E-2,2.4100389E-1,2.4279396E-1,2.0049043E-1,2.3853596E-1,1.7015558E-1,7.450454E-2,2.7128935E-1,2.0423193E-1,2.048093E-1,1.3842359E-1,1.9746614E-1,2.4120063E-1,3.5619652E-1,3.0384892E-1,-1.7044148E-1,2.6036906E-1,1.10879056E-1,1.733293E-1,2.566028E-1,-1.785917E-1,2.0328546E-1,-1.3611715E-1,-3.62181E-2,-6.0852724E-3,-1.4185576E-1,-9.168765E-2,-1.7765567E-1,-1.8565431E-1,-3.58206E-2,9.753565E-2,1.04642905E-1,2.3857528E-1,8.506643E-2,1.8669138E-2,-1.3078062E-1,-2.8383361E-2,-1.35076E-1,6.1281398E-2,-8.64499E-2,-1.3726057E-1,-8.718153E-2,1.081176E-1,1.2333522E-1,-9.12591E-2,5.303864E-2,1.6228013E-1,-1.9197173E-2,1.9657205E-1,-5.3826988E-2,3.2660193E-3,-1.071393E-1,-1.68037E-1,-1.1719683E-1,-1.6889215E-1,3.3161197E-2,-1.7373988E-1,-1.7060807E-1,-1.807675E-1,-1.4890628E-1,-1.7023212E-1],"split_indices":[7,2,2,6,6,4,3,0,1,1,0,1,1,6,6,1,0,0,1,0,0,1,1,0,3,6,1,1,4,1,1,0,0,1,0,6,1,1,1,1,0,1,1,0,0,1,1,0,1,6,0,0,0,0,6,1,0,0,5,0,1,0,0,0,0,0,0,0,0,0,0,0,0,0,0,0,0,0,0,0,0,0,0,0,0,0,0,0,0,0,0,0,0,0,0,0,0,0,0,0,0,0,0,0,0,0,0,0,0,0,0,0,0,0,0,0,0,0,0,0,0,0,0,0,0,0,0],"split_type":[0,0,0,0,0,0,0,0,0,0,0,0,0,0,0,0,0,0,0,0,0,0,0,0,0,0,0,0,0,0,0,0,0,0,0,0,0,0,0,0,0,0,0,0,0,0,0,0,0,0,0,0,0,0,0,0,0,0,0,0,0,0,0,0,0,0,0,0,0,0,0,0,0,0,0,0,0,0,0,0,0,0,0,0,0,0,0,0,0,0,0,0,0,0,0,0,0,0,0,0,0,0,0,0,0,0,0,0,0,0,0,0,0,0,0,0,0,0,0,0,0,0,0,0,0,0,0],"sum_hessian":[3.517576E7,1.1625988E7,2.3549774E7,1.0551263E7,1.0747255E6,1.4941861E6,2.2055588E7,9.712413E6,8.3884994E5,1.866579E5,8.8806756E5,3.8110988E5,1.1130762E6,5.254031E5,2.1530184E7,3.9112002E6,5.801213E6,5.02075E5,3.3677494E5,7.366686E3,1.7929122E5,8.398706E5,4.819693E4,1.16984055E5,2.641258E5,8.6571275E5,2.4736352E5,5.7025703E4,4.6837744E5,3.4198194E5,2.1188202E7,3.864318E6,4.6882207E4,3.8048702E6,1.9963425E6,4.6656366E5,3.5511336E4,2.7078628E5,6.598865E4,1.2218346E3,6.144851E3,1.771261E5,2.1651272E3,4.048672E4,7.993839E5,1.704196E4,3.1154969E4,4.445537E4,7.252869E4,2.4310616E5,2.101967E4,6.5999555E4,7.997132E5,1.4802119E5,9.934233E4,3.8401008E4,1.8624697E4,2.538344E5,2.1454303E5,2.5826748E5,8.371445E4,7.813869E6,1.3374333E7,3.0131615E6,8.511565E5,1.041814E4,3.6464066E4,7.7850775E5,3.0263625E6,1.7904027E5,1.8173022E6,9.6053555E4,3.705101E5,1.479206E4,2.0719277E4,5.4084688E4,2.1670161E5,2.6699488E4,3.928916E4,7.068435E2,5.1499115E2,5.4219307E3,7.2292065E2,1.5379975E5,2.3326342E4,6.2546062E1,2.102581E3,1.5042408E3,3.8982477E4,4.5936E5,3.400239E5,1.307227E4,3.9696907E3,1.6529854E4,1.4625114E4,1.1153408E4,3.3301965E4,1.0379422E4,6.214926E4,8.2607086E4,1.6049906E5,1.2738408E4,8.281263E3,1.2583384E4,5.3416168E4,5.306238E5,2.6908938E5,7.8470625E3,1.4017412E5,1.4284342E4,8.5057984E4,3.1026314E4,7.374692E3,1.76696E4,9.550986E2,2.2355038E5,3.0284031E4,1.8558778E5,2.8955258E4,7.826131E4,1.8000617E5,7.7418266E4,6.2961875E3,2.7449745E6,5.0688945E6,5.0947356E5,1.286486E7],"tree_param":{"num_deleted":"0","num_feature":"8","num_nodes":"127","size_leaf_vector":"1"}},{"base_weights":[-5.6907386E-1,-2.9491225E-1,-6.0651475E-1,-5.570778E-1,1.13552056E-1,-5.65645E-1,-6.179153E-1,-5.653944E-1,-7.855552E-2,4.903764E-1,-6.193361E-1,-6.178249E-1,1.1413117E-1,-6.2353384E-1,-6.1772394E-1,-6.139789E-1,-5.522299E-1,1.5068087E-1,-3.4002492E-1,2.098464E-3,6.2274295E-1,-6.2594384E-1,-6.1770725E-1,-6.17907E-1,-4.2251876E-1,-1.371348E-1,3.8495657E-1,-6.3986444E-1,-6.2149185E-1,-6.175089E-1,-6.188014E-1,-1.858367E-1,-5.976977E-1,-5.59023E-1,-4.578937E-1,-4.948403E-1,4.840846E-1,-3.9586607E-1,-1.7244484E-1,2.9839662E-1,-5.011896E-1,3.4392035E-1,6.787186E-1,-6.177473E-1,-6.414487E-1,-6.1978376E-1,-6.169201E-1,-6.055244E-1,-6.1881536E-1,-4.9284452E-1,-2.7195945E-1,-3.6854813E-1,1.4937398E-2,6.423693E-1,-5.489838E-2,-6.2123734E-1,-6.459302E-1,-6.140951E-1,-6.230926E-1,-6.1778665E-1,-6.1337864E-1,-6.335798E-1,-1.8558988E-1,-1.8458992E-1,-1.7830731E-1,-1.6104849E-1,-1.7574312E-1,-6.062683E-3,-1.5974815E-1,-1.7711447E-1,-2.1273412E-2,2.65242E-1,8.81646E-2,-7.8605294E-2,-1.4446826E-1,-9.411769E-2,9.194723E-2,-1.7753115E-1,1.3152014E-1,-8.231875E-2,-1.5988778E-1,7.9250775E-2,1.8817204E-1,1.8942653E-1,2.354983E-1,-1.8774416E-1,-1.8509401E-1,-1.9817428E-1,-1.8643242E-1,-1.8542081E-1,-1.9012019E-1,-1.8551421E-1,-1.8472648E-1,-1.8656325E-1,-1.7750885E-1,-1.8540019E-1,-1.8682352E-1,-1.2075328E-1,-1.708927E-1,-3.9990317E-2,-1.8715042E-1,-1.8576173E-1,-9.554741E-2,8.522263E-2,-1.0252913E-1,1.5436885E-1,2.1862438E-1,-5.06672E-2,1.4753719E-1,-1.9770594E-1,-1.8584445E-1,-2.0310517E-1,-1.929187E-1,-1.850484E-1,-1.7884798E-1,-1.9260935E-1,-1.866615E-1,-1.8522829E-1,-1.8551022E-1,-1.8220836E-1,-1.8524683E-1,-1.8745682E-1,-1.9154796E-1],"categories":[],"categories_nodes":[],"categories_segments":[],"categories_sizes":[],"default_left":[0,0,0,0,0,0,0,0,0,0,0,0,0,0,0,0,0,0,0,0,0,0,0,0,0,0,0,0,0,0,0,0,0,0,0,0,0,0,0,0,0,0,0,0,0,0,0,0,0,0,0,0,0,0,0,0,0,0,0,0,0,0,0,0,0,0,0,0,0,0,0,0,0,0,0,0,0,0,0,0,0,0,0,0,0,0,0,0,0,0,0,0,0,0,0,0,0,0,0,0,0,0,0,0,0,0,0,0,0,0,0,0,0,0,0,0,0,0,0,0,0,0,0],"id":7,"left_children":[1,3,5,7,9,11,13,15,17,19,21,23,25,27,29,31,33,35,37,39,41,43,45,47,49,51,53,55,57,59,61,-1,63,65,67,69,71,73,75,77,79,81,83,85,87,89,91,93,95,97,99,101,103,105,107,109,111,113,115,117,119,121,-1,-1,-1,-1,-1,-1,-1,-1,-1,-1,-1,-1,-1,-1,-1,-1,-1,-1,-1,-1,-1,-1,-1,-1,-1,-1,-1,-1,-1,-1,-1,-1,-1,-1,-1,-1,-1,-1,-1,-1,-1,-1,-1,-1,-1,-1,-1,-1,-1,-1,-1,-1,-1,-1,-1,-1,-1,-1,-1,-1,-1],"loss_changes":[3.18853E5,3.9968012E5,1.2735E4,9.0468125E3,4.0295153E5,2.1143775E5,2.3E1,1.4288125E3,2.327773E3,6.228E4,4.953125E0,8.825E1,2.8917227E4,2.30625E1,5E0,4.209375E1,1.1264375E3,4.453948E3,1.6970654E2,3.0647027E4,1.1831656E4,1.2046875E1,2.65625E-1,6.2E1,2.450879E1,7.7573896E3,2.3155846E4,8.4296875E0,7.03125E0,2E1,8.125E0,0E0,6.6835938E0,9.7471875E2,3.8561562E3,2.8543848E2,1.0381162E3,1.559502E2,3.070381E2,1.6121763E4,5.485742E2,2.8637764E3,3.1730312E3,1.171875E-2,1.2541016E1,2.21875E0,1.09375E-1,8.5171875E1,1.6125E1,1.0767609E1,3.6179283E1,1.0965889E3,1.2770343E4,1.4238867E3,4.705217E3,8.671875E-1,4.8183594E0,5.0898438E0,8.25E0,3.5E0,2.65E1,1.2597656E0,0E0,0E0,0E0,0E0,0E0,0E0,0E0,0E0,0E0,0E0,0E0,0E0,0E0,0E0,0E0,0E0,0E0,0E0,0E0,0E0,0E0,0E0,0E0,0E0,0E0,0E0,0E0,0E0,0E0,0E0,0E0,0E0,0E0,0E0,0E0,0E0,0E0,0E0,0E0,0E0,0E0,0E0,0E0,0E0,0E0,0E0,0E0,0E0,0E0,0E0,0E0,0E0,0E0,0E0,0E0,0E0,0E0,0E0,0E0,0E0,0E0],"parents":[2147483647,0,0,1,1,2,2,3,3,4,4,5,5,6,6,7,7,8,8,9,9,10,10,11,11,12,12,13,13,14,14,15,15,16,16,17,17,18,18,19,19,20,20,21,21,22,22,23,23,24,24,25,25,26,26,27,27,28,28,29,29,30,30,32,32,33,33,34,34,35,35,36,36,37,37,38,38,39,39,40,40,41,41,42,42,43,43,44,44,45,45,46,46,47,47,48,48,49,49,50,50,51,51,52,52,53,53,54,54,55,55,56,56,57,57,58,58,59,59,60,60,61,61],"right_children":[2,4,6,8,10,12,14,16,18,20,22,24,26,28,30,32,34,36,38,40,42,44,46,48,50,52,54,56,58,60,62,-1,64,66,68,70,72,74,76,78,80,82,84,86,88,90,92,94,96,98,100,102,104,106,108,110,112,114,116,118,120,122,-1,-1,-1,-1,-1,-1,-1,-1,-1,-1,-1,-1,-1,-1,-1,-1,-1,-1,-1,-1,-1,-1,-1,-1,-1,-1,-1,-1,-1,-1,-1,-1,-1,-1,-1,-1,-1,-1,-1,-1,-1,-1,-1,-1,-1,-1,-1,-1,-1,-1,-1,-1,-1,-1,-1,-1,-1,-1,-1,-1,-1],"split_conditions":[-9.0265656E-1,4E1,4.1E1,4E1,4.1E1,4E1,4E1,-4.572505E1,-7.1165123E0,-1.3538343E-1,4.1E1,4E1,5.1639056E-1,-5.2450246E-1,1.1039791E0,-5.4892433E1,4E1,-3.101907E1,4E1,-1.3954926E0,4E1,-2.2332277E0,4E1,-2.3967743E-1,4E1,1.10221714E-1,-2.3677826E-2,-7.9182833E-1,2.3275018E-1,9.0346146E-1,4.1E1,-1.858367E-1,-2.7011076E-1,-1.0476173E1,-7.1165123E0,-3.771296E1,1.1892594E-2,-3.149063E0,4.927457E-1,-1.311039E0,-1.2554321E0,4E1,4E1,4E1,-7.9182833E-1,-7.9182833E-1,-9.464708E-1,-2.7011076E-1,4.1E1,1.3905852E0,4.1E1,-3.267971E-1,-3.0119705E-1,4E1,1.3026519E0,4.1E1,4.1E1,-2.2498131E-1,4.1E1,2.084446E-1,1.0413519E0,1.3237584E0,-1.8558988E-1,-1.8458992E-1,-1.7830731E-1,-1.6104849E-1,-1.7574312E-1,-6.062683E-3,-1.5974815E-1,-1.7711447E-1,-2.1273412E-2,2.65242E-1,8.81646E-2,-7.8605294E-2,-1.4446826E-1,-9.411769E-2,9.194723E-2,-1.7753115E-1,1.3152014E-1,-8.231875E-2,-1.5988778E-1,7.9250775E-2,1.8817204E-1,1.8942653E-1,2.354983E-1,-1.8774416E-1,-1.8509401E-1,-1.9817428E-1,-1.8643242E-1,-1.8542081E-1,-1.9012019E-1,-1.8551421E-1,-1.8472648E-1,-1.8656325E-1,-1.7750885E-1,-1.8540019E-1,-1.8682352E-1,-1.2075328E-1,-1.708927E-1,-3.9990317E-2,-1.8715042E-1,-1.8576173E-1,-9.554741E-2,8.522263E-2,-1.0252913E-1,1.5436885E-1,2.1862438E-1,-5.06672E-2,1.4753719E-1,-1.9770594E-1,-1.8584445E-1,-2.0310517E-1,-1.929187E-1,-1.850484E-1,-1.7884798E-1,-1.9260935E-1,-1.866615E-1,-1.8522829E-1,-1.8551022E-1,-1.8220836E-1,-1.8524683E-1,-1.8745682E-1,-1.9154796E-1],"split_indices":[0,7,3,3,3,7,2,0,0,1,6,3,1,1,0,0,6,0,6,0,6,0,2,0,6,1,0,1,0,1,6,0,1,0,0,0,1,0,1,1,0,3,3,2,1,1,1,1,6,1,6,1,0,2,1,6,6,0,6,0,1,1,0,0,0,0,0,0,0,0,0,0,0,0,0,0,0,0,0,0,0,0,0,0,0,0,0,0,0,0,0,0,0,0,0,0,0,0,0,0,0,0,0,0,0,0,0,0,0,0,0,0,0,0,0,0,0,0,0,0,0,0,0],"split_type":[0,0,0,0,0,0,0,0,0,0,0,0,0,0,0,0,0,0,0,0,0,0,0,0,0,0,0,0,0,0,0,0,0,0,0,0,0,0,0,0,0,0,0,0,0,0,0,0,0,0,0,0,0,0,0,0,0,0,0,0,0,0,0,0,0,0,0,0,0,0,0,0,0,0,0,0,0,0,0,0,0,0,0,0,0,0,0,0,0,0,0,0,0,0,0,0,0,0,0,0,0,0,0,0,0,0,0,0,0,0,0,0,0,0,0,0,0,0,0,0,0,0,0],"sum_hessian":[3.1062536E7,3.7323522E6,2.7330182E7,2.2732845E6,1.4590678E6,5.960921E6,2.1369262E7,2.2344502E6,3.88343E4,9.636133E5,4.9545447E5,5.535977E6,4.2494406E5,7.036207E5,2.0665642E7,4.7636247E5,1.7580876E6,2.069283E4,1.8141469E4,2.0551266E5,7.581007E5,9.790808E4,3.975464E5,5.5336505E6,2.3263848E3,2.2043227E5,2.045118E5,7.816663E4,6.2545406E5,1.7227686E7,3.437956E6,3.564297E5,1.199328E5,1.6399872E6,1.1810037E5,7.0474307E3,1.3645399E4,1.3606229E4,4.53524E3,1.2935725E5,7.615541E4,1.2674974E5,6.3135094E5,6.4075664E4,3.3832418E4,1.0905478E5,2.8849162E5,3.7824534E5,5.155405E6,1.5841567E3,7.42228E2,8.741244E4,1.3301983E5,1.2901119E5,7.550062E4,1.9226756E4,5.8939875E4,1.11340914E5,5.1411316E5,1.614201E7,1.0856749E6,3.871215E4,3.3992438E6,1.9098662E4,1.0083413E5,8.968897E5,7.430976E5,1.7198234E4,1.0090213E5,5.750943E3,1.2964878E3,4.3958687E3,9.249531E3,5.312532E3,8.293696E3,3.502412E3,1.0328284E3,1.7579664E4,1.11777586E5,9.358382E3,6.679702E4,9.8909766E4,2.7839975E4,4.3691378E5,1.9443714E5,5.4948413E3,5.858082E4,1.7278055E4,1.6554361E4,9.71596E4,1.189518E4,1.2778565E5,1.6070597E5,1.7328138E5,2.0496397E5,4.2702375E6,8.851677E5,7.3079626E2,8.5336053E2,5.3341266E2,2.0881538E2,1.4548739E4,7.2863695E4,7.581564E4,5.7204184E4,5.2031684E4,7.69795E4,6.24745E4,1.3026113E4,8.371939E2,1.838956E4,4.958282E3,5.3981594E4,9.65897E4,1.4751216E4,2.2984156E4,4.91129E5,9.975621E6,6.166389E6,4.4070088E5,6.4497394E5,1.3993911E4,2.4718238E4],"tree_param":{"num_deleted":"0","num_feature":"8","num_nodes":"123","size_leaf_vector":"1"}},{"base_weights":[5.1981294E-1,-3.8538256E-1,7.756655E-1,-5.7085466E-1,2.7650028E-1,5.895794E-1,7.8290546E-1,-5.891333E-1,8.461721E-3,-4.3569043E-2,4.5288366E-1,6.482083E-1,3.4592628E-1,6.8749726E-1,7.845972E-1,-5.941857E-1,-2.9490632E-1,2.4667291E-1,-9.1384165E-2,-1.37514975E-2,-4.8041564E-1,5.0342137E-1,2.1463773E-1,3.1439394E-1,6.642686E-1,7.82471E-2,5.5618185E-1,7.507734E-1,2.9817697E-1,7.935198E-1,7.793255E-1,-6.188279E-1,-5.8198714E-1,2.122531E-1,-6.150381E-1,4.7714686E-1,1.6869424E-1,3.8057794E-3,-4.380743E-1,4.117911E-2,-3.0991614E-1,-3.2500824E-1,-5.9124726E-1,4.784784E-1,7.1385115E-1,5.5949265E-1,5.7343945E-2,4.5041714E-2,5.649433E-1,6.219421E-1,7.309238E-1,-4.994868E-1,1.3350603E-1,-4.6427432E-2,6.194524E-1,6.811109E-1,7.8227824E-1,2.3736316E-1,7.8824115E-1,7.8239495E-1,8.005563E-1,7.133739E-1,7.805779E-1,-8.0320865E-2,-1.861124E-1,-1.409073E-1,-1.8062396E-1,-1.8829808E-1,8.14125E-2,-1.8124123E-1,-1.8531418E-1,5.523022E-2,2.7338788E-1,3.7718877E-2,2.5209305E-1,-9.191517E-2,8.174841E-3,2.1085905E-2,-1.5277085E-1,3.817757E-2,-3.3616897E-2,1.741129E-1,-1.0692621E-1,-1.632797E-1,-7.9561934E-2,-1.9053455E-1,-1.7557065E-1,1.7818527E-1,1.3460082E-1,1.8567768E-1,2.327053E-1,1.4064205E-1,1.7945084E-1,5.62931E-2,-6.4203165E-2,1.7865458E-1,-9.08106E-2,2.036164E-1,-1.843499E-2,2.318926E-1,1.669911E-1,1.9589114E-1,2.2886382E-1,-1.707748E-1,5.343047E-2,-2.2963364E-2,8.085829E-2,-9.8686315E-2,3.1023034E-1,2.0338947E-1,1.4823525E-1,2.3552506E-1,1.5617952E-1,2.3834206E-1,1.7810068E-1,1.1889955E-1,1.2630781E-2,-6.560281E-2,2.3704018E-1,2.3589793E-1,2.1308795E-1,2.2862665E-1,2.4059047E-1,2.0806216E-1,2.2716948E-1,2.322105E-1,2.3522744E-1],"categories":[],"categories_nodes":[],"categories_segments":[],"categories_sizes":[],"default_left":[0,0,0,0,0,0,0,0,0,0,0,0,0,0,0,0,0,0,0,0,0,0,0,0,0,0,0,0,0,0,0,0,0,0,0,0,0,0,0,0,0,0,0,0,0,0,0,0,0,0,0,0,0,0,0,0,0,0,0,0,0,0,0,0,0,0,0,0,0,0,0,0,0,0,0,0,0,0,0,0,0,0,0,0,0,0,0,0,0,0,0,0,0,0,0,0,0,0,0,0,0,0,0,0,0,0,0,0,0,0,0,0,0,0,0,0,0,0,0,0,0,0,0,0,0,0,0],"id":8,"left_children":[1,3,5,7,9,11,13,15,17,19,21,23,25,27,29,31,33,35,37,39,41,43,45,47,49,51,53,55,57,59,61,63,65,67,69,71,73,75,77,79,81,83,85,87,89,91,93,95,97,99,101,103,105,107,109,111,113,115,117,119,121,123,125,-1,-1,-1,-1,-1,-1,-1,-1,-1,-1,-1,-1,-1,-1,-1,-1,-1,-1,-1,-1,-1,-1,-1,-1,-1,-1,-1,-1,-1,-1,-1,-1,-1,-1,-1,-1,-1,-1,-1,-1,-1,-1,-1,-1,-1,-1,-1,-1,-1,-1,-1,-1,-1,-1,-1,-1,-1,-1,-1,-1,-1,-1,-1,-1],"loss_changes":[9.940047E6,1.1610629E6,4.508E4,7.823E4,1.1687217E5,1.7900781E4,5.196E3,1.0646E4,5.37459E3,9.580545E3,1.60699375E4,5.415E3,1.3679113E4,1.3824531E4,1.488E3,2.116E3,1.963009E4,1.1993933E3,5.2548223E3,1.1201157E4,8.0926074E2,5.7790938E3,1.2669762E4,3.1291226E3,2.7184375E3,3.4136548E3,5.1901836E3,1.0589062E3,2.3381333E3,9.195E2,1.643E3,1.2659375E3,1.0626125E4,2.323476E3,1.7890625E0,2.1463687E3,1.438932E3,9.0849615E2,1.2409204E3,7.660959E3,4.4601895E3,2.5640234E2,6.8632812E0,3.3882344E3,6.8440234E2,2.5633984E2,5.6716875E3,4.2777905E3,1.7120874E3,5.8132344E3,9.3184375E2,4.413496E2,2.7883562E3,3.9492388E3,9.031133E2,2.5085469E3,7.640781E2,2.1665957E3,1.66792E1,1.2905E3,3.905E2,3.2195312E2,4.48E2,0E0,0E0,0E0,0E0,0E0,0E0,0E0,0E0,0E0,0E0,0E0,0E0,0E0,0E0,0E0,0E0,0E0,0E0,0E0,0E0,0E0,0E0,0E0,0E0,0E0,0E0,0E0,0E0,0E0,0E0,0E0,0E0,0E0,0E0,0E0,0E0,0E0,0E0,0E0,0E0,0E0,0E0,0E0,0E0,0E0,0E0,0E0,0E0,0E0,0E0,0E0,0E0,0E0,0E0,0E0,0E0,0E0,0E0,0E0,0E0,0E0,0E0,0E0,0E0],"parents":[2147483647,0,0,1,1,2,2,3,3,4,4,5,5,6,6,7,7,8,8,9,9,10,10,11,11,12,12,13,13,14,14,15,15,16,16,17,17,18,18,19,19,20,20,21,21,22,22,23,23,24,24,25,25,26,26,27,27,28,28,29,29,30,30,31,31,32,32,33,33,34,34,35,35,36,36,37,37,38,38,39,39,40,40,41,41,42,42,43,43,44,44,45,45,46,46,47,47,48,48,49,49,50,50,51,51,52,52,53,53,54,54,55,55,56,56,57,57,58,58,59,59,60,60,61,61,62,62],"right_children":[2,4,6,8,10,12,14,16,18,20,22,24,26,28,30,32,34,36,38,40,42,44,46,48,50,52,54,56,58,60,62,64,66,68,70,72,74,76,78,80,82,84,86,88,90,92,94,96,98,100,102,104,106,108,110,112,114,116,118,120,122,124,126,-1,-1,-1,-1,-1,-1,-1,-1,-1,-1,-1,-1,-1,-1,-1,-1,-1,-1,-1,-1,-1,-1,-1,-1,-1,-1,-1,-1,-1,-1,-1,-1,-1,-1,-1,-1,-1,-1,-1,-1,-1,-1,-1,-1,-1,-1,-1,-1,-1,-1,-1,-1,-1,-1,-1,-1,-1,-1,-1,-1,-1,-1,-1,-1],"split_conditions":[4.1E1,4.1E1,4E1,4.1E1,4.1E1,9.1849303E-1,4.1E1,3.0806067E0,-2.4456374E-2,2.128117E0,4E1,4.1E1,1.6784198E0,7.477893E-1,-3.8394246E-2,-2.2332277E0,4.3836555E0,-7.232253E-1,4E1,4E1,2.5803332E0,1.839508E0,-3.1060833E-1,-6.160552E-1,6.1006546E-1,4.1E1,4E1,-5.398865E-1,2.128117E0,-3.6293727E-1,-1.7593384E-1,-1.5621285E0,2.3038177E0,1.7430992E0,5.568161E0,-1.2554321E0,8.78573E0,-5.524292E-1,3.368044E-1,9.7759247E-1,-9.464708E-1,1.9974937E0,2.120625E0,-3.1799826E-1,2.3038177E0,-1.1329343E0,5.836667E-1,-1.5621285E0,5.518389E-1,-7.9182833E-1,6.988309E-1,1.907835E0,1.1653986E0,3.0806067E0,1.8800356E0,-2.2332277E0,4.927457E-1,1.3026519E0,1.839508E0,-2.203634E-1,-4.5469385E-1,2.4462982E-1,4.570923E-1,-8.0320865E-2,-1.861124E-1,-1.409073E-1,-1.8062396E-1,-1.8829808E-1,8.14125E-2,-1.8124123E-1,-1.8531418E-1,5.523022E-2,2.7338788E-1,3.7718877E-2,2.5209305E-1,-9.191517E-2,8.174841E-3,2.1085905E-2,-1.5277085E-1,3.817757E-2,-3.3616897E-2,1.741129E-1,-1.0692621E-1,-1.632797E-1,-7.9561934E-2,-1.9053455E-1,-1.7557065E-1,1.7818527E-1,1.3460082E-1,1.8567768E-1,2.327053E-1,1.4064205E-1,1.7945084E-1,5.62931E-2,-6.4203165E-2,1.7865458E-1,-9.08106E-2,2.036164E-1,-1.843499E-2,2.318926E-1,1.669911E-1,1.9589114E-1,2.2886382E-1,-1.707748E-1,5.343047E-2,-2.2963364E-2,8.085829E-2,-9.8686315E-2,3.1023034E-1,2.0338947E-1,1.4823525E-1,2.3552506E-1,1.5617952E-1,2.3834206E-1,1.7810068E-1,1.1889955E-1,1.2630781E-2,-6.560281E-2,2.3704018E-1,2.3589793E-1,2.1308795E-1,2.2862665E-1,2.4059047E-1,2.0806216E-1,2.2716948E-1,2.322105E-1,2.3522744E-1],"split_indices":[3,6,2,2,2,1,6,1,1,1,7,6,1,1,1,0,0,1,7,7,1,0,1,1,0,6,6,1,1,0,0,1,0,0,0,0,0,0,1,0,1,0,0,1,0,0,1,1,0,1,1,0,1,1,1,0,1,1,0,1,1,1,0,0,0,0,0,0,0,0,0,0,0,0,0,0,0,0,0,0,0,0,0,0,0,0,0,0,0,0,0,0,0,0,0,0,0,0,0,0,0,0,0,0,0,0,0,0,0,0,0,0,0,0,0,0,0,0,0,0,0,0,0,0,0,0,0],"split_type":[0,0,0,0,0,0,0,0,0,0,0,0,0,0,0,0,0,0,0,0,0,0,0,0,0,0,0,0,0,0,0,0,0,0,0,0,0,0,0,0,0,0,0,0,0,0,0,0,0,0,0,0,0,0,0,0,0,0,0,0,0,0,0,0,0,0,0,0,0,0,0,0,0,0,0,0,0,0,0,0,0,0,0,0,0,0,0,0,0,0,0,0,0,0,0,0,0,0,0,0,0,0,0,0,0,0,0,0,0,0,0,0,0,0,0,0,0,0,0,0,0,0,0,0,0,0,0],"sum_hessian":[4.2919668E7,9.457925E6,3.3461742E7,7.3877405E6,2.0701846E6,1.2531228E6,3.220862E7,7.1617715E6,2.259692E5,7.3551075E5,1.3346739E6,1.01007294E6,2.4304986E5,5.6119006E5,3.164743E7,7.040867E6,1.2090451E5,6.6740055E4,1.5922914E5,6.885162E5,4.699456E4,1.1011024E6,2.3357145E5,4.6366336E4,9.6370656E5,1.0692437E5,1.361255E5,4.8273097E5,7.845909E4,1.1753737E7,1.9893692E7,2.3313298E6,4.7095375E6,4.6785805E4,7.41187E4,1.6870992E4,4.9869062E4,1.2492873E5,3.4300414E4,5.807951E5,1.0772107E5,1.9564814E4,2.7429742E4,9.8441906E5,1.1668339E5,7.316346E4,1.60408E5,2.2345291E4,2.4021047E4,5.894267E5,3.742799E5,9.333569E3,9.75908E4,1.29344E4,1.231911E5,1.5033598E5,3.3239497E5,6.979898E4,8.660119E3,4.5539505E6,7.199786E6,3.7073334E5,1.952296E7,1.0227174E4,2.3211025E6,7.1477225E5,3.994765E6,3.0760728E3,4.370973E4,1.465298E4,5.9465727E4,1.0073119E4,6.797874E3,4.6871766E4,2.9972964E3,8.777622E3,1.161511E5,4.2118857E3,3.0088531E4,3.7188834E5,2.0890675E5,5.346931E3,1.0237414E5,4.190963E3,1.5373853E4,3.2933723E3,2.413637E4,2.0198027E5,7.8243875E5,4.602986E4,7.065353E4,2.187833E4,5.128513E4,1.0837062E5,5.203738E4,8.650676E3,1.3694615E4,2.0328498E4,3.6925488E3,1.7792448E5,4.115022E5,1.0882675E5,2.6545316E5,8.462459E3,8.7111035E2,3.835765E4,5.923315E4,1.0253978E4,2.6804226E3,8.39805E4,3.9210598E4,9.123459E4,5.91014E4,3.122049E5,2.019007E4,3.847448E4,3.1324492E4,1.6033215E1,8.644086E3,4.3184695E6,2.3548097E5,2.5493053E5,6.9448555E6,2.5529864E5,1.1543473E5,6.821052E6,1.2701907E7],"tree_param":{"num_deleted":"0","num_feature":"8","num_nodes":"127","size_leaf_vector":"1"}},{"base_weights":[-1.1371578E-1,5.76513E-1,-4.838789E-1,6.605175E-1,1.0539163E-1,-6.6819556E-2,-5.160881E-1,6.687084E-1,2.825496E-1,3.1523538E-1,-7.3724195E-2,1.68816E-1,-1.8190427E-1,-1.6645132E-1,-5.2588415E-1,6.3542134E-1,6.904989E-1,2.9012555E-1,-5.0114775E-1,2.2561233E-1,4.3118253E-1,-4.5070536E-2,-3.8028553E-1,3.296301E-1,5.1905584E-2,-2.641652E-1,7.4534975E-2,1.3515534E-1,-2.0661919E-1,-3.1086177E-1,-5.2960885E-1,6.4053965E-1,6.2863044E-2,6.994015E-1,6.728065E-1,-8.695541E-2,3.0489472E-1,2.3978789E-1,-5.472591E-1,1.876011E-1,6.178354E-1,3.8771442E-1,6.185958E-1,-3.4893546E-1,-3.024662E-2,-2.7003187E-1,-5.451815E-1,1.5252407E-1,5.08955E-1,-1.0028691E-2,4.8332685E-1,-2.1565191E-1,-3.9906818E-1,2.2626853E-1,-1.5261109E-1,1.6925475E-1,-2.1507204E-1,-1.1847552E-1,-3.2023624E-1,-4.5416576E-1,6.1181013E-2,-5.497372E-1,-5.1796937E-1,1.978771E-1,1.667737E-1,1.52904E-1,-4.861018E-2,2.1024276E-1,1.9178636E-1,1.650143E-1,2.0552725E-1,2.689077E-1,-9.179949E-2,7.810862E-2,1.1914178E-1,-1.7098522E-1,3.004697E-2,1.2619776E-1,2.8881134E-2,2.1774806E-1,1.5473899E-1,1.6828437E-1,1.0454167E-1,1.582996E-1,2.0516185E-1,-1.1244713E-1,4.7027415E-1,-1.0076307E-2,2.9863775E-1,-9.607307E-2,2.500904E-3,8.625747E-2,-1.6842741E-1,8.333713E-2,1.2933775E-2,1.7916629E-1,1.1041769E-1,-2.4572374E-2,7.008391E-2,-5.9769887E-2,1.6291192E-1,-1.1950151E-1,-4.8270892E-2,-3.68685E-2,-1.2894E-1,2.0462994E-1,5.2756265E-2,9.32033E-2,-7.1319036E-2,8.2469165E-2,1.7725093E-2,-2.6834061E-2,-1.3924119E-1,1.3556895E-2,-4.2936735E-2,-8.748774E-2,-1.5322182E-1,-9.6027754E-2,-1.5461557E-1,3.0168494E-2,-1.6048227E-1,-1.568307E-1,-1.6936147E-1,-1.3113138E-1,-1.5637957E-1],"categories":[],"categories_nodes":[],"categories_segments":[],"categories_sizes":[],"default_left":[0,0,0,0,0,0,0,0,0,0,0,0,0,0,0,0,0,0,0,0,0,0,0,0,0,0,0,0,0,0,0,0,0,0,0,0,0,0,0,0,0,0,0,0,0,0,0,0,0,0,0,0,0,0,0,0,0,0,0,0,0,0,0,0,0,0,0,0,0,0,0,0,0,0,0,0,0,0,0,0,0,0,0,0,0,0,0,0,0,0,0,0,0,0,0,0,0,0,0,0,0,0,0,0,0,0,0,0,0,0,0,0,0,0,0,0,0,0,0,0,0,0,0,0,0],"id":9,"left_children":[1,3,5,7,9,11,13,15,17,19,21,23,25,27,29,31,33,35,37,39,41,43,45,47,49,51,53,55,57,59,61,63,65,67,69,71,73,-1,75,77,79,81,83,85,87,89,91,93,95,97,99,101,103,105,107,109,111,113,115,117,119,121,123,-1,-1,-1,-1,-1,-1,-1,-1,-1,-1,-1,-1,-1,-1,-1,-1,-1,-1,-1,-1,-1,-1,-1,-1,-1,-1,-1,-1,-1,-1,-1,-1,-1,-1,-1,-1,-1,-1,-1,-1,-1,-1,-1,-1,-1,-1,-1,-1,-1,-1,-1,-1,-1,-1,-1,-1,-1,-1,-1,-1,-1,-1],"loss_changes":[7.585916E6,4.10189E5,2.596135E5,2.72315E4,5.8950875E4,3.7573516E4,6.14475E4,6.2445E3,1.1079014E3,7.5052344E3,7.4327334E3,8.547851E3,1.9637293E4,5.923711E3,1.3977E4,9.982125E3,8.1925E2,1.0291631E3,1.0757855E2,6.0733516E3,2.5649453E3,3.485691E3,1.3148096E3,6.078371E3,7.034369E3,4.6126055E3,7.792406E3,6.863347E2,4.321201E3,1.5843426E4,4.019E3,5.442625E3,3.0328784E3,2.925E2,2.62625E3,1.5006095E3,7.303906E2,0E0,2.5415527E1,7.9049697E3,3.9622266E2,1.7374023E3,3.5151367E2,1.7864897E3,2.5285688E3,6.058921E2,3.921543E2,1.3197268E3,1.1824609E3,4.0317417E3,1.3471211E3,5.184836E3,1.5821484E3,3.114795E3,3.5707004E3,6.094874E2,1.595058E2,9.8017944E2,1.0272852E3,1.7606836E3,1.9399489E3,2.508625E3,2.897E3,0E0,0E0,0E0,0E0,0E0,0E0,0E0,0E0,0E0,0E0,0E0,0E0,0E0,0E0,0E0,0E0,0E0,0E0,0E0,0E0,0E0,0E0,0E0,0E0,0E0,0E0,0E0,0E0,0E0,0E0,0E0,0E0,0E0,0E0,0E0,0E0,0E0,0E0,0E0,0E0,0E0,0E0,0E0,0E0,0E0,0E0,0E0,0E0,0E0,0E0,0E0,0E0,0E0,0E0,0E0,0E0,0E0,0E0,0E0,0E0,0E0,0E0],"parents":[2147483647,0,0,1,1,2,2,3,3,4,4,5,5,6,6,7,7,8,8,9,9,10,10,11,11,12,12,13,13,14,14,15,15,16,16,17,17,18,18,19,19,20,20,21,21,22,22,23,23,24,24,25,25,26,26,27,27,28,28,29,29,30,30,31,31,32,32,33,33,34,34,35,35,36,36,38,38,39,39,40,40,41,41,42,42,43,43,44,44,45,45,46,46,47,47,48,48,49,49,50,50,51,51,52,52,53,53,54,54,55,55,56,56,57,57,58,58,59,59,60,60,61,61,62,62],"right_children":[2,4,6,8,10,12,14,16,18,20,22,24,26,28,30,32,34,36,38,40,42,44,46,48,50,52,54,56,58,60,62,64,66,68,70,72,74,-1,76,78,80,82,84,86,88,90,92,94,96,98,100,102,104,106,108,110,112,114,116,118,120,122,124,-1,-1,-1,-1,-1,-1,-1,-1,-1,-1,-1,-1,-1,-1,-1,-1,-1,-1,-1,-1,-1,-1,-1,-1,-1,-1,-1,-1,-1,-1,-1,-1,-1,-1,-1,-1,-1,-1,-1,-1,-1,-1,-1,-1,-1,-1,-1,-1,-1,-1,-1,-1,-1,-1,-1,-1,-1,-1,-1,-1,-1,-1],"split_conditions":[4E1,4.1E1,4E1,4.1E1,4.1E1,4E1,4E1,3.534027E0,3.534027E0,9.0346146E-1,1.839508E0,1.3407189E-1,9.0346146E-1,4E1,4E1,3.0806067E0,6.9234116E1,-7.232253E-1,-2.8316885E-1,1.0323486E0,2.128117E0,-7.9182833E-1,2.5803332E0,-1.1329343E0,8.69751E-3,6.988309E-1,1.720311E0,1.4809582E0,4E1,4.927457E-1,-3.8394246E-2,-1.5649719E0,2.9522972E0,3.0806067E0,7.804912E1,-1.3954926E0,1.3237584E0,2.3978789E-1,-1.604134E-1,-2.770192E-1,5.007947E-1,1.1119522E0,2.5803332E0,-5.2121353E-1,2.128117E0,2.128117E0,1.9974937E0,4E1,-1.4112575E-1,4.1E1,5.6250757E-1,-7.9182833E-1,5.868292E-1,4E1,4E1,-1.8150063E0,-1.4897537E-1,-1.2554321E0,4E1,-1.0347681E0,2.128117E0,-3.939743E-1,-1.2088966E-1,1.978771E-1,1.667737E-1,1.52904E-1,-4.861018E-2,2.1024276E-1,1.9178636E-1,1.650143E-1,2.0552725E-1,2.689077E-1,-9.179949E-2,7.810862E-2,1.1914178E-1,-1.7098522E-1,3.004697E-2,1.2619776E-1,2.8881134E-2,2.1774806E-1,1.5473899E-1,1.6828437E-1,1.0454167E-1,1.582996E-1,2.0516185E-1,-1.1244713E-1,4.7027415E-1,-1.0076307E-2,2.9863775E-1,-9.607307E-2,2.500904E-3,8.625747E-2,-1.6842741E-1,8.333713E-2,1.2933775E-2,1.7916629E-1,1.1041769E-1,-2.4572374E-2,7.008391E-2,-5.9769887E-2,1.6291192E-1,-1.1950151E-1,-4.8270892E-2,-3.68685E-2,-1.2894E-1,2.0462994E-1,5.2756265E-2,9.32033E-2,-7.1319036E-2,8.2469165E-2,1.7725093E-2,-2.6834061E-2,-1.3924119E-1,1.3556895E-2,-4.2936735E-2,-8.748774E-2,-1.5322182E-1,-9.6027754E-2,-1.5461557E-1,3.0168494E-2,-1.6048227E-1,-1.568307E-1,-1.6936147E-1,-1.3113138E-1,-1.5637957E-1],"split_indices":[7,6,2,2,2,3,3,0,0,1,0,1,1,6,6,1,0,1,1,0,1,1,1,0,0,1,1,1,4,1,1,0,0,1,0,0,1,0,1,1,1,1,1,0,1,1,0,6,1,6,1,1,0,6,6,0,0,0,5,0,1,0,0,0,0,0,0,0,0,0,0,0,0,0,0,0,0,0,0,0,0,0,0,0,0,0,0,0,0,0,0,0,0,0,0,0,0,0,0,0,0,0,0,0,0,0,0,0,0,0,0,0,0,0,0,0,0,0,0,0,0,0,0,0,0],"split_type":[0,0,0,0,0,0,0,0,0,0,0,0,0,0,0,0,0,0,0,0,0,0,0,0,0,0,0,0,0,0,0,0,0,0,0,0,0,0,0,0,0,0,0,0,0,0,0,0,0,0,0,0,0,0,0,0,0,0,0,0,0,0,0,0,0,0,0,0,0,0,0,0,0,0,0,0,0,0,0,0,0,0,0,0,0,0,0,0,0,0,0,0,0,0,0,0,0,0,0,0,0,0,0,0,0,0,0,0,0,0,0,0,0,0,0,0,0,0,0,0,0,0,0,0,0],"sum_hessian":[2.9690788E7,1.0364503E7,1.9326286E7,8.796092E6,1.5684109E6,1.3855516E6,1.7940734E7,8.609516E6,1.865763E5,7.222526E5,8.461582E5,4.5465225E5,9.308993E5,4.889577E5,1.7451776E7,3.406221E6,5.203295E6,1.8479056E5,1.7857247E3,4.0737172E5,3.148809E5,7.7383094E5,7.232724E4,1.9138881E5,2.6326344E5,7.0480956E5,2.2608975E5,5.746565E4,4.3149203E5,2.9716366E5,1.7154612E7,3.3760412E6,3.017974E4,3.4614775E6,1.7418175E6,6.964732E3,1.7782583E5,6.0591026E1,1.7251337E3,3.7138178E5,3.5989953E4,2.5560064E5,5.928027E4,3.599396E4,7.37837E5,4.3346984E4,2.8980258E4,9.6291055E4,9.5097766E4,2.3021505E5,3.3048395E4,5.1839062E5,1.8641894E5,1.3554542E5,9.054433E4,5.2367477E4,5.098173E3,2.4298627E5,1.8850577E5,2.1453033E5,8.263333E4,6.285307E6,1.0869306E7,2.7556925E6,6.203486E5,1.0104075E4,2.0075666E4,3.3822645E6,7.921307E4,1.584497E5,1.5833679E6,1.2682566E3,5.6964756E3,1.1993093E5,5.7894902E4,1.6668317E3,5.8302067E1,1.045604E5,2.6682138E5,1.7481998E4,1.8507955E4,4.720452E4,2.0839612E5,2.477624E4,3.4504027E4,3.5515027E4,4.7893265E2,7.354424E5,2.3946147E3,3.6722824E4,6.624162E3,5.5416614E2,2.8426092E4,4.4892094E4,5.139896E4,5.846713E4,3.6630633E4,1.7776998E5,5.2445066E4,2.6584233E3,3.0389973E4,1.19531484E5,3.9885916E5,1.866748E4,1.6775145E5,1.3497008E4,1.2204841E5,1.4053083E4,7.649124E4,2.6732414E4,2.5635062E4,3.3897747E3,1.7083981E3,3.1802758E4,2.1118352E5,1.638941E5,2.4611668E4,6.725192E4,1.472784E5,7.7513516E4,5.1198174E3,2.2272235E6,4.0580835E6,4.2566734E5,1.0443638E7],"tree_param":{"num_deleted":"0","num_feature":"8","num_nodes":"125","size_leaf_vector":"1"}},{"base_weights":[-5.3203654E-1,-2.590052E-1,-5.7129925E-1,-5.093406E-1,9.740714E-2,-5.2722335E-1,-5.839012E-1,-5.190538E-1,-1.0008364E-2,3.9623386E-1,-5.8524066E-1,-5.840284E-1,8.9238666E-2,-5.912624E-1,-5.8364207E-1,-5.7837015E-1,-5.0330013E-1,1.8320607E-1,-2.9004335E-1,-6.6738366E-3,5.046151E-1,-5.929583E-1,-5.8330095E-1,-5.84129E-1,-3.609162E-1,-1.21247955E-1,3.0165908E-1,-6.0599965E-1,-5.8939195E-1,-5.894863E-1,-5.8355826E-1,-1.7556824E-1,-5.581118E-1,-4.747845E-1,-5.3401065E-1,-5.4376274E-1,3.9484185E-1,-3.2790163E-1,9.306145E-3,2.8533173E-1,-3.603155E-1,2.6902223E-1,5.5562425E-1,-1.7512521E-1,-6.0928816E-1,-5.8512646E-1,-5.826095E-1,-5.703757E-1,-5.85189E-1,8.8248104E-2,-3.858153E-1,-3.1794056E-1,1.8360745E-3,5.268331E-1,-4.3716166E-2,-6.477835E-1,-6.023402E-1,-5.874453E-1,-5.961802E-1,-5.8619994E-1,-6.0592324E-1,-5.833539E-1,-1.7544463E-1,-1.738435E-1,-1.6622332E-1,-1.4331321E-1,4.999336E-1,-1.630175E-1,-1.24521695E-1,-1.7915605E-1,-1.0565908E-1,7.712397E-2,2.6006293E-1,-5.794588E-2,-1.1433346E-1,-8.2086995E-2,1.8089923E-1,-1.6122334E-1,1.2627168E-1,-4.042547E-2,-1.4353685E-1,6.2355775E-2,1.5506497E-1,1.531193E-1,1.9834214E-1,-1.8798904E-1,-1.770236E-1,-1.7496443E-1,-1.7994276E-1,-1.7532043E-1,-1.7435434E-1,-1.75979E-1,-1.6538319E-1,-1.752328E-1,-1.7704408E-1,9.242174E-2,-1.4739926E-1,-1.3473839E-1,-6.390478E-2,-7.591771E-2,-1.625911E-1,6.784558E-2,-9.097822E-2,1.7860207E-1,1.18006855E-1,-4.5046825E-2,1.0640945E-1,-1.8652391E-1,-2.0139396E-1,-1.7543738E-1,-1.8238902E-1,-1.7651899E-1,-1.5880027E-1,-1.8385018E-1,-1.780369E-1,-1.7562889E-1,-1.7818545E-1,3.1710103E-1,-1.818001E-1,-1.7511164E-1,-1.7392105E-1],"categories":[],"categories_nodes":[],"categories_segments":[],"categories_sizes":[],"default_left":[0,0,0,0,0,0,0,0,0,0,0,0,0,0,0,0,0,0,0,0,0,0,0,0,0,0,0,0,0,0,0,0,0,0,0,0,0,0,0,0,0,0,0,0,0,0,0,0,0,0,0,0,0,0,0,0,0,0,0,0,0,0,0,0,0,0,0,0,0,0,0,0,0,0,0,0,0,0,0,0,0,0,0,0,0,0,0,0,0,0,0,0,0,0,0,0,0,0,0,0,0,0,0,0,0,0,0,0,0,0,0,0,0,0,0,0,0,0,0,0,0],"id":10,"left_children":[1,3,5,7,9,11,13,15,17,19,21,23,25,27,29,31,33,35,37,39,41,43,45,47,49,51,53,55,57,59,61,-1,63,65,67,69,71,73,75,77,79,81,83,-1,85,87,89,91,93,95,97,99,101,103,105,107,109,111,113,115,117,119,-1,-1,-1,-1,-1,-1,-1,-1,-1,-1,-1,-1,-1,-1,-1,-1,-1,-1,-1,-1,-1,-1,-1,-1,-1,-1,-1,-1,-1,-1,-1,-1,-1,-1,-1,-1,-1,-1,-1,-1,-1,-1,-1,-1,-1,-1,-1,-1,-1,-1,-1,-1,-1,-1,-1,-1,-1,-1,-1],"loss_changes":[2.6982E5,2.8234025E5,1.22225E4,9.015656E3,2.6633522E5,1.7133625E5,3.3E1,1.7035625E3,1.9192258E3,3.965428E4,5.609375E0,1.00375E2,1.8457719E4,1.5703125E1,8E0,5.28125E1,1.2614062E3,3.2294668E3,1.6412341E2,1.9878195E4,8.599469E3,1.1642578E1,6.25E-2,6.5E1,2.2631348E1,5.019947E3,1.5978896E4,9.625E0,6.484375E0,1.22734375E1,4.5E0,0E0,8.0234375E0,4.681703E3,7.737344E2,4.822876E1,1.0569565E3,9.210327E1,2.7343054E2,1.17608545E4,2.3199316E3,1.930918E3,2.8068125E3,0E0,9.204102E0,2.0898438E0,2.5E-1,9.8953125E1,2.1875E1,1.3775888E1,2.085083E1,1.1599517E3,8.728811E3,1.1370703E3,3.4388477E3,2.8061523E0,5.5859375E0,2.1875E1,4.8554688E0,8.203125E-1,5.6259766E0,1.75E1,0E0,0E0,0E0,0E0,0E0,0E0,0E0,0E0,0E0,0E0,0E0,0E0,0E0,0E0,0E0,0E0,0E0,0E0,0E0,0E0,0E0,0E0,0E0,0E0,0E0,0E0,0E0,0E0,0E0,0E0,0E0,0E0,0E0,0E0,0E0,0E0,0E0,0E0,0E0,0E0,0E0,0E0,0E0,0E0,0E0,0E0,0E0,0E0,0E0,0E0,0E0,0E0,0E0,0E0,0E0,0E0,0E0,0E0,0E0],"parents":[2147483647,0,0,1,1,2,2,3,3,4,4,5,5,6,6,7,7,8,8,9,9,10,10,11,11,12,12,13,13,14,14,15,15,16,16,17,17,18,18,19,19,20,20,21,21,22,22,23,23,24,24,25,25,26,26,27,27,28,28,29,29,30,30,32,32,33,33,34,34,35,35,36,36,37,37,38,38,39,39,40,40,41,41,42,42,44,44,45,45,46,46,47,47,48,48,49,49,50,50,51,51,52,52,53,53,54,54,55,55,56,56,57,57,58,58,59,59,60,60,61,61],"right_children":[2,4,6,8,10,12,14,16,18,20,22,24,26,28,30,32,34,36,38,40,42,44,46,48,50,52,54,56,58,60,62,-1,64,66,68,70,72,74,76,78,80,82,84,-1,86,88,90,92,94,96,98,100,102,104,106,108,110,112,114,116,118,120,-1,-1,-1,-1,-1,-1,-1,-1,-1,-1,-1,-1,-1,-1,-1,-1,-1,-1,-1,-1,-1,-1,-1,-1,-1,-1,-1,-1,-1,-1,-1,-1,-1,-1,-1,-1,-1,-1,-1,-1,-1,-1,-1,-1,-1,-1,-1,-1,-1,-1,-1,-1,-1,-1,-1,-1,-1,-1,-1],"split_conditions":[-9.0265656E-1,4E1,4.1E1,4E1,4.1E1,4E1,4.1E1,-4.572505E1,-5.870034E0,-1.4112575E-1,4.1E1,4E1,5.007947E-1,-5.2450246E-1,4.1E1,-5.4892433E1,-1.0476173E1,-3.771296E1,4E1,-1.8150063E0,4E1,-2.2332277E0,4E1,-2.3229027E-1,3.729928E-1,1.10221714E-1,-5.381775E-2,4.1E1,1.1391773E0,9.587607E-1,1.192215E0,-1.7556824E-1,-2.7011076E-1,4E1,4E1,-4.572505E1,4E1,-3.149063E0,6.545327E-1,-1.311039E0,-1.2554321E0,4E1,4E1,-1.7512521E-1,-7.9182833E-1,-7.9182833E-1,-9.464708E-1,-1.7744645E-1,4.1E1,4.1E1,4E1,-5.0650406E-1,-3.0930328E-1,4.1E1,1.2742057E0,4E1,-7.9182833E-1,1.229688E0,4.1E1,5.007947E-1,-4.5246887E-1,9.0346146E-1,-1.7544463E-1,-1.738435E-1,-1.6622332E-1,-1.4331321E-1,4.999336E-1,-1.630175E-1,-1.24521695E-1,-1.7915605E-1,-1.0565908E-1,7.712397E-2,2.6006293E-1,-5.794588E-2,-1.1433346E-1,-8.2086995E-2,1.8089923E-1,-1.6122334E-1,1.2627168E-1,-4.042547E-2,-1.4353685E-1,6.2355775E-2,1.5506497E-1,1.531193E-1,1.9834214E-1,-1.8798904E-1,-1.770236E-1,-1.7496443E-1,-1.7994276E-1,-1.7532043E-1,-1.7435434E-1,-1.75979E-1,-1.6538319E-1,-1.752328E-1,-1.7704408E-1,9.242174E-2,-1.4739926E-1,-1.3473839E-1,-6.390478E-2,-7.591771E-2,-1.625911E-1,6.784558E-2,-9.097822E-2,1.7860207E-1,1.18006855E-1,-4.5046825E-2,1.0640945E-1,-1.8652391E-1,-2.0139396E-1,-1.7543738E-1,-1.8238902E-1,-1.7651899E-1,-1.5880027E-1,-1.8385018E-1,-1.780369E-1,-1.7562889E-1,-1.7818545E-1,3.1710103E-1,-1.818001E-1,-1.7511164E-1,-1.7392105E-1],"split_indices":[0,7,3,3,3,7,2,0,0,1,6,3,1,1,6,0,0,0,2,0,6,0,2,0,1,1,0,6,0,1,0,0,1,4,4,0,5,0,1,1,0,5,3,0,1,1,1,1,6,6,2,0,0,6,1,6,1,1,6,1,0,1,0,0,0,0,0,0,0,0,0,0,0,0,0,0,0,0,0,0,0,0,0,0,0,0,0,0,0,0,0,0,0,0,0,0,0,0,0,0,0,0,0,0,0,0,0,0,0,0,0,0,0,0,0,0,0,0,0,0,0],"split_type":[0,0,0,0,0,0,0,0,0,0,0,0,0,0,0,0,0,0,0,0,0,0,0,0,0,0,0,0,0,0,0,0,0,0,0,0,0,0,0,0,0,0,0,0,0,0,0,0,0,0,0,0,0,0,0,0,0,0,0,0,0,0,0,0,0,0,0,0,0,0,0,0,0,0,0,0,0,0,0,0,0,0,0,0,0,0,0,0,0,0,0,0,0,0,0,0,0,0,0,0,0,0,0,0,0,0,0,0,0,0,0,0,0,0,0,0,0,0,0,0,0],"sum_hessian":[2.5169862E7,3.1644458E6,2.2005416E7,1.8588408E6,1.305605E6,4.8927805E6,1.7112636E7,1.8233716E6,3.5469082E4,9.080915E5,3.975135E5,4.479966E6,4.1281494E5,5.8192556E5,1.653071E7,3.8263194E5,1.4407398E6,2.0988258E4,1.4480823E4,1.9249433E5,7.155971E5,7.977968E4,3.177338E5,4.477946E6,2.0195421E3,2.0735152E5,2.0546344E5,6.550266E4,5.164229E5,2.3367862E5,1.6297032E7,2.8584762E5,9.678433E4,7.470742E5,6.9366556E5,4.7320605E3,1.6256196E4,1.2854979E4,1.6258447E3,1.05435414E5,8.7058914E4,1.2736222E5,5.8823494E5,5.1038332E4,2.8741344E4,8.705606E4,2.3067777E5,3.20475E5,4.1574712E6,1.0593821E2,1.9136039E3,7.981029E4,1.2754123E5,1.2437454E5,8.10889E4,5.260614E3,6.0242047E4,4.0140275E5,1.1502015E5,1.9477292E5,3.8905695E4,1.4018436E7,2.2785955E6,1.5348645E4,8.143568E4,7.460554E5,1.0187823E3,6.429507E5,5.0714844E4,3.6985022E3,1.0335585E3,1.258488E4,3.6713167E3,3.640472E3,9.214506E3,1.1014683E3,5.2437646E2,1.4915614E4,9.0519805E4,2.992526E4,5.7133652E4,1.0215356E5,2.5208656E4,4.1175397E5,1.7648097E5,1.5088273E4,1.3653071E4,7.706325E4,9.992812E3,1.02134875E5,1.2854289E5,1.7327555E5,1.4719944E5,3.4141128E6,7.433584E5,7.714637E1,2.8791838E1,1.3993073E3,5.142967E2,6.1888742E4,1.7921545E4,7.350126E4,5.4039965E4,8.218803E4,4.2186504E4,6.3993176E4,1.709572E4,2.5102644E3,2.7503494E3,1.4644423E4,4.5597625E4,3.9492866E5,6.474087E3,1.6136614E4,9.888353E4,1.7723652E5,1.7536402E4,1.1670332E0,3.8904527E4,1.277653E7,1.2419065E6],"tree_param":{"num_deleted":"0","num_feature":"8","num_nodes":"121","size_leaf_vector":"1"}},{"base_weights":[4.4786736E-1,-3.4010592E-1,6.6326076E-1,-5.280399E-1,2.1958646E-1,4.7669074E-1,6.709989E-1,-5.488711E-1,2.0288752E-2,-1.9023394E-2,3.501531E-1,5.26662E-1,2.8180453E-1,5.704188E-1,6.7284214E-1,-5.5447716E-1,-2.4782643E-1,1.8593296E-1,-6.3659705E-2,4.4224956E-3,-4.1624686E-1,3.90934E-1,1.6141944E-1,2.4635595E-1,5.409312E-1,8.9568764E-2,4.4791165E-1,6.333371E-1,2.2112234E-1,6.834459E-1,6.666171E-1,-5.8491117E-1,-5.394682E-1,1.7148519E-1,-5.803702E-1,6.464588E-1,1.5448803E-1,2.0205006E-2,-4.1608155E-1,4.959891E-2,-2.5833917E-1,-2.5594294E-1,-5.4207724E-1,3.6736578E-1,5.921915E-1,4.430909E-1,3.800001E-2,3.942391E-2,4.970014E-1,6.8906313E-1,5.168778E-1,1.4294349E-1,-4.236834E-1,-2.3217209E-2,4.9773422E-1,5.6002456E-1,6.672882E-1,1.4043267E-1,5.0731707E-1,6.6993093E-1,6.915686E-1,5.987488E-1,6.6824263E-1,-7.0113115E-2,-1.7602135E-1,-1.2309778E-1,-1.6921787E-1,-1.7839915E-1,6.463479E-2,-1.6991627E-1,-1.7514294E-1,2.1424915E-1,-2.1799773E-1,-4.4716645E-2,7.424131E-2,2.7578162E-2,-2.42685E-2,-5.6840483E-2,-1.5898068E-1,3.5429284E-2,-2.0084567E-2,1.5447813E-1,-9.0822E-2,-1.4512657E-1,-5.890741E-2,-1.7145623E-1,-1.5900141E-1,1.2260769E-1,8.783822E-2,1.5244508E-1,1.993159E-1,1.4046198E-1,9.163022E-2,3.976562E-2,-5.3231146E-2,7.5769E-2,-2.2070211E-1,1.842134E-1,-1.5649207E-2,2.0779149E-1,-7.4301274E-3,1.00496896E-1,1.6592085E-1,-5.1804185E-3,8.0366865E-2,-1.4860524E-1,2.8767435E-2,-1.3451573E-1,1.836251E-1,1.7231339E-1,1.1734273E-1,2.0244478E-1,1.16879635E-1,2.043113E-1,1.4482012E-1,9.206636E-2,-4.454825E-2,2.8451762E-1,1.0774314E-1,2.0229466E-1,1.7318411E-1,1.9498403E-1,2.0796047E-1,1.7437716E-1,1.9198911E-1,1.984338E-1,2.0155561E-1],"categories":[],"categories_nodes":[],"categories_segments":[],"categories_sizes":[],"default_left":[0,0,0,0,0,0,0,0,0,0,0,0,0,0,0,0,0,0,0,0,0,0,0,0,0,0,0,0,0,0,0,0,0,0,0,0,0,0,0,0,0,0,0,0,0,0,0,0,0,0,0,0,0,0,0,0,0,0,0,0,0,0,0,0,0,0,0,0,0,0,0,0,0,0,0,0,0,0,0,0,0,0,0,0,0,0,0,0,0,0,0,0,0,0,0,0,0,0,0,0,0,0,0,0,0,0,0,0,0,0,0,0,0,0,0,0,0,0,0,0,0,0,0,0,0,0,0],"id":11,"left_children":[1,3,5,7,9,11,13,15,17,19,21,23,25,27,29,31,33,35,37,39,41,43,45,47,49,51,53,55,57,59,61,63,65,67,69,71,73,75,77,79,81,83,85,87,89,91,93,95,97,99,101,103,105,107,109,111,113,115,117,119,121,123,125,-1,-1,-1,-1,-1,-1,-1,-1,-1,-1,-1,-1,-1,-1,-1,-1,-1,-1,-1,-1,-1,-1,-1,-1,-1,-1,-1,-1,-1,-1,-1,-1,-1,-1,-1,-1,-1,-1,-1,-1,-1,-1,-1,-1,-1,-1,-1,-1,-1,-1,-1,-1,-1,-1,-1,-1,-1,-1,-1,-1,-1,-1,-1,-1],"loss_changes":[6.3542655E6,8.45374E5,4.2448E4,6.8724875E4,6.2941297E4,1.1402875E4,5.235E3,9.7825E3,3.062188E3,6.6545E3,1.0050156E4,3.7273594E3,7.6304316E3,1.1165766E4,1.83E3,2.599E3,1.4776709E4,1.072477E3,4.319473E3,8.009084E3,8.03146E2,5.092953E3,8.065744E3,2.341481E3,3.1593438E3,3.0345789E3,3.0090625E3,1.0711875E3,1.7908018E3,1.1255E3,1.927E3,1.2055625E3,1.2102875E4,1.5789105E3,2.5117188E0,4.4060205E2,1.9569476E3,8.560338E2,7.2471875E2,4.5961426E3,3.3985815E3,2.3765247E2,7.626953E0,2.9621094E3,6.8260156E2,2.4425293E2,3.2862986E3,4.0856477E3,1.3122842E3,3.1616406E2,5.021953E3,2.0085266E3,3.8859302E2,3.312097E3,9.4689844E2,2.6657266E3,7.463281E2,2.909508E3,1.1143296E3,1.563625E3,4.35E2,2.9420312E2,4.18E2,0E0,0E0,0E0,0E0,0E0,0E0,0E0,0E0,0E0,0E0,0E0,0E0,0E0,0E0,0E0,0E0,0E0,0E0,0E0,0E0,0E0,0E0,0E0,0E0,0E0,0E0,0E0,0E0,0E0,0E0,0E0,0E0,0E0,0E0,0E0,0E0,0E0,0E0,0E0,0E0,0E0,0E0,0E0,0E0,0E0,0E0,0E0,0E0,0E0,0E0,0E0,0E0,0E0,0E0,0E0,0E0,0E0,0E0,0E0,0E0,0E0,0E0,0E0,0E0],"parents":[2147483647,0,0,1,1,2,2,3,3,4,4,5,5,6,6,7,7,8,8,9,9,10,10,11,11,12,12,13,13,14,14,15,15,16,16,17,17,18,18,19,19,20,20,21,21,22,22,23,23,24,24,25,25,26,26,27,27,28,28,29,29,30,30,31,31,32,32,33,33,34,34,35,35,36,36,37,37,38,38,39,39,40,40,41,41,42,42,43,43,44,44,45,45,46,46,47,47,48,48,49,49,50,50,51,51,52,52,53,53,54,54,55,55,56,56,57,57,58,58,59,59,60,60,61,61,62,62],"right_children":[2,4,6,8,10,12,14,16,18,20,22,24,26,28,30,32,34,36,38,40,42,44,46,48,50,52,54,56,58,60,62,64,66,68,70,72,74,76,78,80,82,84,86,88,90,92,94,96,98,100,102,104,106,108,110,112,114,116,118,120,122,124,126,-1,-1,-1,-1,-1,-1,-1,-1,-1,-1,-1,-1,-1,-1,-1,-1,-1,-1,-1,-1,-1,-1,-1,-1,-1,-1,-1,-1,-1,-1,-1,-1,-1,-1,-1,-1,-1,-1,-1,-1,-1,-1,-1,-1,-1,-1,-1,-1,-1,-1,-1,-1,-1,-1,-1,-1,-1,-1,-1,-1,-1,-1,-1,-1],"split_conditions":[4.1E1,4.1E1,4E1,4.1E1,4.1E1,9.0346146E-1,4.1E1,3.0806067E0,2.2154765E-1,2.128117E0,4E1,4.1E1,1.6784198E0,7.477893E-1,-3.8394246E-2,-2.2332277E0,4.3836555E0,-2.6342459E0,4E1,4E1,2.5803332E0,1.8237691E0,-3.1799826E-1,-4.427398E-1,-9.464708E-1,1.6209348E0,4E1,-5.398865E-1,1.7537929E0,-3.7301636E-1,-1.4897537E-1,-1.5621285E0,2.3038177E0,1.7430992E0,5.568161E0,-1.5621285E0,-1.2554321E0,1.3237584E0,4E1,9.0346146E-1,-9.464708E-1,1.9974937E0,2.871674E0,4.8089218E-1,2.3038177E0,-3.953305E-1,5.9210217E-1,4E1,5.518389E-1,-7.8858566E-1,-4.9284294E-1,1.1653986E0,1.7865672E0,2.046632E0,1.8237691E0,-2.2332277E0,5.9856606E-1,1.3026519E0,1.8237691E0,-2.1302271E-1,-4.5469385E-1,2.4462982E-1,4.570923E-1,-7.0113115E-2,-1.7602135E-1,-1.2309778E-1,-1.6921787E-1,-1.7839915E-1,6.463479E-2,-1.6991627E-1,-1.7514294E-1,2.1424915E-1,-2.1799773E-1,-4.4716645E-2,7.424131E-2,2.7578162E-2,-2.42685E-2,-5.6840483E-2,-1.5898068E-1,3.5429284E-2,-2.0084567E-2,1.5447813E-1,-9.0822E-2,-1.4512657E-1,-5.890741E-2,-1.7145623E-1,-1.5900141E-1,1.2260769E-1,8.783822E-2,1.5244508E-1,1.993159E-1,1.4046198E-1,9.163022E-2,3.976562E-2,-5.3231146E-2,7.5769E-2,-2.2070211E-1,1.842134E-1,-1.5649207E-2,2.0779149E-1,-7.4301274E-3,1.00496896E-1,1.6592085E-1,-5.1804185E-3,8.0366865E-2,-1.4860524E-1,2.8767435E-2,-1.3451573E-1,1.836251E-1,1.7231339E-1,1.1734273E-1,2.0244478E-1,1.16879635E-1,2.043113E-1,1.4482012E-1,9.206636E-2,-4.454825E-2,2.8451762E-1,1.0774314E-1,2.0229466E-1,1.7318411E-1,1.9498403E-1,2.0796047E-1,1.7437716E-1,1.9198911E-1,1.984338E-1,2.0155561E-1],"split_indices":[3,6,2,2,2,1,6,1,1,1,7,6,1,1,1,0,0,0,7,7,1,1,1,1,1,1,6,1,1,0,0,1,0,0,0,1,0,1,6,1,1,0,1,0,0,1,1,6,0,0,1,1,0,1,1,0,0,1,1,1,1,1,0,0,0,0,0,0,0,0,0,0,0,0,0,0,0,0,0,0,0,0,0,0,0,0,0,0,0,0,0,0,0,0,0,0,0,0,0,0,0,0,0,0,0,0,0,0,0,0,0,0,0,0,0,0,0,0,0,0,0,0,0,0,0,0,0],"split_type":[0,0,0,0,0,0,0,0,0,0,0,0,0,0,0,0,0,0,0,0,0,0,0,0,0,0,0,0,0,0,0,0,0,0,0,0,0,0,0,0,0,0,0,0,0,0,0,0,0,0,0,0,0,0,0,0,0,0,0,0,0,0,0,0,0,0,0,0,0,0,0,0,0,0,0,0,0,0,0,0,0,0,0,0,0,0,0,0,0,0,0,0,0,0,0,0,0,0,0,0,0,0,0,0,0,0,0,0,0,0,0,0,0,0,0,0,0,0,0,0,0,0,0,0,0,0,0],"sum_hessian":[3.743876E7,8.0370035E6,2.9401756E7,6.0167085E6,2.020295E6,1.1708946E6,2.8230862E7,5.7964975E6,2.2021111E5,7.1451794E5,1.305777E6,9.3193356E5,2.3896111E5,5.0806838E5,2.7722794E7,5.690527E6,1.059705E5,7.4065805E4,1.4614531E5,6.7469544E5,3.9822527E4,1.0737615E6,2.3201556E5,4.5143695E4,8.867899E5,1.1076931E5,1.281918E5,4.3051875E5,7.75496E4,1.0254801E7,1.7467992E7,1.8794608E6,3.8110662E6,4.6870703E4,5.9099797E4,4.7327607E3,6.933304E4,1.1805345E5,2.8091863E4,5.757141E5,9.898129E4,1.7513682E4,2.2308844E4,9.612028E5,1.1255865E5,7.068762E4,1.6132794E5,2.472882E4,2.0414873E4,1.2387644E5,7.6291344E5,1.003358E5,1.0433517E4,1.2260016E4,1.1593178E5,1.3627334E5,2.942454E5,6.0495117E4,1.7054488E4,3.8496712E6,6.40513E6,4.086071E5,1.7059386E7,9.725557E3,1.8697351E6,6.09623E5,3.2014432E6,2.5429512E3,4.432775E4,1.1700432E4,4.7399363E4,4.510823E3,2.2193742E2,1.6258025E4,5.3075016E4,6.906065E4,4.89928E4,9.394955E3,1.8696908E4,3.6260153E5,2.1311258E5,5.3742915E3,9.3607E4,3.6295657E3,1.3884116E4,6.4737617E3,1.5835082E4,6.1845806E5,3.4274475E5,5.2015707E4,6.0542938E4,5.977852E4,1.0909093E4,1.1212041E5,4.920754E4,1.9395926E4,5.332895E3,1.6828178E4,3.5866956E3,1.2325913E5,6.173079E2,1.2661191E5,6.363015E5,4.3964E4,5.6371793E4,9.168859E3,1.264657E3,7.3448467E3,4.915169E3,6.7437305E4,4.8494477E4,8.142564E4,5.48477E4,2.7384134E5,2.0404064E4,3.838238E4,2.211274E4,4.287191E3,1.2767297E4,3.6757158E6,1.7395548E5,2.4181881E5,6.163311E6,2.868731E5,1.21734E5,5.917152E6,1.1142233E7],"tree_param":{"num_deleted":"0","num_feature":"8","num_nodes":"127","size_leaf_vector":"1"}},{"base_weights":[-9.811946E-2,5.033599E-1,-4.3957028E-1,5.921165E-1,1.07904255E-1,-8.018941E-2,-4.8033807E-1,6.004487E-1,2.3372804E-1,2.5380275E-1,-3.326623E-2,1.5212952E-1,-1.6237703E-1,-6.832477E-2,-4.875452E-1,5.6525254E-1,6.2328285E-1,2.4053022E-1,-4.7818646E-1,2.2164561E-1,4.4672224E-1,-1.6328523E-2,-4.4732755E-1,3.529186E-1,7.712915E-2,-2.0762138E-1,7.091484E-2,7.5658937E-3,-1.4769955E-1,-2.7073964E-1,-4.9230546E-1,5.920339E-1,4.4965592E-1,6.3402236E-1,6.0205376E-1,-2.6465115E-1,2.4921212E-1,2.1994376E-1,-5.240803E-1,-1.8866858E-1,2.3476338E-1,3.917233E-1,6.082087E-1,-2.7733833E-1,-4.489149E-3,-3.0396706E-1,-5.396614E-1,-1.145617E-1,4.2392018E-1,2.0471424E-1,5.2570687E-3,4.84391E-2,-2.3078881E-1,2.0332211E-1,-1.05969876E-1,-5.6528788E-2,1.8672374E-1,-2.6941684E-1,-4.1048642E-2,-4.0680525E-1,1.283418E-1,-5.1755756E-1,-4.778581E-1,1.7897306E-1,8.084522E-2,1.4238925E-1,-5.4277787E-3,1.9079673E-1,1.6644384E-1,1.3833635E-1,1.8496458E-1,2.8070056E-1,-1.3679235E-1,7.6823935E-2,-1.0963238E-1,-1.5859792E-1,6.7616415E-1,8.2345426E-2,-9.853042E-2,1.6052309E-1,6.131491E-2,1.6200094E-1,7.8323655E-2,1.8258785E-1,-8.817361E-2,2.4097489E-1,-1.0351229E-1,6.1265645E-3,-3.186237E-2,-1.1412398E-1,-6.4428404E-2,-1.5610558E-1,-1.6846904E-1,-4.9231146E-3,-1.1623458E-1,2.8889924E-2,1.5278557E-1,-8.09746E-3,7.9063244E-2,-4.475355E-2,6.098613E-2,-8.140377E-2,5.740903E-2,-9.742408E-2,-4.7269333E-2,1.8891124E-1,4.2983502E-2,7.64287E-2,-5.273093E-2,6.981519E-2,-4.15121E-2,1.11526884E-1,8.310506E-4,-1.0846336E-1,-6.292443E-2,-2.0292535E-2,8.501966E-2,-7.644742E-2,-1.459429E-1,2.7854426E-2,2.9430285E-1,-1.4608696E-1,-1.6096444E-1,-1.0114112E-1,-1.4445639E-1],"categories":[],"categories_nodes":[],"categories_segments":[],"categories_sizes":[],"default_left":[0,0,0,0,0,0,0,0,0,0,0,0,0,0,0,0,0,0,0,0,0,0,0,0,0,0,0,0,0,0,0,0,0,0,0,0,0,0,0,0,0,0,0,0,0,0,0,0,0,0,0,0,0,0,0,0,0,0,0,0,0,0,0,0,0,0,0,0,0,0,0,0,0,0,0,0,0,0,0,0,0,0,0,0,0,0,0,0,0,0,0,0,0,0,0,0,0,0,0,0,0,0,0,0,0,0,0,0,0,0,0,0,0,0,0,0,0,0,0,0,0,0,0,0,0],"id":12,"left_children":[1,3,5,7,9,11,13,15,17,19,21,23,25,27,29,31,33,35,37,39,41,43,45,47,49,51,53,55,57,59,61,63,65,67,69,71,73,-1,75,77,79,81,83,85,87,89,91,93,95,97,99,101,103,105,107,109,111,113,115,117,119,121,123,-1,-1,-1,-1,-1,-1,-1,-1,-1,-1,-1,-1,-1,-1,-1,-1,-1,-1,-1,-1,-1,-1,-1,-1,-1,-1,-1,-1,-1,-1,-1,-1,-1,-1,-1,-1,-1,-1,-1,-1,-1,-1,-1,-1,-1,-1,-1,-1,-1,-1,-1,-1,-1,-1,-1,-1,-1,-1,-1,-1,-1,-1],"loss_changes":[5.056642E6,3.1293925E5,2.30105E5,2.1744E4,3.366058E4,3.0552168E4,4.188525E4,5.71875E3,8.013008E2,4.9857383E3,5.8251963E3,6.2969385E3,1.2475846E4,1.460767E3,1.430675E4,8.6684375E3,9.835E2,7.1883594E2,8.745206E1,3.7077695E3,1.0195703E3,2.4658464E3,4.3191162E2,3.7744111E3,2.7915933E3,5.872801E3,4.4967036E3,1.42358E3,1.5386399E3,1.6173322E4,4.94875E3,3.3311875E3,6.152953E3,4.46125E2,2.961625E3,6.363947E2,6.801846E2,0E0,2.0395508E1,1.3815742E3,6.0900977E3,1.6591514E3,1.1163086E1,2.5333755E3,1.9342324E3,8.71366E1,8.104004E0,4.016097E2,2.7608867E3,1.4953389E3,5.9555967E3,3.7541997E3,6.2458867E3,2.8110337E3,2.0695967E3,2.1615654E3,1.1118453E3,3.042146E2,5.451018E2,2.689336E3,2.2918245E3,2.868625E3,4.44775E3,0E0,0E0,0E0,0E0,0E0,0E0,0E0,0E0,0E0,0E0,0E0,0E0,0E0,0E0,0E0,0E0,0E0,0E0,0E0,0E0,0E0,0E0,0E0,0E0,0E0,0E0,0E0,0E0,0E0,0E0,0E0,0E0,0E0,0E0,0E0,0E0,0E0,0E0,0E0,0E0,0E0,0E0,0E0,0E0,0E0,0E0,0E0,0E0,0E0,0E0,0E0,0E0,0E0,0E0,0E0,0E0,0E0,0E0,0E0,0E0,0E0,0E0],"parents":[2147483647,0,0,1,1,2,2,3,3,4,4,5,5,6,6,7,7,8,8,9,9,10,10,11,11,12,12,13,13,14,14,15,15,16,16,17,17,18,18,19,19,20,20,21,21,22,22,23,23,24,24,25,25,26,26,27,27,28,28,29,29,30,30,31,31,32,32,33,33,34,34,35,35,36,36,38,38,39,39,40,40,41,41,42,42,43,43,44,44,45,45,46,46,47,47,48,48,49,49,50,50,51,51,52,52,53,53,54,54,55,55,56,56,57,57,58,58,59,59,60,60,61,61,62,62],"right_children":[2,4,6,8,10,12,14,16,18,20,22,24,26,28,30,32,34,36,38,40,42,44,46,48,50,52,54,56,58,60,62,64,66,68,70,72,74,-1,76,78,80,82,84,86,88,90,92,94,96,98,100,102,104,106,108,110,112,114,116,118,120,122,124,-1,-1,-1,-1,-1,-1,-1,-1,-1,-1,-1,-1,-1,-1,-1,-1,-1,-1,-1,-1,-1,-1,-1,-1,-1,-1,-1,-1,-1,-1,-1,-1,-1,-1,-1,-1,-1,-1,-1,-1,-1,-1,-1,-1,-1,-1,-1,-1,-1,-1,-1,-1,-1,-1,-1,-1,-1,-1,-1,-1,-1,-1],"split_conditions":[4E1,4E1,4.1E1,4.1E1,4.1E1,4E1,4E1,3.534027E0,3.534027E0,1.7843022E0,2.3038177E0,-1.3538343E-1,9.7759247E-1,2.937819E-1,4.1E1,-1.5649719E0,6.9234116E1,-8.3407927E-1,-2.8316885E-1,-7.9182833E-1,2.5803332E0,-7.9182833E-1,2.5803332E0,-7.1165123E0,4E1,4E1,1.720311E0,-6.024025E-2,-8.975983E-2,6.1006546E-1,-3.8394246E-2,4E1,3.0806067E0,3.0806067E0,7.804912E1,-1.311039E0,3.0806067E0,2.1994376E-1,1.0555525E1,-9.0265656E-1,-4.789216E-1,1.9974937E0,4E1,-1.2554321E0,1.1289884E0,2.046632E0,2.871674E0,4E1,-5.398865E-1,-1.5414147E1,4.1E1,-4.8319335E0,-9.0265656E-1,4.1E1,4E1,4.1E1,1.6947255E-1,4.1E1,6.1006546E-1,-5.398865E-1,4E1,-3.7301636E-1,-1.4897537E-1,1.7897306E-1,8.084522E-2,1.4238925E-1,-5.4277787E-3,1.9079673E-1,1.6644384E-1,1.3833635E-1,1.8496458E-1,2.8070056E-1,-1.3679235E-1,7.6823935E-2,-1.0963238E-1,-1.5859792E-1,6.7616415E-1,8.2345426E-2,-9.853042E-2,1.6052309E-1,6.131491E-2,1.6200094E-1,7.8323655E-2,1.8258785E-1,-8.817361E-2,2.4097489E-1,-1.0351229E-1,6.1265645E-3,-3.186237E-2,-1.1412398E-1,-6.4428404E-2,-1.5610558E-1,-1.6846904E-1,-4.9231146E-3,-1.1623458E-1,2.8889924E-2,1.5278557E-1,-8.09746E-3,7.9063244E-2,-4.475355E-2,6.098613E-2,-8.140377E-2,5.740903E-2,-9.742408E-2,-4.7269333E-2,1.8891124E-1,4.2983502E-2,7.64287E-2,-5.273093E-2,6.981519E-2,-4.15121E-2,1.11526884E-1,8.310506E-4,-1.0846336E-1,-6.292443E-2,-2.0292535E-2,8.501966E-2,-7.644742E-2,-1.459429E-1,2.7854426E-2,2.9430285E-1,-1.4608696E-1,-1.6096444E-1,-1.0114112E-1,-1.4445639E-1],"split_indices":[7,6,2,2,2,4,3,0,0,1,0,1,0,1,6,0,0,1,1,1,1,1,1,0,6,6,1,1,0,0,1,3,1,1,0,1,1,0,0,0,1,0,2,0,1,1,1,6,1,0,6,0,0,6,6,6,1,6,0,1,6,0,0,0,0,0,0,0,0,0,0,0,0,0,0,0,0,0,0,0,0,0,0,0,0,0,0,0,0,0,0,0,0,0,0,0,0,0,0,0,0,0,0,0,0,0,0,0,0,0,0,0,0,0,0,0,0,0,0,0,0,0,0,0,0],"split_type":[0,0,0,0,0,0,0,0,0,0,0,0,0,0,0,0,0,0,0,0,0,0,0,0,0,0,0,0,0,0,0,0,0,0,0,0,0,0,0,0,0,0,0,0,0,0,0,0,0,0,0,0,0,0,0,0,0,0,0,0,0,0,0,0,0,0,0,0,0,0,0,0,0,0,0,0,0,0,0,0,0,0,0,0,0,0,0,0,0,0,0,0,0,0,0,0,0,0,0,0,0,0,0,0,0,0,0,0,0,0,0,0,0,0,0,0,0,0,0,0,0,0,0,0,0],"sum_hessian":[2.4621428E7,8.915831E6,1.5705597E7,7.281551E6,1.6342801E6,1.6001118E6,1.4105485E7,7.1161065E6,1.6544472E5,8.0368144E5,8.3059875E5,4.181449E5,1.1819669E6,2.424979E5,1.3862987E7,2.8001008E6,4.316006E6,1.6387955E5,1.5651735E3,6.888597E5,1.1482173E5,7.9795825E5,3.2640469E4,1.1371263E5,3.0443228E5,9.899728E5,1.9199406E5,1.239702E5,1.18527695E5,2.9784238E5,1.3565145E7,2.2733972E6,5.267033E5,2.8660652E6,1.4499405E6,2.7683027E3,1.6111125E5,5.6588535E1,1.508585E3,2.1340213E4,6.675195E5,8.5653375E4,2.9168346E4,3.4623746E4,7.633345E5,1.2788665E4,1.9851803E4,1.4993508E4,9.8719125E4,1.0969798E5,1.947343E5,