{"learner":{"attributes":{"scikit_learn":"{\"_estimator_type\": \"classifier\"}"},"feature_names":["ortho_h","qtrees","cshelph","medianfilter","bathypathfinder","openoceans","openoceanspp","coastnet","pointnet"],"feature_types":["float","int","float","float","int","int","int","int","float"],"gradient_booster":{"model":{"gbtree_model_param":{"num_parallel_tree":"1","num_trees":"300"},"iteration_indptr":[0,3,6,9,12,15,18,21,24,27,30,33,36,39,42,45,48,51,54,57,60,63,66,69,72,75,78,81,84,87,90,93,96,99,102,105,108,111,114,117,120,123,126,129,132,135,138,141,144,147,150,153,156,159,162,165,168,171,174,177,180,183,186,189,192,195,198,201,204,207,210,213,216,219,222,225,228,231,234,237,240,243,246,249,252,255,258,261,264,267,270,273,276,279,282,285,288,291,294,297,300],"tree_info":[0,1,2,0,1,2,0,1,2,0,1,2,0,1,2,0,1,2,0,1,2,0,1,2,0,1,2,0,1,2,0,1,2,0,1,2,0,1,2,0,1,2,0,1,2,0,1,2,0,1,2,0,1,2,0,1,2,0,1,2,0,1,2,0,1,2,0,1,2,0,1,2,0,1,2,0,1,2,0,1,2,0,1,2,0,1,2,0,1,2,0,1,2,0,1,2,0,1,2,0,1,2,0,1,2,0,1,2,0,1,2,0,1,2,0,1,2,0,1,2,0,1,2,0,1,2,0,1,2,0,1,2,0,1,2,0,1,2,0,1,2,0,1,2,0,1,2,0,1,2,0,1,2,0,1,2,0,1,2,0,1,2,0,1,2,0,1,2,0,1,2,0,1,2,0,1,2,0,1,2,0,1,2,0,1,2,0,1,2,0,1,2,0,1,2,0,1,2,0,1,2,0,1,2,0,1,2,0,1,2,0,1,2,0,1,2,0,1,2,0,1,2,0,1,2,0,1,2,0,1,2,0,1,2,0,1,2,0,1,2,0,1,2,0,1,2,0,1,2,0,1,2,0,1,2,0,1,2,0,1,2,0,1,2,0,1,2,0,1,2,0,1,2,0,1,2,0,1,2,0,1,2,0,1,2,0,1,2,0,1,2,0,1,2,0,1,2,0,1,2],"trees":[{"base_weights":[-2.1028732E-1,1.26126E0,-6.723384E-1,1.4158195E0,-2.241131E-1,1.4246517E-1,-6.916602E-1,1.4548844E0,7.3821765E-1,2.5030476E-1,-3.0289495E-1,4.8726112E-1,-3.507995E-1,-4.3071672E-1,-7.154509E-1,1.4075121E0,1.4850963E0,6.038833E-1,1.2195536E0,3.1847137E-1,-5.957808E-1,-1.8823944E-1,-5.254633E-1,7.572871E-1,2.9295352E-1,-1.7473356E-1,-4.0718263E-1,1.7015673E-1,-5.0715095E-1,-5.8707905E-1,-7.2018105E-1,1.4567763E0,1.2930328E0,1.4954758E0,1.4653194E0,4.1914093E-1,7.348509E-1,1.0038246E0,1.3469456E0,1.3065537E-2,3.8766637E-1,-1.5793446E-1,-2.1646388E-1,-4.7017848E-1,-7.688331E-2,-4.4450432E-1,-7.1066743E-1,7.903101E-1,1.7820384E-1,4.1071454E-1,1.6276109E-1,-1.14255495E-1,-5.2903944E-1,-4.5223168E-1,-1.5883587E-1,-3.226925E-1,6.053731E-1,-3.9278203E-1,-5.2836907E-1,-6.1807096E-1,-3.934327E-1,-7.3315096E-1,-7.1312034E-1,4.4061852E-1,3.088081E-1,3.7892473E-1,4.0916282E-1,4.4143638E-1,4.4899574E-1,3.98676E-1,4.4371012E-1,1.7637134E-1,1.14610545E-1,2.3645462E-1,2.089199E-1,2.8700072E-1,3.290847E-1,3.771451E-1,4.403995E-1,6.405969E-2,-3.483565E-2,9.37284E-2,1.6212101E-1,3.6472708E-2,-1.4425343E-1,-5.065822E-2,-3.3078932E-3,-1.4783362E-1,-1.1469646E-1,-1.932927E-1,-2.181468E-1,2.4382034E-1,1.2481899E-1,-9.145499E-2,1.6423915E-1,6.992486E-2,2.503494E-1,7.417821E-3,1.8411691E-1,-1.0660402E-1,-1.1498881E-2,-1.9558626E-1,-1.0277614E-1,-1.323092E-1,-1.8561807E-1,-1.5629423E-1,-3.0072128E-2,-3.974036E-2,-1.8724117E-1,8.209644E-2,2.6835036E-1,-2.0405437E-1,-1.10842094E-1,-1.7768963E-1,-1.3993706E-1,-1.6378683E-1,-2.0038585E-1,6.869356E-2,-1.2476927E-1,2.2209604E-1,-2.1995597E-1,-2.1320058E-1,-2.1937965E-1],"categories":[],"categories_nodes":[],"categories_segments":[],"categories_sizes":[],"default_left":[0,0,0,0,0,0,0,0,0,0,0,0,0,0,0,0,0,0,0,0,0,0,0,0,0,0,0,0,0,0,0,0,0,0,0,0,0,0,0,0,0,0,0,0,0,0,0,0,0,0,0,0,0,0,0,0,0,0,0,0,0,0,0,0,0,0,0,0,0,0,0,0,0,0,0,0,0,0,0,0,0,0,0,0,0,0,0,0,0,0,0,0,0,0,0,0,0,0,0,0,0,0,0,0,0,0,0,0,0,0,0,0,0,0,0,0,0,0,0,0,0,0,0],"id":0,"left_children":[1,3,5,7,9,11,13,15,17,19,21,23,25,27,29,31,33,35,37,39,41,43,45,47,49,51,53,55,57,59,61,63,65,67,69,71,73,75,77,79,81,-1,-1,83,85,87,89,91,93,95,97,99,101,103,105,107,109,111,113,115,117,119,121,-1,-1,-1,-1,-1,-1,-1,-1,-1,-1,-1,-1,-1,-1,-1,-1,-1,-1,-1,-1,-1,-1,-1,-1,-1,-1,-1,-1,-1,-1,-1,-1,-1,-1,-1,-1,-1,-1,-1,-1,-1,-1,-1,-1,-1,-1,-1,-1,-1,-1,-1,-1,-1,-1,-1,-1,-1,-1,-1,-1],"loss_changes":[2.6100594E7,2.105915E6,4.59933E5,2.19928E5,3.2312297E4,1.1509409E5,1.77162E5,1.1241E4,2.9283E4,7.101063E3,1.8919742E4,2.0898062E4,2.7638281E3,1.0951028E5,1.5879E4,1.72505E4,9.82E2,8.566609E3,2.7143281E3,2.4078408E3,7.966748E1,1.5362928E4,3.7793281E3,3.1872344E3,3.5511816E3,1.4470662E3,2.359254E3,5.7717484E4,5.1330625E3,5.5777188E3,2.31E3,1.0924E4,1.951E3,8.7E1,3.08625E3,9.1958203E2,4.243203E2,1.6007422E2,6.734531E2,5.4509985E2,1.067334E3,0E0,0E0,8.745469E2,2.124841E3,5.2635156E2,8.3421875E1,1.3229766E3,1.6043494E3,9.15508E3,6.84794E3,1.0559955E3,2.2544263E2,3.326211E2,6.870831E2,7.2357715E3,1.3704875E4,2.217289E3,7.0620312E3,2.88175E3,1.7930605E3,4.665E2,7.26E2,0E0,0E0,0E0,0E0,0E0,0E0,0E0,0E0,0E0,0E0,0E0,0E0,0E0,0E0,0E0,0E0,0E0,0E0,0E0,0E0,0E0,0E0,0E0,0E0,0E0,0E0,0E0,0E0,0E0,0E0,0E0,0E0,0E0,0E0,0E0,0E0,0E0,0E0,0E0,0E0,0E0,0E0,0E0,0E0,0E0,0E0,0E0,0E0,0E0,0E0,0E0,0E0,0E0,0E0,0E0,0E0,0E0,0E0,0E0,0E0],"parents":[2147483647,0,0,1,1,2,2,3,3,4,4,5,5,6,6,7,7,8,8,9,9,10,10,11,11,12,12,13,13,14,14,15,15,16,16,17,17,18,18,19,19,20,20,21,21,22,22,23,23,24,24,25,25,26,26,27,27,28,28,29,29,30,30,31,31,32,32,33,33,34,34,35,35,36,36,37,37,38,38,39,39,40,40,43,43,44,44,45,45,46,46,47,47,48,48,49,49,50,50,51,51,52,52,53,53,54,54,55,55,56,56,57,57,58,58,59,59,60,60,61,61,62,62],"right_children":[2,4,6,8,10,12,14,16,18,20,22,24,26,28,30,32,34,36,38,40,42,44,46,48,50,52,54,56,58,60,62,64,66,68,70,72,74,76,78,80,82,-1,-1,84,86,88,90,92,94,96,98,100,102,104,106,108,110,112,114,116,118,120,122,-1,-1,-1,-1,-1,-1,-1,-1,-1,-1,-1,-1,-1,-1,-1,-1,-1,-1,-1,-1,-1,-1,-1,-1,-1,-1,-1,-1,-1,-1,-1,-1,-1,-1,-1,-1,-1,-1,-1,-1,-1,-1,-1,-1,-1,-1,-1,-1,-1,-1,-1,-1,-1,-1,-1,-1,-1,-1,-1,-1],"split_conditions":[4E1,4.1E1,4E1,4.1E1,4.1E1,4E1,4E1,3.669548E0,1.898724E0,3.075259E0,9.60506E-1,4E1,4E1,4.1E1,4.1E1,-1.447181E0,7.070513E1,6.74046E-1,2.200647E0,-5.04497E-1,3.669548E0,-3.90762E-1,2.200647E0,4E1,-5.04497E-1,4E1,1.13121E-1,-1.447181E0,-6.7255E-2,3.93219E-1,4.8E-3,4E1,2.06596E0,4.635151E0,7.980075E1,-6.57641E-1,1.123528E0,2.06596E0,2.697328E0,-8.03813E-1,1.291931E0,-1.5793446E-1,-2.1646388E-1,-1.184549E0,3.6109E-1,1.272263E0,2.407673E0,4E1,-5.402676E0,-6.10042E-1,2.3597E-1,-1.211837E1,-6.549627E0,4E1,4.1E1,4.1E1,1.67927E-1,-1.184549E0,8.95588E-1,4E1,4E1,4.1E1,1.455204E0,4.4061852E-1,3.088081E-1,3.7892473E-1,4.0916282E-1,4.4143638E-1,4.4899574E-1,3.98676E-1,4.4371012E-1,1.7637134E-1,1.14610545E-1,2.3645462E-1,2.089199E-1,2.8700072E-1,3.290847E-1,3.771451E-1,4.403995E-1,6.405969E-2,-3.483565E-2,9.37284E-2,1.6212101E-1,3.6472708E-2,-1.4425343E-1,-5.065822E-2,-3.3078932E-3,-1.4783362E-1,-1.1469646E-1,-1.932927E-1,-2.181468E-1,2.4382034E-1,1.2481899E-1,-9.145499E-2,1.6423915E-1,6.992486E-2,2.503494E-1,7.417821E-3,1.8411691E-1,-1.0660402E-1,-1.1498881E-2,-1.9558626E-1,-1.0277614E-1,-1.323092E-1,-1.8561807E-1,-1.5629423E-1,-3.0072128E-2,-3.974036E-2,-1.8724117E-1,8.209644E-2,2.6835036E-1,-2.0405437E-1,-1.10842094E-1,-1.7768963E-1,-1.3993706E-1,-1.6378683E-1,-2.0038585E-1,6.869356E-2,-1.2476927E-1,2.2209604E-1,-2.1995597E-1,-2.1320058E-1,-2.1937965E-1],"split_indices":[7,1,3,6,6,1,1,0,0,0,0,6,6,6,6,0,0,0,0,0,0,0,0,2,0,2,0,0,0,0,0,1,0,0,0,0,0,0,0,0,0,0,0,0,0,0,0,4,0,0,0,0,0,2,6,2,0,0,0,2,2,2,0,0,0,0,0,0,0,0,0,0,0,0,0,0,0,0,0,0,0,0,0,0,0,0,0,0,0,0,0,0,0,0,0,0,0,0,0,0,0,0,0,0,0,0,0,0,0,0,0,0,0,0,0,0,0,0,0,0,0,0,0],"split_type":[0,0,0,0,0,0,0,0,0,0,0,0,0,0,0,0,0,0,0,0,0,0,0,0,0,0,0,0,0,0,0,0,0,0,0,0,0,0,0,0,0,0,0,0,0,0,0,0,0,0,0,0,0,0,0,0,0,0,0,0,0,0,0,0,0,0,0,0,0,0,0,0,0,0,0,0,0,0,0,0,0,0,0,0,0,0,0,0,0,0,0,0,0,0,0,0,0,0,0,0,0,0,0,0,0,0,0,0,0,0,0,0,0,0,0,0,0,0,0,0,0,0,0],"sum_hessian":[3.838717E7,9.172966E6,2.9214204E7,8.3084375E6,8.645284E5,6.767209E5,2.8537482E7,7.85555E6,4.5288753E5,1.2311822E5,7.414102E5,3.9830353E5,2.784173E5,2.3844225E6,2.615306E7,3.0590295E6,4.7965205E6,3.5407288E5,9.8814664E4,1.139391E5,9.17911E3,4.893333E5,2.5207688E5,1.666751E5,2.3162844E5,6.753422E4,2.108831E5,2.6908222E5,2.1153402E6,9.2942925E5,2.522363E7,2.1386745E6,9.2035506E5,3.145586E6,1.6509346E6,1.4688355E5,2.0718933E5,3.6690664E4,6.2123996E4,2.1046666E4,9.289244E4,5.920444E3,3.2586665E3,1.3854711E5,3.507862E5,1.7540488E5,7.667199E4,1.5768266E5,8.992444E3,1.2161955E5,1.1000888E5,5.768844E4,9.845777E3,1.7850266E5,3.2380443E4,1.2618621E5,1.4289598E5,3.310342E5,1.7843061E6,8.0119994E5,1.2822933E5,8.891203E6,1.6332427E7,2.0804941E6,5.818044E4,6.468884E5,2.7346666E5,1.4693955E5,2.9986465E6,1.5083777E5,1.5000968E6,2.6471555E4,1.2041199E5,8.679155E4,1.2039777E5,2.4364443E4,1.2326222E4,3.5673332E4,2.6450666E4,8.247555E3,1.279911E4,6.223733E4,3.065511E4,2.4528887E3,1.3609422E5,1.4636622E5,2.0441998E5,9.874177E4,7.666311E4,1.5267555E4,6.140444E4,1.4876755E5,8.91511E3,3.8959998E3,5.0964443E3,8.569955E4,3.5919996E4,8.422844E4,2.5780443E4,1.3815555E4,4.3872887E4,5.932444E3,3.913333E3,1.6725422E5,1.1248443E4,4.5084443E3,2.7871998E4,7.736622E4,4.8819996E4,6.6547555E4,7.634844E4,2.483111E4,3.062031E5,8.778466E5,9.064595E5,3.2759866E5,4.736013E5,4.4666665E3,1.2376266E5,2.1422221E2,8.890989E6,1.4388333E7,1.9440936E6],"tree_param":{"num_deleted":"0","num_feature":"9","num_nodes":"123","size_leaf_vector":"1"}},{"base_weights":[-6.9849914E-1,-3.680394E-1,-7.327016E-1,-7.0954096E-1,2.745259E-1,-6.7096287E-1,-7.491897E-1,-7.204399E-1,-4.786002E-1,8.992197E-1,-2.2463407E-1,-7.469368E-1,3.4511265E-1,-7.4666345E-1,-7.494063E-1,-7.2303057E-1,-5.3334427E-1,-2.847532E-1,-7.4085623E-1,2.4416974E-1,1.2255262E0,-7.3258054E-1,-7.496746E-1,1.8963642E-1,1.0578642E0,-7.4522567E-1,-2.2496605E-1,-2.2452454E-1,-7.495194E-1,-7.2426766E-1,-5.214453E-1,-3.6494043E-1,-5.6299305E-1,-3.174815E-1,6.361511E-1,-7.4096674E-1,2.4545455E-1,3.7837574E-1,-3.6027798E-1,7.037078E-1,1.3076051E0,-7.333744E-1,-5.3450084E-1,-7.4968034E-1,-1.843576E-1,3.2131582E-1,-1.1311395E-1,2.2874902E-1,1.2878733E0,-7.4677294E-1,-7.416641E-1,-7.494474E-1,-2.249914E-1,-2.2395894E-1,-2.1557453E-1,-1.2683156E-1,-1.9516839E-1,-1.1966046E-1,3.9351664E-2,-1.6983837E-1,5.214784E-2,1.20820515E-2,-1.12996966E-1,3.5087147E-1,4.745898E-2,-2.2436325E-1,-2.2125132E-1,1.93113E-2,2.6812038E-1,-1.3571501E-3,-1.8233716E-1,5.860043E-3,3.0910823E-1,3.2300207E-1,4.052274E-1,-2.200818E-1,-1.4236422E-1,-1.3148376E-1,-2.1317329E-1,-2.2294632E-1,-2.2498542E-1,-1.9518074E-1,6.3636355E-2,-4.13611E-2,1.2942986E-1,-4.603815E-2,3.928021E-1,2.8525344E-1,-1.2532881E-1,4.1856834E-1,1.4757049E-1,-2.2341071E-1,-2.2434129E-1,-2.2221401E-1,-2.2366334E-1,-2.2482055E-1,-2.2485383E-1],"categories":[],"categories_nodes":[],"categories_segments":[],"categories_sizes":[],"default_left":[0,0,0,0,0,0,0,0,0,0,0,0,0,0,0,0,0,0,0,0,0,0,0,0,0,0,0,0,0,0,0,0,0,0,0,0,0,0,0,0,0,0,0,0,0,0,0,0,0,0,0,0,0,0,0,0,0,0,0,0,0,0,0,0,0,0,0,0,0,0,0,0,0,0,0,0,0,0,0,0,0,0,0,0,0,0,0,0,0,0,0,0,0,0,0,0,0],"id":1,"left_children":[1,3,5,7,9,11,13,15,17,19,-1,21,23,25,27,29,31,33,35,37,39,41,43,45,47,49,-1,-1,51,53,55,57,59,61,63,65,-1,67,69,71,73,75,77,79,81,83,85,87,89,91,93,95,-1,-1,-1,-1,-1,-1,-1,-1,-1,-1,-1,-1,-1,-1,-1,-1,-1,-1,-1,-1,-1,-1,-1,-1,-1,-1,-1,-1,-1,-1,-1,-1,-1,-1,-1,-1,-1,-1,-1,-1,-1,-1,-1,-1,-1],"loss_changes":[4.33874E5,7.900645E5,3.5412E4,5.917125E3,7.987188E5,5.6600375E5,1.5E1,1.087875E3,5.386201E3,1.6583219E5,0E0,2.6775E2,5.6526457E4,9.5E0,4E0,5.5175E2,1.529043E2,1.8364302E3,8.365234E0,2.0926852E4,2.2179375E4,1.714375E2,1.825E1,1.6694004E4,1.741939E4,7.6875E0,0E0,0E0,2E0,2.78125E2,1.7184521E2,7.736908E1,6.0320312E1,1.2455386E3,5.329736E2,5.253906E-1,0E0,3.4161305E4,4.1271777E3,1.5730844E4,4.4578125E3,6.4875E1,7.364978E1,9.75E0,1.1167759E1,1.4755961E4,7.2847476E3,9.261791E3,6.1096484E3,1.75E0,1.109375E0,1E0,0E0,0E0,0E0,0E0,0E0,0E0,0E0,0E0,0E0,0E0,0E0,0E0,0E0,0E0,0E0,0E0,0E0,0E0,0E0,0E0,0E0,0E0,0E0,0E0,0E0,0E0,0E0,0E0,0E0,0E0,0E0,0E0,0E0,0E0,0E0,0E0,0E0,0E0,0E0,0E0,0E0,0E0,0E0,0E0,0E0],"parents":[2147483647,0,0,1,1,2,2,3,3,4,4,5,5,6,6,7,7,8,8,9,9,11,11,12,12,13,13,14,14,15,15,16,16,17,17,18,18,19,19,20,20,21,21,22,22,23,23,24,24,25,25,28,28,29,29,30,30,31,31,32,32,33,33,34,34,35,35,37,37,38,38,39,39,40,40,41,41,42,42,43,43,44,44,45,45,46,46,47,47,48,48,49,49,50,50,51,51],"right_children":[2,4,6,8,10,12,14,16,18,20,-1,22,24,26,28,30,32,34,36,38,40,42,44,46,48,50,-1,-1,52,54,56,58,60,62,64,66,-1,68,70,72,74,76,78,80,82,84,86,88,90,92,94,96,-1,-1,-1,-1,-1,-1,-1,-1,-1,-1,-1,-1,-1,-1,-1,-1,-1,-1,-1,-1,-1,-1,-1,-1,-1,-1,-1,-1,-1,-1,-1,-1,-1,-1,-1,-1,-1,-1,-1,-1,-1,-1,-1,-1,-1],"split_conditions":[-8.03813E-1,4E1,4.1E1,4E1,4.1E1,4E1,4E1,4E1,4.1E1,4E1,-2.2463407E-1,9.60506E-1,4E1,1.201877E0,-3.7941E-1,4E1,-3.648773E0,4E1,4E1,4.1E1,4E1,4E1,4E1,-6.076E-3,4E1,7.79495E-1,-2.2496605E-1,-2.2452454E-1,1.253751E0,-3.438972E1,-2.986379E0,4E1,4E1,-1.4802859E1,-4.431548E0,-1.022674E0,2.4545455E-1,4E1,4.1E1,4E1,4E1,4E1,3.4038E-1,1.379749E0,1.010576E0,4E1,4E1,1.56763E-1,4.1E1,4.8E-3,1.108116E0,4.4749E-1,-2.249914E-1,-2.2395894E-1,-2.1557453E-1,-1.2683156E-1,-1.9516839E-1,-1.1966046E-1,3.9351664E-2,-1.6983837E-1,5.214784E-2,1.20820515E-2,-1.12996966E-1,3.5087147E-1,4.745898E-2,-2.2436325E-1,-2.2125132E-1,1.93113E-2,2.6812038E-1,-1.3571501E-3,-1.8233716E-1,5.860043E-3,3.0910823E-1,3.2300207E-1,4.052274E-1,-2.200818E-1,-1.4236422E-1,-1.3148376E-1,-2.1317329E-1,-2.2294632E-1,-2.2498542E-1,-1.9518074E-1,6.3636355E-2,-4.13611E-2,1.2942986E-1,-4.603815E-2,3.928021E-1,2.8525344E-1,-1.2532881E-1,4.1856834E-1,1.4757049E-1,-2.2341071E-1,-2.2434129E-1,-2.2221401E-1,-2.2366334E-1,-2.2482055E-1,-2.2485383E-1],"split_indices":[0,7,8,1,8,7,1,6,1,3,0,0,3,0,0,2,0,2,8,6,6,2,3,0,1,0,0,0,0,0,0,4,8,0,0,0,0,1,1,1,1,8,0,0,0,6,2,0,1,0,0,0,0,0,0,0,0,0,0,0,0,0,0,0,0,0,0,0,0,0,0,0,0,0,0,0,0,0,0,0,0,0,0,0,0,0,0,0,0,0,0,0,0,0,0,0,0],"split_type":[0,0,0,0,0,0,0,0,0,0,0,0,0,0,0,0,0,0,0,0,0,0,0,0,0,0,0,0,0,0,0,0,0,0,0,0,0,0,0,0,0,0,0,0,0,0,0,0,0,0,0,0,0,0,0,0,0,0,0,0,0,0,0,0,0,0,0,0,0,0,0,0,0,0,0,0,0,0,0,0,0,0,0,0,0,0,0,0,0,0,0,0,0,0,0,0,0],"sum_hessian":[3.838717E7,3.6004135E6,3.4786756E7,2.350959E6,1.2494546E6,7.3321015E6,2.7454654E7,2.2450065E6,1.0595244E5,7.758342E5,4.736204E5,6.822007E6,5.100942E5,2.168607E6,2.5286048E7,2.2143425E6,3.0663998E4,6.092311E4,4.5029332E4,2.5796977E5,5.178644E5,1.0926675E6,5.7293395E6,4.187511E5,9.134311E4,1.4998168E6,6.687902E5,2.5910495E6,2.2694998E7,2.2008338E6,1.3508888E4,4.5924443E3,2.6071555E4,5.8832887E4,2.0902222E3,4.5026664E4,2.6666665E0,2.1109955E5,4.687022E4,7.038711E4,4.474773E5,1.088303E6,4.3644443E3,5.729281E6,5.8666664E1,2.9182397E5,1.269271E5,1.9837332E4,7.150577E4,1.0454324E6,4.543844E5,1.9577924E7,3.1170745E6,4.477271E5,1.7531065E6,7.659555E3,5.849333E3,4.2986665E3,2.9377777E2,2.5961332E4,1.1022221E2,8.350222E3,5.0482664E4,9.87111E2,1.1031111E3,1.4957332E4,3.0069332E4,1.3117598E5,7.9923555E4,1.9230666E4,2.7639555E4,2.274622E4,4.7640887E4,7.045644E4,3.7702088E5,1.0873284E6,9.746666E2,2.8244443E3,1.5399999E3,2.2857244E5,5.5007085E6,2.6666664E1,3.1999998E1,5.6445773E4,2.353782E5,1.234271E5,3.4999998E3,9.370666E3,1.0466666E4,6.3007105E4,8.498666E3,3.478373E5,6.9759506E5,3.6511688E5,8.926755E4,1.1530887E7,8.047036E6],"tree_param":{"num_deleted":"0","num_feature":"9","num_nodes":"97","size_leaf_vector":"1"}},{"base_weights":[9.0878636E-1,-5.242654E-1,1.4453872E0,-6.770475E-1,8.014457E-1,1.1969167E0,1.467384E0,-7.1647376E-1,-6.978583E-2,9.637308E-1,1.5238914E-1,4.2532152E-1,1.2540766E0,1.3282491E0,1.4695541E0,-6.941894E-1,-7.3509955E-1,2.960227E-3,-5.5564797E-1,4.8647425E-1,1.042983E0,-3.2560977E-1,4.0083864E-1,1.4535097E0,-7.728847E-3,1.1392317E0,1.2753516E0,1.4009461E0,1.146058E0,1.4822809E0,1.4626E0,-7.41543E-1,-5.7449526E-1,-7.454805E-1,-7.153199E-1,1.0323738E-1,-3.1643495E-1,-4.661544E-1,-7.1802664E-1,4.1724256E-1,1.3456991E0,9.238816E-1,1.2741789E0,2.3038049E-1,-6.305912E-1,1.1243317E0,2.0033677E-1,4.3982673E-1,1.4181283E0,1.5038584E-1,-1.778913E-1,1.4485447E0,1.1144696E0,1.339146E0,1.2135744E0,1.2870559E0,1.4278378E0,1.1399972E0,1.4340557E0,1.4758955E0,1.4863268E0,1.4600801E0,1.4812553E0,-2.2410582E-1,-2.0764735E-1,-1.6018634E-1,-2.2083412E-1,-2.1644197E-1,-2.2399701E-1,-1.736775E-1,-2.1871029E-1,8.679537E-2,-4.4404315E-3,-3.445398E-2,-1.0881271E-1,-1.042003E-1,-1.5215984E-1,-2.1285827E-1,-2.1866184E-1,2.1258889E-1,1.053648E-1,3.8289645E-1,4.4139484E-1,3.617593E-1,2.4408536E-1,3.5779756E-1,4.3819728E-1,1.9711466E-1,-2.9298289E-2,-9.715549E-2,-2.0112497E-1,3.4904674E-1,2.2905844E-1,1.6798709E-2,1.2324083E-1,4.255332E-1,-1.4400001E-1,-9.263454E-2,1.11807495E-1,-1.1297856E-1,1.0906178E-1,4.4448006E-1,4.1786614E-1,2.7914813E-1,3.522991E-1,4.1812754E-1,3.8859156E-1,3.6550596E-1,2.2472653E-1,4.2984933E-1,7.846728E-2,4.3386683E-1,4.011336E-1,3.701272E-1,3.4033886E-1,4.112498E-1,4.3695524E-1,4.272106E-1,4.428789E-1,4.4641116E-1,4.4386443E-1,4.4056407E-1,4.3767616E-1,4.4501176E-1,4.4237795E-1],"categories":[],"categories_nodes":[],"categories_segments":[],"categories_sizes":[],"default_left":[0,0,0,0,0,0,0,0,0,0,0,0,0,0,0,0,0,0,0,0,0,0,0,0,0,0,0,0,0,0,0,0,0,0,0,0,0,0,0,0,0,0,0,0,0,0,0,0,0,0,0,0,0,0,0,0,0,0,0,0,0,0,0,0,0,0,0,0,0,0,0,0,0,0,0,0,0,0,0,0,0,0,0,0,0,0,0,0,0,0,0,0,0,0,0,0,0,0,0,0,0,0,0,0,0,0,0,0,0,0,0,0,0,0,0,0,0,0,0,0,0,0,0,0,0],"id":2,"left_children":[1,3,5,7,9,11,13,15,17,19,21,23,25,27,29,31,33,35,37,39,41,43,45,47,49,51,53,55,57,59,61,63,65,67,69,71,73,75,77,79,81,83,85,87,89,91,93,-1,95,97,99,101,103,105,107,109,111,113,115,117,119,121,123,-1,-1,-1,-1,-1,-1,-1,-1,-1,-1,-1,-1,-1,-1,-1,-1,-1,-1,-1,-1,-1,-1,-1,-1,-1,-1,-1,-1,-1,-1,-1,-1,-1,-1,-1,-1,-1,-1,-1,-1,-1,-1,-1,-1,-1,-1,-1,-1,-1,-1,-1,-1,-1,-1,-1,-1,-1,-1,-1,-1,-1,-1],"loss_changes":[2.951885E7,2.1182112E6,1.52648E5,2.24512E5,1.1383144E5,1.0018E5,7.74E3,3.654E3,2.020655E4,3.2699062E4,2.5671158E4,6.9756234E4,5.1655E3,5.217375E3,2.236E3,2.2722875E4,9.8425E2,1.5926027E4,1.0815781E3,7.323258E3,2.0414125E4,1.2536046E4,2.0632404E4,1.8585938E1,2.9659731E3,2.5300938E3,7.03E3,8.6075E2,1.9454688E2,2.3E2,7.64E2,7.7625E2,7.4459062E3,8.825E1,3.087875E3,8.312296E3,1.1082959E3,2.3392188E2,1.9208984E0,2.191877E3,7.812891E1,1.5213625E4,3.8303125E3,3.665543E3,5.8299023E2,4.3516016E2,3.3832969E3,0E0,7.9960938E0,5.832909E3,5.7124473E3,4.301172E1,3.3694062E3,2.099875E3,2.011125E3,8.0437812E3,3.780625E2,5.5703125E1,1.2875977E0,6.4E1,6.2E1,1.42E2,2.55E1,0E0,0E0,0E0,0E0,0E0,0E0,0E0,0E0,0E0,0E0,0E0,0E0,0E0,0E0,0E0,0E0,0E0,0E0,0E0,0E0,0E0,0E0,0E0,0E0,0E0,0E0,0E0,0E0,0E0,0E0,0E0,0E0,0E0,0E0,0E0,0E0,0E0,0E0,0E0,0E0,0E0,0E0,0E0,0E0,0E0,0E0,0E0,0E0,0E0,0E0,0E0,0E0,0E0,0E0,0E0,0E0,0E0,0E0,0E0,0E0,0E0,0E0],"parents":[2147483647,0,0,1,1,2,2,3,3,4,4,5,5,6,6,7,7,8,8,9,9,10,10,11,11,12,12,13,13,14,14,15,15,16,16,17,17,18,18,19,19,20,20,21,21,22,22,23,23,24,24,25,25,26,26,27,27,28,28,29,29,30,30,31,31,32,32,33,33,34,34,35,35,36,36,37,37,38,38,39,39,40,40,41,41,42,42,43,43,44,44,45,45,46,46,48,48,49,49,50,50,51,51,52,52,53,53,54,54,55,55,56,56,57,57,58,58,59,59,60,60,61,61,62,62],"right_children":[2,4,6,8,10,12,14,16,18,20,22,24,26,28,30,32,34,36,38,40,42,44,46,48,50,52,54,56,58,60,62,64,66,68,70,72,74,76,78,80,82,84,86,88,90,92,94,-1,96,98,100,102,104,106,108,110,112,114,116,118,120,122,124,-1,-1,-1,-1,-1,-1,-1,-1,-1,-1,-1,-1,-1,-1,-1,-1,-1,-1,-1,-1,-1,-1,-1,-1,-1,-1,-1,-1,-1,-1,-1,-1,-1,-1,-1,-1,-1,-1,-1,-1,-1,-1,-1,-1,-1,-1,-1,-1,-1,-1,-1,-1,-1,-1,-1,-1,-1,-1,-1,-1,-1,-1],"split_conditions":[4.1E1,4.1E1,4E1,4.1E1,4E1,4.1E1,4E1,3.669548E0,2.06596E0,4.1E1,4.1E1,-2.173329E0,-6.7255E-2,5.00304E-1,4.8E-3,-1.022674E0,7.070513E1,4E1,2.697328E0,3.075259E0,9.60506E-1,4E1,-7.58175E-1,-2.543702E0,9.43703E-1,-1.184549E0,8.95588E-1,-1.184549E0,2.697328E0,-3.25699E-1,1.455204E0,-1.74464E0,4E1,4.635151E0,7.980075E1,6.74046E-1,-7.58175E-1,2.200647E0,3.075259E0,-5.04497E-1,3.669548E0,-4.02077E-1,2.200647E0,-6.57641E-1,-1.184549E0,-8.03813E-1,-1.6781E-2,4.3982673E-1,4E1,-6.57641E-1,2.06596E0,-1.447181E0,-6.3238E-1,3.4038E-1,2.200647E0,-2.173329E0,4.8388E-2,5.84069E-1,3.075259E0,4.1E1,-7.6527E-2,1.56763E-1,1.838299E0,-2.2410582E-1,-2.0764735E-1,-1.6018634E-1,-2.2083412E-1,-2.1644197E-1,-2.2399701E-1,-1.736775E-1,-2.1871029E-1,8.679537E-2,-4.4404315E-3,-3.445398E-2,-1.0881271E-1,-1.042003E-1,-1.5215984E-1,-2.1285827E-1,-2.1866184E-1,2.1258889E-1,1.053648E-1,3.8289645E-1,4.4139484E-1,3.617593E-1,2.4408536E-1,3.5779756E-1,4.3819728E-1,1.9711466E-1,-2.9298289E-2,-9.715549E-2,-2.0112497E-1,3.4904674E-1,2.2905844E-1,1.6798709E-2,1.2324083E-1,4.255332E-1,-1.4400001E-1,-9.263454E-2,1.11807495E-1,-1.1297856E-1,1.0906178E-1,4.4448006E-1,4.1786614E-1,2.7914813E-1,3.522991E-1,4.1812754E-1,3.8859156E-1,3.6550596E-1,2.2472653E-1,4.2984933E-1,7.846728E-2,4.3386683E-1,4.011336E-1,3.701272E-1,3.4033886E-1,4.112498E-1,4.3695524E-1,4.272106E-1,4.428789E-1,4.4641116E-1,4.4386443E-1,4.4056407E-1,4.3767616E-1,4.4501176E-1,4.4237795E-1],"split_indices":[2,1,1,6,7,6,6,0,0,6,6,0,0,0,0,0,0,7,0,0,0,6,0,0,0,0,0,0,0,0,0,0,6,0,0,0,0,0,0,0,0,0,0,0,0,0,0,0,6,0,0,0,0,0,0,0,0,0,0,6,0,0,0,0,0,0,0,0,0,0,0,0,0,0,0,0,0,0,0,0,0,0,0,0,0,0,0,0,0,0,0,0,0,0,0,0,0,0,0,0,0,0,0,0,0,0,0,0,0,0,0,0,0,0,0,0,0,0,0,0,0,0,0,0,0],"split_type":[0,0,0,0,0,0,0,0,0,0,0,0,0,0,0,0,0,0,0,0,0,0,0,0,0,0,0,0,0,0,0,0,0,0,0,0,0,0,0,0,0,0,0,0,0,0,0,0,0,0,0,0,0,0,0,0,0,0,0,0,0,0,0,0,0,0,0,0,0,0,0,0,0,0,0,0,0,0,0,0,0,0,0,0,0,0,0,0,0,0,0,0,0,0,0,0,0,0,0,0,0,0,0,0,0,0,0,0,0,0,0,0,0,0,0,0,0,0,0,0,0,0,0,0,0],"sum_hessian":[3.838717E7,1.0457981E7,2.7929188E7,9.377292E6,1.0806889E6,2.2714452E6,2.5657744E7,8.805591E6,5.717009E5,8.645284E5,2.1616044E5,1.5666398E5,2.1147812E6,3.9403775E5,2.5263706E7,4.0090705E6,4.7965205E6,4.9725062E5,7.445022E4,1.2311822E5,7.414102E5,7.392799E4,1.4223244E5,4.6427996E4,1.1023599E5,3.305422E5,1.784239E6,2.8164888E5,1.1238888E5,8.926577E6,1.6337129E7,2.8726025E6,1.1364679E6,3.145586E6,1.6509346E6,3.784373E5,1.1881333E5,4.799955E4,2.6450666E4,1.139391E5,9.17911E3,4.893333E5,2.5207688E5,2.6187555E4,4.774044E4,3.0862664E4,1.1136977E5,3.4220887E4,1.220711E4,5.7140887E4,5.309511E4,2.4495998E4,3.0604622E5,8.777795E5,9.064595E5,5.3808887E4,2.2783998E5,1.1007733E5,2.3115554E3,3.4624815E6,5.464095E6,1.4393035E7,1.9440936E6,2.5858452E6,2.867573E5,9.0856525E5,2.2790266E5,1.4693955E5,2.9986465E6,1.5083777E5,1.5000968E6,1.4688355E5,2.3155377E5,2.218222E4,9.66311E4,1.2326222E4,3.5673332E4,1.486711E4,1.1583555E4,2.1046666E4,9.289244E4,5.920444E3,3.2586665E3,1.3755288E5,3.5178044E5,1.7540488E5,7.667199E4,1.1382222E4,1.4805332E4,5.487111E3,4.2253332E4,2.783911E4,3.0235554E3,6.6063555E4,4.530622E4,1.2205333E4,1.7777777E0,1.8639998E4,3.8500887E4,3.8840887E4,1.4254222E4,1.5352443E4,9.143555E3,7.513688E4,2.3090931E5,3.908582E5,4.869213E5,8.9722706E5,9.232444E3,4.7111555E4,6.697333E3,1.8943733E5,3.8402664E4,6.123111E3,1.0395422E5,6.2222217E2,1.6893333E3,2.4385332E4,3.4380962E6,4.3630475E6,1.1010475E6,1.7336719E6,1.2659363E7,1.4751061E6,4.6898753E5],"tree_param":{"num_deleted":"0","num_feature":"9","num_nodes":"125","size_leaf_vector":"1"}},{"base_weights":[-1.7096801E-1,8.648187E-1,-5.8715653E-1,9.558619E-1,-1.691481E-1,-2.3563172E-1,-6.2738234E-1,9.810435E-1,5.368426E-1,1.9499032E-1,-2.3545341E-1,2.7924505E-1,-3.809628E-1,-3.6695814E-1,-6.3371646E-1,9.519256E-1,9.9938613E-1,4.5866337E-1,8.3312887E-1,2.4295837E-1,-5.07372E-1,-1.3919711E-1,-4.4170463E-1,1.986844E-1,6.24067E-1,2.4159272E-1,-4.2076018E-1,-1.1142223E-1,-4.1426823E-1,-4.918455E-1,-6.3615495E-1,9.8058534E-1,8.657128E-1,1.0061774E0,9.864423E-1,7.153465E-1,4.330901E-1,7.3304003E-1,9.455283E-1,2.0544944E-2,2.907413E-1,-1.3159567E-1,-1.9135465E-1,-3.7656918E-1,-4.6353698E-2,-3.491656E-1,-6.0258013E-1,3.903365E-1,-8.0171615E-2,6.939714E-1,2.0574026E-1,5.1645935E-2,3.0486315E-1,-3.1598696E-1,-4.4089136E-1,-2.9270062E-1,-5.2707024E-2,-4.423679E-1,-1.3496737E-1,-5.5810434E-1,-3.1191507E-1,-6.4940387E-1,-6.286612E-1,2.960099E-1,2.1886574E-1,2.2906987E-1,2.6792905E-1,2.9974332E-1,3.025098E-1,2.6930156E-1,2.986048E-1,1.5139358E-1,2.2515212E-1,9.446935E-2,1.5647024E-1,2.0314156E-1,2.3421194E-1,2.6653725E-1,2.964345E-1,5.6321155E-2,-2.7261542E-2,6.95971E-2,1.2236998E-1,4.8765797E-2,-1.1592784E-1,-3.70229E-2,1.1630561E-3,-1.2501591E-1,-7.37341E-2,-1.5736207E-1,-1.9333859E-1,1.5807882E-1,5.764764E-2,-8.6152576E-2,6.0062364E-2,1.7630273E-1,3.1600264E-1,4.5508835E-2,1.9064638E-1,1.1356925E-2,3.0062425E-1,2.2549911E-1,6.684013E-2,-1.0461121E-1,-3.234699E-2,-1.6911618E-1,-1.2223902E-1,-6.887684E-2,-1.4876904E-1,2.3359431E-2,-6.93847E-2,-1.2751342E-1,-1.8266633E-1,-1.8299499E-1,-7.4276524E-3,-1.4137319E-1,-1.7690939E-1,-9.165689E-2,-1.8471721E-1,-1.8670811E-1,-1.9522275E-1,-1.8779953E-1,-1.9449049E-1],"categories":[],"categories_nodes":[],"categories_segments":[],"categories_sizes":[],"default_left":[0,0,0,0,0,0,0,0,0,0,0,0,0,0,0,0,0,0,0,0,0,0,0,0,0,0,0,0,0,0,0,0,0,0,0,0,0,0,0,0,0,0,0,0,0,0,0,0,0,0,0,0,0,0,0,0,0,0,0,0,0,0,0,0,0,0,0,0,0,0,0,0,0,0,0,0,0,0,0,0,0,0,0,0,0,0,0,0,0,0,0,0,0,0,0,0,0,0,0,0,0,0,0,0,0,0,0,0,0,0,0,0,0,0,0,0,0,0,0,0,0,0,0],"id":3,"left_children":[1,3,5,7,9,11,13,15,17,19,21,23,25,27,29,31,33,35,37,39,41,43,45,47,49,51,53,55,57,59,61,63,65,67,69,71,73,75,77,79,81,-1,-1,83,85,87,89,91,93,95,97,99,101,103,105,107,109,111,113,115,117,119,121,-1,-1,-1,-1,-1,-1,-1,-1,-1,-1,-1,-1,-1,-1,-1,-1,-1,-1,-1,-1,-1,-1,-1,-1,-1,-1,-1,-1,-1,-1,-1,-1,-1,-1,-1,-1,-1,-1,-1,-1,-1,-1,-1,-1,-1,-1,-1,-1,-1,-1,-1,-1,-1,-1,-1,-1,-1,-1,-1,-1],"loss_changes":[1.5254259E7,9.548075E5,3.56946E5,9.8362E4,1.9818426E4,1.9395412E5,3.7364E4,4.696E3,1.2240719E4,4.260033E3,1.3785656E4,1.5850023E4,5.0083375E4,6.502203E3,7.649E3,8.39625E3,4.735E2,2.7444453E3,1.2405156E3,1.257854E3,7.220044E1,1.0433871E4,3.2891484E3,2.4718723E4,3.1597773E3,1.4596724E3,4.0073125E3,8.943053E2,3.5616719E3,4.4546562E3,2.159E3,3.91425E3,2.3711875E3,5.325E1,1.467125E3,2.8027344E2,3.9762969E3,1.5499023E2,1.25421875E2,3.8994144E2,6.705127E2,0E0,0E0,7.074336E2,1.3172661E3,9.795508E2,2.633711E2,7.4203047E3,1.0934695E4,3.5361172E3,3.5927014E2,3.977242E2,3.3404336E3,2.0855293E3,6.5435938E3,2.6349768E2,1.4798834E3,1.1891953E3,2.1717988E3,7.4916406E2,1.9511523E2,2.8375E2,7.26E2,0E0,0E0,0E0,0E0,0E0,0E0,0E0,0E0,0E0,0E0,0E0,0E0,0E0,0E0,0E0,0E0,0E0,0E0,0E0,0E0,0E0,0E0,0E0,0E0,0E0,0E0,0E0,0E0,0E0,0E0,0E0,0E0,0E0,0E0,0E0,0E0,0E0,0E0,0E0,0E0,0E0,0E0,0E0,0E0,0E0,0E0,0E0,0E0,0E0,0E0,0E0,0E0,0E0,0E0,0E0,0E0,0E0,0E0,0E0,0E0],"parents":[2147483647,0,0,1,1,2,2,3,3,4,4,5,5,6,6,7,7,8,8,9,9,10,10,11,11,12,12,13,13,14,14,15,15,16,16,17,17,18,18,19,19,20,20,21,21,22,22,23,23,24,24,25,25,26,26,27,27,28,28,29,29,30,30,31,31,32,32,33,33,34,34,35,35,36,36,37,37,38,38,39,39,40,40,43,43,44,44,45,45,46,46,47,47,48,48,49,49,50,50,51,51,52,52,53,53,54,54,55,55,56,56,57,57,58,58,59,59,60,60,61,61,62,62],"right_children":[2,4,6,8,10,12,14,16,18,20,22,24,26,28,30,32,34,36,38,40,42,44,46,48,50,52,54,56,58,60,62,64,66,68,70,72,74,76,78,80,82,-1,-1,84,86,88,90,92,94,96,98,100,102,104,106,108,110,112,114,116,118,120,122,-1,-1,-1,-1,-1,-1,-1,-1,-1,-1,-1,-1,-1,-1,-1,-1,-1,-1,-1,-1,-1,-1,-1,-1,-1,-1,-1,-1,-1,-1,-1,-1,-1,-1,-1,-1,-1,-1,-1,-1,-1,-1,-1,-1,-1,-1,-1,-1,-1,-1,-1,-1,-1,-1,-1,-1,-1,-1,-1,-1],"split_conditions":[4E1,4.1E1,4E1,4E1,4.1E1,4.1E1,4E1,3.669548E0,1.898724E0,3.075259E0,9.77302E-1,2.58314E-1,4.1E1,4E1,4E1,-8.03813E-1,7.070513E1,4.1E1,2.407673E0,-5.04497E-1,3.669548E0,-2.76081E-1,1.971989E0,4E1,2.06596E0,-5.89862E-1,-5.777E-2,-9.907825E0,1.02362E-1,5.42548E-1,1.5699E-2,4E1,-4.7871E-2,1.1456467E1,7.980075E1,-4.431548E0,7.04558E-1,2.06596E0,2.697328E0,-8.03813E-1,1.291931E0,-1.3159567E-1,-1.9135465E-1,-1.184549E0,3.6109E-1,1.272263E0,2.407673E0,4E1,-1.74464E0,1.604866E0,2.407673E0,4E1,-4.37319E-1,-2.76081E-1,3.4038E-1,4E1,-1.184549E0,4E1,4.1E1,-1.022674E0,2.697328E0,-8.03813E-1,1.455204E0,2.960099E-1,2.1886574E-1,2.2906987E-1,2.6792905E-1,2.9974332E-1,3.025098E-1,2.6930156E-1,2.986048E-1,1.5139358E-1,2.2515212E-1,9.446935E-2,1.5647024E-1,2.0314156E-1,2.3421194E-1,2.6653725E-1,2.964345E-1,5.6321155E-2,-2.7261542E-2,6.95971E-2,1.2236998E-1,4.8765797E-2,-1.1592784E-1,-3.70229E-2,1.1630561E-3,-1.2501591E-1,-7.37341E-2,-1.5736207E-1,-1.9333859E-1,1.5807882E-1,5.764764E-2,-8.6152576E-2,6.0062364E-2,1.7630273E-1,3.1600264E-1,4.5508835E-2,1.9064638E-1,1.1356925E-2,3.0062425E-1,2.2549911E-1,6.684013E-2,-1.0461121E-1,-3.234699E-2,-1.6911618E-1,-1.2223902E-1,-6.887684E-2,-1.4876904E-1,2.3359431E-2,-6.93847E-2,-1.2751342E-1,-1.8266633E-1,-1.8299499E-1,-7.4276524E-3,-1.4137319E-1,-1.7690939E-1,-9.165689E-2,-1.8471721E-1,-1.8670811E-1,-1.9522275E-1,-1.8779953E-1,-1.9449049E-1],"split_indices":[7,1,1,6,6,6,2,0,0,0,0,0,8,6,6,0,0,6,0,0,0,0,0,3,0,0,0,0,0,0,0,1,0,0,0,0,0,0,0,0,0,0,0,0,0,0,0,6,0,0,0,3,0,0,0,4,0,4,1,0,0,0,0,0,0,0,0,0,0,0,0,0,0,0,0,0,0,0,0,0,0,0,0,0,0,0,0,0,0,0,0,0,0,0,0,0,0,0,0,0,0,0,0,0,0,0,0,0,0,0,0,0,0,0,0,0,0,0,0,0,0,0,0],"split_type":[0,0,0,0,0,0,0,0,0,0,0,0,0,0,0,0,0,0,0,0,0,0,0,0,0,0,0,0,0,0,0,0,0,0,0,0,0,0,0,0,0,0,0,0,0,0,0,0,0,0,0,0,0,0,0,0,0,0,0,0,0,0,0,0,0,0,0,0,0,0,0,0,0,0,0,0,0,0,0,0,0,0,0,0,0,0,0,0,0,0,0,0,0,0,0,0,0,0,0,0,0,0,0,0,0,0,0,0,0,0,0,0,0,0,0,0,0,0,0,0,0,0,0],"sum_hessian":[3.5385932E7,1.0142886E7,2.5243046E7,9.322057E6,8.208293E5,2.5920112E6,2.2651036E7,8.793591E6,5.284655E5,1.2643976E5,6.943895E5,5.705773E5,2.0214339E6,5.378447E5,2.2113192E7,3.3985782E6,5.3950135E6,4.181369E5,1.1032861E5,1.1835717E5,8.0825845E3,4.7343956E5,2.2094995E5,4.625204E5,1.0805694E5,1.2145728E5,1.8999765E6,8.40217E4,4.5382297E5,3.736642E5,2.1739526E7,2.5506515E6,8.4792675E5,3.538419E6,1.8565942E6,3.7882066E4,3.8025484E5,5.836426E4,5.1964348E4,2.0931148E4,9.742602E4,5.2970713E3,2.785513E3,1.3311144E5,3.4032812E5,1.4026798E5,8.068197E4,2.741217E5,1.883987E5,9.258491E4,1.5472035E4,3.0348537E4,9.110875E4,3.0622703E5,1.5937495E6,2.0555205E4,6.34665E4,4.123382E5,4.1484777E4,2.730955E5,1.00568695E5,7.8538245E6,1.3885702E7,2.4900012E6,6.0650215E4,1.792656E5,6.686611E5,8.398676E5,2.6985515E6,1.6930644E5,1.6872879E6,5.419691E3,3.2462375E4,1.6279292E5,2.1746192E5,2.6868723E4,3.1495541E4,2.221525E4,2.9749096E4,8.370169E3,1.25609795E4,6.488929E4,3.2536736E4,2.3897427E3,1.30721695E5,1.3430172E5,2.0602642E5,8.483318E4,5.54348E4,2.8182334E4,5.2499637E4,1.6227375E5,1.1184794E5,1.08381125E5,8.0017586E4,7.1452984E4,2.1131922E4,1.3744863E4,1.7271713E3,2.9915543E4,4.3299402E2,1.4135913E4,7.6972836E4,2.6463388E5,4.1593168E4,3.4094616E5,1.2528034E6,1.5685531E4,4.869675E3,3.6661027E4,2.680547E4,3.7348756E5,3.8850625E4,7.811493E3,3.3673285E4,7.28433E4,2.002522E5,9.849831E4,2.070382E3,3.7043275E5,7.483392E6,1.2227866E7,1.6578366E6],"tree_param":{"num_deleted":"0","num_feature":"9","num_nodes":"123","size_leaf_vector":"1"}},{"base_weights":[-6.1771566E-1,-3.13824E-1,-6.526051E-1,-6.258964E-1,1.556524E-1,-5.9359235E-1,-6.6858196E-1,-6.3710445E-1,-4.214027E-1,6.217976E-1,-6.695328E-1,-6.6718614E-1,2.58512E-1,-6.6832495E-1,-6.6972667E-1,-6.3996404E-1,-4.5342338E-1,-2.1817468E-1,-6.611055E-1,1.7703423E-1,8.3524543E-1,-6.7449015E-1,-2.0037383E-1,-6.673356E-1,-4.5403138E-1,1.4988223E-1,7.4642074E-1,-6.668513E-1,-6.6842437E-1,-6.725662E-1,-6.692144E-1,-6.4132833E-1,-4.2516807E-1,-2.6233745E-1,-4.8431545E-1,-2.4870096E-1,5.613374E-1,-6.612216E-1,6.1381763E-1,9.481268E-2,7.850993E-1,4.6171474E-1,8.9200395E-1,-2.0065196E-1,-6.854391E-1,-6.5752125E-1,-6.6914177E-1,-3.3099303E-1,-6.300636E-1,2.6504105E-1,-7.77895E-2,8.744873E-1,-7.5277854E-3,-1.19233325E-1,-6.668765E-1,-7.25551E-1,-6.684216E-1,-2.0040524E-1,-6.7317206E-1,-2.022296E-1,-2.0074143E-1,-1.9973715E-1,-1.9054614E-1,-1.9487512E-1,-1.07252605E-1,-1.9216676E-1,-6.3425265E-2,-1.4619465E-1,6.1495077E-2,5.377799E-2,-8.7689705E-2,2.5523555E-1,9.976286E-3,-2.0008077E-1,-1.969672E-1,2.2834742E-1,2.4476698E-2,5.194914E-2,-9.783207E-2,2.811881E-1,1.3381858E-1,2.4815947E-1,1.2323597E-2,2.2906701E-1,2.7465615E-1,-2.1387489E-1,-2.0357318E-1,-1.973342E-1,-1.1342595E-1,-2.007442E-1,-5.5451196E-2,-1.7142409E-1,2.7750862E-1,-1.9456185E-1,-5.869757E-2,3.4708127E-2,1.5197524E-1,-3.2776337E-2,2.8457934E-1,-3.3864032E-2,2.743291E-1,-1.1336253E-1,1.280427E-1,1.7890008E-1,-1.7678821E-1,-2.0049737E-1,-1.9853118E-1,-1.8652256E-1,-2.209145E-1,-2.0018966E-1,-2.0056143E-1,-2.029904E-1,-2.0186897E-1],"categories":[],"categories_nodes":[],"categories_segments":[],"categories_sizes":[],"default_left":[0,0,0,0,0,0,0,0,0,0,0,0,0,0,0,0,0,0,0,0,0,0,0,0,0,0,0,0,0,0,0,0,0,0,0,0,0,0,0,0,0,0,0,0,0,0,0,0,0,0,0,0,0,0,0,0,0,0,0,0,0,0,0,0,0,0,0,0,0,0,0,0,0,0,0,0,0,0,0,0,0,0,0,0,0,0,0,0,0,0,0,0,0,0,0,0,0,0,0,0,0,0,0,0,0,0,0,0,0,0,0,0,0],"id":4,"left_children":[1,3,5,7,9,11,13,15,17,19,21,23,25,27,29,31,33,35,37,39,41,43,-1,45,47,49,51,53,55,57,59,61,63,65,67,69,71,73,75,77,79,81,83,-1,85,87,89,91,93,95,97,99,101,103,105,107,109,-1,111,-1,-1,-1,-1,-1,-1,-1,-1,-1,-1,-1,-1,-1,-1,-1,-1,-1,-1,-1,-1,-1,-1,-1,-1,-1,-1,-1,-1,-1,-1,-1,-1,-1,-1,-1,-1,-1,-1,-1,-1,-1,-1,-1,-1,-1,-1,-1,-1,-1,-1,-1,-1,-1,-1],"loss_changes":[3.49619E5,4.975397E5,2.7888E4,4.67525E3,5.2159203E5,3.95192E5,7E0,1.0155E3,5.1635547E3,8.226066E4,3.484375E0,1.8425E2,2.6554133E4,3E0,5.75E0,5.5775E2,1.7489746E2,1.3651924E3,7.6035156E0,1.4048633E4,1.24130625E4,6.9921875E0,0E0,1.0225E2,8.792078E1,1.07437295E4,8.809137E3,1.64375E1,3E0,1.375E0,8.75E-1,2.854375E2,1.8230908E2,7.9374146E1,5.287744E1,1.0300737E3,3.3045923E2,8.59375E-1,3.2586706E-1,8.163388E3,1.7266172E3,1.1873842E4,1.5346562E3,0E0,7.2402344E0,6.509375E1,1.3E1,7.243926E2,1.3299805E1,9.816738E3,4.445459E3,3.0757852E3,2.1311616E3,1.934816E1,8.4375E0,4.9316406E-1,2.5E0,0E0,1.09375E-1,0E0,0E0,0E0,0E0,0E0,0E0,0E0,0E0,0E0,0E0,0E0,0E0,0E0,0E0,0E0,0E0,0E0,0E0,0E0,0E0,0E0,0E0,0E0,0E0,0E0,0E0,0E0,0E0,0E0,0E0,0E0,0E0,0E0,0E0,0E0,0E0,0E0,0E0,0E0,0E0,0E0,0E0,0E0,0E0,0E0,0E0,0E0,0E0,0E0,0E0,0E0,0E0,0E0,0E0],"parents":[2147483647,0,0,1,1,2,2,3,3,4,4,5,5,6,6,7,7,8,8,9,9,10,10,11,11,12,12,13,13,14,14,15,15,16,16,17,17,18,18,19,19,20,20,21,21,23,23,24,24,25,25,26,26,27,27,28,28,29,29,30,30,31,31,32,32,33,33,34,34,35,35,36,36,37,37,38,38,39,39,40,40,41,41,42,42,44,44,45,45,46,46,47,47,48,48,49,49,50,50,51,51,52,52,53,53,54,54,55,55,56,56,58,58],"right_children":[2,4,6,8,10,12,14,16,18,20,22,24,26,28,30,32,34,36,38,40,42,44,-1,46,48,50,52,54,56,58,60,62,64,66,68,70,72,74,76,78,80,82,84,-1,86,88,90,92,94,96,98,100,102,104,106,108,110,-1,112,-1,-1,-1,-1,-1,-1,-1,-1,-1,-1,-1,-1,-1,-1,-1,-1,-1,-1,-1,-1,-1,-1,-1,-1,-1,-1,-1,-1,-1,-1,-1,-1,-1,-1,-1,-1,-1,-1,-1,-1,-1,-1,-1,-1,-1,-1,-1,-1,-1,-1,-1,-1,-1,-1],"split_conditions":[-7.58175E-1,4E1,4.1E1,4E1,4.1E1,4E1,1.108116E0,4E1,4.1E1,4E1,4.1E1,4E1,4E1,4.1E1,4E1,4E1,-3.648773E0,4E1,4E1,4E1,4E1,-2.173329E0,-2.0037383E-1,9.11151E-1,3.4038E-1,-4.7871E-2,3.82464E-1,4.1E1,4.1E1,1.201877E0,4E1,-3.438972E1,-2.167391E1,-2.167391E1,4E1,-1.7921894E1,-2.986379E0,-9.2949E-1,-8.03813E-1,4.1E1,-2.986379E0,-3.648773E0,4E1,-2.0065196E-1,-1.447181E0,4E1,4E1,3.10982E-1,4E1,4E1,4E1,4E1,4E1,-5.19852E-1,8.14651E-1,4.1E1,-4.25293E-1,-2.0040524E-1,4E1,-2.022296E-1,-2.0074143E-1,-1.9973715E-1,-1.9054614E-1,-1.9487512E-1,-1.07252605E-1,-1.9216676E-1,-6.3425265E-2,-1.4619465E-1,6.1495077E-2,5.377799E-2,-8.7689705E-2,2.5523555E-1,9.976286E-3,-2.0008077E-1,-1.969672E-1,2.2834742E-1,2.4476698E-2,5.194914E-2,-9.783207E-2,2.811881E-1,1.3381858E-1,2.4815947E-1,1.2323597E-2,2.2906701E-1,2.7465615E-1,-2.1387489E-1,-2.0357318E-1,-1.973342E-1,-1.1342595E-1,-2.007442E-1,-5.5451196E-2,-1.7142409E-1,2.7750862E-1,-1.9456185E-1,-5.869757E-2,3.4708127E-2,1.5197524E-1,-3.2776337E-2,2.8457934E-1,-3.3864032E-2,2.743291E-1,-1.1336253E-1,1.280427E-1,1.7890008E-1,-1.7678821E-1,-2.0049737E-1,-1.9853118E-1,-1.8652256E-1,-2.209145E-1,-2.0018966E-1,-2.0056143E-1,-2.029904E-1,-2.0186897E-1],"split_indices":[0,7,2,1,8,7,0,6,1,3,6,2,3,1,1,2,0,2,8,2,6,0,0,0,0,0,0,8,8,0,6,0,0,0,8,0,0,0,0,1,0,0,1,0,0,8,3,0,6,1,2,6,1,0,0,6,0,0,6,0,0,0,0,0,0,0,0,0,0,0,0,0,0,0,0,0,0,0,0,0,0,0,0,0,0,0,0,0,0,0,0,0,0,0,0,0,0,0,0,0,0,0,0,0,0,0,0,0,0,0,0,0,0],"split_type":[0,0,0,0,0,0,0,0,0,0,0,0,0,0,0,0,0,0,0,0,0,0,0,0,0,0,0,0,0,0,0,0,0,0,0,0,0,0,0,0,0,0,0,0,0,0,0,0,0,0,0,0,0,0,0,0,0,0,0,0,0,0,0,0,0,0,0,0,0,0,0,0,0,0,0,0,0,0,0,0,0,0,0,0,0,0,0,0,0,0,0,0,0,0,0,0,0,0,0,0,0,0,0,0,0,0,0,0,0,0,0,0,0],"sum_hessian":[3.2974914E7,3.395927E6,2.9578986E7,2.0399334E6,1.3559938E6,6.301933E6,2.3277054E7,1.9339349E6,1.05998586E5,8.6650644E5,4.8948728E5,5.800924E6,5.0100906E5,1.9010254E7,4.2668E6,1.904286E6,2.9648852E4,5.7364754E4,4.8633836E4,2.8099528E5,5.855111E5,1.2046011E5,3.6902716E5,5.796856E6,4.0680005E3,4.0977628E5,9.123277E4,1.2014295E6,1.7808824E7,6.519262E5,3.6148738E6,1.8922649E6,1.2021095E4,4.1274707E3,2.552138E4,5.5203617E4,2.1611338E3,4.862989E4,3.9473982E0,2.4752634E5,3.3468945E4,7.723473E4,5.082764E5,7.9496914E4,4.0963195E4,9.0102725E5,4.8958285E6,2.3961108E3,1.6718895E3,2.7212988E5,1.3764642E5,7.798585E4,1.3246923E4,5.547744E1,1.201374E6,8.4484546E2,1.780798E7,7.6757766E4,5.751684E5,5.54944E4,3.5593795E6,3.813508E5,1.510914E6,2.7827039E3,9.238391E3,4.8837582E2,3.639095E3,2.5411078E4,1.10302505E2,5.1035684E3,5.010005E4,1.3955872E3,7.655466E2,2.1791297E4,2.6838592E4,2.7546706E0,1.1927278E0,2.0868225E5,3.884409E4,2.3098318E4,1.0370629E4,4.1326164E4,3.5908562E4,7.866155E4,4.2961484E5,8.1649443E3,3.2798254E4,9.001902E5,8.3706195E2,4.8957725E6,5.6252518E1,2.0116057E3,3.8450516E2,1.6032097E3,6.867982E1,1.6815823E5,1.03971625E5,1.3355311E5,4.093314E3,3.0321108E3,7.495374E4,7.150237E3,6.0966855E3,2.18884E1,3.3589043E1,9.358395E5,2.6553447E5,8.5334885E1,7.5951056E2,1.6741655E6,1.6133814E7,4.2219613E4,5.3294875E5],"tree_param":{"num_deleted":"0","num_feature":"9","num_nodes":"113","size_leaf_vector":"1"}},{"base_weights":[6.496612E-1,-4.4683912E-1,9.738573E-1,-5.928096E-1,5.651339E-1,8.156749E-1,9.877262E-1,-6.333738E-1,-4.5225162E-2,6.683054E-1,1.1584776E-1,3.1356072E-1,8.499967E-1,8.9737636E-1,9.891309E-1,-6.673196E-1,-6.193472E-1,1.1443703E-2,-4.677707E-1,3.5814196E-1,7.174584E-1,-2.7679053E-1,3.0184615E-1,9.8500806E-1,-5.992325E-3,7.7720356E-1,8.6365026E-1,9.4343394E-1,7.7661175E-1,9.9743766E-1,9.844874E-1,-6.705835E-1,-6.5324396E-1,-5.115633E-1,-6.524917E-1,8.9035995E-2,-2.529925E-1,-3.8129407E-1,-6.340328E-1,3.0285043E-1,8.383186E-1,6.419802E-1,8.659575E-1,2.019407E-1,-5.683436E-1,7.5579125E-1,1.3987249E-1,2.982616E-1,9.5914394E-1,-3.0334193E-1,5.4505423E-2,8.059098E-1,6.055297E-1,9.451827E-1,8.40558E-1,8.638308E-1,9.628011E-1,7.682796E-1,9.114446E-1,9.9270105E-1,1.0001885E0,9.824089E-1,9.949336E-1,-2.0086664E-1,-2.029006E-1,-1.9738181E-1,-1.7168802E-1,-1.3916095E-1,-1.9853054E-1,-1.9912551E-1,-1.8935828E-1,6.529658E-2,-1.0410205E-3,-9.8806374E-2,-4.112538E-2,-9.675778E-2,-1.3981059E-1,-1.8737847E-1,-1.9383486E-1,1.1129788E-1,2.802735E-2,1.8174398E-1,2.727001E-1,2.4361533E-1,1.7058946E-1,2.4027348E-1,2.9197744E-1,1.7806746E-1,-2.5630772E-2,-6.946797E-2,-1.8361409E-1,2.4931797E-1,1.8376791E-1,-5.707734E-3,8.389881E-2,2.8781158E-1,-1.4809991E-1,-7.118314E-2,-1.4639556E-1,1.0249707E-1,-3.2880407E-2,2.1508043E-1,2.5888315E-1,1.708085E-1,2.3344399E-1,2.5551173E-1,2.849593E-1,2.5508568E-1,2.1903467E-1,2.899059E-1,8.986499E-2,2.931827E-1,2.697502E-1,2.1819085E-1,2.3291442E-1,2.6006997E-1,2.9648206E-1,2.946281E-1,2.9812825E-1,3.004478E-1,2.983928E-1,2.9655144E-1,2.9443234E-1,2.9714528E-1,2.9942966E-1],"categories":[],"categories_nodes":[],"categories_segments":[],"categories_sizes":[],"default_left":[0,0,0,0,0,0,0,0,0,0,0,0,0,0,0,0,0,0,0,0,0,0,0,0,0,0,0,0,0,0,0,0,0,0,0,0,0,0,0,0,0,0,0,0,0,0,0,0,0,0,0,0,0,0,0,0,0,0,0,0,0,0,0,0,0,0,0,0,0,0,0,0,0,0,0,0,0,0,0,0,0,0,0,0,0,0,0,0,0,0,0,0,0,0,0,0,0,0,0,0,0,0,0,0,0,0,0,0,0,0,0,0,0,0,0,0,0,0,0,0,0,0,0,0,0],"id":5,"left_children":[1,3,5,7,9,11,13,15,17,19,21,23,25,27,29,31,33,35,37,39,41,43,45,47,49,51,53,55,57,59,61,63,65,67,69,71,73,75,77,79,81,83,85,87,89,91,93,-1,95,97,99,101,103,105,107,109,111,113,115,117,119,121,123,-1,-1,-1,-1,-1,-1,-1,-1,-1,-1,-1,-1,-1,-1,-1,-1,-1,-1,-1,-1,-1,-1,-1,-1,-1,-1,-1,-1,-1,-1,-1,-1,-1,-1,-1,-1,-1,-1,-1,-1,-1,-1,-1,-1,-1,-1,-1,-1,-1,-1,-1,-1,-1,-1,-1,-1,-1,-1,-1,-1,-1,-1],"loss_changes":[1.4455922E7,1.3707866E6,6.8856E4,1.801405E5,5.422453E4,4.360075E4,3.662E3,3.595E3,1.3393447E4,1.45034375E4,1.5954411E4,3.4732406E4,2.353E3,2.4565E3,1.094E3,1.01E2,1.9086875E4,1.0119504E4,9.507588E2,3.4549746E3,9.203875E3,9.801612E3,1.0899543E4,1.1464844E1,1.9730232E3,1.8428438E3,3.753625E3,4.9221875E2,1.3633594E2,1.33E2,3.94E2,1.01875E1,1.5757812E2,9.001625E3,9.79625E2,4.536851E3,9.902544E2,2.1655615E2,2.1767578E0,1.6654434E3,2.202832E2,6.7915E3,1.9306875E3,2.9914553E3,6.4224023E2,4.1976758E2,2.4268699E3,0E0,5.017578E0,2.2607275E2,4.294741E3,1.6255469E3,3.34125E2,1.9178125E2,1.669E3,3.6206914E3,2.3601562E2,3.7578125E1,2.3419434E1,4.1E1,4.6E1,8.9E1,4.175E1,0E0,0E0,0E0,0E0,0E0,0E0,0E0,0E0,0E0,0E0,0E0,0E0,0E0,0E0,0E0,0E0,0E0,0E0,0E0,0E0,0E0,0E0,0E0,0E0,0E0,0E0,0E0,0E0,0E0,0E0,0E0,0E0,0E0,0E0,0E0,0E0,0E0,0E0,0E0,0E0,0E0,0E0,0E0,0E0,0E0,0E0,0E0,0E0,0E0,0E0,0E0,0E0,0E0,0E0,0E0,0E0,0E0,0E0,0E0,0E0,0E0,0E0],"parents":[2147483647,0,0,1,1,2,2,3,3,4,4,5,5,6,6,7,7,8,8,9,9,10,10,11,11,12,12,13,13,14,14,15,15,16,16,17,17,18,18,19,19,20,20,21,21,22,22,23,23,24,24,25,25,26,26,27,27,28,28,29,29,30,30,31,31,32,32,33,33,34,34,35,35,36,36,37,37,38,38,39,39,40,40,41,41,42,42,43,43,44,44,45,45,46,46,48,48,49,49,50,50,51,51,52,52,53,53,54,54,55,55,56,56,57,57,58,58,59,59,60,60,61,61,62,62],"right_children":[2,4,6,8,10,12,14,16,18,20,22,24,26,28,30,32,34,36,38,40,42,44,46,48,50,52,54,56,58,60,62,64,66,68,70,72,74,76,78,80,82,84,86,88,90,92,94,-1,96,98,100,102,104,106,108,110,112,114,116,118,120,122,124,-1,-1,-1,-1,-1,-1,-1,-1,-1,-1,-1,-1,-1,-1,-1,-1,-1,-1,-1,-1,-1,-1,-1,-1,-1,-1,-1,-1,-1,-1,-1,-1,-1,-1,-1,-1,-1,-1,-1,-1,-1,-1,-1,-1,-1,-1,-1,-1,-1,-1,-1,-1,-1,-1,-1,-1,-1,-1,-1,-1,-1,-1],"split_conditions":[4.1E1,4.1E1,4E1,4.1E1,4E1,4.1E1,4E1,-1.74464E0,2.06596E0,4.1E1,4.1E1,-2.173329E0,-4.7871E-2,5.42548E-1,1.5699E-2,-3.648773E0,3.669548E0,4E1,2.697328E0,2.697328E0,9.77302E-1,4E1,-6.86247E-1,-2.543702E0,-6.57641E-1,-2.76081E-1,3.6109E-1,-1.022674E0,2.200647E0,-3.3622E-1,1.312377E0,4E1,4E1,4E1,7.070513E1,7.04558E-1,-1.65971E-1,2.407673E0,3.075259E0,1.291931E0,3.075259E0,-2.66772E-1,1.971989E0,-6.86247E-1,-1.184549E0,-8.59829E-1,-8.5355E-2,2.982616E-1,4E1,4E1,5.53227E-1,-6.10042E-1,-8.5355E-2,-6.076E-3,1.898724E0,-2.173329E0,3.7579E-2,7.68482E-1,2.697328E0,-8.03813E-1,-6.7255E-2,1.79169E-1,1.530535E0,-2.0086664E-1,-2.029006E-1,-1.9738181E-1,-1.7168802E-1,-1.3916095E-1,-1.9853054E-1,-1.9912551E-1,-1.8935828E-1,6.529658E-2,-1.0410205E-3,-9.8806374E-2,-4.112538E-2,-9.675778E-2,-1.3981059E-1,-1.8737847E-1,-1.9383486E-1,1.1129788E-1,2.802735E-2,1.8174398E-1,2.727001E-1,2.4361533E-1,1.7058946E-1,2.4027348E-1,2.9197744E-1,1.7806746E-1,-2.5630772E-2,-6.946797E-2,-1.8361409E-1,2.4931797E-1,1.8376791E-1,-5.707734E-3,8.389881E-2,2.8781158E-1,-1.4809991E-1,-7.118314E-2,-1.4639556E-1,1.0249707E-1,-3.2880407E-2,2.1508043E-1,2.5888315E-1,1.708085E-1,2.3344399E-1,2.5551173E-1,2.849593E-1,2.5508568E-1,2.1903467E-1,2.899059E-1,8.986499E-2,2.931827E-1,2.697502E-1,2.1819085E-1,2.3291442E-1,2.6006997E-1,2.9648206E-1,2.946281E-1,2.9812825E-1,3.004478E-1,2.983928E-1,2.9655144E-1,2.9443234E-1,2.9714528E-1,2.9942966E-1],"split_indices":[2,1,1,6,7,6,6,0,0,6,6,0,0,0,0,0,0,7,0,0,0,6,0,0,0,0,0,0,0,0,0,7,8,6,0,0,0,0,0,0,0,0,0,0,0,0,0,0,6,6,0,0,0,0,0,0,0,0,0,0,0,0,0,0,0,0,0,0,0,0,0,0,0,0,0,0,0,0,0,0,0,0,0,0,0,0,0,0,0,0,0,0,0,0,0,0,0,0,0,0,0,0,0,0,0,0,0,0,0,0,0,0,0,0,0,0,0,0,0,0,0,0,0,0,0],"split_type":[0,0,0,0,0,0,0,0,0,0,0,0,0,0,0,0,0,0,0,0,0,0,0,0,0,0,0,0,0,0,0,0,0,0,0,0,0,0,0,0,0,0,0,0,0,0,0,0,0,0,0,0,0,0,0,0,0,0,0,0,0,0,0,0,0,0,0,0,0,0,0,0,0,0,0,0,0,0,0,0,0,0,0,0,0,0,0,0,0,0,0,0,0,0,0,0,0,0,0,0,0,0,0,0,0,0,0,0,0,0,0,0,0,0,0,0,0,0,0,0,0,0,0,0,0],"sum_hessian":[4.066579E7,9.279738E6,3.1386054E7,8.1099335E6,1.1698044E6,2.5300182E6,2.8856034E7,7.5505965E6,5.593368E5,9.51343E5,2.1846139E5,1.6187405E5,2.368144E6,4.41779E5,2.8414256E7,2.2076998E6,5.342897E6,4.9319406E5,6.614278E4,1.30140914E5,8.212021E5,7.02226E4,1.4823878E5,5.219643E4,1.09677625E5,3.7403997E5,1.9941041E6,3.198043E5,1.2197471E5,1.0188319E7,1.8225938E7,1.7920995E6,4.1560025E5,1.2565818E6,4.086315E6,3.81309E5,1.1188507E5,4.3513652E4,2.2629129E4,1.1670424E5,1.3436666E4,5.444684E5,2.7673372E5,2.6579412E4,4.364319E4,3.8982707E4,1.0925607E5,3.847674E4,1.3719688E4,1.8541443E4,9.113618E4,3.2045216E5,5.3587824E4,4.4012112E5,1.553983E6,6.2590195E4,2.5721411E5,1.1488219E5,7.0925225E3,3.7431582E6,6.44516E6,1.5201349E7,3.0245878E6,1.5204532E6,2.7164622E5,3.9280928E5,2.2790977E4,9.537491E5,3.028326E5,2.6730442E6,1.4132709E6,1.595171E5,2.2179189E5,6.7447625E4,4.4437445E4,2.5697324E4,1.7816328E4,1.2734965E4,9.894163E3,8.8053E4,2.8651242E4,3.1347112E3,1.0301954E4,1.6405948E5,3.804089E5,1.7229583E5,1.0443788E5,1.1248986E4,1.5330426E4,5.013655E3,3.8629535E4,2.5550861E4,1.3431849E4,5.113371E4,5.8122363E4,1.3717876E4,1.8132094E0,1.3657217E4,4.8842266E3,3.3142633E4,5.7993547E4,1.25180125E5,1.9527203E5,4.4308297E4,9.279527E3,2.0999668E4,4.1912147E5,1.4281838E6,1.2579916E5,5.296624E4,9.623955E3,2.0953692E5,4.767718E4,1.8979375E4,9.590281E4,4.497305E3,2.595217E3,3.4005894E5,3.4030995E6,5.2178515E6,1.2273086E6,2.0825942E6,1.3118755E7,1.2573714E6,1.7672165E6],"tree_param":{"num_deleted":"0","num_feature":"9","num_nodes":"125","size_leaf_vector":"1"}},{"base_weights":[-1.4531653E-1,6.86162E-1,-5.253159E-1,7.564113E-1,-1.20610714E-1,-1.8102565E-1,-5.689508E-1,7.790693E-1,4.038787E-1,1.5872186E-1,-1.7573218E-1,2.238522E-1,-3.090909E-1,-3.0302346E-1,-5.7606447E-1,7.5004274E-1,7.976E-1,3.431786E-1,6.430232E-1,1.9299603E-1,-4.3484184E-1,-9.184307E-2,-3.6474198E-1,3.2223633E-1,5.6626994E-2,1.8826807E-1,-3.4583825E-1,-9.156396E-2,-3.4583974E-1,-4.2046866E-1,-5.788741E-1,7.787734E-1,6.6798645E-1,8.046411E-1,7.8425694E-1,5.3470707E-1,3.249271E-1,5.590199E-1,7.417133E-1,1.0388678E-2,2.2910847E-1,-1.08055435E-1,-5.8359194E-1,-3.16897E-1,-1.8391503E-2,-2.8786165E-1,-5.6779957E-1,4.5064455E-1,1.6772723E-1,-1.2068939E-1,2.0752276E-1,1.3735941E-1,4.021431E-1,-1.5685742E-1,-3.571313E-1,-3.0617732E-1,-4.654462E-2,-3.7020662E-1,-8.295493E-2,-4.9291605E-1,-2.4415609E-1,-5.9455395E-1,-5.700654E-1,2.3540126E-1,1.6546237E-1,1.9027275E-1,2.18915E-1,2.3583874E-1,2.4166527E-1,2.0655422E-1,2.382235E-1,1.7269138E-1,1.1273974E-1,7.0599765E-2,1.15476884E-1,1.5956575E-1,1.8682668E-1,2.0531563E-1,2.3577508E-1,4.7086976E-2,-2.963567E-2,1.0968814E-1,5.8830354E-2,-1.7568606E-1,-1.4971372E-1,5.859828E-2,-9.8397054E-2,-2.6321968E-2,1.0004728E-2,-1.01810634E-1,-6.696165E-2,-1.4550331E-1,-1.767411E-1,1.5845108E-1,1.1506868E-1,-1.4053923E-1,1.2398409E-1,2.829059E-2,-6.98606E-2,1.2906548E-1,-2.4578018E-2,5.64933E-2,3.728414E-3,2.0754778E-1,7.621589E-2,-1.6342336E-1,-1.0175644E-2,-1.2095448E-1,-9.101592E-2,-7.622273E-2,-1.4448829E-1,1.2871398E-2,-5.7849966E-2,-1.0585108E-1,-1.6420433E-1,-1.7225978E-1,9.036603E-3,-1.21099405E-1,-1.5823472E-1,-7.0241705E-2,-1.2592898E-1,-1.690132E-1,-1.788353E-1,-1.7008421E-1,-1.7797168E-1],"categories":[],"categories_nodes":[],"categories_segments":[],"categories_sizes":[],"default_left":[0,0,0,0,0,0,0,0,0,0,0,0,0,0,0,0,0,0,0,0,0,0,0,0,0,0,0,0,0,0,0,0,0,0,0,0,0,0,0,0,0,0,0,0,0,0,0,0,0,0,0,0,0,0,0,0,0,0,0,0,0,0,0,0,0,0,0,0,0,0,0,0,0,0,0,0,0,0,0,0,0,0,0,0,0,0,0,0,0,0,0,0,0,0,0,0,0,0,0,0,0,0,0,0,0,0,0,0,0,0,0,0,0,0,0,0,0,0,0,0,0,0,0,0,0],"id":6,"left_children":[1,3,5,7,9,11,13,15,17,19,21,23,25,27,29,31,33,35,37,39,41,43,45,47,49,51,53,55,57,59,61,63,65,67,69,71,73,75,77,79,81,-1,83,85,87,89,91,93,95,97,99,101,103,105,107,109,111,113,115,117,119,121,123,-1,-1,-1,-1,-1,-1,-1,-1,-1,-1,-1,-1,-1,-1,-1,-1,-1,-1,-1,-1,-1,-1,-1,-1,-1,-1,-1,-1,-1,-1,-1,-1,-1,-1,-1,-1,-1,-1,-1,-1,-1,-1,-1,-1,-1,-1,-1,-1,-1,-1,-1,-1,-1,-1,-1,-1,-1,-1,-1,-1,-1,-1],"loss_changes":[9.746656E6,5.483815E5,3.180645E5,7.10965E4,1.1933406E4,1.2348073E5,3.5545E4,4.4985E3,7.8025938E3,2.598695E3,1.0263488E4,9.415008E3,3.306611E4,4.432379E3,8.0005E3,7.682125E3,4.79E2,1.4984727E3,9.016992E2,7.9634863E2,7.723132E1,7.4110146E3,3.1061426E3,7.148168E3,5.6716143E3,1.3552559E3,3.5954375E3,7.964582E2,2.6078633E3,4.1461836E3,2.482E3,3.233875E3,1.7599375E3,5.575E1,1.657375E3,2.4237793E2,2.1038984E3,1.01333984E2,1.2624414E2,3.190812E2,4.5424805E2,0E0,1.0699463E-1,6.268994E2,1.2128157E3,4.8059766E2,9.624414E1,1.02308594E3,2.554621E4,2.3503994E3,7.3817744E3,6.400149E2,1.0264849E3,4.530196E3,3.9344062E3,1.3054102E2,8.9168414E2,1.1462188E3,1.9184683E3,7.088828E2,1.6620117E2,3.1475E2,8.31E2,0E0,0E0,0E0,0E0,0E0,0E0,0E0,0E0,0E0,0E0,0E0,0E0,0E0,0E0,0E0,0E0,0E0,0E0,0E0,0E0,0E0,0E0,0E0,0E0,0E0,0E0,0E0,0E0,0E0,0E0,0E0,0E0,0E0,0E0,0E0,0E0,0E0,0E0,0E0,0E0,0E0,0E0,0E0,0E0,0E0,0E0,0E0,0E0,0E0,0E0,0E0,0E0,0E0,0E0,0E0,0E0,0E0,0E0,0E0,0E0,0E0,0E0],"parents":[2147483647,0,0,1,1,2,2,3,3,4,4,5,5,6,6,7,7,8,8,9,9,10,10,11,11,12,12,13,13,14,14,15,15,16,16,17,17,18,18,19,19,20,20,21,21,22,22,23,23,24,24,25,25,26,26,27,27,28,28,29,29,30,30,31,31,32,32,33,33,34,34,35,35,36,36,37,37,38,38,39,39,40,40,42,42,43,43,44,44,45,45,46,46,47,47,48,48,49,49,50,50,51,51,52,52,53,53,54,54,55,55,56,56,57,57,58,58,59,59,60,60,61,61,62,62],"right_children":[2,4,6,8,10,12,14,16,18,20,22,24,26,28,30,32,34,36,38,40,42,44,46,48,50,52,54,56,58,60,62,64,66,68,70,72,74,76,78,80,82,-1,84,86,88,90,92,94,96,98,100,102,104,106,108,110,112,114,116,118,120,122,124,-1,-1,-1,-1,-1,-1,-1,-1,-1,-1,-1,-1,-1,-1,-1,-1,-1,-1,-1,-1,-1,-1,-1,-1,-1,-1,-1,-1,-1,-1,-1,-1,-1,-1,-1,-1,-1,-1,-1,-1,-1,-1,-1,-1,-1,-1,-1,-1,-1,-1,-1,-1,-1,-1,-1,-1,-1,-1,-1,-1,-1,-1],"split_conditions":[4E1,4.1E1,4E1,4E1,4.1E1,4.1E1,4E1,3.669548E0,1.898724E0,3.075259E0,9.60506E-1,4E1,4.1E1,4E1,4E1,-8.59829E-1,7.070513E1,4.1E1,2.407673E0,-5.36122E-1,3.669548E0,-4.25293E-1,2.200647E0,4E1,-8.59829E-1,1.45573E-1,-6.10042E-1,-1.211837E1,1.45573E-1,5.00304E-1,1.5699E-2,4E1,2.06596E0,4.635151E0,7.980075E1,4E1,6.64019E-1,2.200647E0,2.697328E0,-8.03813E-1,1.24025E-1,-1.08055435E-1,1.1456467E1,-1.184549E0,3.70327E-1,1.272263E0,2.407673E0,-1.447181E0,-2.173329E0,4E1,-5.36122E-1,-1.92848E-1,3.4038E-1,-1.022674E0,8.95588E-1,4E1,-1.184549E0,4E1,4.1E1,-1.022674E0,2.200647E0,-8.03813E-1,1.455204E0,2.3540126E-1,1.6546237E-1,1.9027275E-1,2.18915E-1,2.3583874E-1,2.4166527E-1,2.0655422E-1,2.382235E-1,1.7269138E-1,1.1273974E-1,7.0599765E-2,1.15476884E-1,1.5956575E-1,1.8682668E-1,2.0531563E-1,2.3577508E-1,4.7086976E-2,-2.963567E-2,1.0968814E-1,5.8830354E-2,-1.7568606E-1,-1.4971372E-1,5.859828E-2,-9.8397054E-2,-2.6321968E-2,1.0004728E-2,-1.01810634E-1,-6.696165E-2,-1.4550331E-1,-1.767411E-1,1.5845108E-1,1.1506868E-1,-1.4053923E-1,1.2398409E-1,2.829059E-2,-6.98606E-2,1.2906548E-1,-2.4578018E-2,5.64933E-2,3.728414E-3,2.0754778E-1,7.621589E-2,-1.6342336E-1,-1.0175644E-2,-1.2095448E-1,-9.101592E-2,-7.622273E-2,-1.4448829E-1,1.2871398E-2,-5.7849966E-2,-1.0585108E-1,-1.6420433E-1,-1.7225978E-1,9.036603E-3,-1.21099405E-1,-1.5823472E-1,-7.0241705E-2,-1.2592898E-1,-1.690132E-1,-1.788353E-1,-1.7008421E-1,-1.7797168E-1],"split_indices":[7,1,1,6,6,6,2,0,0,0,0,6,8,6,6,0,0,6,0,0,0,0,0,2,0,0,0,0,0,0,0,1,0,0,0,1,0,0,0,0,0,0,0,0,0,0,0,0,0,3,0,0,0,0,0,4,0,4,1,0,0,0,0,0,0,0,0,0,0,0,0,0,0,0,0,0,0,0,0,0,0,0,0,0,0,0,0,0,0,0,0,0,0,0,0,0,0,0,0,0,0,0,0,0,0,0,0,0,0,0,0,0,0,0,0,0,0,0,0,0,0,0,0,0,0],"split_type":[0,0,0,0,0,0,0,0,0,0,0,0,0,0,0,0,0,0,0,0,0,0,0,0,0,0,0,0,0,0,0,0,0,0,0,0,0,0,0,0,0,0,0,0,0,0,0,0,0,0,0,0,0,0,0,0,0,0,0,0,0,0,0,0,0,0,0,0,0,0,0,0,0,0,0,0,0,0,0,0,0,0,0,0,0,0,0,0,0,0,0,0,0,0,0,0,0,0,0,0,0,0,0,0,0,0,0,0,0,0,0,0,0,0,0,0,0,0,0,0,0,0,0,0,0],"sum_hessian":[3.0847624E7,9.675849E6,2.1171776E7,8.900815E6,7.7503344E5,2.381461E6,1.8790316E7,8.363288E6,5.375274E5,1.2773319E5,6.473003E5,5.7226056E5,1.8092004E6,4.8955647E5,1.8300758E7,3.2587735E6,5.1045145E6,4.287131E5,1.0881427E5,1.20760766E5,6.972416E3,4.4832125E5,1.9897905E5,3.6028938E5,2.1197116E5,1.2447546E5,1.684725E6,8.243461E4,4.0712188E5,3.24604E5,1.7976154E7,2.4136608E6,8.4511275E5,3.3412645E6,1.76325E6,3.7296938E4,3.9141616E5,5.8784543E4,5.0029727E4,1.993881E4,1.0082196E5,4.644688E3,2.3277283E3,1.1031506E5,3.380062E5,1.4433448E5,5.464456E4,1.9676314E5,1.6352625E5,9.745398E4,1.1451717E5,1.005445E5,2.3930963E4,9.4999336E4,1.5897256E6,1.4292849E4,6.814176E4,3.725863E5,3.4535562E4,2.3006697E5,9.453702E4,6.466146E6,1.1510009E7,2.352601E6,6.105979E4,5.464271E5,2.986856E5,1.5655184E5,3.1847128E6,1.6405305E5,1.5991969E6,2.965572E4,7.641217E3,1.5698625E5,2.3442989E5,4.123777E4,1.7546775E4,2.1788557E4,2.824117E4,8.511529E3,1.1427281E4,1.9628426E4,8.119353E4,2.267408E3,6.032029E1,2.338077E3,1.07976984E5,1.444277E5,1.9357847E5,8.0333805E4,6.4000684E4,1.1202577E4,4.344198E4,9.127337E4,1.05489766E5,4.553944E4,1.17986805E5,3.3414777E4,6.4039203E4,6.4721508E4,4.9795668E4,7.1417375E4,2.9127127E4,8.094138E3,1.5836824E4,2.286233E4,7.213701E4,8.5614656E5,7.3357906E5,1.1022164E4,3.270684E3,4.228623E4,2.585553E4,3.3931728E5,3.326903E4,6.4613223E3,2.8074242E4,6.4186902E4,1.6588008E5,8.943761E4,5.099418E3,3.0885028E5,6.1572955E6,1.0145025E7,1.3649842E6],"tree_param":{"num_deleted":"0","num_feature":"9","num_nodes":"125","size_leaf_vector":"1"}},{"base_weights":[-5.6532073E-1,-2.7182657E-1,-6.008544E-1,-5.6742734E-1,1.254449E-1,-5.3936183E-1,-6.178889E-1,-5.8006346E-1,-3.5370198E-1,4.766278E-1,-6.1949456E-1,-6.168521E-1,2.0025726E-1,-6.175714E-1,-6.1951816E-1,-5.8326197E-1,-3.9023113E-1,-1.5648434E-1,-6.117859E-1,1.3478051E-1,6.442322E-1,-6.259394E-1,-6.173691E-1,-6.1702603E-1,-3.8231146E-1,1.18318014E-1,5.783453E-1,-6.172137E-1,-6.1796486E-1,-6.247798E-1,-6.185076E-1,-5.8487934E-1,-3.397808E-1,-2.519459E-1,-4.3166032E-1,-1.8489219E-1,5.1125497E-1,-6.119168E-1,5.8851343E-1,7.0348464E-2,5.9964377E-1,3.3361176E-1,6.9314915E-1,-1.850039E-1,-6.4277464E-1,-1.8561588E-1,-1.8492879E-1,-6.0796213E-1,-6.18664E-1,-2.5727803E-1,-5.735417E-1,9.598538E-2,8.9839154E-1,7.1132386E-1,1.0687882E-1,-6.1875993E-1,-6.1715317E-1,-6.184486E-1,-6.1711454E-1,-6.238778E-1,-6.2856364E-1,-1.8774427E-1,-1.8551552E-1,-1.8431506E-1,-1.7324394E-1,-6.3774556E-2,-1.515415E-1,-8.467535E-2,3.0901603E-2,-1.3053335E-1,7.208284E-2,1.7643185E-2,-7.718395E-2,2.73602E-1,6.955616E-2,-1.8567637E-1,-1.8186691E-1,2.1043938E-1,3.315636E-2,6.425618E-3,1.682263E-1,2.4041128E-1,1.2462883E-1,-4.3348335E-2,1.6719235E-1,1.9850951E-1,2.310152E-1,-1.9992475E-1,-1.8919957E-1,-1.8248253E-1,-8.662375E-2,-1.8560115E-1,-7.552903E-2,-1.5165772E-1,2.3947284E-1,-1.7830946E-1,-3.96254E-2,-5.0057746E-2,4.8912715E-2,2.7309912E-1,-1.601257E-1,-4.560361E-2,2.2471955E-1,-1.0202671E-1,1.4818312E-1,2.374483E-1,-1.8564013E-1,-1.8492119E-1,-1.851887E-1,-1.8625662E-1,-1.8549675E-1,-1.838981E-1,-1.8530396E-1,-1.8551458E-1,-1.8724996E-1,-1.8821041E-1,-1.9077222E-1],"categories":[],"categories_nodes":[],"categories_segments":[],"categories_sizes":[],"default_left":[0,0,0,0,0,0,0,0,0,0,0,0,0,0,0,0,0,0,0,0,0,0,0,0,0,0,0,0,0,0,0,0,0,0,0,0,0,0,0,0,0,0,0,0,0,0,0,0,0,0,0,0,0,0,0,0,0,0,0,0,0,0,0,0,0,0,0,0,0,0,0,0,0,0,0,0,0,0,0,0,0,0,0,0,0,0,0,0,0,0,0,0,0,0,0,0,0,0,0,0,0,0,0,0,0,0,0,0,0,0,0,0,0,0,0,0,0],"id":7,"left_children":[1,3,5,7,9,11,13,15,17,19,21,23,25,27,29,31,33,35,37,39,41,43,45,47,49,51,53,55,57,59,61,63,65,67,69,71,73,75,77,79,81,83,85,-1,87,-1,-1,89,91,93,95,97,99,101,103,105,107,109,111,113,115,-1,-1,-1,-1,-1,-1,-1,-1,-1,-1,-1,-1,-1,-1,-1,-1,-1,-1,-1,-1,-1,-1,-1,-1,-1,-1,-1,-1,-1,-1,-1,-1,-1,-1,-1,-1,-1,-1,-1,-1,-1,-1,-1,-1,-1,-1,-1,-1,-1,-1,-1,-1,-1,-1,-1,-1],"loss_changes":[2.85425E5,3.4709938E5,2.5572E4,4.576625E3,3.298892E5,3.0352E5,1.05E1,9.71375E2,4.815202E3,4.910125E4,5.15625E0,1.95375E2,1.5559023E4,2.5E0,1.625E1,6.19375E2,1.518086E2,1.0173607E3,6.798828E0,8.444717E3,8.737422E3,1.52109375E1,7.8125E-3,7.075E1,8.484802E1,7.1908535E3,5.6083223E3,7.5E-1,3E0,1.3125E0,2.0625E0,3.40875E2,2.1834521E2,6.581052E1,4.7412354E1,9.074719E2,2.4485449E2,1.2597656E0,1.912396E-1,5.9417837E3,1.2750771E3,8.367913E3,1.2010781E3,0E0,9.744141E0,0E0,0E0,7.309375E1,9.375E0,5.640919E2,1.2832916E1,7.0728965E3,1.9691211E2,2.2736172E3,3.4051697E3,1.8492188E1,5E-1,1E0,6.125E0,2.5E-1,4.453125E-1,0E0,0E0,0E0,0E0,0E0,0E0,0E0,0E0,0E0,0E0,0E0,0E0,0E0,0E0,0E0,0E0,0E0,0E0,0E0,0E0,0E0,0E0,0E0,0E0,0E0,0E0,0E0,0E0,0E0,0E0,0E0,0E0,0E0,0E0,0E0,0E0,0E0,0E0,0E0,0E0,0E0,0E0,0E0,0E0,0E0,0E0,0E0,0E0,0E0,0E0,0E0,0E0,0E0,0E0,0E0,0E0],"parents":[2147483647,0,0,1,1,2,2,3,3,4,4,5,5,6,6,7,7,8,8,9,9,10,10,11,11,12,12,13,13,14,14,15,15,16,16,17,17,18,18,19,19,20,20,21,21,22,22,23,23,24,24,25,25,26,26,27,27,28,28,29,29,30,30,31,31,32,32,33,33,34,34,35,35,36,36,37,37,38,38,39,39,40,40,41,41,42,42,44,44,47,47,48,48,49,49,50,50,51,51,52,52,53,53,54,54,55,55,56,56,57,57,58,58,59,59,60,60],"right_children":[2,4,6,8,10,12,14,16,18,20,22,24,26,28,30,32,34,36,38,40,42,44,46,48,50,52,54,56,58,60,62,64,66,68,70,72,74,76,78,80,82,84,86,-1,88,-1,-1,90,92,94,96,98,100,102,104,106,108,110,112,114,116,-1,-1,-1,-1,-1,-1,-1,-1,-1,-1,-1,-1,-1,-1,-1,-1,-1,-1,-1,-1,-1,-1,-1,-1,-1,-1,-1,-1,-1,-1,-1,-1,-1,-1,-1,-1,-1,-1,-1,-1,-1,-1,-1,-1,-1,-1,-1,-1,-1,-1,-1,-1,-1,-1,-1,-1],"split_conditions":[-7.58175E-1,4E1,4.1E1,4E1,4.1E1,4E1,1.169568E0,4E1,4.1E1,4E1,4.1E1,4E1,4E1,2.3597E-1,4E1,4E1,-2.543702E0,4E1,4E1,4E1,4E1,-2.173329E0,-9.2949E-1,8.27109E-1,3.4038E-1,4E1,2.58314E-1,-6.3238E-1,7.5747E-1,1.898724E0,4.1E1,-3.438972E1,-2.986379E0,4E1,4E1,-1.211837E1,-5.402676E0,-9.2949E-1,-8.03813E-1,4E1,-5.402676E0,4E1,4E1,-1.850039E-1,4E1,-1.8561588E-1,-1.8492879E-1,4E1,4E1,3.10982E-1,4E1,4E1,4.1E1,4E1,4E1,4.1E1,-4.13582E-1,4E1,4E1,1.201877E0,2.200647E0,-1.8774427E-1,-1.8551552E-1,-1.8431506E-1,-1.7324394E-1,-6.3774556E-2,-1.515415E-1,-8.467535E-2,3.0901603E-2,-1.3053335E-1,7.208284E-2,1.7643185E-2,-7.718395E-2,2.73602E-1,6.955616E-2,-1.8567637E-1,-1.8186691E-1,2.1043938E-1,3.315636E-2,6.425618E-3,1.682263E-1,2.4041128E-1,1.2462883E-1,-4.3348335E-2,1.6719235E-1,1.9850951E-1,2.310152E-1,-1.9992475E-1,-1.8919957E-1,-1.8248253E-1,-8.662375E-2,-1.8560115E-1,-7.552903E-2,-1.5165772E-1,2.3947284E-1,-1.7830946E-1,-3.96254E-2,-5.0057746E-2,4.8912715E-2,2.7309912E-1,-1.601257E-1,-4.560361E-2,2.2471955E-1,-1.0202671E-1,1.4818312E-1,2.374483E-1,-1.8564013E-1,-1.8492119E-1,-1.851887E-1,-1.8625662E-1,-1.8549675E-1,-1.838981E-1,-1.8530396E-1,-1.8551458E-1,-1.8724996E-1,-1.8821041E-1,-1.9077222E-1],"split_indices":[0,7,2,1,8,7,0,6,1,3,6,2,3,0,1,2,0,2,8,2,6,0,0,0,0,2,0,0,0,0,6,0,0,4,8,0,0,0,0,4,0,1,2,0,1,0,0,8,3,0,6,6,6,6,1,8,0,1,1,0,0,0,0,0,0,0,0,0,0,0,0,0,0,0,0,0,0,0,0,0,0,0,0,0,0,0,0,0,0,0,0,0,0,0,0,0,0,0,0,0,0,0,0,0,0,0,0,0,0,0,0,0,0,0,0,0,0],"split_type":[0,0,0,0,0,0,0,0,0,0,0,0,0,0,0,0,0,0,0,0,0,0,0,0,0,0,0,0,0,0,0,0,0,0,0,0,0,0,0,0,0,0,0,0,0,0,0,0,0,0,0,0,0,0,0,0,0,0,0,0,0,0,0,0,0,0,0,0,0,0,0,0,0,0,0,0,0,0,0,0,0,0,0,0,0,0,0,0,0,0,0,0,0,0,0,0,0,0,0,0,0,0,0,0,0,0,0,0,0,0,0,0,0,0,0,0,0],"sum_hessian":[2.7368644E7,2.9557015E6,2.4412942E7,1.6947072E6,1.2609941E6,5.2958015E6,1.911714E7,1.6001028E6,9.460453E4,8.569888E5,4.0400534E5,4.7935765E6,5.0222525E5,1.5999585E7,3.1175552E6,1.5735868E6,2.651592E4,5.36267E4,4.0977832E4,2.819412E5,5.750476E5,1.0012127E5,3.038841E5,4.7900225E6,3.553787E3,4.1277084E5,8.945439E4,8.381702E6,7.6178835E6,5.0219872E5,2.6153565E6,1.5632018E6,1.0385026E4,6.1142925E3,2.0401627E4,5.1439035E4,2.1876653E3,4.097385E4,3.9780953E0,2.47621E5,3.4320188E4,7.823925E4,4.9680838E5,6.461768E4,3.550359E4,1.2442964E5,1.7945444E5,7.3319156E5,4.056831E6,2.1502312E3,1.4035558E3,4.012837E5,1.1487181E4,6.977393E4,1.9680459E4,3.154981E5,8.066204E6,4.8552355E6,2.7626475E6,4.056611E5,9.653763E4,4.304648E4,2.57231E6,3.134186E5,1.2497832E6,5.8710723E3,4.5139536E3,5.6335156E3,4.807769E2,2.0297738E4,1.0388893E2,1.1780054E4,3.965898E4,8.977445E2,1.2899207E3,1.83239E4,2.2649951E4,2.8395717E0,1.1385236E0,2.2515722E5,2.2463785E4,1.6379821E4,1.7940365E4,2.4938496E4,5.3300758E4,3.5260944E5,1.441989E5,1.2007498E4,2.3496092E4,7.324727E5,7.1885815E2,4.0567588E6,7.219431E1,1.7412323E3,4.0899893E2,1.3400027E3,6.355308E1,8.156609E4,3.197176E5,1.1392573E4,9.460788E1,2.92233E3,6.68516E4,9.133528E3,1.0546931E4,8.488903E0,3.154896E5,1.2894096E6,6.7767945E6,2.4146905E5,4.6137665E6,3.333855E5,2.4292622E6,2.0347346E4,3.8531375E5,8.309576E4,1.3441881E4],"tree_param":{"num_deleted":"0","num_feature":"9","num_nodes":"117","size_leaf_vector":"1"}},{"base_weights":[5.268559E-1,-3.9114624E-1,7.7243894E-1,-5.323024E-1,4.2958298E-1,6.2766975E-1,7.855809E-1,-5.765396E-1,-2.3583151E-2,5.054753E-1,9.308791E-2,2.540928E-1,6.5310544E-1,6.984871E-1,7.8696525E-1,-6.1695874E-1,-5.5997664E-1,1.5714109E-2,-4.3796635E-1,2.754783E-1,5.4257864E-1,-2.4127829E-1,2.4156678E-1,7.974483E-1,1.2455663E-3,5.323147E-1,6.599861E-1,7.429797E-1,5.9053624E-1,7.955303E-1,7.821951E-1,-6.204814E-1,-6.019481E-1,-4.4218192E-1,-5.982467E-1,7.522173E-2,-2.0428617E-1,-3.4716618E-1,-5.763629E-1,2.3342706E-1,6.5501624E-1,4.797615E-1,6.669479E-1,1.6201337E-1,-5.1773715E-1,5.7935756E-1,1.1276708E-1,2.4202807E-1,7.7140534E-1,-2.8757453E-1,5.9910357E-2,7.9896027E-1,4.418764E-1,6.884708E-1,6.2587196E-1,6.6667277E-1,7.6113343E-1,5.83711E-1,7.060077E-1,7.907843E-1,7.98471E-1,7.80096E-1,7.927772E-1,-1.8569562E-1,-1.8859117E-1,-1.8213552E-1,-1.5496024E-1,-1.1681195E-1,-1.8410562E-1,-1.8351674E-1,-1.7191246E-1,3.6488593E-2,-2.3017325E-2,-4.0900554E-3,-7.4944496E-2,-8.859332E-2,-1.17029905E-1,-1.695592E-1,-1.7721905E-1,8.456016E-2,2.4242887E-2,1.4807598E-1,2.1234044E-1,1.8856248E-1,1.270874E-1,1.8295735E-1,2.3034513E-1,3.4060514E-1,2.1160409E-2,-5.359251E-2,-1.6909671E-1,1.9465849E-1,1.3977486E-1,-5.3873532E-3,6.277017E-2,2.3148435E-1,-1.4760111E-1,-6.892837E-2,-1.362915E-1,7.0905484E-2,-2.804831E-2,2.526393E-1,2.2513692E-1,1.19032174E-1,1.6229507E-1,1.8566853E-1,2.1234812E-1,1.7407793E-1,2.0047356E-1,2.3095301E-1,-9.830692E-3,2.3237209E-1,2.0868996E-1,1.7637682E-1,1.5404354E-1,2.0252575E-1,2.3788257E-1,2.2523561E-1,2.3732084E-1,2.3997866E-1,2.3773785E-1,2.3578374E-1,2.3370486E-1,2.3626955E-1,2.3874804E-1],"categories":[],"categories_nodes":[],"categories_segments":[],"categories_sizes":[],"default_left":[0,0,0,0,0,0,0,0,0,0,0,0,0,0,0,0,0,0,0,0,0,0,0,0,0,0,0,0,0,0,0,0,0,0,0,0,0,0,0,0,0,0,0,0,0,0,0,0,0,0,0,0,0,0,0,0,0,0,0,0,0,0,0,0,0,0,0,0,0,0,0,0,0,0,0,0,0,0,0,0,0,0,0,0,0,0,0,0,0,0,0,0,0,0,0,0,0,0,0,0,0,0,0,0,0,0,0,0,0,0,0,0,0,0,0,0,0,0,0,0,0,0,0,0,0],"id":8,"left_children":[1,3,5,7,9,11,13,15,17,19,21,23,25,27,29,31,33,35,37,39,41,43,45,47,49,51,53,55,57,59,61,63,65,67,69,71,73,75,77,79,81,83,85,87,89,91,93,-1,95,97,99,101,103,105,107,109,111,113,115,117,119,121,123,-1,-1,-1,-1,-1,-1,-1,-1,-1,-1,-1,-1,-1,-1,-1,-1,-1,-1,-1,-1,-1,-1,-1,-1,-1,-1,-1,-1,-1,-1,-1,-1,-1,-1,-1,-1,-1,-1,-1,-1,-1,-1,-1,-1,-1,-1,-1,-1,-1,-1,-1,-1,-1,-1,-1,-1,-1,-1,-1,-1,-1,-1],"loss_changes":[8.53879E6,9.260921E5,5.685E4,1.5349612E5,2.9957562E4,2.3630188E4,3.304E3,4.2005E3,8.885738E3,8.168297E3,1.0718035E4,2.177961E4,1.93475E3,2.0583438E3,1.102E3,9.60625E1,2.006525E4,6.5249697E3,5.937539E2,2.1220342E3,6.4390312E3,7.4018545E3,6.504294E3,1.1587891E1,1.833079E3,3.0257227E3,2.1400625E3,4.1996875E2,9.819141E1,1.34E2,3.84E2,1.76875E1,1.5282031E2,9.885344E3,1.14075E3,2.7662114E3,9.21062E2,6.3430176E1,2.6694336E0,8.8495166E2,1.12660645E2,4.573633E3,1.5923594E3,2.4040735E3,6.131914E2,3.2508496E2,1.3648859E3,0E0,3.8896484E0,1.7595557E2,2.4339429E3,6.591211E1,4.186504E2,1.6161875E3,1.9369375E3,4.2101035E3,2.153125E2,3.464453E1,1.8221436E1,4.15E1,5.15E1,9.1E1,4.5125E1,0E0,0E0,0E0,0E0,0E0,0E0,0E0,0E0,0E0,0E0,0E0,0E0,0E0,0E0,0E0,0E0,0E0,0E0,0E0,0E0,0E0,0E0,0E0,0E0,0E0,0E0,0E0,0E0,0E0,0E0,0E0,0E0,0E0,0E0,0E0,0E0,0E0,0E0,0E0,0E0,0E0,0E0,0E0,0E0,0E0,0E0,0E0,0E0,0E0,0E0,0E0,0E0,0E0,0E0,0E0,0E0,0E0,0E0,0E0,0E0,0E0,0E0],"parents":[2147483647,0,0,1,1,2,2,3,3,4,4,5,5,6,6,7,7,8,8,9,9,10,10,11,11,12,12,13,13,14,14,15,15,16,16,17,17,18,18,19,19,20,20,21,21,22,22,23,23,24,24,25,25,26,26,27,27,28,28,29,29,30,30,31,31,32,32,33,33,34,34,35,35,36,36,37,37,38,38,39,39,40,40,41,41,42,42,43,43,44,44,45,45,46,46,48,48,49,49,50,50,51,51,52,52,53,53,54,54,55,55,56,56,57,57,58,58,59,59,60,60,61,61,62,62],"right_children":[2,4,6,8,10,12,14,16,18,20,22,24,26,28,30,32,34,36,38,40,42,44,46,48,50,52,54,56,58,60,62,64,66,68,70,72,74,76,78,80,82,84,86,88,90,92,94,-1,96,98,100,102,104,106,108,110,112,114,116,118,120,122,124,-1,-1,-1,-1,-1,-1,-1,-1,-1,-1,-1,-1,-1,-1,-1,-1,-1,-1,-1,-1,-1,-1,-1,-1,-1,-1,-1,-1,-1,-1,-1,-1,-1,-1,-1,-1,-1,-1,-1,-1,-1,-1,-1,-1,-1,-1,-1,-1,-1,-1,-1,-1,-1,-1,-1,-1,-1,-1,-1,-1,-1,-1],"split_conditions":[4.1E1,4.1E1,4E1,4.1E1,4E1,4.1E1,4E1,-1.74464E0,2.200647E0,4.1E1,4.1E1,-2.173329E0,-6.10042E-1,5.00304E-1,1.5699E-2,-3.648773E0,3.669548E0,4E1,2.697328E0,2.697328E0,9.60506E-1,4E1,-6.57641E-1,-2.543702E0,-6.57641E-1,-1.022674E0,8.95588E-1,-1.184549E0,2.200647E0,-3.25699E-1,1.312377E0,4E1,4E1,4E1,7.070513E1,1.579543E0,-7.58175E-1,2.407673E0,3.075259E0,1.291931E0,3.075259E0,-4.25293E-1,1.971989E0,-2.543702E0,-1.184549E0,-8.59829E-1,-1.02081E-1,2.4202807E-1,4E1,4E1,1.010576E0,-1.447181E0,-6.57641E-1,-1.6781E-2,1.429611E0,-2.173329E0,4.8388E-2,1.971989E0,3.075259E0,4.1E1,-6.7255E-2,2.01878E-1,1.505747E0,-1.8569562E-1,-1.8859117E-1,-1.8213552E-1,-1.5496024E-1,-1.1681195E-1,-1.8410562E-1,-1.8351674E-1,-1.7191246E-1,3.6488593E-2,-2.3017325E-2,-4.0900554E-3,-7.4944496E-2,-8.859332E-2,-1.17029905E-1,-1.695592E-1,-1.7721905E-1,8.456016E-2,2.4242887E-2,1.4807598E-1,2.1234044E-1,1.8856248E-1,1.270874E-1,1.8295735E-1,2.3034513E-1,3.4060514E-1,2.1160409E-2,-5.359251E-2,-1.6909671E-1,1.9465849E-1,1.3977486E-1,-5.3873532E-3,6.277017E-2,2.3148435E-1,-1.4760111E-1,-6.892837E-2,-1.362915E-1,7.0905484E-2,-2.804831E-2,2.526393E-1,2.2513692E-1,1.19032174E-1,1.6229507E-1,1.8566853E-1,2.1234812E-1,1.7407793E-1,2.0047356E-1,2.3095301E-1,-9.830692E-3,2.3237209E-1,2.0868996E-1,1.7637682E-1,1.5404354E-1,2.0252575E-1,2.3788257E-1,2.2523561E-1,2.3732084E-1,2.3997866E-1,2.3773785E-1,2.3578374E-1,2.3370486E-1,2.3626955E-1,2.3874804E-1],"split_indices":[2,1,1,6,7,6,6,0,0,6,6,0,0,0,0,0,0,7,0,0,0,6,0,0,0,0,0,0,0,0,0,7,8,6,0,0,0,0,0,0,0,0,0,0,0,0,0,0,6,6,0,0,0,0,0,0,0,0,0,6,0,0,0,0,0,0,0,0,0,0,0,0,0,0,0,0,0,0,0,0,0,0,0,0,0,0,0,0,0,0,0,0,0,0,0,0,0,0,0,0,0,0,0,0,0,0,0,0,0,0,0,0,0,0,0,0,0,0,0,0,0,0,0,0,0],"split_type":[0,0,0,0,0,0,0,0,0,0,0,0,0,0,0,0,0,0,0,0,0,0,0,0,0,0,0,0,0,0,0,0,0,0,0,0,0,0,0,0,0,0,0,0,0,0,0,0,0,0,0,0,0,0,0,0,0,0,0,0,0,0,0,0,0,0,0,0,0,0,0,0,0,0,0,0,0,0,0,0,0,0,0,0,0,0,0,0,0,0,0,0,0,0,0,0,0,0,0,0,0,0,0,0,0,0,0,0,0,0,0,0,0,0,0,0,0,0,0,0,0,0,0,0,0],"sum_hessian":[3.7875124E7,7.9938195E6,2.9881304E7,6.8207315E6,1.1730881E6,2.4868308E6,2.7394474E7,6.275064E6,5.456673E5,9.5720244E5,2.1588564E5,1.5852766E5,2.328303E6,4.2864262E5,2.6965832E7,1.8239584E6,4.4511055E6,4.9840316E5,4.726417E4,1.3296775E5,8.242347E5,6.638644E4,1.494992E5,5.034238E4,1.0818528E5,1.2548439E5,2.2028188E6,3.0353353E5,1.2510909E5,9.645962E6,1.731987E7,1.4772438E6,3.4671466E5,1.0914984E6,3.3596072E6,3.9229294E5,1.061102E5,2.8541787E4,1.8722387E4,1.1970638E5,1.326136E4,5.476364E5,2.7659834E5,2.6999955E4,3.938648E4,4.1267457E4,1.0823175E5,3.706091E4,1.3281467E4,1.8263924E4,8.992135E4,3.1779342E4,9.370505E4,1.2004456E6,1.00237306E6,5.8341184E4,2.4519234E5,1.1813263E5,6.9764565E3,3.690279E6,5.9556825E6,1.445301E7,2.8668598E6,1.2483364E6,2.2890736E5,3.2691934E5,1.9795285E4,8.345347E5,2.569637E5,2.189163E6,1.1704442E6,3.0051178E5,9.178116E4,2.0455164E4,8.565504E4,1.2931268E4,1.561052E4,1.05576875E4,8.1646987E3,9.086527E4,2.884111E4,3.2703152E3,9.991045E3,1.500218E5,3.9761453E5,1.7663383E5,9.9964516E4,2.3185947E3,2.468136E4,4.6979937E3,3.468849E4,2.558633E4,1.5681127E4,4.5956125E4,6.2275625E4,1.3279658E4,1.8090887E0,1.3563276E4,4.700649E3,4.1820363E4,4.8100992E4,1.6805395E4,1.4973948E4,6.4401613E4,2.9303432E4,2.6128683E5,9.391588E5,4.8274322E5,5.196298E5,5.0841715E4,7.4994683E3,2.0343755E5,4.1754785E4,1.1144235E5,6.6902856E3,5.1525054E3,1.8239512E3,2.614041E4,3.6641385E6,4.793121E6,1.1625619E6,2.2520598E6,1.220095E7,1.0583399E6,1.8085199E6],"tree_param":{"num_deleted":"0","num_feature":"9","num_nodes":"125","size_leaf_vector":"1"}},{"base_weights":[-1.2565333E-1,5.8128726E-1,-4.747869E-1,6.426859E-1,-7.8606576E-2,-1.337864E-1,-5.2351624E-1,6.666082E-1,3.1211483E-1,1.3254665E-1,-1.2335836E-1,1.8063296E-1,-2.4375671E-1,-2.4859701E-1,-5.3181714E-1,6.33266E-1,6.883701E-1,2.6633996E-1,5.425103E-1,1.6377823E-1,-2.6983345E-1,-8.6127244E-2,-4.8845223E-1,1.3136768E-1,3.8764226E-1,1.569754E-1,-2.7765685E-1,-7.340143E-2,-2.8722876E-1,-3.560067E-1,-5.351992E-1,6.6832465E-1,5.496408E-1,6.968521E-1,6.724495E-1,4.546782E-1,2.546797E-1,4.9105394E-1,6.743904E-1,1.1838983E-1,2.9369566E-1,-1.9861682E-1,-5.425382E-1,-2.6193613E-1,-5.2215654E-2,-3.876001E-1,-5.480966E-1,2.2836007E-1,-2.8194379E-2,4.522282E-1,1.4769798E-2,1.4632578E-1,9.162243E-1,-1.7320833E-1,-2.9890215E-1,-2.4607977E-1,-1.8834772E-2,-3.145012E-1,-7.246157E-2,-4.3479583E-1,-1.8036509E-1,-5.5473346E-1,-5.245699E-1,2.0256582E-1,1.2970442E-1,1.5670104E-1,1.82531E-1,2.0243996E-1,2.093824E-1,1.681735E-1,2.0528264E-1,1.5596056E-1,7.722999E-2,5.488115E-2,9.084302E-2,1.306973E-1,1.5955836E-1,1.998896E-1,2.0542695E-1,4.8702735E-2,6.001739E-4,1.362646E-1,4.8020583E-2,-2.6430966E-2,-8.638232E-2,-1.6347773E-1,-1.3364764E-1,6.6338904E-2,-8.243281E-2,8.7508647E-4,-6.1478224E-2,-1.0759274E-1,-1.2697785E-1,-1.6088632E-1,-1.681596E-1,9.270398E-2,-1.9489678E-2,-5.0445843E-2,3.869959E-2,1.1126806E-1,2.2667691E-1,-8.778862E-3,1.0986765E-1,1.0943991E-3,5.7479415E-2,2.0780618E-1,2.8721058E-1,-1.581335E-1,-4.4866435E-2,-1.3242197E-1,-7.886367E-2,-1.073119E-1,-4.953985E-2,2.6776513E-2,-5.1836625E-2,-8.9160465E-2,-1.4937453E-1,-1.5265743E-1,1.6974126E-3,-1.023263E-1,-1.4194338E-1,-5.244479E-2,-1.5009546E-1,-1.6315927E-1,-1.6858886E-1,-1.5624869E-1,-1.6587618E-1],"categories":[],"categories_nodes":[],"categories_segments":[],"categories_sizes":[],"default_left":[0,0,0,0,0,0,0,0,0,0,0,0,0,0,0,0,0,0,0,0,0,0,0,0,0,0,0,0,0,0,0,0,0,0,0,0,0,0,0,0,0,0,0,0,0,0,0,0,0,0,0,0,0,0,0,0,0,0,0,0,0,0,0,0,0,0,0,0,0,0,0,0,0,0,0,0,0,0,0,0,0,0,0,0,0,0,0,0,0,0,0,0,0,0,0,0,0,0,0,0,0,0,0,0,0,0,0,0,0,0,0,0,0,0,0,0,0,0,0,0,0,0,0,0,0,0,0],"id":9,"left_children":[1,3,5,7,9,11,13,15,17,19,21,23,25,27,29,31,33,35,37,39,41,43,45,47,49,51,53,55,57,59,61,63,65,67,69,71,73,75,77,79,81,83,85,87,89,91,93,95,97,99,101,103,105,107,109,111,113,115,117,119,121,123,125,-1,-1,-1,-1,-1,-1,-1,-1,-1,-1,-1,-1,-1,-1,-1,-1,-1,-1,-1,-1,-1,-1,-1,-1,-1,-1,-1,-1,-1,-1,-1,-1,-1,-1,-1,-1,-1,-1,-1,-1,-1,-1,-1,-1,-1,-1,-1,-1,-1,-1,-1,-1,-1,-1,-1,-1,-1,-1,-1,-1,-1,-1,-1,-1],"loss_changes":[6.427873E6,3.4883725E5,2.896855E5,6.229025E4,6.9254316E3,7.536907E4,3.480975E4,5.32925E3,5.605832E3,1.6106951E3,8.219879E3,5.7603145E3,2.1938617E4,3.0258086E3,8.804E3,8.50425E3,5.995E2,9.7374023E2,5.975469E2,7.0129297E2,1.7918219E2,3.2716938E3,3.3640723E2,7.0611064E3,2.6148682E3,1.01834595E3,3.3040234E3,7.610754E2,2.1454727E3,3.8673086E3,3.016E3,3.32525E3,1.3753281E3,6.9125E1,2.0434375E3,3.3229346E2,1.4419238E3,1.4304395E2,1.6171875E0,4.5090527E2,6.6042334E2,7.225058E1,2.000122E-1,5.5043555E2,3.8731807E3,2.1326416E1,4.8632812E0,6.7131797E3,3.7948982E3,2.2832812E3,2.4811104E2,8.023755E2,1.5359863E1,2.1067002E3,6.3515E3,1.7519348E2,1.02140625E3,1.0311562E3,1.4071144E3,6.931172E2,1.5356567E2,4.02E2,9.975E2,0E0,0E0,0E0,0E0,0E0,0E0,0E0,0E0,0E0,0E0,0E0,0E0,0E0,0E0,0E0,0E0,0E0,0E0,0E0,0E0,0E0,0E0,0E0,0E0,0E0,0E0,0E0,0E0,0E0,0E0,0E0,0E0,0E0,0E0,0E0,0E0,0E0,0E0,0E0,0E0,0E0,0E0,0E0,0E0,0E0,0E0,0E0,0E0,0E0,0E0,0E0,0E0,0E0,0E0,0E0,0E0,0E0,0E0,0E0,0E0,0E0,0E0,0E0,0E0],"parents":[2147483647,0,0,1,1,2,2,3,3,4,4,5,5,6,6,7,7,8,8,9,9,10,10,11,11,12,12,13,13,14,14,15,15,16,16,17,17,18,18,19,19,20,20,21,21,22,22,23,23,24,24,25,25,26,26,27,27,28,28,29,29,30,30,31,31,32,32,33,33,34,34,35,35,36,36,37,37,38,38,39,39,40,40,41,41,42,42,43,43,44,44,45,45,46,46,47,47,48,48,49,49,50,50,51,51,52,52,53,53,54,54,55,55,56,56,57,57,58,58,59,59,60,60,61,61,62,62],"right_children":[2,4,6,8,10,12,14,16,18,20,22,24,26,28,30,32,34,36,38,40,42,44,46,48,50,52,54,56,58,60,62,64,66,68,70,72,74,76,78,80,82,84,86,88,90,92,94,96,98,100,102,104,106,108,110,112,114,116,118,120,122,124,126,-1,-1,-1,-1,-1,-1,-1,-1,-1,-1,-1,-1,-1,-1,-1,-1,-1,-1,-1,-1,-1,-1,-1,-1,-1,-1,-1,-1,-1,-1,-1,-1,-1,-1,-1,-1,-1,-1,-1,-1,-1,-1,-1,-1,-1,-1,-1,-1,-1,-1,-1,-1,-1,-1,-1,-1,-1,-1,-1,-1,-1,-1,-1,-1],"split_conditions":[4E1,4.1E1,4E1,4E1,4.1E1,4.1E1,4E1,3.669548E0,1.971989E0,2.697328E0,1.971989E0,2.69306E-1,4.1E1,4E1,4E1,-1.184549E0,7.070513E1,-1.184549E0,2.697328E0,1.291931E0,3.669548E0,-5.19852E-1,2.407673E0,4E1,2.06596E0,1.169568E0,-6.7255E-2,-9.907825E0,8.0736E-2,5.00304E-1,4.8E-3,4E1,2.06596E0,4.635151E0,7.980075E1,4E1,6.64019E-1,2.200647E0,3.075259E0,7.35852E-1,1.716953E0,3.075259E0,1.1456467E1,-1.184549E0,9.43703E-1,2.200647E0,2.697328E0,-4.89876E-1,-1.74464E0,1.63076E0,2.407673E0,-6.10042E-1,1.253751E0,-1.184549E0,3.4038E-1,-1.4802859E1,-1.184549E0,4E1,4.1E1,-1.022674E0,2.697328E0,-3.25699E-1,1.455204E0,2.0256582E-1,1.2970442E-1,1.5670104E-1,1.82531E-1,2.0243996E-1,2.093824E-1,1.681735E-1,2.0528264E-1,1.5596056E-1,7.722999E-2,5.488115E-2,9.084302E-2,1.306973E-1,1.5955836E-1,1.998896E-1,2.0542695E-1,4.8702735E-2,6.001739E-4,1.362646E-1,4.8020583E-2,-2.6430966E-2,-8.638232E-2,-1.6347773E-1,-1.3364764E-1,6.6338904E-2,-8.243281E-2,8.7508647E-4,-6.1478224E-2,-1.0759274E-1,-1.2697785E-1,-1.6088632E-1,-1.681596E-1,9.270398E-2,-1.9489678E-2,-5.0445843E-2,3.869959E-2,1.1126806E-1,2.2667691E-1,-8.778862E-3,1.0986765E-1,1.0943991E-3,5.7479415E-2,2.0780618E-1,2.8721058E-1,-1.581335E-1,-4.4866435E-2,-1.3242197E-1,-7.886367E-2,-1.073119E-1,-4.953985E-2,2.6776513E-2,-5.1836625E-2,-8.9160465E-2,-1.4937453E-1,-1.5265743E-1,1.6974126E-3,-1.023263E-1,-1.4194338E-1,-5.244479E-2,-1.5009546E-1,-1.6315927E-1,-1.6858886E-1,-1.5624869E-1,-1.6587618E-1],"split_indices":[7,1,1,6,6,6,2,0,0,0,0,0,8,6,6,0,0,0,0,0,0,0,0,3,0,0,0,0,0,0,0,1,0,0,0,1,0,0,0,0,0,0,0,0,0,0,0,0,0,0,0,0,0,0,0,0,0,4,1,0,0,0,0,0,0,0,0,0,0,0,0,0,0,0,0,0,0,0,0,0,0,0,0,0,0,0,0,0,0,0,0,0,0,0,0,0,0,0,0,0,0,0,0,0,0,0,0,0,0,0,0,0,0,0,0,0,0,0,0,0,0,0,0,0,0,0,0],"split_type":[0,0,0,0,0,0,0,0,0,0,0,0,0,0,0,0,0,0,0,0,0,0,0,0,0,0,0,0,0,0,0,0,0,0,0,0,0,0,0,0,0,0,0,0,0,0,0,0,0,0,0,0,0,0,0,0,0,0,0,0,0,0,0,0,0,0,0,0,0,0,0,0,0,0,0,0,0,0,0,0,0,0,0,0,0,0,0,0,0,0,0,0,0,0,0,0,0,0,0,0,0,0,0,0,0,0,0,0,0,0,0,0,0,0,0,0,0,0,0,0,0,0,0,0,0,0,0],"sum_hessian":[2.60431E7,8.609737E6,1.7433364E7,7.8768495E6,7.328872E5,2.1797562E6,1.5253607E7,7.3452935E6,5.31556E5,1.2816444E5,6.0472275E5,5.6483094E5,1.6149254E6,4.4707012E5,1.4806537E7,2.9008335E6,4.44446E6,4.4345303E5,8.810296E4,1.1893374E5,9.230702E3,5.487629E5,5.595987E4,4.5625122E5,1.0857972E5,1.25959555E5,1.4889659E6,8.07718E4,3.6629834E5,2.7946175E5,1.4527075E7,2.0439361E6,8.568974E5,2.8995985E6,1.5448618E6,2.585183E4,4.1760122E5,6.3378824E4,2.4724139E4,8.814204E4,3.0791697E4,7.3206494E3,1.9100526E3,8.873331E4,4.6002956E5,2.0798834E4,3.5161035E4,2.8376166E5,1.7248958E5,9.254894E4,1.603078E4,1.2421839E5,1.741158E3,2.5167273E5,1.2372931E6,1.9394291E4,6.1377508E4,3.2502434E5,4.1274008E4,1.9292031E5,8.654143E4,5.1191755E6,9.407899E6,1.98591E6,5.8026066E4,5.851647E5,2.717327E5,1.3650783E5,2.7630908E6,1.4769912E5,1.3971626E6,1.942887E4,6.422961E3,1.676737E5,2.4992752E5,2.6888736E4,3.6490086E4,1.3921999E4,1.080214E4,6.398042E4,2.4161621E4,1.3987182E4,1.6804518E4,3.273098E3,4.0475513E3,1.8596859E3,5.0366695E1,2.297045E3,8.6436266E4,3.3800325E5,1.2202632E5,1.1484091E4,9.314744E3,1.8057441E4,1.7103594E4,2.2256488E5,6.119678E4,9.124688E4,8.1242695E4,7.298346E4,1.9565477E4,1.4246769E4,1.7840117E3,2.9921227E4,9.4297164E4,2.7343265E2,1.4677253E3,1.576571E4,2.3590703E5,2.4965842E5,9.876347E5,8.150821E3,1.1243469E4,3.6060293E4,2.5317215E4,2.9701262E5,2.8011715E4,6.2658457E3,3.500816E4,5.6026133E4,1.3689419E5,8.506759E4,1.4738313E3,2.0448574E6,3.0743182E6,8.311224E6,1.0966751E6],"tree_param":{"num_deleted":"0","num_feature":"9","num_nodes":"127","size_leaf_vector":"1"}},{"base_weights":[-5.2805173E-1,-2.389653E-1,-5.6498575E-1,-5.2200353E-1,1.045038E-1,-4.9884826E-1,-5.8386254E-1,-5.3681946E-1,-2.9475904E-1,3.8154182E-1,-5.85666E-1,-5.827629E-1,1.5604642E-1,-5.834637E-1,-5.8582854E-1,-5.405982E-1,-3.3429927E-1,-1.0355276E-1,-5.7718813E-1,1.0783858E-1,5.2498025E-1,-5.9383506E-1,-5.8292365E-1,-5.82971E-1,-3.2193893E-1,2.8945455E-1,-1.6513262E-2,-5.8304876E-1,-5.83973E-1,-5.9198886E-1,-5.846249E-1,-5.4257816E-1,-2.6001087E-1,-1.4153308E-1,-3.6807343E-1,-1.5929621E-1,2.7766317E-1,-5.773384E-1,1.6866156E-1,1.7191458E-1,-2.1951976E-1,2.6208988E-1,5.690297E-1,-1.7501032E-1,-6.117162E-1,-1.7518345E-1,-1.744404E-1,-5.7264984E-1,-5.84882E-1,-1.9366421E-1,-5.321244E-1,5.0308276E-2,6.012751E-1,7.322654E-2,-2.2988702E-1,-5.8494216E-1,-5.8293444E-1,-5.846042E-1,-5.827838E-1,-1.7994696E-1,-5.91367E-1,-1.781439E-1,-1.7534032E-1,-1.7377405E-1,-1.6004093E-1,-1.6660647E-1,-5.1739372E-2,-1.696868E-1,-2.6489288E-2,-1.0545727E-1,-1.5613137E-1,-4.2233552E-4,-9.953829E-2,2.8150415E-1,2.5684038E-2,-1.7583604E-1,-1.7106679E-1,2.1161318E-3,1.2890117E-1,-2.618716E-3,-1.2543632E-1,1.6269451E-1,-1.5562098E-2,1.3405226E-1,1.7814466E-1,-1.938188E-1,-1.8052036E-1,-1.7190558E-1,-6.584501E-2,-1.7527801E-1,-1.7707522E-1,-1.3504207E-1,2.0947771E-1,-1.6689649E-1,-2.2885015E-2,-7.372465E-2,7.3368385E-2,8.906278E-2,2.008458E-1,3.1268988E-2,-1.7452809E-1,-9.576154E-2,-1.6599728E-3,3.796888E-2,-1.7550665E-1,-1.7448178E-1,-1.7495948E-1,-1.7521538E-1,-1.7549515E-1,-1.7336507E-1,-1.7504138E-1,-1.755077E-1,-1.775394E-1],"categories":[],"categories_nodes":[],"categories_segments":[],"categories_sizes":[],"default_left":[0,0,0,0,0,0,0,0,0,0,0,0,0,0,0,0,0,0,0,0,0,0,0,0,0,0,0,0,0,0,0,0,0,0,0,0,0,0,0,0,0,0,0,0,0,0,0,0,0,0,0,0,0,0,0,0,0,0,0,0,0,0,0,0,0,0,0,0,0,0,0,0,0,0,0,0,0,0,0,0,0,0,0,0,0,0,0,0,0,0,0,0,0,0,0,0,0,0,0,0,0,0,0,0,0,0,0,0,0,0,0,0,0],"id":10,"left_children":[1,3,5,7,9,11,13,15,17,19,21,23,25,27,29,31,33,35,37,39,41,43,45,47,49,51,53,55,57,59,61,63,65,67,69,71,73,75,-1,77,79,81,83,-1,85,-1,-1,87,89,91,93,95,97,99,101,103,105,107,109,-1,111,-1,-1,-1,-1,-1,-1,-1,-1,-1,-1,-1,-1,-1,-1,-1,-1,-1,-1,-1,-1,-1,-1,-1,-1,-1,-1,-1,-1,-1,-1,-1,-1,-1,-1,-1,-1,-1,-1,-1,-1,-1,-1,-1,-1,-1,-1,-1,-1,-1,-1,-1,-1],"loss_changes":[2.37094E5,2.4455758E5,2.45815E4,4.6432188E3,2.1730175E5,2.4026675E5,1.2E1,9.90625E2,4.558601E3,3.183821E4,6.9375E0,2.10125E2,1.1431739E4,3E0,1.88125E1,7.059375E2,1.5436572E2,1.0697549E3,6.158203E0,5.8493755E3,6.1617656E3,1.4947266E1,1.5625E-2,7.6125E1,8.326294E1,2.0884387E4,4.145976E3,1.25E0,4E0,1.71875E0,2.8125E0,4.2125E2,2.3022614E2,7.9819145E1,5.070459E1,1.1961128E3,8.1478577E2,1.7949219E0,0E0,9.910132E3,1.9110022E3,6.718711E3,1.3799844E3,0E0,9.954102E0,0E0,0E0,7.8640625E1,1.0625E1,4.3992657E2,1.2877014E1,9.115539E3,2.5238008E3,3.0951904E3,1.2845542E3,2.2796875E1,2E0,5E-1,6.375E0,0E0,7.1875E-1,0E0,0E0,0E0,0E0,0E0,0E0,0E0,0E0,0E0,0E0,0E0,0E0,0E0,0E0,0E0,0E0,0E0,0E0,0E0,0E0,0E0,0E0,0E0,0E0,0E0,0E0,0E0,0E0,0E0,0E0,0E0,0E0,0E0,0E0,0E0,0E0,0E0,0E0,0E0,0E0,0E0,0E0,0E0,0E0,0E0,0E0,0E0,0E0,0E0,0E0,0E0,0E0],"parents":[2147483647,0,0,1,1,2,2,3,3,4,4,5,5,6,6,7,7,8,8,9,9,10,10,11,11,12,12,13,13,14,14,15,15,16,16,17,17,18,18,19,19,20,20,21,21,22,22,23,23,24,24,25,25,26,26,27,27,28,28,29,29,30,30,31,31,32,32,33,33,34,34,35,35,36,36,37,37,39,39,40,40,41,41,42,42,44,44,47,47,48,48,49,49,50,50,51,51,52,52,53,53,54,54,55,55,56,56,57,57,58,58,60,60],"right_children":[2,4,6,8,10,12,14,16,18,20,22,24,26,28,30,32,34,36,38,40,42,44,46,48,50,52,54,56,58,60,62,64,66,68,70,72,74,76,-1,78,80,82,84,-1,86,-1,-1,88,90,92,94,96,98,100,102,104,106,108,110,-1,112,-1,-1,-1,-1,-1,-1,-1,-1,-1,-1,-1,-1,-1,-1,-1,-1,-1,-1,-1,-1,-1,-1,-1,-1,-1,-1,-1,-1,-1,-1,-1,-1,-1,-1,-1,-1,-1,-1,-1,-1,-1,-1,-1,-1,-1,-1,-1,-1,-1,-1,-1,-1],"split_conditions":[-7.58175E-1,4E1,4.1E1,4E1,4.1E1,4E1,1.154156E0,4E1,4.1E1,4E1,4.1E1,4E1,4.1E1,2.80273E-1,4E1,4E1,-3.648773E0,4E1,4E1,4.1E1,4E1,-2.173329E0,-8.59829E-1,7.90875E-1,3.4038E-1,4E1,3.7579E-2,4E1,7.79495E-1,4E1,4E1,-3.438972E1,-2.167391E1,-2.167391E1,-8.03813E-1,-6.549627E0,-4.431548E0,-9.2949E-1,1.6866156E-1,4E1,4.1E1,-3.648773E0,4E1,-1.7501032E-1,-1.447181E0,-1.7518345E-1,-1.744404E-1,4E1,4.1E1,3.10982E-1,4E1,4E1,4E1,4E1,4.4749E-1,4.1E1,-4.25293E-1,4.89543E-1,4E1,-1.7994696E-1,1.201877E0,-1.781439E-1,-1.7534032E-1,-1.7377405E-1,-1.6004093E-1,-1.6660647E-1,-5.1739372E-2,-1.696868E-1,-2.6489288E-2,-1.0545727E-1,-1.5613137E-1,-4.2233552E-4,-9.953829E-2,2.8150415E-1,2.5684038E-2,-1.7583604E-1,-1.7106679E-1,2.1161318E-3,1.2890117E-1,-2.618716E-3,-1.2543632E-1,1.6269451E-1,-1.5562098E-2,1.3405226E-1,1.7814466E-1,-1.938188E-1,-1.8052036E-1,-1.7190558E-1,-6.584501E-2,-1.7527801E-1,-1.7707522E-1,-1.3504207E-1,2.0947771E-1,-1.6689649E-1,-2.2885015E-2,-7.372465E-2,7.3368385E-2,8.906278E-2,2.008458E-1,3.1268988E-2,-1.7452809E-1,-9.576154E-2,-1.6599728E-3,3.796888E-2,-1.7550665E-1,-1.7448178E-1,-1.7495948E-1,-1.7521538E-1,-1.7549515E-1,-1.7336507E-1,-1.7504138E-1,-1.755077E-1,-1.775394E-1],"split_indices":[0,7,2,1,8,7,0,6,1,3,6,2,6,0,1,2,0,3,8,6,6,0,0,0,0,1,0,1,0,6,6,0,0,0,0,0,0,0,0,1,1,0,1,0,0,0,0,8,6,0,6,6,6,8,0,8,0,0,1,0,0,0,0,0,0,0,0,0,0,0,0,0,0,0,0,0,0,0,0,0,0,0,0,0,0,0,0,0,0,0,0,0,0,0,0,0,0,0,0,0,0,0,0,0,0,0,0,0,0,0,0,0,0],"split_type":[0,0,0,0,0,0,0,0,0,0,0,0,0,0,0,0,0,0,0,0,0,0,0,0,0,0,0,0,0,0,0,0,0,0,0,0,0,0,0,0,0,0,0,0,0,0,0,0,0,0,0,0,0,0,0,0,0,0,0,0,0,0,0,0,0,0,0,0,0,0,0,0,0,0,0,0,0,0,0,0,0,0,0,0,0,0,0,0,0,0,0,0,0,0,0,0,0,0,0,0,0,0,0,0,0,0,0,0,0,0,0,0,0],"sum_hessian":[2.2205762E7,2.5156372E6,1.9690124E7,1.3791435E6,1.1364939E6,4.372043E6,1.5318081E7,1.2947282E6,8.441516E4,8.1096744E5,3.255264E5,3.8754625E6,4.9658034E5,1.273498E7,2.5831012E6,1.2710111E6,2.371718E4,5.0337633E4,3.4077523E4,2.7886003E5,5.321074E5,8.176026E4,2.4376616E5,3.8723715E6,3.0910396E3,2.800609E5,2.1651942E5,7.018019E6,5.716961E6,4.2211766E5,2.1609835E6,1.2621044E6,8.906777E3,3.5366924E3,2.0180486E4,4.3916508E4,6.4211265E3,3.4073523E4,3.999351E0,2.3321234E5,4.564771E4,7.636461E4,4.5574275E5,5.159238E4,3.0167877E4,1.43032E5,1.0073415E5,6.050298E5,3.2673415E6,1.920744E3,1.1702954E3,1.5850158E5,1.2155935E5,1.5241714E5,6.410228E4,3.9922594E5,6.618793E6,3.7343252E6,1.9826356E6,3.0969973E4,3.911477E5,3.6293445E4,2.12469E6,2.5111302E5,1.0109913E6,2.0352761E3,6.8715015E3,3.933694E2,3.143323E3,1.8206297E4,1.974191E3,2.2929773E4,2.0986734E4,1.4452686E3,4.975858E3,1.5214995E4,1.885853E4,1.4223794E5,9.097441E4,2.2144791E4,2.3502918E4,4.0349938E4,3.601467E4,7.685972E4,3.7888306E5,6.778772E3,2.3389105E4,6.043982E5,6.3164026E2,2.9281845E6,3.3915716E5,1.4921622E3,4.2858182E2,1.1110952E3,5.920026E1,6.2795676E4,9.57059E4,2.2253914E4,9.930544E4,1.4552944E5,6.88771E3,4.584885E4,1.825343E4,4.46782E1,3.9918125E5,1.0968994E6,5.5218935E6,1.5207232E6,2.213602E6,2.4402069E5,1.7386149E6,2.4975592E4,3.661721E5],"tree_param":{"num_deleted":"0","num_feature":"9","num_nodes":"113","size_leaf_vector":"1"}},{"base_weights":[4.534566E-1,-3.4560144E-1,6.594891E-1,-5.104719E-1,2.4798197E-1,5.082175E-1,6.740557E-1,-5.3317744E-1,7.9941116E-2,-4.183507E-3,3.9066285E-1,2.1322623E-1,5.2891755E-1,5.776953E-1,6.7564505E-1,-5.827321E-1,-5.13105E-1,2.0989633E-1,-4.050701E-1,2.6099058E-2,-3.734886E-1,3.334394E-1,5.4050225E-1,6.8013054E-1,1.6194897E-2,5.3599995E-1,4.056753E-1,6.258768E-1,4.679219E-1,6.859879E-1,6.7004824E-1,-5.870742E-1,-5.644898E-1,-3.8147217E-1,-5.5916965E-1,9.7820216E-1,1.9776112E-1,-2.8226445E-3,-4.7504917E-1,7.3546536E-2,-1.5856166E-1,-2.7820843E-1,-5.321315E-1,4.8633102E-1,2.8084984E-1,4.8223037E-1,6.531745E-1,2.0724805E-1,6.504788E-1,-3.8018875E-2,3.6811233E-1,4.6257046E-1,5.5152464E-1,4.313845E-1,1.2756148E-1,5.4891825E-1,6.446422E-1,4.6420553E-1,6.609563E-1,6.802665E-1,6.896266E-1,6.681061E-1,6.8569183E-1,-1.7554212E-1,-1.7916566E-1,-1.7119741E-1,-1.4034164E-1,-9.678932E-2,-1.739979E-1,-1.7281473E-1,-1.584242E-1,1.6853508E-1,2.985066E-1,5.0342303E-2,1.6077088E-1,-1.0895059E-1,3.356732E-2,-3.8408916E-2,-1.5728647E-1,4.6353206E-2,6.1812443E-3,-6.987917E-2,-1.2159277E-2,-6.833676E-2,-9.63995E-2,-1.5554568E-1,-1.6494311E-1,1.6854134E-1,1.312725E-1,9.790438E-2,2.9026333E-2,1.5853319E-1,1.2130251E-1,1.7788148E-1,2.0571233E-1,1.9520716E-1,-1.4585386E-1,2.004164E-2,-1.6194077E-1,1.2566435E-1,-1.5822142E-2,1.4748223E-1,9.947677E-2,1.8881236E-1,1.5878461E-1,1.1340029E-1,1.4302704E-1,1.3394632E-2,1.3534799E-1,1.9711927E-1,-3.1262767E-2,1.9814132E-1,1.7136423E-1,1.5932357E-1,1.3809861E-1,1.8270832E-1,2.0403887E-1,1.9013155E-1,2.0418034E-1,2.0740296E-1,2.0514114E-1,1.9947605E-1,2.0123349E-1,2.0648679E-1,2.0346233E-1],"categories":[],"categories_nodes":[],"categories_segments":[],"categories_sizes":[],"default_left":[0,0,0,0,0,0,0,0,0,0,0,0,0,0,0,0,0,0,0,0,0,0,0,0,0,0,0,0,0,0,0,0,0,0,0,0,0,0,0,0,0,0,0,0,0,0,0,0,0,0,0,0,0,0,0,0,0,0,0,0,0,0,0,0,0,0,0,0,0,0,0,0,0,0,0,0,0,0,0,0,0,0,0,0,0,0,0,0,0,0,0,0,0,0,0,0,0,0,0,0,0,0,0,0,0,0,0,0,0,0,0,0,0,0,0,0,0,0,0,0,0,0,0,0,0],"id":11,"left_children":[1,3,5,7,9,11,13,15,17,19,21,23,25,27,29,31,33,35,37,39,41,43,45,47,49,51,53,55,57,59,61,63,65,67,69,71,73,75,77,79,81,83,85,87,89,91,93,-1,95,97,99,101,103,105,107,109,111,113,115,117,119,121,123,-1,-1,-1,-1,-1,-1,-1,-1,-1,-1,-1,-1,-1,-1,-1,-1,-1,-1,-1,-1,-1,-1,-1,-1,-1,-1,-1,-1,-1,-1,-1,-1,-1,-1,-1,-1,-1,-1,-1,-1,-1,-1,-1,-1,-1,-1,-1,-1,-1,-1,-1,-1,-1,-1,-1,-1,-1,-1,-1,-1,-1,-1],"loss_changes":[5.445243E6,6.635265E5,5.7942E4,7.11335E4,5.302725E4,1.41035E4,3.673E3,5.082375E3,1.2385805E4,5.956137E3,8.070422E3,1.3932441E4,1.8835625E3,2.0582422E3,1.365E3,1.16375E2,2.2051188E4,1.4447793E3,1.1689141E3,4.312697E3,6.09937E2,5.4765E3,1.7075391E3,1.3806641E1,2.0320005E3,2.326375E3,8.3858594E2,3.9026562E2,8.486719E1,1.72E2,4.655E2,2.3E1,1.6864062E2,1.1012172E4,1.4133125E3,1.6317871E1,1.5452407E3,2.544572E2,6.043374E2,1.6785732E3,8.8321387E2,5.47583E1,3.368164E0,6.4122656E2,4.244992E3,6.169375E2,1.7335547E2,0E0,3.1879883E0,4.8543496E3,3.0379138E2,1.3545781E3,2.9169375E3,2.59875E2,2.6631125E2,3.7458154E3,2.5235938E2,2.9955078E1,1.8162231E0,4.9625E1,5.025E1,1.155E2,3.24375E1,0E0,0E0,0E0,0E0,0E0,0E0,0E0,0E0,0E0,0E0,0E0,0E0,0E0,0E0,0E0,0E0,0E0,0E0,0E0,0E0,0E0,0E0,0E0,0E0,0E0,0E0,0E0,0E0,0E0,0E0,0E0,0E0,0E0,0E0,0E0,0E0,0E0,0E0,0E0,0E0,0E0,0E0,0E0,0E0,0E0,0E0,0E0,0E0,0E0,0E0,0E0,0E0,0E0,0E0,0E0,0E0,0E0,0E0,0E0,0E0,0E0,0E0],"parents":[2147483647,0,0,1,1,2,2,3,3,4,4,5,5,6,6,7,7,8,8,9,9,10,10,11,11,12,12,13,13,14,14,15,15,16,16,17,17,18,18,19,19,20,20,21,21,22,22,23,23,24,24,25,25,26,26,27,27,28,28,29,29,30,30,31,31,32,32,33,33,34,34,35,35,36,36,37,37,38,38,39,39,40,40,41,41,42,42,43,43,44,44,45,45,46,46,48,48,49,49,50,50,51,51,52,52,53,53,54,54,55,55,56,56,57,57,58,58,59,59,60,60,61,61,62,62],"right_children":[2,4,6,8,10,12,14,16,18,20,22,24,26,28,30,32,34,36,38,40,42,44,46,48,50,52,54,56,58,60,62,64,66,68,70,72,74,76,78,80,82,84,86,88,90,92,94,-1,96,98,100,102,104,106,108,110,112,114,116,118,120,122,124,-1,-1,-1,-1,-1,-1,-1,-1,-1,-1,-1,-1,-1,-1,-1,-1,-1,-1,-1,-1,-1,-1,-1,-1,-1,-1,-1,-1,-1,-1,-1,-1,-1,-1,-1,-1,-1,-1,-1,-1,-1,-1,-1,-1,-1,-1,-1,-1,-1,-1,-1,-1,-1,-1,-1,-1,-1,-1,-1,-1,-1,-1],"split_conditions":[4.1E1,4.1E1,4.1E1,4.1E1,4.1E1,4.1E1,4E1,-1.74464E0,4E1,2.200647E0,9.43703E-1,-2.173329E0,1.898724E0,5.00304E-1,4.8E-3,-3.648773E0,3.669548E0,-2.543702E0,4E1,4E1,2.697328E0,-5.19852E-1,1.971989E0,-2.543702E0,2.06596E0,-3.7785E-2,2.200647E0,-1.184549E0,2.697328E0,-3.25699E-1,1.480869E0,4E1,4E1,4E1,7.070513E1,4E1,2.697328E0,-8.59829E-1,-1.184549E0,6.64019E-1,-1.46064E-1,2.407673E0,3.075259E0,-8.03813E-1,4E1,1.272263E0,2.407673E0,2.0724805E-1,4E1,1.604866E0,2.407673E0,-3.15495E-1,3.4038E-1,1.971989E0,2.407673E0,-2.173329E0,3.7579E-2,5.84069E-1,3.075259E0,4.1E1,-8.5355E-2,5.53227E-1,1.838299E0,-1.7554212E-1,-1.7916566E-1,-1.7119741E-1,-1.4034164E-1,-9.678932E-2,-1.739979E-1,-1.7281473E-1,-1.584242E-1,1.6853508E-1,2.985066E-1,5.0342303E-2,1.6077088E-1,-1.0895059E-1,3.356732E-2,-3.8408916E-2,-1.5728647E-1,4.6353206E-2,6.1812443E-3,-6.987917E-2,-1.2159277E-2,-6.833676E-2,-9.63995E-2,-1.5554568E-1,-1.6494311E-1,1.6854134E-1,1.312725E-1,9.790438E-2,2.9026333E-2,1.5853319E-1,1.2130251E-1,1.7788148E-1,2.0571233E-1,1.9520716E-1,-1.4585386E-1,2.004164E-2,-1.6194077E-1,1.2566435E-1,-1.5822142E-2,1.4748223E-1,9.947677E-2,1.8881236E-1,1.5878461E-1,1.1340029E-1,1.4302704E-1,1.3394632E-2,1.3534799E-1,1.9711927E-1,-3.1262767E-2,1.9814132E-1,1.7136423E-1,1.5932357E-1,1.3809861E-1,1.8270832E-1,2.0403887E-1,1.9013155E-1,2.0418034E-1,2.0740296E-1,2.0514114E-1,1.9947605E-1,2.0123349E-1,2.0648679E-1,2.0346233E-1],"split_indices":[2,6,1,1,1,6,6,0,6,0,0,0,0,0,0,0,0,0,7,7,0,0,0,0,0,0,0,0,0,0,0,7,8,6,0,3,0,0,0,0,0,0,0,0,7,0,0,0,6,0,0,0,0,0,0,0,0,0,0,6,0,0,0,0,0,0,0,0,0,0,0,0,0,0,0,0,0,0,0,0,0,0,0,0,0,0,0,0,0,0,0,0,0,0,0,0,0,0,0,0,0,0,0,0,0,0,0,0,0,0,0,0,0,0,0,0,0,0,0,0,0,0,0,0,0],"split_type":[0,0,0,0,0,0,0,0,0,0,0,0,0,0,0,0,0,0,0,0,0,0,0,0,0,0,0,0,0,0,0,0,0,0,0,0,0,0,0,0,0,0,0,0,0,0,0,0,0,0,0,0,0,0,0,0,0,0,0,0,0,0,0,0,0,0,0,0,0,0,0,0,0,0,0,0,0,0,0,0,0,0,0,0,0,0,0,0,0,0,0,0,0,0,0,0,0,0,0,0,0,0,0,0,0,0,0,0,0,0,0,0,0,0,0,0,0,0,0,0,0,0,0,0,0],"sum_hessian":[3.3075254E7,6.780062E6,2.6295192E7,5.3062325E6,1.4738295E6,2.3096752E6,2.3985518E7,5.1097275E6,1.9650498E5,5.3258044E5,9.412491E5,1.514473E5,2.158228E6,3.8920462E5,2.3596312E7,1.4730475E6,3.63668E6,1.5497984E5,4.152515E4,4.9221994E5,4.03605E4,6.811299E5,2.6011928E5,4.4943176E4,1.0650412E5,2.0409379E6,1.1729006E5,2.7048103E5,1.1872359E5,8.2852245E6,1.5311088E7,1.1898101E6,2.832374E5,9.42742E5,2.693938E6,2.408569E3,1.5257127E5,6.1537495E3,3.53714E4,3.9160097E5,1.00618945E5,2.5217648E4,1.5142853E4,1.7432197E5,5.0680788E5,1.7145261E5,8.8666664E4,3.3012383E4,1.1930792E4,9.228783E4,1.4216282E4,3.561996E5,1.6847382E6,1.0736459E5,9.925469E3,5.3030047E4,2.1745098E5,1.1648438E5,2.2392063E3,3.220897E6,5.0643275E6,1.3620157E7,1.6909306E6,9.993571E5,1.9045302E5,2.6624653E5,1.6990896E4,7.2720325E5,2.1553877E5,1.7459669E6,9.4797106E5,9.484447E1,2.3137246E3,1.4015728E5,1.2413984E4,1.4854364E3,4.668313E3,4.395692E3,3.0975707E4,1.5482583E5,2.3677514E5,6.172577E4,3.889318E4,1.1628277E4,1.3589371E4,8.563351E3,6.579502E3,6.841158E4,1.0591039E5,4.063742E5,1.0043367E5,1.0760295E5,6.3849664E4,3.110115E4,5.756551E4,1.1928997E4,1.7942404E0,7.6340836E4,1.5946997E4,1.2685941E4,1.5303412E3,2.9156122E5,6.463837E4,3.743779E5,1.3103604E6,4.933175E4,5.8032844E4,7.901959E3,2.0235093E3,4.5496633E4,7.533414E3,1.7888158E5,3.85694E4,6.375476E3,1.1010891E5,6.126562E2,1.62655E3,2.3028428E4,3.1978685E6,3.9111448E6,1.1531828E6,6.2130445E6,7.407113E6,1.2552101E6,4.3572044E5],"tree_param":{"num_deleted":"0","num_feature":"9","num_nodes":"125","size_leaf_vector":"1"}},{"base_weights":[-1.0860242E-1,5.08874E-1,-4.2926866E-1,5.843373E-1,7.517298E-2,-1.20903075E-1,-4.9005914E-1,5.9611166E-1,1.8621206E-1,2.4369316E-1,-7.6893024E-2,1.2811993E-1,-1.8939099E-1,-1.4199339E-1,-4.9491894E-1,5.58515E-1,6.20819E-1,3.5246223E-1,1.0732886E-1,2.0552833E-1,4.551149E-1,-4.5591302E-2,-4.4075793E-1,1.6574758E-1,-1.1181572E-1,7.439242E-2,-2.2130018E-1,-1.7621551E-1,2.505357E-1,-2.899501E-1,-4.988845E-1,6.0615873E-1,4.631862E-1,6.316094E-1,6.0083574E-1,3.750592E-1,-2.6400462E-1,1.2564328E-1,-3.1143528E-1,3.5124335E-1,1.9495882E-1,4.0305442E-1,6.0310566E-1,-1.8145432E-1,-1.6731579E-2,-3.2531476E-1,-5.139995E-1,2.7361676E-1,8.641025E-2,-1.5684644E-2,-4.1595948E-1,-2.3232134E-1,2.5203657E-1,-2.0123404E-1,-3.4131184E-1,3.2773322E-1,-2.0646957E-1,4.8413724E-2,1.2981956E0,-3.9903435E-1,-1.4603268E-1,-5.241567E-1,-4.8523813E-1,1.8227243E-1,1.1344259E-1,1.3133925E-1,1.5707584E-1,1.8122625E-1,1.8989338E-1,1.3999039E-1,1.8466973E-1,4.758471E-2,1.3325366E-1,-1.5900862E-1,4.804695E-2,-1.921182E-2,4.642719E-2,-6.7159705E-2,-1.5310983E-1,4.476579E-2,1.1725818E-1,2.4342291E-2,6.5424904E-2,-3.453616E-1,1.2133601E-1,1.7813188E-1,1.8454604E-1,1.14190094E-1,-5.9933152E-2,8.548133E-3,-4.309355E-2,-8.7545134E-2,-1.10363394E-1,-1.4985564E-1,-1.5880078E-1,8.8216774E-2,-4.4150064E-3,3.204125E-2,-1.0183001E-1,-5.8083624E-2,4.6842877E-2,-8.099556E-2,-1.4268881E-1,1.3170031E-2,-1.3918842E-1,8.563752E-2,6.8589007E-3,2.0942038E-3,-6.421795E-2,-8.7813236E-2,-1.3672896E-1,-1.1551297E-1,1.402106E-1,-6.75823E-2,5.1908005E-2,-1.2677638E-2,3.144248E-1,4.121906E-1,9.404838E-2,-8.4711306E-2,-1.4451356E-1,-7.553113E-2,-3.5216954E-2,-1.5372603E-1,-1.5945324E-1,-1.4417095E-1,-1.5623061E-1],"categories":[],"categories_nodes":[],"categories_segments":[],"categories_sizes":[],"default_left":[0,0,0,0,0,0,0,0,0,0,0,0,0,0,0,0,0,0,0,0,0,0,0,0,0,0,0,0,0,0,0,0,0,0,0,0,0,0,0,0,0,0,0,0,0,0,0,0,0,0,0,0,0,0,0,0,0,0,0,0,0,0,0,0,0,0,0,0,0,0,0,0,0,0,0,0,0,0,0,0,0,0,0,0,0,0,0,0,0,0,0,0,0,0,0,0,0,0,0,0,0,0,0,0,0,0,0,0,0,0,0,0,0,0,0,0,0,0,0,0,0,0,0,0,0,0,0],"id":12,"left_children":[1,3,5,7,9,11,13,15,17,19,21,23,25,27,29,31,33,35,37,39,41,43,45,47,49,51,53,55,57,59,61,63,65,67,69,71,73,75,77,79,81,83,85,87,89,91,93,95,97,99,101,103,105,107,109,111,113,115,117,119,121,123,125,-1,-1,-1,-1,-1,-1,-1,-1,-1,-1,-1,-1,-1,-1,-1,-1,-1,-1,-1,-1,-1,-1,-1,-1,-1,-1,-1,-1,-1,-1,-1,-1,-1,-1,-1,-1,-1,-1,-1,-1,-1,-1,-1,-1,-1,-1,-1,-1,-1,-1,-1,-1,-1,-1,-1,-1,-1,-1,-1,-1,-1,-1,-1,-1],"loss_changes":[4.27965E6,2.4179375E5,2.666785E5,2.9499E4,2.8059607E4,3.99545E4,2.0101E4,5.67725E3,2.3705767E3,4.190717E3,6.5555938E3,4.562169E3,1.5465242E4,2.1982104E3,9.526E3,1.10084375E4,7.94875E2,8.104126E2,9.40286E2,6.775332E2,6.116367E2,2.0780625E3,3.8532715E2,3.738292E3,2.0028936E3,1.0803297E4,3.9471094E3,2.2948975E3,2.7787646E3,3.4920898E3,3.965E3,5.21625E2,1.238375E3,8.9875E1,2.55625E3,8.394053E2,2.3223805E2,6.486764E2,8.9379486E1,2.380769E2,1.0796318E3,1.2821582E2,1.9584961E0,9.5639233E2,2.509027E3,2.512915E1,5.930176E0,1.0909785E3,2.1859375E3,1.5914386E3,1.4317358E2,4.652971E3,9.616782E2,3.7501602E3,1.3059141E3,8.4863104E2,1.01333984E3,9.972546E2,1.5791919E2,1.220334E3,2.904458E2,3.4775E2,1.23825E3,0E0,0E0,0E0,0E0,0E0,0E0,0E0,0E0,0E0,0E0,0E0,0E0,0E0,0E0,0E0,0E0,0E0,0E0,0E0,0E0,0E0,0E0,0E0,0E0,0E0,0E0,0E0,0E0,0E0,0E0,0E0,0E0,0E0,0E0,0E0,0E0,0E0,0E0,0E0,0E0,0E0,0E0,0E0,0E0,0E0,0E0,0E0,0E0,0E0,0E0,0E0,0E0,0E0,0E0,0E0,0E0,0E0,0E0,0E0,0E0,0E0,0E0,0E0,0E0],"parents":[2147483647,0,0,1,1,2,2,3,3,4,4,5,5,6,6,7,7,8,8,9,9,10,10,11,11,12,12,13,13,14,14,15,15,16,16,17,17,18,18,19,19,20,20,21,21,22,22,23,23,24,24,25,25,26,26,27,27,28,28,29,29,30,30,31,31,32,32,33,33,34,34,35,35,36,36,37,37,38,38,39,39,40,40,41,41,42,42,43,43,44,44,45,45,46,46,47,47,48,48,49,49,50,50,51,51,52,52,53,53,54,54,55,55,56,56,57,57,58,58,59,59,60,60,61,61,62,62],"right_children":[2,4,6,8,10,12,14,16,18,20,22,24,26,28,30,32,34,36,38,40,42,44,46,48,50,52,54,56,58,60,62,64,66,68,70,72,74,76,78,80,82,84,86,88,90,92,94,96,98,100,102,104,106,108,110,112,114,116,118,120,122,124,126,-1,-1,-1,-1,-1,-1,-1,-1,-1,-1,-1,-1,-1,-1,-1,-1,-1,-1,-1,-1,-1,-1,-1,-1,-1,-1,-1,-1,-1,-1,-1,-1,-1,-1,-1,-1,-1,-1,-1,-1,-1,-1,-1,-1,-1,-1,-1,-1,-1,-1,-1,-1,-1,-1,-1,-1,-1,-1,-1,-1,-1,-1,-1,-1],"split_conditions":[4E1,4E1,4.1E1,4E1,4.1E1,4E1,4E1,3.669548E0,4.1E1,1.971989E0,1.971989E0,4E1,4E1,3.6109E-1,4E1,-1.447181E0,7.070513E1,4E1,3.075259E0,-1.022674E0,2.697328E0,-4.37319E-1,2.407673E0,4E1,-1.447181E0,-2.173329E0,4E1,-1.184549E0,4E1,1.34759E-1,1.5699E-2,4E1,2.06596E0,4.635151E0,7.980075E1,-1.211837E1,-2.986379E0,-5.70825E-1,3.669548E0,-4.431548E0,-3.05393E-1,4.1E1,3.075259E0,-1.184549E0,9.27231E-1,2.200647E0,2.697328E0,4E1,4E1,-8.07462E0,4E1,4E1,2.06596E0,4.1E1,4E1,-2.543702E0,4E1,4E1,4.6789E-1,-6.10042E-1,5.84069E-1,-3.25699E-1,1.455204E0,1.8227243E-1,1.1344259E-1,1.3133925E-1,1.5707584E-1,1.8122625E-1,1.8989338E-1,1.3999039E-1,1.8466973E-1,4.758471E-2,1.3325366E-1,-1.5900862E-1,4.804695E-2,-1.921182E-2,4.642719E-2,-6.7159705E-2,-1.5310983E-1,4.476579E-2,1.1725818E-1,2.4342291E-2,6.5424904E-2,-3.453616E-1,1.2133601E-1,1.7813188E-1,1.8454604E-1,1.14190094E-1,-5.9933152E-2,8.548133E-3,-4.309355E-2,-8.7545134E-2,-1.10363394E-1,-1.4985564E-1,-1.5880078E-1,8.8216774E-2,-4.4150064E-3,3.204125E-2,-1.0183001E-1,-5.8083624E-2,4.6842877E-2,-8.099556E-2,-1.4268881E-1,1.3170031E-2,-1.3918842E-1,8.563752E-2,6.8589007E-3,2.0942038E-3,-6.421795E-2,-8.7813236E-2,-1.3672896E-1,-1.1551297E-1,1.402106E-1,-6.75823E-2,5.1908005E-2,-1.2677638E-2,3.144248E-1,4.121906E-1,9.404838E-2,-8.4711306E-2,-1.4451356E-1,-7.553113E-2,-3.5216954E-2,-1.5372603E-1,-1.5945324E-1,-1.4417095E-1,-1.5623061E-1],"split_indices":[7,6,1,1,1,3,4,0,1,0,0,1,6,0,6,0,0,2,0,0,0,0,0,6,0,0,1,0,3,0,0,2,0,0,0,0,0,0,0,0,0,6,0,0,0,0,0,4,2,0,6,2,0,6,2,0,8,8,0,0,0,0,0,0,0,0,0,0,0,0,0,0,0,0,0,0,0,0,0,0,0,0,0,0,0,0,0,0,0,0,0,0,0,0,0,0,0,0,0,0,0,0,0,0,0,0,0,0,0,0,0,0,0,0,0,0,0,0,0,0,0,0,0,0,0,0,0],"split_type":[0,0,0,0,0,0,0,0,0,0,0,0,0,0,0,0,0,0,0,0,0,0,0,0,0,0,0,0,0,0,0,0,0,0,0,0,0,0,0,0,0,0,0,0,0,0,0,0,0,0,0,0,0,0,0,0,0,0,0,0,0,0,0,0,0,0,0,0,0,0,0,0,0,0,0,0,0,0,0,0,0,0,0,0,0,0,0,0,0,0,0,0,0,0,0,0,0,0,0,0,0,0,0,0,0,0,0,0,0,0,0,0,0,0,0,0,0,0,0,0,0,0,0,0,0,0,0],"sum_hessian":[2.161397E7,7.387864E6,1.4226107E7,6.2929075E6,1.0949565E6,2.3426735E6,1.1883433E7,6.1121435E6,1.8076405E5,5.1937853E5,5.75578E5,5.0532047E5,1.837353E6,1.6363612E5,1.1719797E7,2.4238442E6,3.6882992E6,5.816823E4,1.2259581E5,4.399609E5,7.9417625E4,5.299867E5,4.5591336E4,4.3681734E5,6.850311E4,1.9827484E5,1.6390782E6,1.505143E5,1.3121837E4,2.2244131E5,1.1497356E7,1.6161261E6,8.0771806E5,2.395022E6,1.2932774E6,5.611181E4,2.0564197E3,1.1745949E5,5.136327E3,2.975235E4,4.1020853E5,5.875307E4,2.066455E4,9.285371E4,4.3713297E5,1.7699264E4,2.7892072E4,1.8512033E5,2.5169702E5,5.205202E4,1.6451092E4,7.271959E4,1.2555525E5,1.4042826E6,2.3479564E5,8.523674E3,1.4199062E5,1.1000574E4,2.1212625E3,1.2653246E5,9.590885E4,4.031408E6,7.465948E6,1.6061499E6,9.976264E3,5.6868394E5,2.3903412E5,1.1347488E5,2.281547E6,1.27914414E5,1.165363E6,1.358249E4,4.252932E4,1.2636427E3,7.927771E2,1.5629496E4,1.0182999E5,3.5678704E3,1.5684568E3,4.878699E3,2.487365E4,6.9268984E4,3.4093956E5,5.2095352E1,5.8700977E4,1.1672674E4,8.991878E3,2.930653E3,8.9923055E4,3.222874E5,1.1484558E5,9.908802E3,7.790461E3,1.4363495E4,1.3528577E4,1.7286631E5,1.2254024E4,2.4019469E5,1.1502325E4,2.5572043E4,2.6479975E4,4.775067E3,1.1676025E4,3.316841E4,3.9551184E4,1.0957499E5,1.5980257E4,8.148288E4,1.3227998E6,1.6481258E5,6.998306E4,1.3959938E3,7.12768E3,1.3528728E5,6.7033413E3,1.0086647E4,9.139268E2,1.9693269E3,1.5193567E2,5.248173E4,7.4050734E4,2.0441033E4,7.546782E4,1.5529901E6,2.4784178E6,6.5989375E6,8.6701025E5],"tree_param":{"num_deleted":"0","num_feature":"9","num_nodes":"127","size_leaf_vector":"1"}},{"base_weights":[-4.9967632E-1,-2.1740042E-1,-5.395412E-1,-4.836615E-1,6.055307E-2,-4.6941042E-1,-5.602111E-1,-5.0097895E-1,-2.6411515E-1,3.0829856E-1,-5.6175786E-1,-5.587816E-1,1.2039829E-1,-5.5969864E-1,-5.6254095E-1,-5.0563204E-1,-2.9668576E-1,-5.9108663E-2,-5.4933757E-1,9.114949E-2,4.3686482E-1,-5.718566E-1,-5.587867E-1,-5.5903155E-1,-2.66626E-1,8.883224E-2,5.95246E-1,-5.5991125E-1,-5.582385E-1,-5.6906414E-1,-5.612408E-1,-5.080887E-1,-1.8402891E-1,-1.2253923E-1,-3.450407E-1,-1.0944247E-1,2.6050195E-1,-5.494761E-1,2.1160392E-1,4.9995262E-2,4.5034173E-1,2.2567366E-1,4.9112362E-1,-1.6804834E-1,-5.880016E-1,-1.6827506E-1,-1.6731493E-1,-5.4627764E-1,-5.615472E-1,-3.303272E-1,2.3735149E-1,1.6933306E-1,-8.194487E-2,6.175558E-1,-5.197626E-1,-5.5927163E-1,-5.6102735E-1,-5.504152E-1,-5.5936253E-1,-1.6826293E-1,-5.6996626E-1,-1.714595E-1,-1.6831808E-1,-1.6623113E-1,-1.4906693E-1,-5.334421E-3,-1.2096787E-1,-4.6675786E-2,7.052809E-2,-9.365097E-2,-1.421645E-1,1.0486579E-2,-8.294407E-2,2.2443469E-1,3.0898435E-2,-1.6870621E-1,-1.6261515E-1,1.565837E-1,-1.2220783E-1,3.8923752E-3,1.15291975E-1,1.701789E-1,8.886533E-2,-5.5797543E-2,1.09601796E-1,1.5395367E-1,-1.1333222E-2,-1.873763E-1,-1.7346255E-1,-1.6401306E-1,-4.897285E-2,-1.6846731E-1,-2.1391025E-2,-6.4436756E-2,-1.5159978E-1,-1.5061185E-1,2.5471625E-1,-3.167636E-2,6.58792E-2,-5.696836E-2,9.497023E-3,2.1440934E-1,1.769816E-1,-4.560618E-3,-1.7135556E-1,-1.688796E-1,-1.6776156E-1,-1.699888E-1,-1.6829416E-1,-1.6490225E-1,-1.6938528E-1,-1.7167227E-1,-1.6776341E-1,-1.708613E-1,-1.7509237E-1],"categories":[],"categories_nodes":[],"categories_segments":[],"categories_sizes":[],"default_left":[0,0,0,0,0,0,0,0,0,0,0,0,0,0,0,0,0,0,0,0,0,0,0,0,0,0,0,0,0,0,0,0,0,0,0,0,0,0,0,0,0,0,0,0,0,0,0,0,0,0,0,0,0,0,0,0,0,0,0,0,0,0,0,0,0,0,0,0,0,0,0,0,0,0,0,0,0,0,0,0,0,0,0,0,0,0,0,0,0,0,0,0,0,0,0,0,0,0,0,0,0,0,0,0,0,0,0,0,0,0,0,0,0,0,0],"id":13,"left_children":[1,3,5,7,9,11,13,15,17,19,21,23,25,27,29,31,33,35,37,39,41,43,45,47,49,51,53,55,57,59,61,63,65,67,69,71,73,75,77,79,81,83,85,-1,87,-1,-1,89,91,93,95,97,99,101,103,105,107,109,111,-1,113,-1,-1,-1,-1,-1,-1,-1,-1,-1,-1,-1,-1,-1,-1,-1,-1,-1,-1,-1,-1,-1,-1,-1,-1,-1,-1,-1,-1,-1,-1,-1,-1,-1,-1,-1,-1,-1,-1,-1,-1,-1,-1,-1,-1,-1,-1,-1,-1,-1,-1,-1,-1,-1,-1],"loss_changes":[1.99911E5,1.6270394E5,2.25655E4,4.2689062E3,1.6583252E5,1.8679288E5,1.4E1,9.891719E2,4.8002563E3,2.1478336E4,8.8671875E0,2.245625E2,6.989341E3,2.75E0,1.80625E1,8.038594E2,1.951477E2,7.6843665E2,3.7353516E0,4.2292744E3,5.5372266E3,1.2808594E1,2.265625E-1,9.83125E1,8.459123E1,6.010989E3,7.2333984E2,6E0,1.065625E1,2.34375E0,3E0,5.20125E2,2.8115823E2,5.9590385E1,7.668262E1,9.9536487E2,4.9907202E2,2.9785156E0,1.551316E0,3.1769792E3,5.298218E2,5.679242E3,4.4847344E3,0E0,1.0104492E1,0E0,0E0,8.384375E1,1.31875E1,4.715503E1,1.3429465E2,4.1063926E3,1.7177906E3,7.602637E1,1.4798447E1,1E0,6.25E-1,1.3554688E0,1.78125E0,0E0,1.5625E0,0E0,0E0,0E0,0E0,0E0,0E0,0E0,0E0,0E0,0E0,0E0,0E0,0E0,0E0,0E0,0E0,