{"learner":{"attributes":{"scikit_learn":"{\"_estimator_type\": \"classifier\"}"},"feature_names":["geoid_corr_h","surface_h","qtrees","cshelph","medianfilter","bathypathfinder","openoceanspp","coastnet"],"feature_types":["float","float","int","int","int","int","int","int"],"gradient_booster":{"model":{"gbtree_model_param":{"num_parallel_tree":"1","num_trees":"300"},"iteration_indptr":[0,3,6,9,12,15,18,21,24,27,30,33,36,39,42,45,48,51,54,57,60,63,66,69,72,75,78,81,84,87,90,93,96,99,102,105,108,111,114,117,120,123,126,129,132,135,138,141,144,147,150,153,156,159,162,165,168,171,174,177,180,183,186,189,192,195,198,201,204,207,210,213,216,219,222,225,228,231,234,237,240,243,246,249,252,255,258,261,264,267,270,273,276,279,282,285,288,291,294,297,300],"tree_info":[0,1,2,0,1,2,0,1,2,0,1,2,0,1,2,0,1,2,0,1,2,0,1,2,0,1,2,0,1,2,0,1,2,0,1,2,0,1,2,0,1,2,0,1,2,0,1,2,0,1,2,0,1,2,0,1,2,0,1,2,0,1,2,0,1,2,0,1,2,0,1,2,0,1,2,0,1,2,0,1,2,0,1,2,0,1,2,0,1,2,0,1,2,0,1,2,0,1,2,0,1,2,0,1,2,0,1,2,0,1,2,0,1,2,0,1,2,0,1,2,0,1,2,0,1,2,0,1,2,0,1,2,0,1,2,0,1,2,0,1,2,0,1,2,0,1,2,0,1,2,0,1,2,0,1,2,0,1,2,0,1,2,0,1,2,0,1,2,0,1,2,0,1,2,0,1,2,0,1,2,0,1,2,0,1,2,0,1,2,0,1,2,0,1,2,0,1,2,0,1,2,0,1,2,0,1,2,0,1,2,0,1,2,0,1,2,0,1,2,0,1,2,0,1,2,0,1,2,0,1,2,0,1,2,0,1,2,0,1,2,0,1,2,0,1,2,0,1,2,0,1,2,0,1,2,0,1,2,0,1,2,0,1,2,0,1,2,0,1,2,0,1,2,0,1,2,0,1,2,0,1,2,0,1,2,0,1,2,0,1,2,0,1,2,0,1,2,0,1,2],"trees":[{"base_weights":[-1.972516E-1,1.4477352E0,-6.349684E-1,1.4642322E0,6.1859983E-1,1.0389479E-1,-6.975257E-1,1.4193752E0,1.4932958E0,5.55029E-1,1.3140484E0,5.8750695E-1,-2.586084E-1,-3.34231E-1,-7.1139413E-1,1.4618338E0,1.2719432E0,1.4811987E0,1.4975708E0,1.8258573E-1,6.0053855E-1,1.4923106E0,1.2433033E0,4.2264697E-1,8.9837635E-1,-4.098833E-1,-1.9346258E-1,-4.4257426E-1,1.0724795E-1,-4.596524E-1,-7.137579E-1,1.4643235E0,1.2204958E0,9.7443485E-1,1.3153799E0,1.4997177E0,1.1583177E0,1.4818295E0,4.499982E-1,1.1265861E-1,1.204479E0,6.2930095E-1,4.0288433E-1,4.4897446E-1,4.1062084E-1,6.52494E-1,1.3464689E0,7.583227E-1,1.6633949E-1,8.579764E-1,1.2534133E0,1.5709393E-1,-4.7396323E-1,-1.4956157E-1,-5.051841E-1,1.0805126E0,-4.5811352E-1,3.8517395E-1,-2.711324E-1,9.788432E-1,-4.8996496E-1,-7.277657E-1,-7.05463E-1,4.482602E-1,4.363361E-1,4.4757065E-1,3.4533656E-1,3.33853E-1,-1.02704875E-1,3.567491E-1,4.1477504E-1,4.4999874E-1,4.4525048E-1,4.4998378E-1,1.7991084E-1,4.487711E-1,4.3177673E-1,2.1396564E-1,1.8829452E-2,3.9130423E-2,3.6632517E-1,1.6155612E-1,2.6839292E-1,3.196702E-1,5.4393504E-2,2.8575432E-1,1.09306596E-1,3.9166203E-1,4.0794078E-1,5.3983293E-2,2.5680262E-1,1.5043648E-1,2.1939661E-2,3.0039907E-1,2.4441177E-1,3.5257417E-1,4.1843167E-1,2.6432434E-1,8.4519E-3,-1.448027E-1,1.1845045E-2,-2.2867082E-2,-8.8709205E-2,-1.2757328E-1,-1.7583603E-1,1.3846153E-1,3.385877E-1,-6.517538E-2,-1.5694013E-1,-6.920631E-2,1.3513409E-1,-1.409498E-1,3.6495853E-2,3.1262875E-1,9.4672956E-2,1.1734317E-1,-1.5438986E-1,-2.0916943E-1,-2.2060111E-1,2.432538E-1,-2.1164523E-1],"categories":[],"categories_nodes":[],"categories_segments":[],"categories_sizes":[],"default_left":[0,0,0,0,0,0,0,0,0,0,0,0,0,0,0,0,0,0,0,0,0,0,0,0,0,0,0,0,0,0,0,0,0,0,0,0,0,0,0,0,0,0,0,0,0,0,0,0,0,0,0,0,0,0,0,0,0,0,0,0,0,0,0,0,0,0,0,0,0,0,0,0,0,0,0,0,0,0,0,0,0,0,0,0,0,0,0,0,0,0,0,0,0,0,0,0,0,0,0,0,0,0,0,0,0,0,0,0,0,0,0,0,0,0,0,0,0,0,0,0,0],"id":0,"left_children":[1,3,5,7,9,11,13,15,17,19,21,23,25,27,29,31,33,35,37,39,41,43,45,47,49,51,53,55,57,59,61,63,65,67,69,71,73,75,-1,77,79,81,83,-1,-1,85,87,89,91,93,95,97,99,101,103,105,107,109,111,113,115,117,119,-1,-1,-1,-1,-1,-1,-1,-1,-1,-1,-1,-1,-1,-1,-1,-1,-1,-1,-1,-1,-1,-1,-1,-1,-1,-1,-1,-1,-1,-1,-1,-1,-1,-1,-1,-1,-1,-1,-1,-1,-1,-1,-1,-1,-1,-1,-1,-1,-1,-1,-1,-1,-1,-1,-1,-1,-1,-1],"loss_changes":[3.027209E7,1.20858E5,1.534842E6,1.1292E4,7.620125E3,4.5441047E5,1.54244E5,2.13205E4,2.71E2,2.676961E3,1.8020703E2,5.691303E4,1.4600172E4,5.3843867E4,1.7548E4,1.5875E3,9.84125E3,8.207E3,1.46E2,1.2288872E3,7.998711E2,1.1425781E-1,6.2941797E2,6.243397E4,5.5188125E3,1.6202547E4,1.4171469E4,2.139325E4,2.3327326E4,1.1961695E4,3.393E3,7.7E2,5.0685156E2,1.7685852E4,5.635625E3,3.25E0,1.4211078E4,3.085E2,0E0,4.823424E2,1.9484253E1,2.9590234E3,2.625448E3,0E0,0E0,1.3271484E2,3.0283203E0,1.7751422E4,1.2852736E4,2.1424219E3,4.3276562E2,4.226745E3,1.792375E3,9.72833E3,8.268633E2,2.7134668E2,1.40125625E4,5.141076E3,7.331409E3,2.371875E2,5.8393477E3,2.5115E3,5.88E2,0E0,0E0,0E0,0E0,0E0,0E0,0E0,0E0,0E0,0E0,0E0,0E0,0E0,0E0,0E0,0E0,0E0,0E0,0E0,0E0,0E0,0E0,0E0,0E0,0E0,0E0,0E0,0E0,0E0,0E0,0E0,0E0,0E0,0E0,0E0,0E0,0E0,0E0,0E0,0E0,0E0,0E0,0E0,0E0,0E0,0E0,0E0,0E0,0E0,0E0,0E0,0E0,0E0,0E0,0E0,0E0,0E0,0E0],"parents":[2147483647,0,0,1,1,2,2,3,3,4,4,5,5,6,6,7,7,8,8,9,9,10,10,11,11,12,12,13,13,14,14,15,15,16,16,17,17,18,18,19,19,20,20,21,21,22,22,23,23,24,24,25,25,26,26,27,27,28,28,29,29,30,30,31,31,32,32,33,33,34,34,35,35,36,36,37,37,39,39,40,40,41,41,42,42,45,45,46,46,47,47,48,48,49,49,50,50,51,51,52,52,53,53,54,54,55,55,56,56,57,57,58,58,59,59,60,60,61,61,62,62],"right_children":[2,4,6,8,10,12,14,16,18,20,22,24,26,28,30,32,34,36,38,40,42,44,46,48,50,52,54,56,58,60,62,64,66,68,70,72,74,76,-1,78,80,82,84,-1,-1,86,88,90,92,94,96,98,100,102,104,106,108,110,112,114,116,118,120,-1,-1,-1,-1,-1,-1,-1,-1,-1,-1,-1,-1,-1,-1,-1,-1,-1,-1,-1,-1,-1,-1,-1,-1,-1,-1,-1,-1,-1,-1,-1,-1,-1,-1,-1,-1,-1,-1,-1,-1,-1,-1,-1,-1,-1,-1,-1,-1,-1,-1,-1,-1,-1,-1,-1,-1,-1,-1],"split_conditions":[4E1,4.1E1,4E1,4.0541267E0,2.2704031E0,4E1,4E1,-1.7283401E0,3.4245583E-1,-5.7055664E-1,1.7838058E0,3.0387115E-1,-1.9724318E-1,9.067664E-1,4E1,4E1,-3.6025263E-2,3.260356E-1,9.919929E0,4.5847017E-1,1.7604935E0,1.7420654E0,2.254733E0,-8.33801E-2,2.5083857E0,4.1E1,1.6936529E0,4E1,1.6936529E0,4E1,-2.016374E-2,-4.3160908E1,-4.3160908E1,-4.796418E-2,9.1002655E-1,3.2059482E-1,6.62706E1,8.326956E0,4.499982E-1,-6.7380273E-1,-1.1114159E0,1.2037125E0,1.321167E0,4.4897446E-1,4.1062084E-1,2.6672661E0,2.5083857E0,-6.1686146E-1,4E1,7.4545985E-1,2.2704031E0,-8.1853E-1,-1.7980576E-1,4E1,2.254733E0,-5.4907E0,-4.100629E-1,1.4872742E-1,1.9194072E0,-1.1114159E0,-9.74974E-1,-5.7055664E-1,4E1,4.482602E-1,4.363361E-1,4.4757065E-1,3.4533656E-1,3.33853E-1,-1.02704875E-1,3.567491E-1,4.1477504E-1,4.4999874E-1,4.4525048E-1,4.4998378E-1,1.7991084E-1,4.487711E-1,4.3177673E-1,2.1396564E-1,1.8829452E-2,3.9130423E-2,3.6632517E-1,1.6155612E-1,2.6839292E-1,3.196702E-1,5.4393504E-2,2.8575432E-1,1.09306596E-1,3.9166203E-1,4.0794078E-1,5.3983293E-2,2.5680262E-1,1.5043648E-1,2.1939661E-2,3.0039907E-1,2.4441177E-1,3.5257417E-1,4.1843167E-1,2.6432434E-1,8.4519E-3,-1.448027E-1,1.1845045E-2,-2.2867082E-2,-8.8709205E-2,-1.2757328E-1,-1.7583603E-1,1.3846153E-1,3.385877E-1,-6.517538E-2,-1.5694013E-1,-6.920631E-2,1.3513409E-1,-1.409498E-1,3.6495853E-2,3.1262875E-1,9.4672956E-2,1.1734317E-1,-1.5438986E-1,-2.0916943E-1,-2.2060111E-1,2.432538E-1,-2.1164523E-1],"split_indices":[6,2,4,0,1,2,2,0,1,0,0,0,1,1,3,3,1,1,0,1,1,0,0,1,0,6,1,7,1,7,1,0,0,1,0,1,0,0,0,1,0,0,0,0,0,1,0,1,7,1,1,1,0,7,0,0,1,0,1,0,1,0,7,0,0,0,0,0,0,0,0,0,0,0,0,0,0,0,0,0,0,0,0,0,0,0,0,0,0,0,0,0,0,0,0,0,0,0,0,0,0,0,0,0,0,0,0,0,0,0,0,0,0,0,0,0,0,0,0,0,0],"split_type":[0,0,0,0,0,0,0,0,0,0,0,0,0,0,0,0,0,0,0,0,0,0,0,0,0,0,0,0,0,0,0,0,0,0,0,0,0,0,0,0,0,0,0,0,0,0,0,0,0,0,0,0,0,0,0,0,0,0,0,0,0,0,0,0,0,0,0,0,0,0,0,0,0,0,0,0,0,0,0,0,0,0,0,0,0,0,0,0,0,0,0,0,0,0,0,0,0,0,0,0,0,0,0,0,0,0,0,0,0,0,0,0,0,0,0,0,0,0,0,0,0],"sum_hessian":[4.2042324E7,8.835934E6,3.320639E7,8.663558E6,1.7237644E5,2.5920238E6,3.0614366E7,3.406299E6,5.257259E6,1.5794088E5,1.4435555E4,1.1105066E6,1.4815172E6,1.1257026E6,2.9488664E7,2.6446585E6,7.616404E5,1.3727968E6,3.884462E6,1.719822E4,1.4074266E5,4.0955554E3,1.0339999E4,7.256715E5,3.848351E5,4.4595688E5,1.0355604E6,9.0388125E5,2.2182131E5,2.7431066E5,2.9214354E7,2.6176492E6,2.7009332E4,9.703644E4,6.6460394E5,1.2983266E6,7.447022E4,5.1828353E5,3.3661785E6,1.6097776E4,1.1004443E3,1.2286177E5,1.7880889E4,3.9479998E3,1.4755554E2,1.5382222E3,8.801777E3,3.1418888E5,4.1148266E5,3.455213E5,3.9313777E4,4.5283996E4,4.0067288E5,9.077235E5,1.2783688E5,9.127999E3,8.9475325E5,1.2788666E5,9.3934664E4,5.6604443E3,2.6865022E5,1.0865456E7,1.8348898E7,6.499782E5,1.967671E6,5.4942217E3,2.151511E4,8.780711E4,9.229333E3,2.3092266E5,4.336813E5,1.2754306E6,2.2895998E4,4.6208887E4,2.8261332E4,3.8949066E5,1.2879288E5,1.2337777E3,1.4863999E4,1.6888887E1,1.0835555E3,9.154488E4,3.1316887E4,4.479555E3,1.3401333E4,7.524444E2,7.857777E2,2.187111E3,6.6146665E3,4.539822E4,2.6879066E5,8.954177E4,3.2194088E5,8.010711E4,2.6541422E5,2.5321332E4,1.3992443E4,6.8439995E3,3.8439996E4,3.9398753E5,6.685333E3,6.044053E5,3.0331822E5,6.431733E4,6.351955E4,6.591111E2,8.468889E3,1.901951E5,7.045582E5,1.225511E4,1.1563155E5,6.2378664E4,3.1555998E4,5.167111E3,4.933333E2,7.3159995E3,2.613342E5,2.1589082E6,8.706547E6,2.551111E2,1.8348642E7],"tree_param":{"num_deleted":"0","num_feature":"8","num_nodes":"121","size_leaf_vector":"1"}},{"base_weights":[-7.0109034E-1,-3.920195E-1,-7.3754966E-1,-7.1136415E-1,2.0254628E-1,-6.9547075E-1,-7.493227E-1,-7.1440136E-1,-4.7349817E-1,9.4737446E-1,-7.139825E-1,-7.4881935E-1,-1.5315904E-1,-7.4921334E-1,-2.2494915E-1,-7.178858E-1,-6.026211E-1,-2.9908383E-1,-6.286925E-1,1.9790198E-1,1.1486206E0,-5.297747E-1,-2.2489247E-1,-7.436673E-1,-2.2498867E-1,-2.1386029E-1,1.3930604E0,-7.494227E-1,-7.472047E-1,-7.442064E-1,-7.0979106E-1,-4.795811E-1,-7.059829E-1,-6.6838133E-1,-4.1440614E-2,-6.67713E-1,-5.365429E-1,7.3196995E-1,-3.542551E-1,7.4444205E-1,1.2900175E0,-2.6343358E-1,-6.76968E-1,-7.453778E-1,-7.3221E-1,-5.287781E-1,-5.947521E-2,1.4060166E0,-5.126695E-1,-7.486388E-1,-7.4957293E-1,-7.46726E-1,-2.2494586E-1,-2.2473198E-1,-2.1880203E-1,-2.0727925E-1,-2.1717258E-1,-1.5254024E-1,-6.900467E-2,-2.2059257E-1,-1.9163501E-1,-2.2215523E-1,-1.1904514E-1,-5.412739E-2,1.9419284E-1,-1.6698284E-1,-2.0387883E-1,-2.053491E-1,-1.3637187E-1,-1.7127407E-1,2.8109932E-1,-1.6434312E-1,-2.3871692E-2,1.9384143E-1,3.4608227E-1,3.8975802E-1,-2.2449753E-1,-1.07600056E-1,6.6113845E-2,-2.0783836E-1,-9.322035E-2,-2.2368374E-1,-2.0493451E-1,-2.1704476E-1,-2.2186731E-1,-1.969578E-1,-1.3309225E-1,1.9174583E-1,-7.058948E-2,3.674708E-1,4.3711516E-1,-1.820496E-1,5.070422E-2,-2.2481476E-1,-2.2430658E-1,-2.237957E-1,-2.2489165E-1,-2.2428013E-1,-2.2333123E-1],"categories":[],"categories_nodes":[],"categories_segments":[],"categories_sizes":[],"default_left":[0,0,0,0,0,0,0,0,0,0,0,0,0,0,0,0,0,0,0,0,0,0,0,0,0,0,0,0,0,0,0,0,0,0,0,0,0,0,0,0,0,0,0,0,0,0,0,0,0,0,0,0,0,0,0,0,0,0,0,0,0,0,0,0,0,0,0,0,0,0,0,0,0,0,0,0,0,0,0,0,0,0,0,0,0,0,0,0,0,0,0,0,0,0,0,0,0,0,0],"id":1,"left_children":[1,3,5,7,9,11,13,15,17,19,21,23,25,27,-1,29,31,33,35,37,39,41,-1,43,-1,45,47,49,51,53,55,57,59,61,63,65,67,69,71,73,75,77,79,81,83,85,87,89,91,93,95,97,-1,-1,-1,-1,-1,-1,-1,-1,-1,-1,-1,-1,-1,-1,-1,-1,-1,-1,-1,-1,-1,-1,-1,-1,-1,-1,-1,-1,-1,-1,-1,-1,-1,-1,-1,-1,-1,-1,-1,-1,-1,-1,-1,-1,-1,-1,-1],"loss_changes":[4.73754E5,8.423052E5,1.863E4,2.08475E3,1.058202E6,2.3785775E5,3E0,1.1095E3,9.848052E2,1.2898281E5,4.5645312E3,4.4E1,6.9110016E4,1.1E1,0E0,5.8825E2,1.095293E3,1.630379E3,6.8876465E1,5.3381305E4,3.8526125E4,4.418666E3,0E0,2.60625E1,0E0,3.4446867E4,6.874961E2,4E0,2.5E0,4.68125E1,5.6225E2,2.834453E2,9.178906E1,1.3765356E2,9.6644183E2,1.7475098E1,6.921753E1,2.4581016E4,4.731952E3,7.0269688E3,9.3419375E3,1.848679E3,4.205586E2,1.68125E1,1.078125E1,2.5346797E3,5.840036E4,2.5357031E2,1.2205753E1,2E0,4E0,3.25E0,0E0,0E0,0E0,0E0,0E0,0E0,0E0,0E0,0E0,0E0,0E0,0E0,0E0,0E0,0E0,0E0,0E0,0E0,0E0,0E0,0E0,0E0,0E0,0E0,0E0,0E0,0E0,0E0,0E0,0E0,0E0,0E0,0E0,0E0,0E0,0E0,0E0,0E0,0E0,0E0,0E0,0E0,0E0,0E0,0E0,0E0,0E0],"parents":[2147483647,0,0,1,1,2,2,3,3,4,4,5,5,6,6,7,7,8,8,9,9,10,10,11,11,12,12,13,13,15,15,16,16,17,17,18,18,19,19,20,20,21,21,23,23,25,25,26,26,27,27,28,28,29,29,30,30,31,31,32,32,33,33,34,34,35,35,36,36,37,37,38,38,39,39,40,40,41,41,42,42,43,43,44,44,45,45,46,46,47,47,48,48,49,49,50,50,51,51],"right_children":[2,4,6,8,10,12,14,16,18,20,22,24,26,28,-1,30,32,34,36,38,40,42,-1,44,-1,46,48,50,52,54,56,58,60,62,64,66,68,70,72,74,76,78,80,82,84,86,88,90,92,94,96,98,-1,-1,-1,-1,-1,-1,-1,-1,-1,-1,-1,-1,-1,-1,-1,-1,-1,-1,-1,-1,-1,-1,-1,-1,-1,-1,-1,-1,-1,-1,-1,-1,-1,-1,-1,-1,-1,-1,-1,-1,-1,-1,-1,-1,-1,-1,-1],"split_conditions":[-9.471016E-1,4E1,4.1E1,4E1,4.1E1,4E1,1.0698332E0,4E1,-5.4907E0,-1.4666177E-1,4.1E1,1.321167E0,4E1,7.948257E-1,-2.2494915E-1,-4.3160908E1,-2.085846E0,-3.5217804E1,4E1,-2.085846E0,4E1,4.1E1,-2.2489247E-1,1.2021458E0,-2.2498867E-1,-8.33801E-2,4.1E1,-4.0743256E-1,1.1176834E0,-5.2428246E1,-1.4312317E1,8.0560666E-1,-1.8293625E-1,-4.3160908E1,4E1,-4.5182343E0,-2.0323947E-1,-1.3244854E0,-3.8571987E-1,4E1,4.1E1,-1.9724318E-1,-3.370872E-1,4E1,4.1E1,4E1,-5.0903225E-1,4E1,1.1916478E0,-4.7337574E-1,4E1,9.6439236E-1,-2.2494586E-1,-2.2473198E-1,-2.1880203E-1,-2.0727925E-1,-2.1717258E-1,-1.5254024E-1,-6.900467E-2,-2.2059257E-1,-1.9163501E-1,-2.2215523E-1,-1.1904514E-1,-5.412739E-2,1.9419284E-1,-1.6698284E-1,-2.0387883E-1,-2.053491E-1,-1.3637187E-1,-1.7127407E-1,2.8109932E-1,-1.6434312E-1,-2.3871692E-2,1.9384143E-1,3.4608227E-1,3.8975802E-1,-2.2449753E-1,-1.07600056E-1,6.6113845E-2,-2.0783836E-1,-9.322035E-2,-2.2368374E-1,-2.0493451E-1,-2.1704476E-1,-2.2186731E-1,-1.969578E-1,-1.3309225E-1,1.9174583E-1,-7.058948E-2,3.674708E-1,4.3711516E-1,-1.820496E-1,5.070422E-2,-2.2481476E-1,-2.2430658E-1,-2.237957E-1,-2.2489165E-1,-2.2428013E-1,-2.2333123E-1],"split_indices":[0,7,3,3,6,7,1,6,0,1,3,0,3,1,0,0,0,0,4,0,4,2,0,1,0,1,6,0,0,0,0,1,1,0,5,0,1,1,1,3,3,1,1,4,2,2,0,2,1,1,2,1,0,0,0,0,0,0,0,0,0,0,0,0,0,0,0,0,0,0,0,0,0,0,0,0,0,0,0,0,0,0,0,0,0,0,0,0,0,0,0,0,0,0,0,0,0,0,0],"split_type":[0,0,0,0,0,0,0,0,0,0,0,0,0,0,0,0,0,0,0,0,0,0,0,0,0,0,0,0,0,0,0,0,0,0,0,0,0,0,0,0,0,0,0,0,0,0,0,0,0,0,0,0,0,0,0,0,0,0,0,0,0,0,0,0,0,0,0,0,0,0,0,0,0,0,0,0,0,0,0,0,0,0,0,0,0,0,0,0,0,0,0,0,0,0,0,0,0,0,0],"sum_hessian":[4.2042324E7,4.436186E6,3.760614E7,2.8860642E6,1.5501216E6,8.221389E6,2.938475E7,2.8496758E6,3.638844E4,8.5516306E5,6.949586E5,7.4850635E6,7.363253E5,2.4178838E7,5.205912E6,2.7635265E6,8.614933E4,1.7134666E4,1.9253777E4,1.8101955E5,6.741435E5,1.1271422E5,5.8224444E5,1.359079E6,6.1259845E6,7.085115E5,2.7813775E4,2.1895498E7,2.2833398E6,6.499782E5,2.1135482E6,3.9333332E4,4.6815996E4,7.0408887E3,1.0093777E4,1.3521777E4,5.7319995E3,9.201688E4,8.9002664E4,1.7471955E5,4.9942397E5,4.012044E4,7.259377E4,1.1824786E6,1.7660044E5,2.3307598E5,4.7543553E5,2.762622E4,1.8755554E2,3.521562E6,1.8373936E7,1.9302132E6,3.5312666E5,4.888102E5,1.6116798E5,9.0481375E5,1.2087346E6,3.5251996E4,4.081333E3,3.2585775E4,1.4230222E4,5.5617773E3,1.4791111E3,8.399555E3,1.6942222E3,1.3111111E3,1.2210666E4,2.0408888E3,3.6911108E3,1.251111E4,7.950577E4,5.221111E4,3.6791555E4,1.4087598E5,3.3843555E4,4.971862E5,2.2377776E3,3.352222E4,6.5982217E3,6.958577E4,3.0079998E3,1.1780279E6,4.4506665E3,8.076622E4,9.583422E4,9.320933E4,1.3986666E5,9.559377E4,3.7984175E5,6.0786665E3,2.1547555E4,1.6488889E2,2.2666666E1,1.9750416E6,1.5465204E6,3.3124044E5,1.8042696E7,1.3963444E6,5.338689E5],"tree_param":{"num_deleted":"0","num_feature":"8","num_nodes":"99","size_leaf_vector":"1"}},{"base_weights":[8.9834183E-1,-6.8779325E-1,1.3996161E0,-7.189607E-1,2.913403E-1,6.0775983E-1,1.452992E0,-7.198699E-1,4.8022476E-1,1.3854736E-1,1.3802739E0,-4.5396797E-2,9.41776E-1,1.1194348E0,1.4634104E0,-6.9261944E-1,-7.432987E-1,-5.997818E-1,1.3750856E0,1.781206E-1,-5.6539625E-1,1.3780868E-1,1.4671553E0,6.5379125E-1,-7.6466374E-2,1.1665931E0,8.512953E-1,1.2393854E0,6.919794E-1,1.477685E0,1.4549233E0,-7.4098784E-1,-5.3468126E-1,-7.312021E-1,-7.4757355E-1,6.5821385E-1,-7.2392756E-1,1.0953895E0,1.4260238E0,-2.6195243E-1,1.9984585E-1,-7.426226E-1,-4.941128E-1,8.5615325E-1,-6.3510907E-1,1.4717798E0,8.3255416E-1,2.163665E-1,9.2387235E-1,-4.9143706E-2,-5.034018E-1,1.1233801E0,1.3592149E0,7.906424E-1,1.2626716E0,1.0934304E0,1.2811496E0,4.00986E-1,1.0209706E0,1.4518328E0,1.486159E0,1.4136368E0,1.4556963E0,-8.977655E-3,-2.2301838E-1,-1.2091458E-1,-1.7979844E-1,-2.2491622E-1,-1.2250237E-1,-2.195522E-1,-2.2499873E-1,-2.4406796E-2,3.0292684E-1,-1.2000003E-1,-2.2193806E-1,4.4199127E-1,8.181818E-2,4.3203095E-1,1.9790576E-1,5.25632E-2,-1.9050798E-1,1.5121941E-1,4.6081297E-2,-2.2404826E-1,-1.8758318E-1,2.4282971E-2,-1.7896625E-1,3.8104331E-1,1.0435278E-1,-2.1063285E-1,3.3890274E-1,2.5926605E-1,4.4183245E-1,-1.7841414E-1,4.2189175E-1,2.888291E-1,3.62177E-2,-1.8204818E-2,3.0054897E-1,1.0289957E-2,-3.6101896E-2,-1.2756424E-1,-1.9344775E-1,3.511935E-1,2.812834E-1,2.5032967E-1,4.3399903E-1,1.9122803E-1,2.5111517E-1,2.7211735E-1,3.8405058E-1,3.772852E-1,2.6335916E-1,3.7407708E-1,4.1324788E-1,5.9985083E-2,1.6471711E-1,3.662036E-1,1.8747906E-1,4.2505205E-1,4.3755385E-1,4.3914565E-1,4.468002E-1,4.1741917E-1,4.3095788E-1,4.3839243E-1,4.3521056E-1],"categories":[],"categories_nodes":[],"categories_segments":[],"categories_sizes":[],"default_left":[0,0,0,0,0,0,0,0,0,0,0,0,0,0,0,0,0,0,0,0,0,0,0,0,0,0,0,0,0,0,0,0,0,0,0,0,0,0,0,0,0,0,0,0,0,0,0,0,0,0,0,0,0,0,0,0,0,0,0,0,0,0,0,0,0,0,0,0,0,0,0,0,0,0,0,0,0,0,0,0,0,0,0,0,0,0,0,0,0,0,0,0,0,0,0,0,0,0,0,0,0,0,0,0,0,0,0,0,0,0,0,0,0,0,0,0,0,0,0,0,0,0,0,0,0,0,0],"id":2,"left_children":[1,3,5,7,9,11,13,15,17,19,21,23,25,27,29,31,33,35,37,39,41,43,45,47,49,51,53,55,57,59,61,63,65,67,69,71,73,75,77,79,81,83,85,87,89,91,93,95,97,99,101,103,105,107,109,111,113,115,117,119,121,123,125,-1,-1,-1,-1,-1,-1,-1,-1,-1,-1,-1,-1,-1,-1,-1,-1,-1,-1,-1,-1,-1,-1,-1,-1,-1,-1,-1,-1,-1,-1,-1,-1,-1,-1,-1,-1,-1,-1,-1,-1,-1,-1,-1,-1,-1,-1,-1,-1,-1,-1,-1,-1,-1,-1,-1,-1,-1,-1,-1,-1,-1,-1,-1,-1],"loss_changes":[3.3427376E7,3.08104E5,1.350248E6,1.0669E4,5.182141E4,4.40123E5,1.04008E5,6.2415E3,7.1660195E3,7.609018E3,4.136867E3,1.4828418E4,2.7150875E4,4.647825E4,3.516E3,3.452875E4,2.715E2,5.252411E2,5.6206543E1,2.4724668E3,1.8329443E2,1.3918665E3,1.0389844E2,3.4308145E3,7.623711E3,3.1868438E3,2.3746312E4,4.3135E3,1.901604E4,2.37E3,5.8E2,5.921625E3,9.0175E3,8.2075E3,1.475E2,7.868581E1,1.5424316E1,1.951518E2,3.6023926E1,1.9843704E3,3.4666807E3,1.5898438E0,6.1098584E2,2.729615E2,1.4358914E2,2.021875E1,2.1493243E2,7.913883E2,1.3781846E3,3.6491472E3,4.343994E2,2.7459062E3,3.2195312E3,5.89725E3,7.5975E2,5.5730312E3,1.8130625E3,3.1376191E3,7.373117E3,6.22E2,5.76E2,1.683125E2,5E2,0E0,0E0,0E0,0E0,0E0,0E0,0E0,0E0,0E0,0E0,0E0,0E0,0E0,0E0,0E0,0E0,0E0,0E0,0E0,0E0,0E0,0E0,0E0,0E0,0E0,0E0,0E0,0E0,0E0,0E0,0E0,0E0,0E0,0E0,0E0,0E0,0E0,0E0,0E0,0E0,0E0,0E0,0E0,0E0,0E0,0E0,0E0,0E0,0E0,0E0,0E0,0E0,0E0,0E0,0E0,0E0,0E0,0E0,0E0,0E0,0E0,0E0,0E0,0E0],"parents":[2147483647,0,0,1,1,2,2,3,3,4,4,5,5,6,6,7,7,8,8,9,9,10,10,11,11,12,12,13,13,14,14,15,15,16,16,17,17,18,18,19,19,20,20,21,21,22,22,23,23,24,24,25,25,26,26,27,27,28,28,29,29,30,30,31,31,32,32,33,33,34,34,35,35,36,36,37,37,38,38,39,39,40,40,41,41,42,42,43,43,44,44,45,45,46,46,47,47,48,48,49,49,50,50,51,51,52,52,53,53,54,54,55,55,56,56,57,57,58,58,59,59,60,60,61,61,62,62],"right_children":[2,4,6,8,10,12,14,16,18,20,22,24,26,28,30,32,34,36,38,40,42,44,46,48,50,52,54,56,58,60,62,64,66,68,70,72,74,76,78,80,82,84,86,88,90,92,94,96,98,100,102,104,106,108,110,112,114,116,118,120,122,124,126,-1,-1,-1,-1,-1,-1,-1,-1,-1,-1,-1,-1,-1,-1,-1,-1,-1,-1,-1,-1,-1,-1,-1,-1,-1,-1,-1,-1,-1,-1,-1,-1,-1,-1,-1,-1,-1,-1,-1,-1,-1,-1,-1,-1,-1,-1,-1,-1,-1,-1,-1,-1,-1,-1,-1,-1,-1,-1,-1,-1,-1,-1,-1,-1],"split_conditions":[4.1E1,4.1E1,4.1E1,4.1E1,4.1E1,4.1E1,4E1,4.0541267E0,-3.8571987E-1,2.2704031E0,-5.8636266E-1,-6.1686146E-1,-2.3703964E-1,9.067664E-1,-2.016374E-2,-1.3582811E0,3.4245583E-1,-1.1114159E0,-2.0323947E-1,-8.1853E-1,1.7838058E0,-1.1114159E0,7.683792E-1,-1.2240782E0,2.5083857E0,-3.647499E-1,1.6936529E0,-4.100629E-1,1.6936529E0,-5.0903225E-1,-1.516571E-1,-1.5720267E0,3.615989E-1,3.260356E-1,9.919929E0,-7.847137E-1,-1.0169508E0,-1.0169508E0,4.118309E-1,-1.7283401E0,-3.5464874E-1,1.7420654E0,2.254733E0,-1.5134735E0,-6.413994E-1,-5.731936E-1,9.958248E-1,-1.3244854E0,-8.1853E-1,3.1744003E-1,2.2704031E0,-4.0181795E-1,-3.370872E-1,2.2447172E-1,1.3932991E0,-6.9538033E-1,7.948257E-1,1.2597519E0,1.9194072E0,-1.0169508E0,-4.3103492E-1,1.4476134E-1,6.242188E-1,-8.977655E-3,-2.2301838E-1,-1.2091458E-1,-1.7979844E-1,-2.2491622E-1,-1.2250237E-1,-2.195522E-1,-2.2499873E-1,-2.4406796E-2,3.0292684E-1,-1.2000003E-1,-2.2193806E-1,4.4199127E-1,8.181818E-2,4.3203095E-1,1.9790576E-1,5.25632E-2,-1.9050798E-1,1.5121941E-1,4.6081297E-2,-2.2404826E-1,-1.8758318E-1,2.4282971E-2,-1.7896625E-1,3.8104331E-1,1.0435278E-1,-2.1063285E-1,3.3890274E-1,2.5926605E-1,4.4183245E-1,-1.7841414E-1,4.2189175E-1,2.888291E-1,3.62177E-2,-1.8204818E-2,3.0054897E-1,1.0289957E-2,-3.6101896E-2,-1.2756424E-1,-1.9344775E-1,3.511935E-1,2.812834E-1,2.5032967E-1,4.3399903E-1,1.9122803E-1,2.5111517E-1,2.7211735E-1,3.8405058E-1,3.772852E-1,2.6335916E-1,3.7407708E-1,4.1324788E-1,5.9985083E-2,1.6471711E-1,3.662036E-1,1.8747906E-1,4.2505205E-1,4.3755385E-1,4.3914565E-1,4.468002E-1,4.1741917E-1,4.3095788E-1,4.3839243E-1,4.3521056E-1],"split_indices":[6,2,3,3,3,2,2,0,1,1,1,1,1,1,1,0,1,0,1,1,0,0,0,0,0,0,1,1,1,0,0,1,1,1,0,1,0,0,0,0,1,0,0,0,0,1,0,1,1,0,1,1,1,1,0,1,1,1,1,0,1,1,1,0,0,0,0,0,0,0,0,0,0,0,0,0,0,0,0,0,0,0,0,0,0,0,0,0,0,0,0,0,0,0,0,0,0,0,0,0,0,0,0,0,0,0,0,0,0,0,0,0,0,0,0,0,0,0,0,0,0,0,0,0,0,0,0],"split_type":[0,0,0,0,0,0,0,0,0,0,0,0,0,0,0,0,0,0,0,0,0,0,0,0,0,0,0,0,0,0,0,0,0,0,0,0,0,0,0,0,0,0,0,0,0,0,0,0,0,0,0,0,0,0,0,0,0,0,0,0,0,0,0,0,0,0,0,0,0,0,0,0,0,0,0,0,0,0,0,0,0,0,0,0,0,0,0,0,0,0,0,0,0,0,0,0,0,0,0,0,0,0,0,0,0,0,0,0,0,0,0,0,0,0,0,0,0,0,0,0,0,0,0,0,0,0,0],"sum_hessian":[4.2042324E7,1.009612E7,3.1946204E7,9.784659E6,3.1146175E5,2.0173856E6,2.9928818E7,9.777246E6,7.4128887E3,2.7313775E5,3.8323996E4,6.825955E5,1.3347901E6,9.064915E5,2.9022328E7,4.519987E6,5.257259E6,3.3591108E3,4.0537776E3,2.5860088E5,1.4536888E4,2.5048887E3,3.581911E4,2.9040887E4,6.535546E5,3.8303997E5,9.517502E5,7.078546E5,1.9863688E5,1.082145E7,1.8200878E7,3.4602768E6,1.0597101E6,1.3727968E6,3.884462E6,3.013333E2,3.0577776E3,6.2799994E2,3.4257776E3,1.2165333E4,2.4643555E5,4.167111E3,1.0369777E4,1.2982222E3,1.2066666E3,3.5558664E4,2.6044443E2,1.1086666E4,1.795422E4,6.1424575E5,3.9308887E4,3.1285953E5,7.018044E4,8.294586E5,1.2229155E5,1.5749111E5,5.503635E5,1.05406664E5,9.323022E4,2.6714755E6,8.149974E6,3.3460353E5,1.7866274E7,1.1672443E4,3.4486042E6,3.4902975E5,7.106804E5,1.2983266E6,7.447022E4,5.1828353E5,3.3661785E6,9.733333E1,2.0399998E2,1.4399998E2,2.9137776E3,4.2977774E2,1.9822221E2,3.3631108E3,6.2666664E1,5.6017773E3,6.563555E3,3.2514664E4,2.1392088E5,4.0177776E3,1.4933333E2,1.5679999E3,8.801777E3,7.146666E2,5.8355554E2,1.1631111E3,4.3555553E1,5.9555553E1,3.549911E4,7.4666664E1,1.8577777E2,1.2582222E3,9.828444E3,1.3173333E3,1.6636889E4,2.8279866E5,3.314471E5,2.5316443E4,1.3992443E4,2.4939998E5,6.345955E4,1.0025777E4,6.0154664E4,1.928342E5,6.3662444E5,5.737333E3,1.1655422E5,8.939688E4,6.809422E4,4.0610753E5,1.4425598E5,4.470844E4,6.069822E4,6.1975996E4,3.125422E4,4.282644E5,2.243211E6,1.0142142E6,7.13576E6,1.6974133E5,1.6486222E5,8.413233E6,9.453041E6],"tree_param":{"num_deleted":"0","num_feature":"8","num_nodes":"127","size_leaf_vector":"1"}},{"base_weights":[-1.6002001E-1,9.757336E-1,-5.500564E-1,9.8582745E-1,4.4395328E-1,4.905862E-2,-6.175507E-1,9.5638627E-1,1.0048832E0,4.0117428E-1,8.908903E-1,3.9734292E-1,-2.2493576E-1,-3.0224672E-1,-6.2937534E-1,9.837767E-1,8.541612E-1,9.973018E-1,1.0075606E0,1.19754046E-1,4.343013E-1,1.0047466E0,8.453617E-1,2.7086547E-1,6.33192E-1,-2.995116E-1,-1.1560428E-1,-3.968569E-1,3.2284826E-2,-6.4442074E-1,-6.205198E-1,9.8532385E-1,8.3681595E-1,7.301386E-1,9.209284E-1,1.0089735E0,7.9143894E-1,9.972008E-1,3.027466E-1,6.2191125E-2,8.62495E-1,4.5599428E-1,2.8262928E-1,3.0224827E-1,9.2552966E-1,4.654733E-1,9.090634E-1,4.9151155E-1,-1.5904382E-3,6.1842483E-1,1.2319391E0,-2.2353444E-1,-3.3913532E-1,-5.573056E-2,-4.4341758E-1,-2.3209158E-1,-4.4565067E-1,2.1219522E-1,-2.0879354E-1,-6.156012E-1,-6.5406E-1,5.097917E-1,-6.2056774E-1,3.017538E-1,2.9360157E-1,2.2099708E-1,2.892045E-1,2.640963E-1,1.8132567E-1,2.1486795E-1,2.808766E-1,3.0275336E-1,2.9926476E-1,3.1098202E-1,1.1379551E-1,3.0388066E-1,2.9239833E-1,1.5171555E-1,5.6714285E-3,-1.0498285E-3,2.627378E-1,1.2267525E-1,2.534899E-1,-4.181414E-2,1.5212229E-1,2.4782072E-1,2.9638243E-1,2.059489E-1,7.371417E-2,2.717895E-1,3.1166172E-1,8.943839E-2,1.7531092E-1,1.11396976E-1,-2.5481882E-2,1.7844555E-1,2.840147E-1,3.7303585E-1,4.2130664E-2,2.234575E-1,-8.366739E-2,-1.1390425E-2,-1.0606343E-1,-3.5587493E-2,1.2367773E-2,-1.5624362E-1,-1.13489844E-1,-1.7187361E-1,-3.59304E-2,1.13118306E-1,-1.3564569E-1,-9.5555596E-2,7.710144E-2,-1.5991253E-1,-1.5561305E-3,3.1531233E-1,-1.8477124E-1,-1.8858723E-1,-1.9730416E-1,3.0122423E-1,-1.1771486E-2,-1.7573841E-1,-1.8650755E-1],"categories":[],"categories_nodes":[],"categories_segments":[],"categories_sizes":[],"default_left":[0,0,0,0,0,0,0,0,0,0,0,0,0,0,0,0,0,0,0,0,0,0,0,0,0,0,0,0,0,0,0,0,0,0,0,0,0,0,0,0,0,0,0,0,0,0,0,0,0,0,0,0,0,0,0,0,0,0,0,0,0,0,0,0,0,0,0,0,0,0,0,0,0,0,0,0,0,0,0,0,0,0,0,0,0,0,0,0,0,0,0,0,0,0,0,0,0,0,0,0,0,0,0,0,0,0,0,0,0,0,0,0,0,0,0,0,0,0,0,0,0,0,0],"id":3,"left_children":[1,3,5,7,9,11,13,15,17,19,21,23,25,27,29,31,33,35,37,39,41,43,45,47,49,51,53,55,57,59,61,63,65,67,69,71,73,75,-1,77,79,81,83,-1,85,87,89,91,93,95,97,99,101,103,105,107,109,111,113,115,117,119,121,-1,-1,-1,-1,-1,-1,-1,-1,-1,-1,-1,-1,-1,-1,-1,-1,-1,-1,-1,-1,-1,-1,-1,-1,-1,-1,-1,-1,-1,-1,-1,-1,-1,-1,-1,-1,-1,-1,-1,-1,-1,-1,-1,-1,-1,-1,-1,-1,-1,-1,-1,-1,-1,-1,-1,-1,-1,-1,-1,-1],"loss_changes":[1.7199118E7,5.3274E4,1.168647E6,5.463E3,3.534461E3,2.7923984E5,9.6841E4,1.0715E4,1.185E2,1.5729707E3,8.286426E1,3.8432953E4,1.33534375E4,2.971618E4,3.335E3,6.855E2,6.6964375E3,3.707375E3,7.15E1,7.5976013E2,4.965664E2,7.03125E-2,2.789004E2,5.041804E4,3.9758281E3,2.9310547E3,1.30350625E4,5.8840547E3,8.977873E3,2.57675E3,8.55E2,4.065E2,3.9999023E2,5.3433594E3,1.6487812E3,2.375E0,8.3665625E3,2.058125E2,0E0,3.166621E2,1.4722046E1,2.4180586E3,1.7895098E3,0E0,2.1903992E-1,8.0441986E1,3.0341797E0,8.321156E3,1.1664463E4,3.4009844E3,1.3585547E2,1.78905E4,2.7769766E3,3.4244185E3,5.167168E2,6.4017373E3,3.0206016E3,2.8189702E3,5.8400146E3,1.17425E3,6.3975E2,1.8151488E2,6.155E2,0E0,0E0,0E0,0E0,0E0,0E0,0E0,0E0,0E0,0E0,0E0,0E0,0E0,0E0,0E0,0E0,0E0,0E0,0E0,0E0,0E0,0E0,0E0,0E0,0E0,0E0,0E0,0E0,0E0,0E0,0E0,0E0,0E0,0E0,0E0,0E0,0E0,0E0,0E0,0E0,0E0,0E0,0E0,0E0,0E0,0E0,0E0,0E0,0E0,0E0,0E0,0E0,0E0,0E0,0E0,0E0,0E0,0E0,0E0,0E0],"parents":[2147483647,0,0,1,1,2,2,3,3,4,4,5,5,6,6,7,7,8,8,9,9,10,10,11,11,12,12,13,13,14,14,15,15,16,16,17,17,18,18,19,19,20,20,21,21,22,22,23,23,24,24,25,25,26,26,27,27,28,28,29,29,30,30,31,31,32,32,33,33,34,34,35,35,36,36,37,37,39,39,40,40,41,41,42,42,44,44,45,45,46,46,47,47,48,48,49,49,50,50,51,51,52,52,53,53,54,54,55,55,56,56,57,57,58,58,59,59,60,60,61,61,62,62],"right_children":[2,4,6,8,10,12,14,16,18,20,22,24,26,28,30,32,34,36,38,40,42,44,46,48,50,52,54,56,58,60,62,64,66,68,70,72,74,76,-1,78,80,82,84,-1,86,88,90,92,94,96,98,100,102,104,106,108,110,112,114,116,118,120,122,-1,-1,-1,-1,-1,-1,-1,-1,-1,-1,-1,-1,-1,-1,-1,-1,-1,-1,-1,-1,-1,-1,-1,-1,-1,-1,-1,-1,-1,-1,-1,-1,-1,-1,-1,-1,-1,-1,-1,-1,-1,-1,-1,-1,-1,-1,-1,-1,-1,-1,-1,-1,-1,-1,-1,-1,-1,-1,-1,-1],"split_conditions":[4E1,4.1E1,4E1,4.0541267E0,2.2704031E0,4E1,4E1,-1.5134735E0,3.4245583E-1,-5.7055664E-1,1.7838058E0,1.9688034E-1,6.724548E-2,9.067664E-1,-2.016374E-2,4E1,8.204918E-1,3.260356E-1,9.919929E0,4.424756E-1,1.7604935E0,1.7420654E0,2.254733E0,1.3704593E-1,4E1,4E1,1.7838058E0,-3.6609682E-1,1.6936529E0,-5.0903225E-1,4E1,-4.3160908E1,-5.4907E0,-8.929634E-1,-3.6025263E-2,3.2059482E-1,6.62706E1,1.1916478E0,3.027466E-1,-6.54372E-1,-1.1114159E0,1.5650917E0,1.8567795E0,3.0224827E-1,2.6672661E0,2.6672661E0,4.0541267E0,-1.2240782E0,4E1,2.2704031E0,1.3031642E0,4.1E1,-6.6358833E0,9.067664E-1,2.076531E0,-1.3244854E0,4E1,4.4780874E-1,1.7604935E0,4E1,-4.3103492E-1,-2.085846E0,-1.2248993E-1,3.017538E-1,2.9360157E-1,2.2099708E-1,2.892045E-1,2.640963E-1,1.8132567E-1,2.1486795E-1,2.808766E-1,3.0275336E-1,2.9926476E-1,3.1098202E-1,1.1379551E-1,3.0388066E-1,2.9239833E-1,1.5171555E-1,5.6714285E-3,-1.0498285E-3,2.627378E-1,1.2267525E-1,2.534899E-1,-4.181414E-2,1.5212229E-1,2.4782072E-1,2.9638243E-1,2.059489E-1,7.371417E-2,2.717895E-1,3.1166172E-1,8.943839E-2,1.7531092E-1,1.11396976E-1,-2.5481882E-2,1.7844555E-1,2.840147E-1,3.7303585E-1,4.2130664E-2,2.234575E-1,-8.366739E-2,-1.1390425E-2,-1.0606343E-1,-3.5587493E-2,1.2367773E-2,-1.5624362E-1,-1.13489844E-1,-1.7187361E-1,-3.59304E-2,1.13118306E-1,-1.3564569E-1,-9.5555596E-2,7.710144E-2,-1.5991253E-1,-1.5561305E-3,3.1531233E-1,-1.8477124E-1,-1.8858723E-1,-1.9730416E-1,3.0122423E-1,-1.1771486E-2,-1.7573841E-1,-1.8650755E-1],"split_indices":[6,2,3,0,1,2,2,0,1,0,0,0,0,1,1,3,0,1,0,1,1,0,0,1,4,7,0,1,1,0,7,0,0,0,1,1,0,1,0,1,0,1,1,0,1,1,0,0,7,1,1,6,0,1,1,1,7,0,1,7,1,0,0,0,0,0,0,0,0,0,0,0,0,0,0,0,0,0,0,0,0,0,0,0,0,0,0,0,0,0,0,0,0,0,0,0,0,0,0,0,0,0,0,0,0,0,0,0,0,0,0,0,0,0,0,0,0,0,0,0,0,0,0],"split_type":[0,0,0,0,0,0,0,0,0,0,0,0,0,0,0,0,0,0,0,0,0,0,0,0,0,0,0,0,0,0,0,0,0,0,0,0,0,0,0,0,0,0,0,0,0,0,0,0,0,0,0,0,0,0,0,0,0,0,0,0,0,0,0,0,0,0,0,0,0,0,0,0,0,0,0,0,0,0,0,0,0,0,0,0,0,0,0,0,0,0,0,0,0,0,0,0,0,0,0,0,0,0,0,0,0,0,0,0,0,0,0,0,0,0,0,0,0,0,0,0,0,0,0],"sum_hessian":[3.882549E7,9.924927E6,2.890056E7,9.740047E6,1.848792E5,2.9261832E6,2.5974378E7,3.8271448E6,5.912903E6,1.6873088E5,1.6148333E4,1.2884221E6,1.6377611E6,9.3889556E5,2.5035482E7,3.0183835E6,8.0876125E5,1.5433039E6,4.369599E6,1.7770615E4,1.5096025E5,4.6067847E3,1.1541548E4,8.3867356E5,4.497486E5,9.7363525E5,6.641259E5,7.31903E5,2.0699256E5,9.275879E6,1.5759603E7,2.9869325E6,3.1450795E4,2.8303153E5,5.2572975E5,1.4604954E6,8.280842E4,5.829601E5,3.7866388E6,1.6493445E4,1.2771694E3,1.3206897E5,1.8891283E4,4.441027E3,1.657579E2,1.6586154E3,9.882933E3,4.6339575E5,3.7527784E5,4.3892525E5,1.0823355E4,3.3372853E5,6.3990675E5,5.6156044E5,1.02565484E5,1.672258E5,5.646772E5,1.18533945E5,8.8458625E4,2.3248995E6,6.9509795E6,6.6771484E2,1.5758935E7,7.311383E5,2.2557942E6,1.7599443E4,1.3851352E4,1.28965695E5,1.5406584E5,3.6624875E4,4.8910484E5,1.4347408E6,2.5754611E4,5.1920035E4,3.0888389E4,3.432782E5,2.396819E5,1.4656097E3,1.5027837E4,1.9325958E1,1.2578435E3,1.1781234E5,1.4256627E4,6.5590654E3,1.2332217E4,6.939864E1,9.635926E1,8.258714E2,8.3274396E2,9.660321E3,2.226118E2,1.5032917E5,3.1306656E5,6.855436E4,3.0672347E5,4.094834E5,2.9441844E4,1.0710241E4,1.13115074E2,1.8044908E4,3.1568362E5,2.9218793E4,6.1068794E5,3.406105E5,2.209499E5,4.6861926E4,5.5703562E4,4.1450266E4,1.2577553E5,4.4270117E3,5.602502E5,9.22844E3,1.0930551E5,3.412003E4,5.433859E4,4.2181058E2,2.3244778E6,8.661421E5,6.0848375E6,3.509381E2,3.1677673E2,4.9351125E5,1.5265424E7],"tree_param":{"num_deleted":"0","num_feature":"8","num_nodes":"123","size_leaf_vector":"1"}},{"base_weights":[-6.2022984E-1,-3.28585E-1,-6.566533E-1,-6.2818E-1,1.5703177E-1,-6.145107E-1,-6.6862416E-1,-6.313324E-1,-3.952549E-1,6.6191673E-1,-6.315456E-1,-6.6944844E-1,-1.1968529E-1,-6.684117E-1,-6.696335E-1,-6.342033E-1,-5.2598584E-1,-2.204936E-1,-5.553307E-1,1.4530669E-1,7.88491E-1,-4.4353366E-1,-2.0090957E-1,-6.6948366E-1,-5.9165066E-1,-1.6964647E-1,9.6971667E-1,-6.686048E-1,-6.66331E-1,-6.7373496E-1,-2.0084137E-1,-6.622949E-1,-6.2569135E-1,-5.4820497E-2,-5.5393755E-1,-5.828667E-1,6.74618E-3,-5.963302E-1,-4.599628E-1,4.8465297E-1,-3.81543E-1,5.336391E-1,8.748087E-1,-1.8403289E-1,-5.959152E-1,-6.687661E-1,-6.7246556E-1,-6.154803E-1,-5.173685E-1,-4.301526E-1,-2.7834136E-2,9.7781754E-1,-4.571784E-1,-6.683489E-1,-6.690351E-1,-6.640496E-1,-6.691064E-1,-6.7290133E-1,-2.0338686E-1,-2.0032862E-1,-1.9378589E-1,-1.8074422E-1,-1.9294567E-1,1.3196504E-1,-5.0343998E-2,-1.786188E-1,-8.6953126E-2,-1.975915E-1,-9.590805E-2,-3.53687E-2,1.7241728E-1,-1.5548228E-1,-1.846709E-1,-1.8834613E-1,-1.14382744E-1,-1.6334604E-1,1.880281E-1,-1.8506595E-1,-3.312311E-2,1.2514955E-1,2.5221026E-1,2.6401392E-1,-1.997817E-1,-8.126677E-2,6.594821E-2,-1.8371549E-1,-7.25286E-2,-2.0067856E-1,-1.8065031E-1,-2.0148894E-1,-2.0245166E-1,-1.8017425E-1,-2.030826E-1,-8.0650225E-2,-1.7672148E-1,-1.7183451E-1,-1.0086468E-1,1.184319E-1,-8.425069E-2,2.660807E-1,3.009286E-1,-1.6464236E-1,4.472123E-2,-2.0056228E-1,-2.0013468E-1,-2.005863E-1,-2.0078868E-1,-1.9979315E-1,-1.9753279E-1,-2.0280793E-1,-2.0069082E-1,-2.0287573E-1,-2.0152864E-1],"categories":[],"categories_nodes":[],"categories_segments":[],"categories_sizes":[],"default_left":[0,0,0,0,0,0,0,0,0,0,0,0,0,0,0,0,0,0,0,0,0,0,0,0,0,0,0,0,0,0,0,0,0,0,0,0,0,0,0,0,0,0,0,0,0,0,0,0,0,0,0,0,0,0,0,0,0,0,0,0,0,0,0,0,0,0,0,0,0,0,0,0,0,0,0,0,0,0,0,0,0,0,0,0,0,0,0,0,0,0,0,0,0,0,0,0,0,0,0,0,0,0,0,0,0,0,0,0,0,0,0,0,0],"id":4,"left_children":[1,3,5,7,9,11,13,15,17,19,21,23,25,27,29,31,33,35,37,39,41,43,-1,45,47,49,51,53,55,57,-1,59,61,63,65,67,69,71,73,75,77,79,81,83,85,87,89,91,93,95,97,99,101,103,105,107,109,111,-1,-1,-1,-1,-1,-1,-1,-1,-1,-1,-1,-1,-1,-1,-1,-1,-1,-1,-1,-1,-1,-1,-1,-1,-1,-1,-1,-1,-1,-1,-1,-1,-1,-1,-1,-1,-1,-1,-1,-1,-1,-1,-1,-1,-1,-1,-1,-1,-1,-1,-1,-1,-1,-1,-1],"loss_changes":[3.83523E5,5.831781E5,1.6191E4,1.8200625E3,6.089167E5,1.9301425E5,6E0,7.394375E2,9.2600977E2,6.0970406E4,4.2819688E3,1.725E1,3.861765E4,8E0,2.375E0,5.69E2,8.546094E2,1.3034102E3,6.728369E1,3.2806266E4,1.6474531E4,3.9823066E3,0E0,1.325E1,4.819153E0,2.5062326E4,3.6008008E2,2E0,1.05625E1,1.25E-1,0E0,4.903125E1,7.401875E2,2.0327943E2,6.705488E2,1.214375E2,6.888277E2,1.7822266E1,6.8431885E1,1.6322881E4,4.58704E3,6.7765117E3,4.5151562E3,1.3070864E3,3.6994922E2,5.525E1,2E0,1.6008911E0,1.2515793E1,3.2037031E3,4.696774E4,7.018359E1,9.876373E0,2.5E0,5E-1,9.96875E0,3.125E-1,7.421875E-2,0E0,0E0,0E0,0E0,0E0,0E0,0E0,0E0,0E0,0E0,0E0,0E0,0E0,0E0,0E0,0E0,0E0,0E0,0E0,0E0,0E0,0E0,0E0,0E0,0E0,0E0,0E0,0E0,0E0,0E0,0E0,0E0,0E0,0E0,0E0,0E0,0E0,0E0,0E0,0E0,0E0,0E0,0E0,0E0,0E0,0E0,0E0,0E0,0E0,0E0,0E0,0E0,0E0,0E0,0E0],"parents":[2147483647,0,0,1,1,2,2,3,3,4,4,5,5,6,6,7,7,8,8,9,9,10,10,11,11,12,12,13,13,14,14,15,15,16,16,17,17,18,18,19,19,20,20,21,21,23,23,24,24,25,25,26,26,27,27,28,28,29,29,31,31,32,32,33,33,34,34,35,35,36,36,37,37,38,38,39,39,40,40,41,41,42,42,43,43,44,44,45,45,46,46,47,47,48,48,49,49,50,50,51,51,52,52,53,53,54,54,55,55,56,56,57,57],"right_children":[2,4,6,8,10,12,14,16,18,20,22,24,26,28,30,32,34,36,38,40,42,44,-1,46,48,50,52,54,56,58,-1,60,62,64,66,68,70,72,74,76,78,80,82,84,86,88,90,92,94,96,98,100,102,104,106,108,110,112,-1,-1,-1,-1,-1,-1,-1,-1,-1,-1,-1,-1,-1,-1,-1,-1,-1,-1,-1,-1,-1,-1,-1,-1,-1,-1,-1,-1,-1,-1,-1,-1,-1,-1,-1,-1,-1,-1,-1,-1,-1,-1,-1,-1,-1,-1,-1,-1,-1,-1,-1,-1,-1,-1,-1],"split_conditions":[-9.471016E-1,4E1,4.1E1,4E1,4.1E1,4E1,1.1005847E0,4E1,-5.4907E0,-1.4666177E-1,4.1E1,4E1,4E1,8.429344E-1,4E1,-4.3160908E1,-6.6358833E0,-3.5217804E1,4E1,-1.7283401E0,4E1,4.1E1,-2.0090957E-1,4.1E1,4E1,1.7553138E-2,4.1E1,2.2111511E-1,1.0314617E0,1.9194072E0,-2.0084137E-1,-5.2428246E1,-1.4312317E1,-8.33801E-2,4E1,-4.3160908E1,4E1,-3.6464243E0,-2.8695562E-1,-1.3244854E0,-3.8571987E-1,-1.7283401E0,4.1E1,-1.9724318E-1,-3.370872E-1,4E1,1.2995071E0,4.1E1,9.431134E-1,4E1,-2.9387665E-1,4E1,1.1916478E0,1.4476134E-1,4.716549E-1,9.6439236E-1,4E1,1.2467338E0,-2.0338686E-1,-2.0032862E-1,-1.9378589E-1,-1.8074422E-1,-1.9294567E-1,1.3196504E-1,-5.0343998E-2,-1.786188E-1,-8.6953126E-2,-1.975915E-1,-9.590805E-2,-3.53687E-2,1.7241728E-1,-1.5548228E-1,-1.846709E-1,-1.8834613E-1,-1.14382744E-1,-1.6334604E-1,1.880281E-1,-1.8506595E-1,-3.312311E-2,1.2514955E-1,2.5221026E-1,2.6401392E-1,-1.997817E-1,-8.126677E-2,6.594821E-2,-1.8371549E-1,-7.25286E-2,-2.0067856E-1,-1.8065031E-1,-2.0148894E-1,-2.0245166E-1,-1.8017425E-1,-2.030826E-1,-8.0650225E-2,-1.7672148E-1,-1.7183451E-1,-1.0086468E-1,1.184319E-1,-8.425069E-2,2.660807E-1,3.009286E-1,-1.6464236E-1,4.472123E-2,-2.0056228E-1,-2.0013468E-1,-2.005863E-1,-2.0078868E-1,-1.9979315E-1,-1.9753279E-1,-2.0280793E-1,-2.0069082E-1,-2.0287573E-1,-2.0152864E-1],"split_indices":[0,7,3,3,6,7,0,4,0,1,3,3,3,1,2,0,0,0,4,0,4,2,0,6,4,1,6,0,1,1,0,0,0,1,2,0,5,0,1,1,1,0,3,1,1,6,0,6,1,2,0,2,1,1,0,1,2,1,0,0,0,0,0,0,0,0,0,0,0,0,0,0,0,0,0,0,0,0,0,0,0,0,0,0,0,0,0,0,0,0,0,0,0,0,0,0,0,0,0,0,0,0,0,0,0,0,0,0,0,0,0,0,0],"split_type":[0,0,0,0,0,0,0,0,0,0,0,0,0,0,0,0,0,0,0,0,0,0,0,0,0,0,0,0,0,0,0,0,0,0,0,0,0,0,0,0,0,0,0,0,0,0,0,0,0,0,0,0,0,0,0,0,0,0,0,0,0,0,0,0,0,0,0,0,0,0,0,0,0,0,0,0,0,0,0,0,0,0,0,0,0,0,0,0,0,0,0,0,0,0,0,0,0,0,0,0,0,0,0,0,0,0,0,0,0,0,0,0,0],"sum_hessian":[3.6104052E7,4.0084155E6,3.2095636E7,2.4790172E6,1.5293982E6,7.1001465E6,2.499549E7,2.4459128E6,3.310463E4,9.3241906E5,5.969791E5,6.3906295E6,7.0951656E5,2.064896E7,4.346528E6,2.3810202E6,6.4892355E4,1.5827486E4,1.727714E4,1.8349414E5,7.4892494E5,1.0070972E5,4.962694E5,6.3877285E6,2.9013586E3,6.78405E5,3.111156E4,1.8894746E7,1.754215E6,1.6526928E5,4.181259E6,5.536756E5,1.8273448E6,3.634294E3,6.1258062E4,6.09939E3,9.728097E3,1.2079011E4,5.1981304E3,1.1160739E5,7.188675E4,1.8948377E5,5.594412E5,3.7259773E4,6.3449945E4,5.1488785E6,1.23885E6,2.1911533E3,7.1020514E2,2.3912875E5,4.3927625E5,3.0936242E4,1.7531888E2,1.1849365E7,7.045381E6,9.6292275E5,7.912923E5,1.3814727E5,2.7122021E4,4.1484884E5,1.3882678E5,7.8452056E5,1.0428242E6,6.752088E2,2.959085E3,5.2945266E4,8.312796E3,4.7346963E3,1.3646938E3,7.9781064E3,1.7499897E3,2.3940588E3,9.684952E3,1.6568035E3,3.5413267E3,1.3540974E4,9.8066414E4,3.848256E4,3.340419E4,1.3737672E5,5.2107047E4,5.575463E5,1.8948838E3,3.0665102E4,6.594671E3,6.0629656E4,2.8202854E3,5.136341E6,1.2537497E4,9.1641494E5,3.22435E5,1.7722877E3,4.1886572E2,1.6008253E2,5.501226E2,9.495258E4,1.4417617E5,1.6449969E5,2.7477656E5,6.7399688E3,2.4196271E4,1.5238232E2,2.2936552E1,1.0252842E7,1.5965225E6,2.721594E6,4.323787E6,7.164912E5,2.4643158E5,1.5269448E4,7.760228E5,3.489966E4,1.032476E5],"tree_param":{"num_deleted":"0","num_feature":"8","num_nodes":"113","size_leaf_vector":"1"}},{"base_weights":[6.4290774E-1,-6.053031E-1,9.4674677E-1,-6.367058E-1,2.1698725E-1,4.43627E-1,9.7871405E-1,-6.3758206E-1,3.001221E-1,1.066201E-1,9.30699E-1,-2.1438072E-2,6.551328E-1,7.711112E-1,9.8511153E-1,-6.1031294E-1,-6.6145283E-1,-5.9036505E-1,9.4818074E-1,1.3515066E-1,-4.795365E-1,9.98628E-3,9.9112695E-1,4.4556808E-1,-4.9343493E-2,7.938823E-1,5.95753E-1,8.4165144E-1,4.8628128E-1,9.946206E-1,9.7954994E-1,-6.6328615E-1,-4.5871672E-1,-6.485275E-1,-6.6603786E-1,4.558442E-1,-7.0487255E-1,7.5557375E-1,9.770098E-1,-2.1816052E-1,1.5142952E-1,-6.618611E-1,-4.1005212E-1,5.6252253E-1,-6.4287394E-1,9.943765E-1,5.3254485E-1,-7.831375E-3,5.7499963E-1,-8.353979E-3,-2.6086307E-1,7.4222267E-1,8.815901E-1,5.5653435E-1,8.7447613E-1,7.9264516E-1,8.886862E-1,-8.458813E-2,5.969542E-1,9.778432E-1,1.0005858E0,9.5261997E-1,9.8022026E-1,-1.627583E-2,-1.997343E-1,-1.0286512E-1,-1.562761E-1,-2.0051493E-1,-9.836318E-2,-1.9467847E-1,-2.0060512E-1,-3.6908098E-2,2.1372166E-1,-2.1892779E-1,-1.4934678E-1,3.152156E-1,-6.418831E-2,2.956184E-1,1.5731786E-1,2.7409363E-1,-1.03969045E-1,1.105101E-1,3.5126038E-2,-1.9992112E-1,-1.6170426E-1,2.1133818E-2,-1.5234819E-1,8.480686E-2,3.065207E-1,-2.1054928E-1,2.2440547E-1,2.8650972E-1,3.016508E-1,-1.8201503E-1,2.838198E-1,2.1849392E-1,-4.532669E-2,2.1581219E-1,9.752008E-2,1.7717712E-2,-4.940737E-2,-5.8692385E-2,-1.4949323E-1,2.4387187E-1,1.9556548E-1,2.6980245E-1,1.3399823E-1,1.287145E-1,1.7753845E-1,2.8392184E-1,2.4481444E-1,2.808014E-1,2.2604014E-1,2.709868E-1,2.2006722E-1,-4.9439564E-2,2.7527016E-1,1.2741835E-1,2.1128409E-1,2.9375684E-1,2.612729E-1,2.9164934E-1,3.006328E-1,2.8617048E-1,2.4450073E-1,2.9533586E-1,2.9293528E-1],"categories":[],"categories_nodes":[],"categories_segments":[],"categories_sizes":[],"default_left":[0,0,0,0,0,0,0,0,0,0,0,0,0,0,0,0,0,0,0,0,0,0,0,0,0,0,0,0,0,0,0,0,0,0,0,0,0,0,0,0,0,0,0,0,0,0,0,0,0,0,0,0,0,0,0,0,0,0,0,0,0,0,0,0,0,0,0,0,0,0,0,0,0,0,0,0,0,0,0,0,0,0,0,0,0,0,0,0,0,0,0,0,0,0,0,0,0,0,0,0,0,0,0,0,0,0,0,0,0,0,0,0,0,0,0,0,0,0,0,0,0,0,0,0,0,0,0],"id":5,"left_children":[1,3,5,7,9,11,13,15,17,19,21,23,25,27,29,31,33,35,37,39,41,43,45,47,49,51,53,55,57,59,61,63,65,67,69,71,73,75,77,79,81,83,85,87,89,91,93,95,97,99,101,103,105,107,109,111,113,115,117,119,121,123,125,-1,-1,-1,-1,-1,-1,-1,-1,-1,-1,-1,-1,-1,-1,-1,-1,-1,-1,-1,-1,-1,-1,-1,-1,-1,-1,-1,-1,-1,-1,-1,-1,-1,-1,-1,-1,-1,-1,-1,-1,-1,-1,-1,-1,-1,-1,-1,-1,-1,-1,-1,-1,-1,-1,-1,-1,-1,-1,-1,-1,-1,-1,-1,-1],"loss_changes":[1.6874656E7,2.24923E5,5.75522E5,6.8875E3,2.5238805E4,2.1028269E5,4.4688E4,5.45575E3,4.5252607E3,4.6408076E3,2.3874688E3,8.709426E3,1.21065E4,2.0209E4,1.726E3,3.142E4,2.6425E2,3.9603894E2,2.4462158E1,1.522002E3,1.6290552E2,9.5410455E2,5.9476562E1,2.21137E3,5.4675894E3,1.9947812E3,1.1248656E4,1.8575E3,1.2614566E4,1.204E3,3.72E2,4.405625E3,7.2999688E3,7.4512188E3,1.49125E2,4.8574303E1,1.4980103E1,1.7056354E2,1.445166E1,1.694227E3,1.8846123E3,1.623291E0,4.3830798E2,1.8379495E2,9.994577E1,1.6542969E1,1.3507176E2,8.8271954E2,1.0575352E3,5.5674224E3,1.5852671E3,1.7692812E3,1.2599219E3,4.0550938E3,5.327031E2,2.2168438E3,9.311875E2,2.6064148E3,3.091004E3,4.54E2,3.84E2,8.74375E1,3.2E2,0E0,0E0,0E0,0E0,0E0,0E0,0E0,0E0,0E0,0E0,0E0,0E0,0E0,0E0,0E0,0E0,0E0,0E0,0E0,0E0,0E0,0E0,0E0,0E0,0E0,0E0,0E0,0E0,0E0,0E0,0E0,0E0,0E0,0E0,0E0,0E0,0E0,0E0,0E0,0E0,0E0,0E0,0E0,0E0,0E0,0E0,0E0,0E0,0E0,0E0,0E0,0E0,0E0,0E0,0E0,0E0,0E0,0E0,0E0,0E0,0E0,0E0,0E0,0E0],"parents":[2147483647,0,0,1,1,2,2,3,3,4,4,5,5,6,6,7,7,8,8,9,9,10,10,11,11,12,12,13,13,14,14,15,15,16,16,17,17,18,18,19,19,20,20,21,21,22,22,23,23,24,24,25,25,26,26,27,27,28,28,29,29,30,30,31,31,32,32,33,33,34,34,35,35,36,36,37,37,38,38,39,39,40,40,41,41,42,42,43,43,44,44,45,45,46,46,47,47,48,48,49,49,50,50,51,51,52,52,53,53,54,54,55,55,56,56,57,57,58,58,59,59,60,60,61,61,62,62],"right_children":[2,4,6,8,10,12,14,16,18,20,22,24,26,28,30,32,34,36,38,40,42,44,46,48,50,52,54,56,58,60,62,64,66,68,70,72,74,76,78,80,82,84,86,88,90,92,94,96,98,100,102,104,106,108,110,112,114,116,118,120,122,124,126,-1,-1,-1,-1,-1,-1,-1,-1,-1,-1,-1,-1,-1,-1,-1,-1,-1,-1,-1,-1,-1,-1,-1,-1,-1,-1,-1,-1,-1,-1,-1,-1,-1,-1,-1,-1,-1,-1,-1,-1,-1,-1,-1,-1,-1,-1,-1,-1,-1,-1,-1,-1,-1,-1,-1,-1,-1,-1,-1,-1,-1,-1,-1,-1],"split_conditions":[4.1E1,4.1E1,4E1,4.1E1,4.1E1,4.1E1,4E1,4.0541267E0,-3.8571987E-1,2.2704031E0,-5.8636266E-1,-5.731936E-1,-2.1081439E-1,1.019583E0,-3.6025263E-2,-1.5134735E0,3.4245583E-1,-1.1114159E0,-2.1932167E-1,-8.1853E-1,1.7838058E0,-1.1114159E0,7.683792E-1,-1.3582811E0,1.8974953E0,-5.235405E-1,1.7838058E0,4.1098925E-1,1.2597519E0,-4.9481964E-1,-1.2248993E-1,-1.5720267E0,3.615989E-1,3.260356E-1,9.919929E0,-7.847137E-1,-4.8703864E-1,-9.471016E-1,2.2037506E-2,-2.4983387E0,-3.5464874E-1,1.7420654E0,2.254733E0,-8.1853E-1,-6.413994E-1,-3.937872E-1,9.958248E-1,-1.3244854E0,-6.7380273E-1,4E1,2.2704031E0,-7.8441095E-1,-1.6573334E-1,2.2447172E-1,2.076531E0,-8.929634E-1,9.264374E-1,1.7838058E0,1.6936529E0,-1.9206733E-1,-5.1384455E-1,6.76931E-1,6.242188E-1,-1.627583E-2,-1.997343E-1,-1.0286512E-1,-1.562761E-1,-2.0051493E-1,-9.836318E-2,-1.9467847E-1,-2.0060512E-1,-3.6908098E-2,2.1372166E-1,-2.1892779E-1,-1.4934678E-1,3.152156E-1,-6.418831E-2,2.956184E-1,1.5731786E-1,2.7409363E-1,-1.03969045E-1,1.105101E-1,3.5126038E-2,-1.9992112E-1,-1.6170426E-1,2.1133818E-2,-1.5234819E-1,8.480686E-2,3.065207E-1,-2.1054928E-1,2.2440547E-1,2.8650972E-1,3.016508E-1,-1.8201503E-1,2.838198E-1,2.1849392E-1,-4.532669E-2,2.1581219E-1,9.752008E-2,1.7717712E-2,-4.940737E-2,-5.8692385E-2,-1.4949323E-1,2.4387187E-1,1.9556548E-1,2.6980245E-1,1.3399823E-1,1.287145E-1,1.7753845E-1,2.8392184E-1,2.4481444E-1,2.808014E-1,2.2604014E-1,2.709868E-1,2.2006722E-1,-4.9439564E-2,2.7527016E-1,1.2741835E-1,2.1128409E-1,2.9375684E-1,2.612729E-1,2.9164934E-1,3.006328E-1,2.8617048E-1,2.4450073E-1,2.9533586E-1,2.9293528E-1],"split_indices":[6,2,3,3,3,2,2,0,1,1,1,1,1,1,1,0,1,0,1,1,0,0,0,0,0,0,0,1,1,0,0,1,1,1,0,1,1,0,0,0,1,0,0,1,0,1,0,1,1,7,1,0,0,1,1,0,0,0,1,1,1,1,1,0,0,0,0,0,0,0,0,0,0,0,0,0,0,0,0,0,0,0,0,0,0,0,0,0,0,0,0,0,0,0,0,0,0,0,0,0,0,0,0,0,0,0,0,0,0,0,0,0,0,0,0,0,0,0,0,0,0,0,0,0,0,0,0],"split_type":[0,0,0,0,0,0,0,0,0,0,0,0,0,0,0,0,0,0,0,0,0,0,0,0,0,0,0,0,0,0,0,0,0,0,0,0,0,0,0,0,0,0,0,0,0,0,0,0,0,0,0,0,0,0,0,0,0,0,0,0,0,0,0,0,0,0,0,0,0,0,0,0,0,0,0,0,0,0,0,0,0,0,0,0,0,0,0,0,0,0,0,0,0,0,0,0,0,0,0,0,0,0,0,0,0,0,0,0,0,0,0,0,0,0,0,0,0,0,0,0,0,0,0,0,0,0,0],"sum_hessian":[4.4494196E7,8.710462E6,3.5783736E7,8.390052E6,3.2041034E5,2.1378015E6,3.3645936E7,8.382212E6,7.8395757E3,2.7749947E5,4.2910883E4,6.6830775E5,1.4694936E6,1.00584325E6,3.264009E7,3.9126125E6,4.4695995E6,3.3021846E3,4.537391E3,2.6462012E5,1.2879333E4,2.6429321E3,4.0267953E4,3.768146E4,6.3062625E5,4.4040644E5,1.02908725E6,8.061837E5,1.996595E5,1.2045231E7,2.059486E7,2.8994395E6,1.0131731E6,1.170382E6,3.2992178E6,3.2547443E2,2.9767102E3,5.9427106E2,3.9431199E3,1.165484E4,2.529653E5,3.5515813E3,9.327751E3,1.4315254E3,1.2114067E3,3.998346E4,2.8449194E2,8.368277E3,2.9313186E4,5.282583E5,1.0236798E5,2.7716606E5,1.6324038E5,9.021502E5,1.26937055E5,3.9482572E5,4.11358E5,3.2421951E4,1.6723756E5,3.1594335E6,8.885798E6,5.0020938E5,2.009465E7,1.1828671E4,2.8876108E6,3.539915E5,6.591816E5,1.1021338E6,6.824826E4,4.4190384E5,2.8573138E6,1.0011304E2,2.2536139E2,2.6550564E3,3.2165384E2,4.5551874E2,1.387523E2,3.8702449E3,7.2875084E1,1.1868907E3,1.0467949E4,3.45717E4,2.183936E5,3.4206675E3,1.3091374E2,1.5771951E3,7.750556E3,8.904953E2,5.410301E2,1.1626212E3,4.8785633E1,8.833415E3,3.1150045E4,7.563855E1,2.0885341E2,1.3625558E3,7.0057217E3,1.857906E4,1.0734124E4,3.6910144E5,1.5915684E5,8.031029E4,2.205769E4,1.5549398E5,1.21672086E5,1.5683808E5,6.40229E3,1.9546156E5,7.066886E5,5.6887902E4,7.004916E4,8.473659E4,3.1008912E5,3.7596206E5,3.5395957E4,3.0020045E4,2.4019058E3,6.420791E4,1.0302964E5,3.1201452E6,3.928822E4,4.5209344E5,8.433704E6,4.955882E5,4.62119E3,9.465676E6,1.0628974E7],"tree_param":{"num_deleted":"0","num_feature":"8","num_nodes":"127","size_leaf_vector":"1"}},{"base_weights":[-1.357385E-1,6.83442E-1,-5.267227E-1,7.601924E-1,-3.5235226E-2,-4.3107264E-2,-5.613095E-1,7.8333044E-1,3.8033268E-1,3.3384648E-1,-1.20429814E-1,2.0747834E-1,-2.427387E-1,-2.559277E-1,-5.7099736E-1,7.5312054E-1,8.035583E-1,1.1498732E-1,4.8284525E-1,3.0226573E-1,6.994189E-1,-8.904128E-2,-3.6186948E-1,4.1327167E-1,6.2913336E-3,-3.3143425E-1,3.6381233E-2,-2.1333326E-1,-3.411605E-1,-5.887603E-1,-5.606277E-1,7.8078544E-1,6.533643E-1,8.005956E-1,8.1008387E-1,3.7371522E-1,-1.10867396E-1,4.640958E-1,7.277301E-1,1.3096161E-1,3.2906348E-1,8.066671E-1,6.5460473E-1,-2.800564E-1,-2.5358371E-2,-4.4833288E-1,-2.8266183E-1,1.3124672E-1,5.7100135E-1,-8.912867E-2,4.618698E-1,-1.693237E-1,-3.797176E-1,1.6410026E-1,-1.521093E-1,-1.9406084E-2,-2.7972272E-1,3.5599774E-1,-3.6552435E-1,-5.2979034E-1,-5.952532E-1,-5.1953155E-1,-5.618201E-1,2.3502497E-1,2.0403677E-1,1.6289377E-1,2.1562308E-1,2.4190514E-1,2.0413402E-1,2.4560529E-1,2.4233289E-1,-5.6833133E-2,1.6066061E-1,-5.940146E-2,6.26899E-2,1.7896262E-1,1.3216826E-1,2.6175603E-1,2.0978658E-1,2.4964722E-1,2.6059411E-2,1.0406693E-1,6.106191E-2,2.398905E-1,3.580265E-1,9.6396506E-2,2.1230322E-1,-5.9971153E-3,-1.20181344E-1,-2.5918735E-2,3.0602155E-2,-3.127709E-2,-1.4881285E-1,1.7422723E-2,-1.1671202E-1,7.987824E-2,-7.42473E-3,1.9834118E-1,9.350942E-2,-3.2836688E-4,-9.647858E-2,9.579352E-2,2.913842E-1,-1.0152535E-1,1.3020246E-2,-1.1898353E-1,-3.504434E-2,3.6374975E-2,1.991701E-1,-1.415479E-1,9.490307E-3,1.05933554E-1,-2.8465454E-2,-1.2647898E-1,-6.0719013E-2,-8.293868E-2,3.8378718E-1,-5.7216745E-2,-1.2154208E-1,-1.0802489E-1,-1.6041331E-1,-1.7292738E-1,-1.806812E-1,-1.4608987E-1,-1.6206688E-1,-1.707728E-1,-1.6657403E-1],"categories":[],"categories_nodes":[],"categories_segments":[],"categories_sizes":[],"default_left":[0,0,0,0,0,0,0,0,0,0,0,0,0,0,0,0,0,0,0,0,0,0,0,0,0,0,0,0,0,0,0,0,0,0,0,0,0,0,0,0,0,0,0,0,0,0,0,0,0,0,0,0,0,0,0,0,0,0,0,0,0,0,0,0,0,0,0,0,0,0,0,0,0,0,0,0,0,0,0,0,0,0,0,0,0,0,0,0,0,0,0,0,0,0,0,0,0,0,0,0,0,0,0,0,0,0,0,0,0,0,0,0,0,0,0,0,0,0,0,0,0,0,0,0,0,0,0],"id":6,"left_children":[1,3,5,7,9,11,13,15,17,19,21,23,25,27,29,31,33,35,37,39,41,43,45,47,49,51,53,55,57,59,61,63,65,67,69,71,73,75,77,79,81,83,85,87,89,91,93,95,97,99,101,103,105,107,109,111,113,115,117,119,121,123,125,-1,-1,-1,-1,-1,-1,-1,-1,-1,-1,-1,-1,-1,-1,-1,-1,-1,-1,-1,-1,-1,-1,-1,-1,-1,-1,-1,-1,-1,-1,-1,-1,-1,-1,-1,-1,-1,-1,-1,-1,-1,-1,-1,-1,-1,-1,-1,-1,-1,-1,-1,-1,-1,-1,-1,-1,-1,-1,-1,-1,-1,-1,-1,-1],"loss_changes":[1.085286E7,6.03858E5,3.836645E5,8.69365E4,3.321511E4,7.658388E4,6.333E4,5.697E3,1.5447773E4,2.2869062E3,6.504008E3,2.8105447E4,2.1094992E4,2.3895078E3,3.8215E3,1.03185E4,1.0725E2,9.248119E3,1.8805391E3,8.3706055E2,7.517969E1,9.238762E3,6.7608594E2,1.4927414E4,1.4921838E4,5.0611797E3,4.9466084E3,5.6504727E3,3.725461E3,2.92775E3,6.4175E2,7.7475E2,5.8584375E3,2.655E3,3.3875E1,6.722208E3,2.3550234E3,1.1858438E3,1.193584E2,7.6270776E2,3.5276953E2,1.1659668E1,1.9637842E2,5.953385E3,4.42808E3,7.748584E2,1.8679722E3,2.5350513E3,5.029789E3,5.8082334E3,4.3165576E3,5.337824E3,2.2128281E3,2.6230935E3,4.875542E3,3.147207E3,3.586754E3,4.325355E3,1.4674531E3,6.332344E2,9.1E2,2.4865625E2,6.2075E2,0E0,0E0,0E0,0E0,0E0,0E0,0E0,0E0,0E0,0E0,0E0,0E0,0E0,0E0,0E0,0E0,0E0,0E0,0E0,0E0,0E0,0E0,0E0,0E0,0E0,0E0,0E0,0E0,0E0,0E0,0E0,0E0,0E0,0E0,0E0,0E0,0E0,0E0,0E0,0E0,0E0,0E0,0E0,0E0,0E0,0E0,0E0,0E0,0E0,0E0,0E0,0E0,0E0,0E0,0E0,0E0,0E0,0E0,0E0,0E0,0E0,0E0,0E0,0E0],"parents":[2147483647,0,0,1,1,2,2,3,3,4,4,5,5,6,6,7,7,8,8,9,9,10,10,11,11,12,12,13,13,14,14,15,15,16,16,17,17,18,18,19,19,20,20,21,21,22,22,23,23,24,24,25,25,26,26,27,27,28,28,29,29,30,30,31,31,32,32,33,33,34,34,35,35,36,36,37,37,38,38,39,39,40,40,41,41,42,42,43,43,44,44,45,45,46,46,47,47,48,48,49,49,50,50,51,51,52,52,53,53,54,54,55,55,56,56,57,57,58,58,59,59,60,60,61,61,62,62],"right_children":[2,4,6,8,10,12,14,16,18,20,22,24,26,28,30,32,34,36,38,40,42,44,46,48,50,52,54,56,58,60,62,64,66,68,70,72,74,76,78,80,82,84,86,88,90,92,94,96,98,100,102,104,106,108,110,112,114,116,118,120,122,124,126,-1,-1,-1,-1,-1,-1,-1,-1,-1,-1,-1,-1,-1,-1,-1,-1,-1,-1,-1,-1,-1,-1,-1,-1,-1,-1,-1,-1,-1,-1,-1,-1,-1,-1,-1,-1,-1,-1,-1,-1,-1,-1,-1,-1,-1,-1,-1,-1,-1,-1,-1,-1,-1,-1,-1,-1,-1,-1,-1,-1,-1,-1,-1,-1],"split_conditions":[4E1,4.1E1,4E1,4.1E1,4.1E1,4E1,4E1,4.0541267E0,2.9335213E-1,2.2704031E0,1.6936529E0,1.2960315E-1,8.936699E-1,4E1,-2.016374E-2,-1.5134735E0,7.509929E1,-4.100629E-1,2.2704031E0,-5.235405E-1,1.8338966E0,-2.1081439E-1,2.076531E0,-1.2240782E0,-1.6021729E-4,-4.100629E-1,1.6936529E0,4.1E1,-9.74974E-1,-7.556114E-1,-1.444931E-1,4E1,8.4867096E-1,6.62706E1,3.4245583E-1,-6.54372E-1,-1.3734436E-1,5.240829E-1,1.9809608E0,-8.1853E-1,1.7604935E0,4E1,2.254733E0,-5.8724976E-1,9.067664E-1,1.4199505E0,2.254733E0,-3.937872E-1,-1.020069E-1,4E1,4E1,-6.7380273E-1,9.1002655E-1,1.6596164E0,1.7604935E0,-4.3103492E-1,-3.265657E-1,-2.085846E0,-5.4907E0,4.1E1,-4.1886902E-1,1.4476134E-1,6.242188E-1,2.3502497E-1,2.0403677E-1,1.6289377E-1,2.1562308E-1,2.4190514E-1,2.0413402E-1,2.4560529E-1,2.4233289E-1,-5.6833133E-2,1.6066061E-1,-5.940146E-2,6.26899E-2,1.7896262E-1,1.3216826E-1,2.6175603E-1,2.0978658E-1,2.4964722E-1,2.6059411E-2,1.0406693E-1,6.106191E-2,2.398905E-1,3.580265E-1,9.6396506E-2,2.1230322E-1,-5.9971153E-3,-1.20181344E-1,-2.5918735E-2,3.0602155E-2,-3.127709E-2,-1.4881285E-1,1.7422723E-2,-1.1671202E-1,7.987824E-2,-7.42473E-3,1.9834118E-1,9.350942E-2,-3.2836688E-4,-9.647858E-2,9.579352E-2,2.913842E-1,-1.0152535E-1,1.3020246E-2,-1.1898353E-1,-3.504434E-2,3.6374975E-2,1.991701E-1,-1.415479E-1,9.490307E-3,1.05933554E-1,-2.8465454E-2,-1.2647898E-1,-6.0719013E-2,-8.293868E-2,3.8378718E-1,-5.7216745E-2,-1.2154208E-1,-1.0802489E-1,-1.6041331E-1,-1.7292738E-1,-1.806812E-1,-1.4608987E-1,-1.6206688E-1,-1.707728E-1,-1.6657403E-1],"split_indices":[7,2,2,6,6,3,3,0,0,1,1,1,1,4,1,0,0,1,1,0,0,1,1,0,0,1,1,6,1,0,0,4,0,0,1,1,0,1,0,1,1,6,0,0,1,0,0,1,1,4,4,1,0,1,1,1,1,0,0,6,0,1,1,0,0,0,0,0,0,0,0,0,0,0,0,0,0,0,0,0,0,0,0,0,0,0,0,0,0,0,0,0,0,0,0,0,0,0,0,0,0,0,0,0,0,0,0,0,0,0,0,0,0,0,0,0,0,0,0,0,0,0,0,0,0,0,0],"split_type":[0,0,0,0,0,0,0,0,0,0,0,0,0,0,0,0,0,0,0,0,0,0,0,0,0,0,0,0,0,0,0,0,0,0,0,0,0,0,0,0,0,0,0,0,0,0,0,0,0,0,0,0,0,0,0,0,0,0,0,0,0,0,0,0,0,0,0,0,0,0,0,0,0,0,0,0,0,0,0,0,0,0,0,0,0,0,0,0,0,0,0,0,0,0,0,0,0,0,0,0,0,0,0,0,0,0,0,0,0,0,0,0,0,0,0,0,0,0,0,0,0,0,0,0,0,0,0],"sum_hessian":[3.388483E7,1.094763E7,2.2937204E7,9.891298E6,1.0563315E6,1.5309174E6,2.1406286E7,9.32339E6,5.679078E5,1.9810297E5,8.5822856E5,6.788264E5,8.5209094E5,6.5820456E5,2.0748082E7,3.739122E6,5.584268E6,1.5826189E5,4.096459E5,1.8235194E5,1.5751033E4,7.594917E5,9.873689E4,3.355711E5,3.4325528E5,6.466164E5,2.0547458E5,4.388807E5,2.1932389E5,7.6477065E6,1.3100376E7,2.9273008E6,8.118213E5,3.8406642E6,1.743604E6,7.376255E4,8.449934E4,3.8051497E5,2.9130955E4,2.4668021E4,1.576839E5,4.636964E3,1.1114069E4,1.8989714E5,5.6959456E5,4.720407E4,5.153282E4,1.2036215E5,2.1520895E5,2.838122E5,5.9443094E4,1.483932E5,4.9822316E5,1.2248218E5,8.299239E4,1.11929586E5,3.2695112E5,7.4055117E3,2.1191838E5,7.5853975E5,6.889167E6,3.6940822E5,1.2730967E7,2.8527308E6,7.4569984E4,3.0197762E5,5.098437E5,3.6651082E6,1.7555594E5,3.6878984E5,1.3748142E6,1.646425E4,5.7298297E4,6.640731E4,1.8092035E4,5.7409695E4,3.2310528E5,4.7779155E3,2.435304E4,1.4584811E3,2.3209541E4,1.380736E5,1.9610312E4,4.557171E3,7.979287E1,1.5276796E3,9.58639E3,6.0144586E4,1.2975255E5,3.8506172E5,1.8453283E5,5.748692E3,4.145538E4,1.2260846E4,3.9271973E4,6.4519727E4,5.584242E4,1.5969586E5,5.5513098E4,2.0585628E5,7.795591E4,4.6446668E4,1.2996424E4,8.267471E4,6.571849E4,4.6813997E5,3.0083191E4,1.1281153E5,9.67065E3,3.028844E4,5.2703953E4,1.8857348E4,9.307224E4,1.1533528E5,2.1161584E5,4.3953657E3,3.010146E3,3.91552E4,1.7276317E5,2.1376154E4,7.3716356E5,1.8704964E6,5.0186705E6,1.4353248E5,2.2587573E5,5.979223E6,6.7517445E6],"tree_param":{"num_deleted":"0","num_feature":"8","num_nodes":"127","size_leaf_vector":"1"}},{"base_weights":[-5.6760526E-1,-2.8943837E-1,-6.056931E-1,-5.7034546E-1,8.997238E-2,-5.633527E-1,-6.179359E-1,-5.738646E-1,-3.3010778E-1,5.047462E-1,-5.7565963E-1,-6.196431E-1,-1.0084674E-1,-6.231481E-1,-6.177776E-1,-6.100543E-1,-5.635297E-1,-1.4358272E-1,-4.7874928E-1,3.609211E-2,6.0039955E-1,-3.7882578E-1,-6.187553E-1,-6.182177E-1,-6.253797E-1,-1.4033987E-1,7.709622E-1,-6.728024E-1,-6.228364E-1,-6.175304E-1,-6.189154E-1,-6.1662984E-1,-5.905095E-1,-5.4936093E-1,-5.9363204E-1,-5.284004E-1,1.11394435E-1,-3.6744654E-1,-5.164239E-1,3.815146E-1,-3.674882E-1,3.7703872E-1,6.870066E-1,-1.10997394E-1,-5.2926236E-1,-1.8582615E-1,-1.8513142E-1,-6.184138E-1,-5.421399E-1,-6.275073E-1,-6.2370807E-1,-3.6364016E-1,-3.780729E-2,7.7694863E-1,-3.8227993E-1,-2.1286975E-1,-1.8098447E-1,-6.2088263E-1,-6.294424E-1,-6.1777216E-1,-6.146499E-1,-6.17949E-1,-1.8571413E-1,-1.8533053E-1,-1.8430151E-1,-1.7746255E-1,-1.3592178E-1,-1.6556047E-1,-3.5682626E-2,-1.8108037E-1,-1.5057088E-1,-1.8408908E-1,-7.644904E-2,-2.2226495E-3,1.8798256E-1,-1.2156878E-1,4.4960724E-3,-1.6744193E-1,-1.2794186E-1,-1.4227387E-1,1.5154746E-1,-2.7643638E-2,-1.3938312E-1,9.414202E-2,1.983138E-1,2.0777471E-1,-1.8757495E-1,-6.469905E-2,7.1298935E-2,-1.6551927E-1,-5.315359E-2,-1.8541461E-1,-1.8910822E-1,-1.6527204E-1,2.3376079E-1,-1.8825938E-1,-5.122606E-2,-1.859098E-1,-1.880049E-1,-1.5923557E-1,-7.531732E-2,7.3873036E-2,-7.980174E-2,2.0743631E-1,2.4104567E-1,-1.4469673E-1,4.1189544E-2,-1.874345E-1,-1.8583786E-1,-1.9299962E-1,-1.8797188E-1,-1.8523438E-1,-1.8552357E-1,-1.8349777E-1,-1.8549338E-1,-1.8547484E-1,-1.8450196E-1],"categories":[],"categories_nodes":[],"categories_segments":[],"categories_sizes":[],"default_left":[0,0,0,0,0,0,0,0,0,0,0,0,0,0,0,0,0,0,0,0,0,0,0,0,0,0,0,0,0,0,0,0,0,0,0,0,0,0,0,0,0,0,0,0,0,0,0,0,0,0,0,0,0,0,0,0,0,0,0,0,0,0,0,0,0,0,0,0,0,0,0,0,0,0,0,0,0,0,0,0,0,0,0,0,0,0,0,0,0,0,0,0,0,0,0,0,0,0,0,0,0,0,0,0,0,0,0,0,0,0,0,0,0,0,0,0,0],"id":7,"left_children":[1,3,5,7,9,11,13,15,17,19,21,23,25,27,29,31,33,35,37,39,41,43,45,47,49,51,53,55,57,59,61,63,65,67,69,71,73,75,77,79,81,83,85,87,89,-1,-1,91,93,95,97,99,101,103,105,-1,-1,107,109,111,113,115,-1,-1,-1,-1,-1,-1,-1,-1,-1,-1,-1,-1,-1,-1,-1,-1,-1,-1,-1,-1,-1,-1,-1,-1,-1,-1,-1,-1,-1,-1,-1,-1,-1,-1,-1,-1,-1,-1,-1,-1,-1,-1,-1,-1,-1,-1,-1,-1,-1,-1,-1,-1,-1,-1,-1],"loss_changes":[3.17468E5,3.8461806E5,1.3662E4,1.752875E3,4.238508E5,1.5390362E5,1.7E1,7.639375E2,8.299741E2,4.240011E4,4.9992656E3,4.2625E1,2.2084133E4,8.90625E0,5.5E0,5.7984375E1,6.776875E2,1.3029424E3,6.967285E1,2.2350393E4,1.5195125E4,4.26537E3,1.5625E-1,6.2625E1,3.34375E0,1.4049011E4,1.9220117E2,9.145142E0,7.359375E0,1.1E1,1.25E-1,5.078125E-1,1.5957031E1,1.1664688E3,4.6492188E2,1.23234985E2,4.889097E2,6.0934937E1,4.6459717E1,9.140843E3,1.9772188E3,3.9412676E3,4.1420625E3,1.3896132E3,5.361621E2,0E0,0E0,1.8E1,1.262229E2,4.9375E0,6.609375E0,3.633371E3,2.7258398E4,6.2185547E1,7.5626717E0,0E0,0E0,2.1875E0,5.0351562E0,3E0,1.34375E1,1.5625E-2,0E0,0E0,0E0,0E0,0E0,0E0,0E0,0E0,0E0,0E0,0E0,0E0,0E0,0E0,0E0,0E0,0E0,0E0,0E0,0E0,0E0,0E0,0E0,0E0,0E0,0E0,0E0,0E0,0E0,0E0,0E0,0E0,0E0,0E0,0E0,0E0,0E0,0E0,0E0,0E0,0E0,0E0,0E0,0E0,0E0,0E0,0E0,0E0,0E0,0E0,0E0,0E0,0E0,0E0,0E0],"parents":[2147483647,0,0,1,1,2,2,3,3,4,4,5,5,6,6,7,7,8,8,9,9,10,10,11,11,12,12,13,13,14,14,15,15,16,16,17,17,18,18,19,19,20,20,21,21,22,22,23,23,24,24,25,25,26,26,27,27,28,28,29,29,30,30,31,31,32,32,33,33,34,34,35,35,36,36,37,37,38,38,39,39,40,40,41,41,42,42,43,43,44,44,47,47,48,48,49,49,50,50,51,51,52,52,53,53,54,54,57,57,58,58,59,59,60,60,61,61],"right_children":[2,4,6,8,10,12,14,16,18,20,22,24,26,28,30,32,34,36,38,40,42,44,46,48,50,52,54,56,58,60,62,64,66,68,70,72,74,76,78,80,82,84,86,88,90,-1,-1,92,94,96,98,100,102,104,106,-1,-1,108,110,112,114,116,-1,-1,-1,-1,-1,-1,-1,-1,-1,-1,-1,-1,-1,-1,-1,-1,-1,-1,-1,-1,-1,-1,-1,-1,-1,-1,-1,-1,-1,-1,-1,-1,-1,-1,-1,-1,-1,-1,-1,-1,-1,-1,-1,-1,-1,-1,-1,-1,-1,-1,-1,-1,-1,-1,-1],"split_conditions":[-8.929634E-1,4E1,4.1E1,4E1,4.1E1,4E1,4.1E1,-4.3160908E1,-6.6358833E0,-2.2795181E-1,4.1E1,4.1E1,4E1,4.1E1,1.0834885E0,-5.2428246E1,-5.4907E0,-3.5217804E1,-3.6464243E0,-2.085846E0,4E1,4.1E1,-1.0169508E0,4E1,5.601053E-1,1.7553138E-2,4.1E1,-2.1932167E-1,1.019583E0,8.429344E-1,1.1518517E0,-6.3743366E1,1.6312009E0,4E1,4E1,-4.3160908E1,4E1,6.833343E-1,4E1,-1.3244854E0,-1.5134735E0,4E1,4.1E1,-2.1081439E-1,-3.370872E-1,-1.8582615E-1,-1.8513142E-1,4.1E1,1.7838058E0,4E1,1.0311966E0,4E1,-2.2376633E-1,4E1,1.1916478E0,-2.1286975E-1,-1.8098447E-1,1.0847745E-1,1.2467338E0,2.7982807E-1,1.0314617E0,1.2718054E0,-1.8571413E-1,-1.8533053E-1,-1.8430151E-1,-1.7746255E-1,-1.3592178E-1,-1.6556047E-1,-3.5682626E-2,-1.8108037E-1,-1.5057088E-1,-1.8408908E-1,-7.644904E-2,-2.2226495E-3,1.8798256E-1,-1.2156878E-1,4.4960724E-3,-1.6744193E-1,-1.2794186E-1,-1.4227387E-1,1.5154746E-1,-2.7643638E-2,-1.3938312E-1,9.414202E-2,1.983138E-1,2.0777471E-1,-1.8757495E-1,-6.469905E-2,7.1298935E-2,-1.6551927E-1,-5.315359E-2,-1.8541461E-1,-1.8910822E-1,-1.6527204E-1,2.3376079E-1,-1.8825938E-1,-5.122606E-2,-1.859098E-1,-1.880049E-1,-1.5923557E-1,-7.531732E-2,7.3873036E-2,-7.980174E-2,2.0743631E-1,2.4104567E-1,-1.4469673E-1,4.1189544E-2,-1.874345E-1,-1.8583786E-1,-1.9299962E-1,-1.8797188E-1,-1.8523438E-1,-1.8552357E-1,-1.8349777E-1,-1.8549338E-1,-1.8547484E-1,-1.8450196E-1],"split_indices":[0,7,3,3,6,7,2,0,0,1,3,6,3,6,0,0,0,0,0,0,4,2,0,6,1,1,6,1,1,1,0,0,1,4,4,0,5,1,4,1,0,3,3,1,1,0,0,2,0,4,0,2,0,2,1,0,0,1,1,0,1,1,0,0,0,0,0,0,0,0,0,0,0,0,0,0,0,0,0,0,0,0,0,0,0,0,0,0,0,0,0,0,0,0,0,0,0,0,0,0,0,0,0,0,0,0,0,0,0,0,0,0,0,0,0,0,0],"split_type":[0,0,0,0,0,0,0,0,0,0,0,0,0,0,0,0,0,0,0,0,0,0,0,0,0,0,0,0,0,0,0,0,0,0,0,0,0,0,0,0,0,0,0,0,0,0,0,0,0,0,0,0,0,0,0,0,0,0,0,0,0,0,0,0,0,0,0,0,0,0,0,0,0,0,0,0,0,0,0,0,0,0,0,0,0,0,0,0,0,0,0,0,0,0,0,0,0,0,0,0,0,0,0,0,0,0,0,0,0,0,0,0,0,0,0,0,0],"sum_hessian":[2.9964548E7,3.6087532E6,2.6355794E7,2.0735464E6,1.535207E6,5.911493E6,2.0444302E7,2.0436094E6,2.9937023E4,9.458326E5,5.893744E5,5.2700845E6,6.4140856E5,6.024564E5,1.9841846E7,4.5394975E5,1.5896596E6,1.3277507E4,1.6659516E4,1.6032423E5,7.855084E5,1.0586408E5,4.835103E5,4.2213195E6,1.0487654E6,6.136126E5,2.7795936E4,3.744638E3,5.9871175E5,1.6300993E7,3.540852E6,3.396496E5,1.14300164E5,1.0809102E6,5.0874934E5,5.2910513E3,7.9864556E3,4.215714E3,1.2443802E4,8.63865E4,7.393774E4,2.1947766E5,5.660307E5,3.807656E4,6.7787516E4,3.4436188E5,1.3914845E5,4.210461E6,1.085815E4,4.6127734E5,5.87488E5,1.9308984E5,4.2052278E5,2.7652719E4,1.4321826E2,2.4433552E3,1.3012826E3,4.6212875E5,1.3658297E5,1.503849E7,1.262503E6,4.2505778E5,3.115794E6,2.26727E5,1.12922586E5,1.1344475E5,8.554086E2,1.0746499E6,6.260304E3,4.5887322E5,4.987614E4,4.033261E3,1.2577904E3,6.4907407E3,1.495715E3,3.836614E3,3.7909967E2,8.49769E3,3.9461118E3,1.090539E4,7.548111E4,1.928016E4,5.4657582E4,1.7951266E5,3.9965008E4,5.6363625E5,2.3944387E3,2.9285564E4,8.790994E3,6.372057E4,4.0669443E3,4.085653E6,1.2480813E5,1.0787162E4,7.098841E1,4.6125284E5,2.4502531E1,2.5034734E5,3.371407E5,7.771173E4,1.1537812E5,1.8733586E5,2.3318692E5,6.5565166E3,2.1096201E4,1.20154724E2,2.3063541E1,1.23455016E5,3.3867375E5,2.334735E4,1.1323562E5,9.980079E6,5.0584105E6,6.9498644E5,5.6751656E5,3.854876E5,3.95702E4],"tree_param":{"num_deleted":"0","num_feature":"8","num_nodes":"117","size_leaf_vector":"1"}},{"base_weights":[5.213778E-1,-5.48218E-1,7.4957424E-1,-5.8100045E-1,1.6422988E-1,3.4355658E-1,7.7679425E-1,-5.4981124E-1,-6.091283E-1,8.083582E-2,7.334436E-1,4.8475796E-3,4.9220714E-1,5.890242E-1,7.8283715E-1,-6.096722E-1,-3.7762755E-1,-5.9413177E-1,-6.1447835E-1,1.0128585E-1,-4.09948E-1,-7.352197E-2,7.908111E-1,1.0561644E-1,-8.500055E-2,6.082903E-1,4.418711E-1,6.4885205E-1,3.7829098E-1,7.915138E-1,7.763594E-1,-4.260618E-2,-6.1239916E-1,-2.6139563E-1,-4.5018044E-1,-6.173068E-1,-2.5749224E-1,-5.9397894E-1,-1.8530104E-1,1.20516464E-1,-1.6793029E-1,-6.153818E-1,-3.4101203E-1,7.163291E-1,-4.0645662E-1,7.938588E-1,3.698699E-1,3.2344145E-1,-9.646006E-2,-6.1595395E-2,-4.3940756E-1,5.7998025E-1,7.345697E-1,4.0815172E-1,6.682556E-1,6.240218E-1,7.4936235E-1,2.4347353E-1,5.297165E-1,7.606437E-1,7.9431987E-1,7.7572215E-1,7.9505414E-1,-2.1911217E-1,6.9042996E-2,-1.8604784E-1,-1.5838143E-1,-1.06634565E-1,-3.7034936E-2,-1.2721029E-1,-1.921287E-1,-1.8530828E-1,-1.787318E-1,-1.9304676E-1,8.317307E-2,-1.840904E-1,-1.6049945E-1,3.7107278E-2,-2.2089867E-1,-1.999343E-2,-2.0898026E-1,-1.8400194E-1,-2.0754707E-1,9.339225E-3,-1.3050838E-1,2.568825E-1,1.9837655E-1,-5.1069586E-3,-1.8292713E-1,2.2730012E-1,2.4121408E-1,-1.8307033E-1,2.2299361E-1,1.1504682E-2,1.6930056E-1,1.0434018E-1,-5.250913E-2,-6.1242808E-2,-5.7534548E-3,-9.021062E-2,-1.50559E-1,1.8690477E-1,1.4546362E-1,1.1316179E-1,2.3724909E-1,8.50747E-2,1.3203692E-1,2.1977414E-1,1.8311429E-1,1.9230036E-1,1.4802548E-1,2.333476E-1,1.8379822E-1,8.6312875E-2,-7.180284E-2,2.2838318E-1,1.12621516E-1,2.1334283E-1,2.2966175E-1,2.3561287E-1,2.3910761E-1,2.3285232E-1,2.176978E-1,2.3670608E-1,2.4344814E-1],"categories":[],"categories_nodes":[],"categories_segments":[],"categories_sizes":[],"default_left":[0,0,0,0,0,0,0,0,0,0,0,0,0,0,0,0,0,0,0,0,0,0,0,0,0,0,0,0,0,0,0,0,0,0,0,0,0,0,0,0,0,0,0,0,0,0,0,0,0,0,0,0,0,0,0,0,0,0,0,0,0,0,0,0,0,0,0,0,0,0,0,0,0,0,0,0,0,0,0,0,0,0,0,0,0,0,0,0,0,0,0,0,0,0,0,0,0,0,0,0,0,0,0,0,0,0,0,0,0,0,0,0,0,0,0,0,0,0,0,0,0,0,0,0,0],"id":8,"left_children":[1,3,5,7,9,11,13,15,17,19,21,23,25,27,29,31,33,35,37,39,41,43,45,47,49,51,53,55,57,59,61,63,65,67,69,71,73,75,-1,77,79,81,83,85,87,89,91,93,95,97,99,101,103,105,107,109,111,113,115,117,119,121,123,-1,-1,-1,-1,-1,-1,-1,-1,-1,-1,-1,-1,-1,-1,-1,-1,-1,-1,-1,-1,-1,-1,-1,-1,-1,-1,-1,-1,-1,-1,-1,-1,-1,-1,-1,-1,-1,-1,-1,-1,-1,-1,-1,-1,-1,-1,-1,-1,-1,-1,-1,-1,-1,-1,-1,-1,-1,-1,-1,-1,-1,-1],"loss_changes":[1.011535E7,1.7019625E5,3.77486E5,6.11125E3,1.5216548E4,1.0804942E5,3.6322E4,3.4049438E4,2.935E2,2.806227E3,1.8963691E3,5.9262925E3,8.714469E3,1.2582844E4,1.74E3,3.790625E3,7.1866016E3,7.5145312E3,1.7625E2,1.389647E3,1.5818176E2,7.154852E2,4.876953E1,1.3580621E4,2.8702656E3,1.6122812E3,7.9411875E3,1.9395625E3,4.50533E3,1.148E3,2.12E2,2.2010986E3,1.598625E3,4.2493047E3,2.6097031E3,7.15625E0,1.2805797E4,4.21375E2,0E0,6.815049E2,9.581932E2,1.4282227E-2,2.9308734E2,5.652252E0,1.5151465E2,1.3392578E1,1.01757164E2,1.0197048E4,5.586744E3,1.96264E3,1.8554834E2,1.507875E3,1.6605703E3,3.6060781E3,5.01625E2,1.3820312E3,5.986953E2,2.493649E3,3.7139082E3,2.670625E2,2.94E2,3.88E2,5.74375E1,0E0,0E0,0E0,0E0,0E0,0E0,0E0,0E0,0E0,0E0,0E0,0E0,0E0,0E0,0E0,0E0,0E0,0E0,0E0,0E0,0E0,0E0,0E0,0E0,0E0,0E0,0E0,0E0,0E0,0E0,0E0,0E0,0E0,0E0,0E0,0E0,0E0,0E0,0E0,0E0,0E0,0E0,0E0,0E0,0E0,0E0,0E0,0E0,0E0,0E0,0E0,0E0,0E0,0E0,0E0,0E0,0E0,0E0,0E0,0E0,0E0,0E0],"parents":[2147483647,0,0,1,1,2,2,3,3,4,4,5,5,6,6,7,7,8,8,9,9,10,10,11,11,12,12,13,13,14,14,15,15,16,16,17,17,18,18,19,19,20,20,21,21,22,22,23,23,24,24,25,25,26,26,27,27,28,28,29,29,30,30,31,31,32,32,33,33,34,34,35,35,36,36,37,37,39,39,40,40,41,41,42,42,43,43,44,44,45,45,46,46,47,47,48,48,49,49,50,50,51,51,52,52,53,53,54,54,55,55,56,56,57,57,58,58,59,59,60,60,61,61,62,62],"right_children":[2,4,6,8,10,12,14,16,18,20,22,24,26,28,30,32,34,36,38,40,42,44,46,48,50,52,54,56,58,60,62,64,66,68,70,72,74,76,-1,78,80,82,84,86,88,90,92,94,96,98,100,102,104,106,108,110,112,114,116,118,120,122,124,-1,-1,-1,-1,-1,-1,-1,-1,-1,-1,-1,-1,-1,-1,-1,-1,-1,-1,-1,-1,-1,-1,-1,-1,-1,-1,-1,-1,-1,-1,-1,-1,-1,-1,-1,-1,-1,-1,-1,-1,-1,-1,-1,-1,-1,-1,-1,-1,-1,-1,-1,-1,-1,-1,-1,-1,-1,-1,-1,-1,-1,-1],"split_conditions":[4.1E1,4.1E1,4.1E1,4.0541267E0,4.1E1,4.1E1,4E1,-1.3582811E0,3.4245583E-1,2.2704031E0,-5.731936E-1,3.2793045E-1,-1.8747246E-1,8.936699E-1,1.225544E-1,-1.5720267E0,4.1826165E-1,3.260356E-1,9.919929E0,4E1,1.7420654E0,-1.5134735E0,7.683792E-1,4E1,2.2704031E0,-3.647499E-1,1.6936529E0,7.948257E-1,1.6936529E0,-7.556114E-1,1.7979661E0,-3.6464243E0,-2.085846E0,-6.614609E-1,4E1,3.2059482E-1,6.62706E1,8.326956E0,-1.8530104E-1,4E1,3.260356E-1,4E1,2.254733E0,-2.085846E0,-1.1114159E0,-3.937872E-1,9.958248E-1,-4.100629E-1,-3.370872E-1,7.4545985E-1,2.254733E0,-4.3960947E-1,-3.370872E-1,2.1722004E-1,2.076531E0,6.3830197E-1,8.710285E-1,1.6596164E0,1.7604935E0,-1.7283401E0,-4.1886902E-1,1.8338966E0,2.254733E0,-2.1911217E-1,6.9042996E-2,-1.8604784E-1,-1.5838143E-1,-1.06634565E-1,-3.7034936E-2,-1.2721029E-1,-1.921287E-1,-1.8530828E-1,-1.787318E-1,-1.9304676E-1,8.317307E-2,-1.840904E-1,-1.6049945E-1,3.7107278E-2,-2.2089867E-1,-1.999343E-2,-2.0898026E-1,-1.8400194E-1,-2.0754707E-1,9.339225E-3,-1.3050838E-1,2.568825E-1,1.9837655E-1,-5.1069586E-3,-1.8292713E-1,2.2730012E-1,2.4121408E-1,-1.8307033E-1,2.2299361E-1,1.1504682E-2,1.6930056E-1,1.0434018E-1,-5.250913E-2,-6.1242808E-2,-5.7534548E-3,-9.021062E-2,-1.50559E-1,1.8690477E-1,1.4546362E-1,1.1316179E-1,2.3724909E-1,8.50747E-2,1.3203692E-1,2.1977414E-1,1.8311429E-1,1.9230036E-1,1.4802548E-1,2.333476E-1,1.8379822E-1,8.6312875E-2,-7.180284E-2,2.2838318E-1,1.12621516E-1,2.1334283E-1,2.2966175E-1,2.3561287E-1,2.3910761E-1,2.3285232E-1,2.176978E-1,2.3670608E-1,2.4344814E-1],"split_indices":[6,2,3,0,3,2,2,0,1,1,1,0,1,1,1,1,1,1,0,4,0,0,0,7,1,0,1,1,1,0,1,0,0,0,2,1,0,0,0,5,1,6,0,0,0,1,0,1,1,1,0,1,1,1,1,1,1,1,1,0,0,0,0,0,0,0,0,0,0,0,0,0,0,0,0,0,0,0,0,0,0,0,0,0,0,0,0,0,0,0,0,0,0,0,0,0,0,0,0,0,0,0,0,0,0,0,0,0,0,0,0,0,0,0,0,0,0,0,0,0,0,0,0,0,0],"split_type":[0,0,0,0,0,0,0,0,0,0,0,0,0,0,0,0,0,0,0,0,0,0,0,0,0,0,0,0,0,0,0,0,0,0,0,0,0,0,0,0,0,0,0,0,0,0,0,0,0,0,0,0,0,0,0,0,0,0,0,0,0,0,0,0,0,0,0,0,0,0,0,0,0,0,0,0,0,0,0,0,0,0,0,0,0,0,0,0,0,0,0,0,0,0,0,0,0,0,0,0,0,0,0,0,0,0,0,0,0,0,0,0,0,0,0,0,0,0,0,0,0,0,0,0,0],"sum_hessian":[4.14431E7,7.2871195E6,3.415598E7,6.966562E6,3.2055747E5,2.1459968E6,3.2009984E7,3.3035192E6,3.6630428E6,2.7959575E5,4.0961723E4,6.545553E5,1.4914415E6,9.9804606E5,3.1011938E7,2.451303E6,8.522163E5,9.632136E5,2.699829E6,2.684123E5,1.118344E4,2.7186917E3,3.824303E4,3.0852734E5,3.4602797E5,4.5110584E5,1.0403357E6,7.7735125E5,2.206948E5,1.3256045E7,1.7755892E7,1.1731772E4,2.4395712E6,3.2752153E5,5.246948E5,9.011738E5,6.20398E4,3.6375275E5,2.3360762E6,2.5051789E5,1.7894408E4,2.8078713E3,8.375569E3,8.058201E2,1.9128716E3,3.7967254E4,2.7577646E2,1.4847769E5,1.6004966E5,3.245929E5,2.1435049E4,3.6849916E5,8.260668E4,9.0547094E5,1.3486473E5,6.2336194E5,1.5398928E5,1.1675122E5,1.0394358E5,1.1045844E6,1.2151461E7,1.7170632E7,5.852603E5,3.3308904E3,8.400882E3,2.234279E6,2.0529238E5,1.947425E5,1.3277903E5,4.6130072E5,6.3394074E4,8.852208E5,1.5953025E4,3.603086E4,2.600894E4,2.728231E5,9.0929664E4,2.4959405E5,9.238424E2,1.5018257E4,2.8761519E3,2.7436038E3,6.426754E1,1.6893376E3,6.686232E3,2.2345683E2,5.823633E2,6.5646313E2,1.2564084E3,8.356677E3,2.9610578E4,7.5911514E1,1.9986496E2,6.8001055E4,8.047663E4,2.405154E4,1.3599811E5,7.44368E4,2.5015611E5,6.6568726E3,1.4778176E4,2.5369214E5,1.1480702E5,1.1237078E4,7.13696E4,1.8493227E5,7.205386E5,6.3867555E4,7.099719E4,5.51641E5,7.1720945E4,1.2744826E5,2.654102E4,1.0695254E5,9.798677E3,4.156577E4,6.237781E4,9.942013E4,1.00516425E6,2.8221988E6,9.329262E6,1.7016906E7,1.5372588E5,4.2815888E5,1.5710142E5],"tree_param":{"num_deleted":"0","num_feature":"8","num_nodes":"125","size_leaf_vector":"1"}},{"base_weights":[-1.1710774E-1,5.785253E-1,-4.7644585E-1,6.614754E-1,7.472152E-2,-1.979796E-2,-5.143366E-1,6.713082E-1,2.5739792E-1,2.9529274E-1,-7.684113E-2,1.7149477E-1,-1.8438204E-1,-2.0185503E-1,-5.256085E-1,6.3580275E-1,6.956466E-1,2.3247291E-1,5.7900584E-1,-8.523421E-2,3.371587E-1,-5.184722E-2,-3.167742E-1,3.308933E-1,8.011575E-3,-2.5990915E-1,6.345066E-2,8.129975E-2,-2.1453942E-1,-5.474617E-1,-5.129868E-1,6.6812617E-1,5.325274E-1,6.8666E-1,6.988362E-1,1.2932475E-1,2.6420224E-1,6.997282E-1,5.3423834E-1,1.8183978E-1,-2.2380398E-1,2.0163974E-1,3.7527642E-1,-1.4014725E-1,5.1045697E-2,-4.384314E-1,-2.6070467E-1,1.6297054E-1,5.0776607E-1,-6.613006E-2,3.5225865E-1,-1.5432037E-1,-3.2553518E-1,5.588173E-1,-3.241474E-2,2.1973938E-1,-2.499799E-1,-3.0934307E-1,-1.670296E-1,-5.0031406E-1,-5.596367E-1,-4.6682173E-1,-5.145242E-1,2.011152E-1,1.4717163E-1,9.693587E-2,1.7009586E-1,2.1015729E-1,1.4040148E-1,2.0547211E-1,2.1029888E-1,1.703949E-2,1.252562E-1,1.5609089E-1,7.3215745E-2,2.0860268E-1,2.6932052E-1,8.417717E-2,1.7557603E-1,1.742459E-1,3.438609E-2,2.2348878E-1,-7.374307E-2,1.5784955E-1,-1.993646E-3,1.0555237E-1,1.7286202E-1,7.16709E-3,-5.0877314E-2,9.724906E-2,2.0259037E-3,-8.014782E-2,-1.642803E-1,-7.945801E-3,-1.0494805E-1,6.394556E-2,1.4366074E-3,1.9642815E-1,8.668132E-2,3.223685E-2,-4.1837722E-2,6.9220334E-2,2.396686E-1,-1.3502984E-1,-3.189426E-2,-1.0307713E-1,-3.4662277E-2,-2.2716686E-2,2.1441908E-1,2.7402486E-3,-1.1133488E-1,8.175861E-3,3.1740686E-1,-2.4873467E-2,-1.2894729E-1,-6.39473E-2,-1.3099693E-1,7.110172E-3,-6.6528074E-2,-1.3440518E-1,-1.5435062E-1,-1.5855753E-1,-1.6965254E-1,-1.3088152E-1,-1.4633568E-1,-1.5706235E-1,-1.5198947E-1],"categories":[],"categories_nodes":[],"categories_segments":[],"categories_sizes":[],"default_left":[0,0,0,0,0,0,0,0,0,0,0,0,0,0,0,0,0,0,0,0,0,0,0,0,0,0,0,0,0,0,0,0,0,0,0,0,0,0,0,0,0,0,0,0,0,0,0,0,0,0,0,0,0,0,0,0,0,0,0,0,0,0,0,0,0,0,0,0,0,0,0,0,0,0,0,0,0,0,0,0,0,0,0,0,0,0,0,0,0,0,0,0,0,0,0,0,0,0,0,0,0,0,0,0,0,0,0,0,0,0,0,0,0,0,0,0,0,0,0,0,0,0,0,0,0,0,0],"id":9,"left_children":[1,3,5,7,9,11,13,15,17,19,21,23,25,27,29,31,33,35,37,39,41,43,45,47,49,51,53,55,57,59,61,63,65,67,69,71,73,75,77,79,81,83,85,87,89,91,93,95,97,99,101,103,105,107,109,111,113,115,117,119,121,123,125,-1,-1,-1,-1,-1,-1,-1,-1,-1,-1,-1,-1,-1,-1,-1,-1,-1,-1,-1,-1,-1,-1,-1,-1,-1,-1,-1,-1,-1,-1,-1,-1,-1,-1,-1,-1,-1,-1,-1,-1,-1,-1,-1,-1,-1,-1,-1,-1,-1,-1,-1,-1,-1,-1,-1,-1,-1,-1,-1,-1,-1,-1,-1,-1],"loss_changes":[7.1547295E6,4.0742775E5,3.26561E5,3.325975E4,4.607603E4,4.552702E4,6.13835E4,7.0615E3,1.593956E3,8.942828E3,4.898991E3,1.7427242E4,1.4549355E4,2.1792637E3,4.6395E3,1.10945E4,1.3875E2,6.0399805E2,7.6924805E1,2.0591423E3,2.6122227E3,6.721949E3,5.2560693E2,1.0056984E4,8.426496E3,4.1280312E3,8.621644E3,1.193202E3,2.6156562E3,3.534875E3,7.565E2,1.014375E3,5.716797E3,3.850125E3,1.07375E2,9.0750836E2,7.282168E2,2.7330322E0,1.3490088E2,5.0968677E2,7.811527E2,7.5040747E3,1.8583203E3,1.9230933E3,4.1335215E3,4.5445117E2,1.1012849E3,1.3788032E3,5.3044023E3,3.4577856E3,3.175329E3,3.2422837E3,1.3929258E3,2.91242E3,2.140668E3,2.9607024E3,2.3036221E2,2.3740098E3,4.0384326E3,9.3753125E2,8.93875E2,2.1988281E2,7.3425E2,0E0,0E0,0E0,0E0,0E0,0E0,0E0,0E0,0E0,0E0,0E0,0E0,0E0,0E0,0E0,0E0,0E0,0E0,0E0,0E0,0E0,0E0,0E0,0E0,0E0,0E0,0E0,0E0,0E0,0E0,0E0,0E0,0E0,0E0,0E0,0E0,0E0,0E0,0E0,0E0,0E0,0E0,0E0,0E0,0E0,0E0,0E0,0E0,0E0,0E0,0E0,0E0,0E0,0E0,0E0,0E0,0E0,0E0,0E0,0E0,0E0,0E0,0E0,0E0],"parents":[2147483647,0,0,1,1,2,2,3,3,4,4,5,5,6,6,7,7,8,8,9,9,10,10,11,11,12,12,13,13,14,14,15,15,16,16,17,17,18,18,19,19,20,20,21,21,22,22,23,23,24,24,25,25,26,26,27,27,28,28,29,29,30,30,31,31,32,32,33,33,34,34,35,35,36,36,37,37,38,38,39,39,40,40,41,41,42,42,43,43,44,44,45,45,46,46,47,47,48,48,49,49,50,50,51,51,52,52,53,53,54,54,55,55,56,56,57,57,58,58,59,59,60,60,61,61,62,62],"right_children":[2,4,6,8,10,12,14,16,18,20,22,24,26,28,30,32,34,36,38,40,42,44,46,48,50,52,54,56,58,60,62,64,66,68,70,72,74,76,78,80,82,84,86,88,90,92,94,96,98,100,102,104,106,108,110,112,114,116,118,120,122,124,126,-1,-1,-1,-1,-1,-1,-1,-1,-1,-1,-1,-1,-1,-1,-1,-1,-1,-1,-1,-1,-1,-1,-1,-1,-1,-1,-1,-1,-1,-1,-1,-1,-1,-1,-1,-1,-1,-1,-1,-1,-1,-1,-1,-1,-1,-1,-1,-1,-1,-1,-1,-1,-1,-1,-1,-1,-1,-1,-1,-1,-1,-1,-1,-1],"split_conditions":[4E1,4.1E1,4E1,4.1E1,4.1E1,4E1,4E1,4.0541267E0,2.2704031E0,-6.8258667E-1,1.8338966E0,1.3704593E-1,1.0314617E0,-6.6358833E0,-2.016374E-2,-1.7283401E0,3.4245583E-1,4.0477952E-1,1.7838058E0,-9.471016E-1,3.5194778E-1,5.723205E-1,1.9961747E0,-1.0169508E0,1.0936737E-2,1.4476134E-1,1.2162503E0,6.5194076E-1,4.1E1,-5.7055664E-1,-1.2248993E-1,4E1,-2.016374E-2,3.260356E-1,9.919929E0,4.5985794E-1,-2.314148E-1,4E1,2.254733E0,-1.5134735E0,-8.1853E-1,-4.100629E-1,2.5083857E0,-6.0440063E-1,6.894235E-1,1.7291081E0,2.254733E0,-1.6019066E-1,4.1E1,-5.4907E0,4E1,-1.3244854E0,9.434247E-1,8.3441544E-1,2.0925446E0,5.3648657E-1,4E1,-2.085846E0,4.1E1,-1.0169508E0,-4.3103492E-1,1.4476134E-1,6.242188E-1,2.011152E-1,1.4717163E-1,9.693587E-2,1.7009586E-1,2.1015729E-1,1.4040148E-1,2.0547211E-1,2.1029888E-1,1.703949E-2,1.252562E-1,1.5609089E-1,7.3215745E-2,2.0860268E-1,2.6932052E-1,8.417717E-2,1.7557603E-1,1.742459E-1,3.438609E-2,2.2348878E-1,-7.374307E-2,1.5784955E-1,-1.993646E-3,1.0555237E-1,1.7286202E-1,7.16709E-3,-5.0877314E-2,9.724906E-2,2.0259037E-3,-8.014782E-2,-1.642803E-1,-7.945801E-3,-1.0494805E-1,6.394556E-2,1.4366074E-3,1.9642815E-1,8.668132E-2,3.223685E-2,-4.1837722E-2,6.9220334E-2,2.396686E-1,-1.3502984E-1,-3.189426E-2,-1.0307713E-1,-3.4662277E-2,-2.2716686E-2,2.1441908E-1,2.7402486E-3,-1.1133488E-1,8.175861E-3,3.1740686E-1,-2.4873467E-2,-1.2894729E-1,-6.39473E-2,-1.3099693E-1,7.110172E-3,-6.6528074E-2,-1.3440518E-1,-1.5435062E-1,-1.5855753E-1,-1.6965254E-1,-1.3088152E-1,-1.4633568E-1,-1.5706235E-1,-1.5198947E-1],"split_indices":[7,6,2,2,2,3,3,0,1,0,0,1,1,0,1,0,1,1,0,0,0,1,1,0,0,1,1,1,2,0,0,3,1,1,0,0,0,6,0,0,1,1,0,0,1,1,0,1,6,0,4,1,0,0,0,1,4,0,6,0,1,1,1,0,0,0,0,0,0,0,0,0,0,0,0,0,0,0,0,0,0,0,0,0,0,0,0,0,0,0,0,0,0,0,0,0,0,0,0,0,0,0,0,0,0,0,0,0,0,0,0,0,0,0,0,0,0,0,0,0,0,0,0,0,0,0,0],"split_type":[0,0,0,0,0,0,0,0,0,0,0,0,0,0,0,0,0,0,0,0,0,0,0,0,0,0,0,0,0,0,0,0,0,0,0,0,0,0,0,0,0,0,0,0,0,0,0,0,0,0,0,0,0,0,0,0,0,0,0,0,0,0,0,0,0,0,0,0,0,0,0,0,0,0,0,0,0,0,0,0,0,0,0,0,0,0,0,0,0,0,0,0,0,0,0,0,0,0,0,0,0,0,0,0,0,0,0,0,0,0,0,0,0,0,0,0,0,0,0,0,0,0,0,0,0,0,0],"sum_hessian":[2.8622642E7,9.749277E6,1.8873366E7,8.3710095E6,1.3782674E6,1.4460469E6,1.7427318E7,8.172149E6,1.9886045E5,5.613402E5,8.169271E5,6.687603E5,7.7728656E5,6.0675306E5,1.6820566E7,3.3236075E6,4.8485415E6,1.8455866E5,1.4301802E4,5.563779E4,5.0570244E5,7.398571E5,7.706997E4,3.3860972E5,3.301506E5,5.957358E5,1.8155077E5,2.6014896E4,5.807382E5,6.1581995E6,1.0662366E7,2.5313365E6,7.922709E5,1.2701669E6,3.5783745E6,4.3417805E4,1.4114084E5,3.8648943E3,1.0436907E4,1.900602E4,3.663177E4,1.1101608E5,3.9468634E5,3.9816334E5,3.416938E5,2.4312006E4,5.275796E4,1.7370056E5,1.6490917E5,2.716461E5,5.8504504E4,2.2834472E5,3.673911E5,2.9436787E4,1.5211397E5,1.8347803E4,7.6670923E3,1.9387134E5,3.8686684E5,1.263883E6,4.8943165E6,3.4365088E5,1.0318715E7,2.4995495E6,3.1787219E4,1.1195067E5,6.803202E5,1.1944296E6,7.573733E4,4.8044772E5,3.0979268E6,3.4689223E4,8.728581E3,1.0293036E4,1.3084781E5,3.7855542E3,7.934008E1,1.748725E3,8.688183E3,2.739303E3,1.6266716E4,8.129045E2,3.5818867E4,4.3397582E4,6.76185E4,3.5346338E5,4.122296E4,6.0592117E4,3.3757122E5,4.768039E4,2.940134E5,9.465453E3,1.4846552E4,1.4541989E4,3.8215973E4,1.3186697E5,4.1833586E4,9.864441E4,6.6264766E4,8.067347E4,1.9097262E5,4.5992137E4,1.2512367E4,3.1884893E4,1.9645983E5,3.3830325E5,2.908785E4,5.8063647E3,2.3630422E4,1.3549377E5,1.6620203E4,1.4922365E4,3.4254385E3,3.9754846E3,3.6916077E3,1.1043795E5,8.343339E4,8.6260195E4,3.0060666E5,2.6972194E5,9.9416106E5,7.7706656E5,4.11725E6,1.398593E5,2.0379156E5,4.816282E6,5.5024325E6],"tree_param":{"num_deleted":"0","num_feature":"8","num_nodes":"127","size_leaf_vector":"1"}},{"base_weights":[-5.302279E-1,-2.5598517E-1,-5.698252E-1,-5.249535E-1,7.387652E-2,-5.2245754E-1,-5.8391607E-1,-5.291974E-1,-2.5636846E-1,4.0187123E-1,-5.3366333E-1,-5.8611864E-1,-7.7918984E-2,-5.906775E-1,-5.8370364E-1,-5.7441103E-1,-5.1654035E-1,-8.3231404E-2,-4.3269375E-1,-8.82235E-2,4.6487406E-1,-3.1880516E-1,-5.852419E-1,-5.841892E-1,-5.93508E-1,-1.24008395E-1,5.091837E-1,-6.4758015E-1,-5.902757E-1,-5.834198E-1,-5.850573E-1,-5.8271885E-1,-5.4990387E-1,-4.8643297E-1,-5.3759414E-1,-5.751581E-1,7.738158E-2,-4.8238057E-1,-3.2431382E-1,1.5055758E-1,-5.5135417E-1,2.5564682E-1,5.6255907E-1,-5.518462E-2,-4.804912E-1,-1.758115E-1,-5.830474E-1,-5.8444333E-1,-4.943272E-1,-5.961464E-1,-5.9142697E-1,-3.2836983E-1,-5.0103176E-2,7.2351474E-1,-1.551967E-1,-2.0311561E-1,-1.7698959E-1,-5.875291E-1,-5.985426E-1,-5.8373314E-1,-5.799422E-1,-5.839416E-1,-1.7555138E-1,-1.7523345E-1,-1.7397548E-1,-1.6534428E-1,-1.1671089E-1,-1.4977695E-1,-5.432659E-2,-1.6392176E-1,-1.2171495E-1,-1.7714864E-1,-1.601707E-1,-7.899425E-3,1.5903068E-1,-9.949585E-2,-1.4972693E-1,-1.6057558E-1,-6.916017E-2,-1.3704428E-1,8.292616E-2,-1.0508968E-1,-1.765059E-1,6.0407445E-2,1.5723152E-1,1.7101924E-1,-1.8450719E-1,-4.3679584E-2,6.522881E-2,-1.5169331E-1,-3.719488E-2,-1.7415927E-1,-1.7536287E-1,-1.7518932E-1,-1.797507E-1,-1.5126468E-1,1.8667784E-1,-1.7885208E-1,-4.0399674E-2,-1.761043E-1,-1.7842375E-1,-1.4647293E-1,-6.916014E-2,1.0984532E-1,-4.6422675E-2,2.2927983E-1,-5.9998322E-2,-9.53388E-2,4.9709003E-2,-1.755579E-1,-1.770102E-1,-1.8208665E-1,-1.7881355E-1,-1.7499147E-1,-1.75372E-1,-1.7282394E-1,-1.7528465E-1,-1.7531408E-1,-1.7397115E-1],"categories":[],"categories_nodes":[],"categories_segments":[],"categories_sizes":[],"default_left":[0,0,0,0,0,0,0,0,0,0,0,0,0,0,0,0,0,0,0,0,0,0,0,0,0,0,0,0,0,0,0,0,0,0,0,0,0,0,0,0,0,0,0,0,0,0,0,0,0,0,0,0,0,0,0,0,0,0,0,0,0,0,0,0,0,0,0,0,0,0,0,0,0,0,0,0,0,0,0,0,0,0,0,0,0,0,0,0,0,0,0,0,0,0,0,0,0,0,0,0,0,0,0,0,0,0,0,0,0,0,0,0,0,0,0,0,0,0,0],"id":10,"left_children":[1,3,5,7,9,11,13,15,17,19,21,23,25,27,29,31,33,35,37,39,41,43,45,47,49,51,53,55,57,59,61,63,65,67,69,71,73,75,77,79,81,83,85,87,89,-1,91,93,95,97,99,101,103,105,107,-1,-1,109,111,113,115,117,-1,-1,-1,-1,-1,-1,-1,-1,-1,-1,-1,-1,-1,-1,-1,-1,-1,-1,-1,-1,-1,-1,-1,-1,-1,-1,-1,-1,-1,-1,-1,-1,-1,-1,-1,-1,-1,-1,-1,-1,-1,-1,-1,-1,-1,-1,-1,-1,-1,-1,-1,-1,-1,-1,-1,-1,-1],"loss_changes":[2.63959E5,2.7209825E5,1.41765E4,1.9254688E3,2.7449378E5,1.37817E5,2.35E1,9.514375E2,8.0226086E2,2.7621438E4,5.3518594E3,6.05E1,1.650734E4,1.1015625E1,6E0,7.3734375E1,8.2334375E2,1.0478156E3,6.9957275E1,1.1268716E4,1.6200406E4,3.9850342E3,3.28125E-1,7.6875E1,4.5E0,8.543041E3,6.323206E3,5.520874E0,1.0890625E1,1.45E1,6.25E-2,7.265625E-1,1.821289E1,2.0936484E3,8.883594E2,1.7501221E0,4.6945453E2,2.2312744E1,8.089838E1,5.1399287E3,2.576582E2,3.676836E3,4.7760156E3,8.761265E2,5.1960156E2,0E0,5.078125E-2,2.35E1,1.0557202E2,4.796875E0,6.875E0,2.349669E3,1.80939E4,1.2636777E3,5.6522235E2,0E0,0E0,1.8359375E0,2.2382812E0,4.25E0,1.790625E1,1.171875E-1,0E0,0E0,0E0,0E0,0E0,0E0,0E0,0E0,0E0,0E0,0E0,0E0,0E0,0E0,0E0,0E0,0E0,0E0,0E0,0E0,0E0,0E0,0E0,0E0,0E0,0E0,0E0,0E0,0E0,0E0,0E0,0E0,0E0,0E0,0E0,0E0,0E0,0E0,0E0,0E0,0E0,0E0,0E0,0E0,0E0,0E0,0E0,0E0,0E0,0E0,0E0,0E0,0E0,0E0,0E0,0E0,0E0],"parents":[2147483647,0,0,1,1,2,2,3,3,4,4,5,5,6,6,7,7,8,8,9,9,10,10,11,11,12,12,13,13,14,14,15,15,16,16,17,17,18,18,19,19,20,20,21,21,22,22,23,23,24,24,25,25,26,26,27,27,28,28,29,29,30,30,31,31,32,32,33,33,34,34,35,35,36,36,37,37,38,38,39,39,40,40,41,41,42,42,43,43,44,44,46,46,47,47,48,48,49,49,50,50,51,51,52,52,53,53,54,54,57,57,58,58,59,59,60,60,61,61],"right_children":[2,4,6,8,10,12,14,16,18,20,22,24,26,28,30,32,34,36,38,40,42,44,46,48,50,52,54,56,58,60,62,64,66,68,70,72,74,76,78,80,82,84,86,88,90,-1,92,94,96,98,100,102,104,106,108,-1,-1,110,112,114,116,118,-1,-1,-1,-1,-1,-1,-1,-1,-1,-1,-1,-1,-1,-1,-1,-1,-1,-1,-1,-1,-1,-1,-1,-1,-1,-1,-1,-1,-1,-1,-1,-1,-1,-1,-1,-1,-1,-1,-1,-1,-1,-1,-1,-1,-1,-1,-1,-1,-1,-1,-1,-1,-1,-1,-1,-1,-1],"split_conditions":[-8.929634E-1,4E1,4.1E1,4E1,4.1E1,4E1,4E1,-4.3160908E1,-5.4907E0,-3.937872E-1,4.1E1,4.1E1,1.2162503E0,4.1E1,1.1005847E0,-5.2428246E1,-1.4312317E1,-4.3160908E1,4E1,-1.7283401E0,4E1,4.1E1,-7.4480796E-1,4E1,5.601053E-1,-8.33801E-2,3.6543655E-1,-2.0323947E-1,9.067664E-1,8.429344E-1,1.1518517E0,-6.3743366E1,1.6312009E0,4E1,4E1,-5.2428246E1,4E1,-4.5182343E0,-2.8695562E-1,-1.3244854E0,-1.5134735E0,4E1,4.1E1,-2.1081439E-1,-3.370872E-1,-1.758115E-1,-6.54372E-1,4.1E1,1.7054253E0,4E1,1.0311966E0,4E1,-5.385437E-1,4.1E1,1.3800256E0,-2.0311561E-1,-1.7698959E-1,4.8374176E-1,1.2467338E0,2.7982807E-1,1.0314617E0,1.2718054E0,-1.7555138E-1,-1.7523345E-1,-1.7397548E-1,-1.6534428E-1,-1.1671089E-1,-1.4977695E-1,-5.432659E-2,-1.6392176E-1,-1.2171495E-1,-1.7714864E-1,-1.601707E-1,-7.899425E-3,1.5903068E-1,-9.949585E-2,-1.4972693E-1,-1.6057558E-1,-6.916017E-2,-1.3704428E-1,8.292616E-2,-1.0508968E-1,-1.765059E-1,6.0407445E-2,1.5723152E-1,1.7101924E-1,-1.8450719E-1,-4.3679584E-2,6.522881E-2,-1.5169331E-1,-3.719488E-2,-1.7415927E-1,-1.7536287E-1,-1.7518932E-1,-1.797507E-1,-1.5126468E-1,1.8667784E-1,-1.7885208E-1,-4.0399674E-2,-1.761043E-1,-1.7842375E-1,-1.4647293E-1,-6.916014E-2,1.0984532E-1,-4.6422675E-2,2.2927983E-1,-5.9998322E-2,-9.53388E-2,4.9709003E-2,-1.755579E-1,-1.770102E-1,-1.8208665E-1,-1.7881355E-1,-1.7499147E-1,-1.75372E-1,-1.7282394E-1,-1.7528465E-1,-1.7531408E-1,-1.7397115E-1],"split_indices":[0,7,3,3,6,7,2,0,0,1,3,6,1,6,0,0,0,0,4,0,4,2,1,6,1,1,0,1,1,1,0,0,1,5,4,0,5,0,1,1,0,3,3,1,1,0,1,2,0,4,0,2,0,6,1,0,0,0,1,0,1,1,0,0,0,0,0,0,0,0,0,0,0,0,0,0,0,0,0,0,0,0,0,0,0,0,0,0,0,0,0,0,0,0,0,0,0,0,0,0,0,0,0,0,0,0,0,0,0,0,0,0,0,0,0,0,0,0,0],"split_type":[0,0,0,0,0,0,0,0,0,0,0,0,0,0,0,0,0,0,0,0,0,0,0,0,0,0,0,0,0,0,0,0,0,0,0,0,0,0,0,0,0,0,0,0,0,0,0,0,0,0,0,0,0,0,0,0,0,0,0,0,0,0,0,0,0,0,0,0,0,0,0,0,0,0,0,0,0,0,0,0,0,0,0,0,0,0,0,0,0,0,0,0,0,0,0,0,0,0,0,0,0,0,0,0,0,0,0,0,0,0,0,0,0,0,0,0,0,0,0],"sum_hessian":[2.4307218E7,3.06685E6,2.1240368E7,1.6893545E6,1.3774956E6,4.869893E6,1.6370475E7,1.6630751E6,2.6279318E4,8.945514E5,4.8294425E5,4.2598515E6,6.1004156E5,4.9868634E5,1.5871788E7,3.6372662E5,1.2993485E6,1.3260277E4,1.3019041E4,1.0189749E5,7.926539E5,9.3492875E4,3.8945138E5,3.3779235E6,8.819279E5,5.65638E5,4.440358E4,3.485594E3,4.9520075E5,1.3121208E7,2.75058E6,2.7162412E5,9.210251E4,5.347171E5,7.6463144E5,3.2631858E3,9.997091E3,8.924259E3,4.0947815E3,6.723376E4,3.466373E4,2.5228948E5,5.403644E5,3.5543086E4,5.794979E4,2.8555897E5,1.0389242E5,3.3683912E6,9.532136E3,3.887552E5,4.9317266E5,1.5022766E5,4.1541034E5,3.3572805E4,1.0830773E4,2.2988884E3,1.1867054E3,3.717594E5,1.2344135E5,1.2036419E7,1.0847894E6,2.5545419E5,2.4951258E6,1.8127533E5,9.034879E4,9.139349E4,7.090163E2,5.1316516E5,2.1551924E4,7.167377E5,4.789371E4,2.3691218E3,8.9406396E2,8.1345117E3,1.8625795E3,8.926655E2,8.0315938E3,1.2587599E3,2.8360215E3,1.1540518E4,5.5693242E4,5.3891235E3,2.9274605E4,2.0985378E5,4.2435703E4,5.369428E5,3.4215708E3,2.6691248E4,8.851839E3,5.4130242E4,3.819544E3,3.8870715E4,6.5021707E4,3.2623152E6,1.0607616E5,9.449004E3,8.313155E1,3.8873203E5,2.3159094E1,2.1177697E5,2.813957E5,5.7030492E4,9.3197164E4,8.344874E4,3.319616E5,3.2154125E4,1.4186816E3,7.188375E3,3.6423987E3,1.9247992E5,1.7927947E5,2.8200943E4,9.524041E4,7.972771E6,4.0636478E6,5.740381E5,5.1075122E5,2.3029177E5,2.5162424E4],"tree_param":{"num_deleted":"0","num_feature":"8","num_nodes":"119","size_leaf_vector":"1"}},{"base_weights":[4.4853562E-1,-5.034387E-1,6.3683635E-1,-5.3890324E-1,1.3236612E-1,2.7194655E-1,6.6404474E-1,-5.024989E-1,-5.7300407E-1,6.892059E-2,6.2120163E-1,2.1571739E-2,3.821939E-1,4.7057766E-1,6.707491E-1,-5.767668E-1,-3.2255048E-1,-5.546172E-1,-5.796006E-1,8.374571E-2,-3.4673306E-1,-1.3576399E-1,6.7954993E-1,3.289992E-1,-1.6554373E-3,4.8849344E-1,3.4149593E-1,5.219144E-1,2.78774E-1,6.8250513E-1,6.63948E-1,-3.1960025E-2,-5.800103E-1,-2.0520319E-1,-3.9143118E-1,-5.831385E-1,-1.8136536E-1,-5.535579E-1,-1.7510459E-1,-2.1060495E-1,9.671059E-2,-5.73782E-1,-2.735098E-1,5.964432E-1,-4.3778178E-1,6.8275106E-1,2.5541386E-1,-2.535805E-2,4.1966212E-1,1.55004235E-2,-3.245027E-1,4.5897204E-1,6.269706E-1,3.1587195E-1,5.586574E-1,4.7305286E-1,5.701454E-1,-2.3237205E-1,3.5871738E-1,6.6136867E-1,6.896403E-1,6.283972E-1,6.6465926E-1,-2.0465155E-1,5.7034854E-2,-1.759096E-1,-1.4702179E-1,-8.8033766E-2,-1.2224994E-2,-1.0765666E-1,-1.8085419E-1,-1.7508645E-1,-1.6693415E-1,-1.8032818E-1,8.804841E-2,-1.7331025E-1,-1.4473517E-1,4.6461258E-2,-1.6788301E-1,-1.9524728E-1,3.071576E-2,-1.7394075E-1,-1.315583E-1,2.320721E-2,-1.1091004E-1,1.6359153E-1,2.2325288E-1,-2.6636425E-1,-8.238892E-2,1.9279617E-1,2.08281E-1,-1.8240844E-1,1.87718E-1,1.6585895E-1,-3.9084613E-2,1.5479757E-1,1.4088376E-2,-3.40926E-2,1.68619E-2,-8.012793E-2,-1.7034125E-1,1.4713271E-1,1.0178018E-1,7.8044206E-2,2.0826025E-1,6.892903E-2,1.0245553E-1,1.9347434E-1,1.558483E-1,1.8200943E-1,1.3113505E-1,1.8722022E-1,1.6123393E-1,1.3426858E-1,-1.07287385E-1,9.650395E-2,1.9627196E-1,1.8886383E-1,2.0025249E-1,2.0067441E-1,2.0779683E-1,1.8291785E-1,1.9500704E-1,2.0088536E-1,1.9806422E-1],"categories":[],"categories_nodes":[],"categories_segments":[],"categories_sizes":[],"default_left":[0,0,0,0,0,0,0,0,0,0,0,0,0,0,0,0,0,0,0,0,0,0,0,0,0,0,0,0,0,0,0,0,0,0,0,0,0,0,0,0,0,0,0,0,0,0,0,0,0,0,0,0,0,0,0,0,0,0,0,0,0,0,0,0,0,0,0,0,0,0,0,0,0,0,0,0,0,0,0,0,0,0,0,0,0,0,0,0,0,0,0,0,0,0,0,0,0,0,0,0,0,0,0,0,0,0,0,0,0,0,0,0,0,0,0,0,0,0,0,0,0,0,0,0,0],"id":11,"left_children":[1,3,5,7,9,11,13,15,17,19,21,23,25,27,29,31,33,35,37,39,41,43,45,47,49,51,53,55,57,59,61,63,65,67,69,71,73,75,-1,77,79,81,83,85,87,89,91,93,95,97,99,101,103,105,107,109,111,113,115,117,119,121,123,-1,-1,-1,-1,-1,-1,-1,-1,-1,-1,-1,-1,-1,-1,-1,-1,-1,-1,-1,-1,-1,-1,-1,-1,-1,-1,-1,-1,-1,-1,-1,-1,-1,-1,-1,-1,-1,-1,-1,-1,-1,-1,-1,-1,-1,-1,-1,-1,-1,-1,-1,-1,-1,-1,-1,-1,-1,-1,-1,-1,-1,-1],"loss_changes":[6.4904425E6,1.3482112E5,3.00107E5,7.03E3,9.797158E3,5.7900156E4,3.6487E4,3.66065E4,3.544375E2,1.7229773E3,1.6029023E3,4.5790635E3,6.300172E3,9.2771875E3,2.173E3,3.4261875E3,6.468086E3,8.219406E3,2.283125E2,1.0303052E3,1.5993396E2,5.74757E2,4.5572266E1,1.4472168E3,3.3023005E3,1.6480078E3,5.8600156E3,1.7512969E3,8.129164E3,1.5025E3,4.345E2,1.6572166E3,1.1013125E3,4.2952246E3,3.4724922E3,8.90625E0,1.092487E4,5.003047E2,0E0,1.4529012E3,1.0971101E3,1.6571045E0,2.4583331E2,5.328766E0,1.3486264E2,1.4998047E1,8.159042E1,5.569024E2,1.2877578E3,2.9761072E3,4.200581E2,1.2518438E3,1.7470742E3,2.0801797E3,3.751328E2,1.7729688E3,6.5915625E2,2.2915884E3,1.8827422E3,4.90875E2,4.6525E2,1.3604688E2,3.715E2,0E0,0E0,0E0,0E0,0E0,0E0,0E0,0E0,0E0,0E0,0E0,0E0,0E0,0E0,0E0,0E0,0E0,0E0,0E0,0E0,0E0,0E0,0E0,0E0,0E0,0E0,0E0,0E0,0E0,0E0,0E0,0E0,0E0,0E0,0E0,0E0,0E0,0E0,0E0,0E0,0E0,0E0,0E0,0E0,0E0,0E0,0E0,0E0,0E0,0E0,0E0,0E0,0E0,0E0,0E0,0E0,0E0,0E0,0E0,0E0,0E0,0E0],"parents":[2147483647,0,0,1,1,2,2,3,3,4,4,5,5,6,6,7,7,8,8,9,9,10,10,11,11,12,12,13,13,14,14,15,15,16,16,17,17,18,18,19,19,20,20,21,21,22,22,23,23,24,24,25,25,26,26,27,27,28,28,29,29,30,30,31,31,32,32,33,33,34,34,35,35,36,36,37,37,39,39,40,40,41,41,42,42,43,43,44,44,45,45,46,46,47,47,48,48,49,49,50,50,51,51,52,52,53,53,54,54,55,55,56,56,57,57,58,58,59,59,60,60,61,61,62,62],"right_children":[2,4,6,8,10,12,14,16,18,20,22,24,26,28,30,32,34,36,38,40,42,44,46,48,50,52,54,56,58,60,62,64,66,68,70,72,74,76,-1,78,80,82,84,86,88,90,92,94,96,98,100,102,104,106,108,110,112,114,116,118,120,122,124,-1,-1,-1,-1,-1,-1,-1,-1,-1,-1,-1,-1,-1,-1,-1,-1,-1,-1,-1,-1,-1,-1,-1,-1,-1,-1,-1,-1,-1,-1,-1,-1,-1,-1,-1,-1,-1,-1,-1,-1,-1,-1,-1,-1,-1,-1,-1,-1,-1,-1,-1,-1,-1,-1,-1,-1,-1,-1,-1,-1,-1,-1],"split_conditions":[4.1E1,4.1E1,4.1E1,4.0541267E0,4.1E1,4.1E1,4E1,-1.5134735E0,3.4245583E-1,2.2704031E0,-5.8636266E-1,-5.4455334E-1,-2.3703964E-1,1.0314617E0,-3.6025263E-2,-1.5720267E0,3.486664E-1,3.260356E-1,9.919929E0,-8.1853E-1,1.7838058E0,-1.5134735E0,7.683792E-1,-1.3582811E0,2.5083857E0,-3.647499E-1,1.8338966E0,4.1098925E-1,1.2162503E0,-5.0903225E-1,-1.516571E-1,-3.6464243E0,-2.085846E0,-6.413994E-1,4E1,3.2059482E-1,6.62706E1,8.326956E0,-1.7510459E-1,-1.7283401E0,-2.085846E0,1.7420654E0,2.254733E0,-9.74974E-1,-8.1853E-1,-3.937872E-1,9.958248E-1,-1.3244854E0,-6.614609E-1,-5.7055664E-1,3.3471413E0,-4.0181795E-1,-3.370872E-1,2.2447172E-1,1.9961747E0,-8.929634E-1,6.242188E-1,8.3441544E-1,2.0925446E0,-1.0169508E0,-4.3103492E-1,1.4476134E-1,6.242188E-1,-2.0465155E-1,5.7034854E-2,-1.759096E-1,-1.4702179E-1,-8.8033766E-2,-1.2224994E-2,-1.0765666E-1,-1.8085419E-1,-1.7508645E-1,-1.6693415E-1,-1.8032818E-1,8.804841E-2,-1.7331025E-1,-1.4473517E-1,4.6461258E-2,-1.6788301E-1,-1.9524728E-1,3.071576E-2,-1.7394075E-1,-1.315583E-1,2.320721E-2,-1.1091004E-1,1.6359153E-1,2.2325288E-1,-2.6636425E-1,-8.238892E-2,1.9279617E-1,2.08281E-1,-1.8240844E-1,1.87718E-1,1.6585895E-1,-3.9084613E-2,1.5479757E-1,1.4088376E-2,-3.40926E-2,1.68619E-2,-8.012793E-2,-1.7034125E-1,1.4713271E-1,1.0178018E-1,7.8044206E-2,2.0826025E-1,6.892903E-2,1.0245553E-1,1.9347434E-1,1.558483E-1,1.8200943E-1,1.3113505E-1,1.8722022E-1,1.6123393E-1,1.3426858E-1,-1.07287385E-1,9.650395E-2,1.9627196E-1,1.8886383E-1,2.0025249E-1,2.0067441E-1,2.0779683E-1,1.8291785E-1,1.9500704E-1,2.0088536E-1,1.9806422E-1],"split_indices":[6,2,3,0,3,2,2,0,1,1,1,1,1,1,1,1,1,1,0,1,0,0,0,0,0,0,0,1,1,0,0,0,0,0,2,1,0,0,0,0,0,0,0,1,1,1,0,1,0,0,0,1,1,1,1,0,1,0,0,0,1,1,1,0,0,0,0,0,0,0,0,0,0,0,0,0,0,0,0,0,0,0,0,0,0,0,0,0,0,0,0,0,0,0,0,0,0,0,0,0,0,0,0,0,0,0,0,0,0,0,0,0,0,0,0,0,0,0,0,0,0,0,0,0,0],"split_type":[0,0,0,0,0,0,0,0,0,0,0,0,0,0,0,0,0,0,0,0,0,0,0,0,0,0,0,0,0,0,0,0,0,0,0,0,0,0,0,0,0,0,0,0,0,0,0,0,0,0,0,0,0,0,0,0,0,0,0,0,0,0,0,0,0,0,0,0,0,0,0,0,0,0,0,0,0,0,0,0,0,0,0,0,0,0,0,0,0,0,0,0,0,0,0,0,0,0,0,0,0,0,0,0,0,0,0,0,0,0,0,0,0,0,0,0,0,0,0,0,0,0,0,0,0],"sum_hessian":[3.6207372E7,5.979149E6,3.0228224E7,5.663258E6,3.1589072E5,2.0975915E6,2.8130634E7,2.7391218E6,2.9241365E6,2.796025E5,3.6288223E4,6.41264E5,1.4563276E6,9.4218725E5,2.7188446E7,1.938901E6,8.002206E5,7.721016E5,2.1520348E6,2.6997416E5,9.628367E3,2.5968882E3,3.3691332E4,4.504533E4,5.962187E5,4.0319806E5,1.0531295E6,7.4325206E5,1.9893519E5,9.96443E6,1.7224016E7,1.1474945E4,1.9274261E6,2.9598153E5,5.042391E5,7.172907E5,5.4810934E4,2.9158872E5,1.8604461E6,1.1388897E4,2.5858525E5,2.3462708E3,7.282096E3,7.580672E2,1.838821E3,3.3438348E4,2.5298466E2,9.177127E3,3.58682E4,5.661356E5,3.0083068E4,3.3234994E5,7.084813E4,9.419827E5,1.11146805E5,3.6921784E5,3.7403422E5,2.6905238E4,1.7202995E5,2.5148288E6,7.4496005E6,3.378803E5,1.6886136E7,2.920884E3,8.554062E3,1.8002178E6,1.2720834E5,1.9262278E5,1.0335875E5,4.3691984E5,6.731927E4,7.0452125E5,1.2769466E4,2.9094264E4,2.571667E4,2.1767492E5,7.3913805E4,5.5634478E3,5.8254497E3,1.9475277E3,2.5663772E5,2.2431377E3,1.03132965E2,1.5668815E3,5.715215E3,5.666212E2,1.9144597E2,4.8802634E2,1.3507947E3,7.4749165E3,2.5963432E4,7.574094E1,1.7724373E2,1.4088555E3,7.768271E3,2.8501266E4,7.366934E3,1.3567983E5,4.3045578E5,2.434152E4,5.7415483E3,2.6316175E5,6.918818E4,1.0974363E4,5.9873766E4,2.1617631E5,7.258064E5,3.470135E4,7.644545E4,7.823775E4,2.909801E5,1.411893E5,2.3284492E5,4.184903E3,2.2720336E4,1.5287266E5,1.9157299E4,4.0673634E5,2.1080925E6,9.4631244E5,6.5032885E6,1.8134444E5,1.5653586E5,7.9821455E6,8.903991E6],"tree_param":{"num_deleted":"0","num_feature":"8","num_nodes":"125","size_leaf_vector":"1"}},{"base_weights":[-1.0090849E-1,5.059567E-1,-4.3114388E-1,5.8829325E-1,7.096377E-2,7.794853E-4,-4.733249E-1,5.995009E-1,2.002518E-1,2.295282E-1,-4.031371E-2,1.6616759E-1,-1.1627938E-1,-1.5437034E-1,-4.8668152E-1,5.560638E-1,6.302496E-1,1.5310149E-1,3.398629E-1,4.177065E-2,2.9319522E-1,-1.8537205E-2,-2.3721348E-1,2.9551432E-1,2.005058E-2,-1.8351963E-1,1.0057904E-1,-1.4089492E-1,-4.2612293E-1,-5.1389724E-1,-4.711904E-1,5.94487E-1,4.410997E-1,6.1968154E-1,6.340211E-1,1.0144746E-1,3.801973E-1,7.745328E-1,2.3365726E-1,2.3336782E-1,-1.6580832E-1,2.7841887E-1,5.252281E-1,-7.188078E-2,1.37435E-1,-3.3671993E-1,-1.4959781E-1,1.2696306E-1,4.057943E-1,1.926256E-1,-6.25266E-2,-1.4704385E-2,-2.386435E-1,4.237707E-1,-1.6646538E-2,1.2730908E-1,-1.6077656E-1,-2.4888366E-1,-4.591664E-1,-4.6359277E-1,-5.316296E-1,-4.191716E-1,-4.7312388E-1,1.7945778E-1,1.3600525E-1,9.953855E-2,1.5616195E-1,1.908764E-1,1.1520904E-1,1.8505487E-1,1.9101141E-1,1.1030971E-1,2.5202211E-2,1.2711196E-1,1.5675025E-2,2.5867987E-1,2.0455031E-1,4.14612E-2,1.4316419E-1,-6.519697E-2,1.0518771E-1,-5.2368887E-2,2.2760426E-1,8.175652E-2,2.1770942E-1,2.0063794E-1,1.4829925E-1,-1.5160425E-2,-7.515623E-2,1.4310238E-1,8.917614E-4,4.5393617E-3,-1.1631245E-1,4.741655E-2,-7.865429E-2,6.1262764E-2,-5.0862115E-2,1.4161749E-1,3.5035234E-2,8.364692E-2,-6.458984E-2,-4.68984E-2,4.7783736E-2,6.907825E-2,-2.5627073E-2,-7.5750545E-2,-7.499167E-3,1.416486E-1,-1.3624398E-1,-2.1581315E-2,8.690609E-2,1.4969924E-1,1.2060235E-3,-5.5423833E-2,-8.22072E-3,1.658272E-1,-9.413583E-2,-1.21744365E-1,-1.4502431E-1,-1.187425E-1,-1.4339848E-1,-1.4561707E-1,-1.615206E-1,-1.19176455E-1,-1.3597007E-1,-1.4524487E-1,-1.3907869E-1],"categories":[],"categories_nodes":[],"categories_segments":[],"categories_sizes":[],"default_left":[0,0,0,0,0,0,0,0,0,0,0,0,0,0,0,0,0,0,0,0,0,0,0,0,0,0,0,0,0,0,0,0,0,0,0,0,0,0,0,0,0,0,0,0,0,0,0,0,0,0,0,0,0,0,0,0,0,0,0,0,0,0,0,0,0,0,0,0,0,0,0,0,0,0,0,0,0,0,0,0,0,0,0,0,0,0,0,0,0,0,0,0,0,0,0,0,0,0,0,0,0,0,0,0,0,0,0,0,0,0,0,0,0,0,0,0,0,0,0,0,0,0,0,0,0,0,0],"id":12,"left_children":[1,3,5,7,9,11,13,15,17,19,21,23,25,27,29,31,33,35,37,39,41,43,45,47,49,51,53,55,57,59,61,63,65,67,69,71,73,75,77,79,81,83,85,87,89,91,93,95,97,99,101,103,105,107,109,111,113,115,117,119,121,123,125,-1,-1,-1,-1,-1,-1,-1,-1,-1,-1,-1,-1,-1,-1,-1,-1,-1,-1,-1,-1,-1,-1,-1,-1,-1,-1,-1,-1,-1,-1,-1,-1,-1,-1,-1,-1,-1,-1,-1,-1,-1,-1,-1,-1,-1,-1,-1,-1,-1,-1,-1,-1,-1,-1,-1,-1,-1,-1,-1,-1,-1,-1,-1,-1],"loss_changes":[4.7624825E6,2.99937E5,2.8038025E5,3.0624E4,2.3517658E4,2.6507943E4,5.972875E4,9.14075E3,1.3011553E3,6.570373E3,3.3582302E3,1.0724842E4,1.1690718E4,2.063538E3,5.67325E3,1.253025E4,1.59375E2,1.7333403E3,2.3035913E3,5.5356016E3,1.4071484E3,5.8674844E3,6.7993066E2,5.5949434E3,3.7972302E3,5.694996E3,7.18918E3,2.8629414E3,1.5580371E2,4.35375E3,8.6225E2,1.111625E3,6.1699844E3,4.1160938E3,1.3575E2,5.5898047E2,3.9068335E2,7.910156E1,9.323313E2,3.8250754E3,5.4083264E2,1.01764453E3,1.08668945E2,2.0038289E3,8.206101E3,6.551548E2,1.4366655E3,2.7267393E3,3.4845352E3,3.0323062E3,3.749669E3,2.609756E3,1.3659277E3,2.1459492E3,2.3585732E3,1.6979758E3,1.59796E3,2.179448E2,2.8831055E1,1.24175E3,1.129875E3,2.292539E2,8.68375E2,0E0,0E0,0E0,0E0,0E0,0E0,0E0,0E0,0E0,0E0,0E0,0E0,0E0,0E0,0E0,0E0,0E0,0E0,0E0,0E0,0E0,0E0,0E0,0E0,0E0,0E0,0E0,0E0,0E0,0E0,0E0,0E0,0E0,0E0,0E0,0E0,0E0,0E0,0E0,0E0,0E0,0E0,0E0,0E0,0E0,0E0,0E0,0E0,0E0,0E0,0E0,0E0,0E0,0E0,0E0,0E0,0E0,0E0,0E0,0E0,0E0,0E0,0E0,0E0],"parents":[2147483647,0,0,1,1,2,2,3,3,4,4,5,5,6,6,7,7,8,8,9,9,10,10,11,11,12,12,13,13,14,14,15,15,16,16,17,17,18,18,19,19,20,20,21,21,22,22,23,23,24,24,25,25,26,26,27,27,28,28,29,29,30,30,31,31,32,32,33,33,34,34,35,35,36,36,37,37,38,38,39,39,40,40,41,41,42,42,43,43,44,44,45,45,46,46,47,47,48,48,49,49,50,50,51,51,52,52,53,53,54,54,55,55,56,56,57,57,58,58,59,59,60,60,61,61,62,62],"right_children":[2,4,6,8,10,12,14,16,18,20,22,24,26,28,30,32,34,36,38,40,42,44,46,48,50,52,54,56,58,60,62,64,66,68,70,72,74,76,78,80,82,84,86,88,90,92,94,96,98,100,102,104,106,108,110,112,114,116,118,120,122,124,126,-1,-1,-1,-1,-1,-1,-1,-1,-1,-1,-1,-1,-1,-1,-1,-1,-1,-1,-1,-1,-1,-1,-1,-1,-1,-1,-1,-1,-1,-1,-1,-1,-1,-1,-1,-1,-1,-1,-1,-1,-1,-1,-1,-1,-1,-1,-1,-1,-1,-1,-1,-1,-1,-1,-1,-1,-1,-1,-1,-1,-1,-1,-1,-1],"split_conditions":[4E1,4.1E1,4E1,4.1E1,4.1E1,4E1,4E1,4.0541267E0,1.5511173E0,-9.032822E-2,1.6936529E0,1.3704593E-1,1.0314617E0,4E1,-2.016374E-2,-1.7283401E0,3.4245583E-1,1.2037125E0,9.958248E-1,-4.100629E-1,2.2704031E0,9.067664E-1,2.076531E0,-1.1114159E0,-1.1114159E0,-4.100629E-1,1.2860247E0,-5.4907E0,4E1,-5.0903225E-1,-1.06910706E-1,4E1,8.633766E-1,3.260356E-1,9.919929E0,-4.8703864E-1,1.4842676E0,1.6936529E0,2.2704031E0,-6.7380273E-1,9.067664E-1,3.3471413E0,1.9809608E0,7.948257E-1,1.0698332E0,1.3932991E0,2.254733E0,4.1E1,-5.542946E-1,4E1,-5.299759E-2,4.1E1,9.434247E-1,1.7838058E0,1.9961747E0,4E1,2.2037506E-2,-4.100629E-1,1.9310962E-1,-1.0169508E0,-4.3103492E-1,2.6456892E-1,6.242188E-1,1.7945778E-1,1.3600525E-1,9.953855E-2,1.5616195E-1,1.908764E-1,1.1520904E-1,1.8505487E-1,1.9101141E-1,1.1030971E-1,2.5202211E-2,1.2711196E-1,1.5675025E-2,2.5867987E-1,2.0455031E-1,4.14612E-2,1.4316419E-1,-6.519697E-2,1.0518771E-1,-5.2368887E-2,2.2760426E-1,8.175652E-2,2.1770942E-1,2.0063794E-1,1.4829925E-1,-1.5160425E-2,-7.515623E-2,1.4310238E-1,8.917614E-4,4.5393617E-3,-1.1631245E-1,4.741655E-2,-7.865429E-2,6.1262764E-2,-5.0862115E-2,1.4161749E-1,3.5035234E-2,8.364692E-2,-6.458984E-2,-4.68984E-2,4.7783736E-2,6.907825E-2,-2.5627073E-2,-7.5750545E-2,-7.499167E-3,1.416486E-1,-1.3624398E-1,-2.1581315E-2,8.690609E-2,1.4969924E-1,1.2060235E-3,-5.5423833E-2,-8.22072E-3,1.658272E-1,-9.413583E-2,-1.21744365E-1,-1.4502431E-1,-1.187425E-1,-1.4339848E-1,-1.4561707E-1,-1.615206E-1,-1.19176455E-1,-1.3597007E-1,-1.4524487E-1,-1.3907869E-1],"split_indices":[7,6,2,2,2,4,3,0,1,0,1,1,1,5,1,0,1,0,0,1,1,1,1,0,0,1,1,0,4,0,0,4,0,1,0,1,1,1,1,1,1,0,0,1,1,0,0,6,0,3,0,6,0,0,1,4,0,1,1,0,1,1,1,0,0,0,0,0,0,0,0,0,0,0,0,0,0,0,0,0,0,0,0,0,0,0,0,0,0,0,0,0,0,0,0,0,0,0,0,0,0,0,0,0,0,0,0,0,0,0,0,0,0,0,0,0,0,0,0,0,0,0,0,0,0,0,0],"split_type":[0,0,0,0,0,0,0,0,0,0,0,0,0,0,0,0,0,0,0,0,0,0,0,0,0,0,0,0,0,0,0,0,0,0,0,0,0,0,0,0,0,0,0,0,0,0,0,0,0,0,0,0,0,0,0,0,0,0,0,0,0,0,0,0,0,0,0,0,0,0,0,0,0,0,0,0,0,0,0,0,0,0,0,0,0,0,0,0,0,0,0,0,0,0,0,0,0,0,0,0,0,0,0,0,0,0,0,0,0,0,0,0,0,0,0,0,0,0,0,0,0,0,0,0,0,0,0],"sum_hessian":[2.376389E7,8.3744235E6,1.5389466E7,7.0415755E6,1.3328476E6,1.3691998E6,1.4020267E7,6.843906E6,1.976696E5,5.496397E5,7.83208E5,5.6745844E5,8.017413E5,5.635187E5,1.3456748E7,2.836687E6,4.007219E6,1.4776694E5,4.9902652E4,1.39183E5,4.1045666E5,7.0521456E5,7.799345E4,3.0100216E5,2.6645628E5,6.1198594E5,1.897554E5,5.36897E5,2.662164E4,4.881173E6,8.575575E6,2.126099E6,7.1058794E5,1.0539905E6,2.9532285E6,1.2038601E5,2.7380928E4,9.797587E3,4.0105062E4,7.2377664E4,6.680533E4,3.858849E5,2.4571764E4,5.2549294E5,1.7972166E5,3.6517324E4,4.147613E4,1.1904959E5,1.8195258E5,8.6235195E4,1.802211E5,1.5064408E5,4.6134184E5,5.0506383E4,1.3924902E5,3.705246E4,4.9984456E5,4.184621E3,2.243702E4,1.2721799E6,3.608993E6,3.073307E5,8.2682445E6,2.0717032E6,5.439591E4,2.9907922E5,4.1150872E5,9.847337E5,6.92568E4,3.9918906E5,2.5540395E6,7.3995586E3,1.1298645E5,2.4173502E4,3.2074258E3,5.02933E3,4.768257E3,2.8814016E4,1.1291048E4,1.4942805E4,5.7434863E4,6.6179445E4,6.25887E2,3.80865E5,5.01992E3,4.348001E3,2.0223762E4,4.694042E5,5.6088715E4,5.0978215E4,1.28743445E5,4.622164E3,3.189516E4,1.1111533E4,3.0364596E4,9.4444805E4,2.4604791E4,1.4801514E5,3.393743E4,7.119211E4,1.5043085E4,1.2665791E5,5.3563195E4,3.3746574E4,1.1689751E5,4.332393E5,2.810252E4,4.7868312E4,2.638067E3,1.1795897E5,2.1290053E4,9.228271E3,2.7824191E4,4.2369853E5,7.614604E4,3.1285706E2,3.8717642E3,7.0165312E3,1.5420489E4,2.2293844E5,1.0492414E6,4.6106562E5,3.1479275E6,1.8701236E5,1.2031831E5,3.832932E6,4.4353125E6],"tree_param":{"num_deleted":"0","num_feature":"8","num_nodes":"127","size_leaf_vector":"1"}},{"base_weights":[-5.014934E-1,-2.2683625E-1,-5.435607E-1,-4.8606363E-1,6.1217442E-2,-4.8930693E-1,-5.602974E-1,-4.911236E-1,-1.98917E-1,3.2573786E-1,-4.996133E-1,-5.62847E-1,-5.872648E-2,-5.678567E-1,-5.6004864E-1,-5.48415E-1,-4.7547138E-1,-1.0283931E-2,-3.6667168E-1,1.10230856E-1,4.4373146E-1,-2.6951295E-1,-5.618301E-1,-5.606112E-1,-5.708802E-1,-9.61606E-2,4.321492E-1,-6.2711775E-1,-5.673856E-1,-5.596984E-1,-5.6171453E-1,-5.591015E-1,-5.172014E-1,-4.5375103E-1,-5.2086246E-1,-5.5028147E-1,1.6256861E-1,-2.387103E-1,-4.1355664E-1,-3.6017606E-1,1.9355705E-1,-1.4330408E-1,4.6612874E-1,-2.9718416E-2,-4.3635017E-1,-1.6885582E-1,-5.5900466E-1,-5.609561E-1,-4.501051E-1,-5.7454956E-1,-5.679541E-1,-2.2246443E-2,-2.804031E-1,6.142803E-1,-9.927261E-2,-1.957473E-1,-5.771734E-1,-5.641872E-1,